{"learner":{"attributes":{"scikit_learn":"{\"_estimator_type\": \"classifier\"}"},"feature_names":[],"feature_types":[],"gradient_booster":{"model":{"cats":{"enc":[],"feature_segments":[],"sorted_idx":[]},"gbtree_model_param":{"num_parallel_tree":"1","num_trees":"500"},"iteration_indptr":[0,1,2,3,4,5,6,7,8,9,10,11,12,13,14,15,16,17,18,19,20,21,22,23,24,25,26,27,28,29,30,31,32,33,34,35,36,37,38,39,40,41,42,43,44,45,46,47,48,49,50,51,52,53,54,55,56,57,58,59,60,61,62,63,64,65,66,67,68,69,70,71,72,73,74,75,76,77,78,79,80,81,82,83,84,85,86,87,88,89,90,91,92,93,94,95,96,97,98,99,100,101,102,103,104,105,106,107,108,109,110,111,112,113,114,115,116,117,118,119,120,121,122,123,124,125,126,127,128,129,130,131,132,133,134,135,136,137,138,139,140,141,142,143,144,145,146,147,148,149,150,151,152,153,154,155,156,157,158,159,160,161,162,163,164,165,166,167,168,169,170,171,172,173,174,175,176,177,178,179,180,181,182,183,184,185,186,187,188,189,190,191,192,193,194,195,196,197,198,199,200,201,202,203,204,205,206,207,208,209,210,211,212,213,214,215,216,217,218,219,220,221,222,223,224,225,226,227,228,229,230,231,232,233,234,235,236,237,238,239,240,241,242,243,244,245,246,247,248,249,250,251,252,253,254,255,256,257,258,259,260,261,262,263,264,265,266,267,268,269,270,271,272,273,274,275,276,277,278,279,280,281,282,283,284,285,286,287,288,289,290,291,292,293,294,295,296,297,298,299,300,301,302,303,304,305,306,307,308,309,310,311,312,313,314,315,316,317,318,319,320,321,322,323,324,325,326,327,328,329,330,331,332,333,334,335,336,337,338,339,340,341,342,343,344,345,346,347,348,349,350,351,352,353,354,355,356,357,358,359,360,361,362,363,364,365,366,367,368,369,370,371,372,373,374,375,376,377,378,379,380,381,382,383,384,385,386,387,388,389,390,391,392,393,394,395,396,397,398,399,400,401,402,403,404,405,406,407,408,409,410,411,412,413,414,415,416,417,418,419,420,421,422,423,424,425,426,427,428,429,430,431,432,433,434,435,436,437,438,439,440,441,442,443,444,445,446,447,448,449,450,451,452,453,454,455,456,457,458,459,460,461,462,463,464,465,466,467,468,469,470,471,472,473,474,475,476,477,478,479,480,481,482,483,484,485,486,487,488,489,490,491,492,493,494,495,496,497,498,499,500],"tree_info":[0,0,0,0,0,0,0,0,0,0,0,0,0,0,0,0,0,0,0,0,0,0,0,0,0,0,0,0,0,0,0,0,0,0,0,0,0,0,0,0,0,0,0,0,0,0,0,0,0,0,0,0,0,0,0,0,0,0,0,0,0,0,0,0,0,0,0,0,0,0,0,0,0,0,0,0,0,0,0,0,0,0,0,0,0,0,0,0,0,0,0,0,0,0,0,0,0,0,0,0,0,0,0,0,0,0,0,0,0,0,0,0,0,0,0,0,0,0,0,0,0,0,0,0,0,0,0,0,0,0,0,0,0,0,0,0,0,0,0,0,0,0,0,0,0,0,0,0,0,0,0,0,0,0,0,0,0,0,0,0,0,0,0,0,0,0,0,0,0,0,0,0,0,0,0,0,0,0,0,0,0,0,0,0,0,0,0,0,0,0,0,0,0,0,0,0,0,0,0,0,0,0,0,0,0,0,0,0,0,0,0,0,0,0,0,0,0,0,0,0,0,0,0,0,0,0,0,0,0,0,0,0,0,0,0,0,0,0,0,0,0,0,0,0,0,0,0,0,0,0,0,0,0,0,0,0,0,0,0,0,0,0,0,0,0,0,0,0,0,0,0,0,0,0,0,0,0,0,0,0,0,0,0,0,0,0,0,0,0,0,0,0,0,0,0,0,0,0,0,0,0,0,0,0,0,0,0,0,0,0,0,0,0,0,0,0,0,0,0,0,0,0,0,0,0,0,0,0,0,0,0,0,0,0,0,0,0,0,0,0,0,0,0,0,0,0,0,0,0,0,0,0,0,0,0,0,0,0,0,0,0,0,0,0,0,0,0,0,0,0,0,0,0,0,0,0,0,0,0,0,0,0,0,0,0,0,0,0,0,0,0,0,0,0,0,0,0,0,0,0,0,0,0,0,0,0,0,0,0,0,0,0,0,0,0,0,0,0,0,0,0,0,0,0,0,0,0,0,0,0,0,0,0,0,0,0,0,0,0,0,0,0,0,0,0,0,0,0,0,0,0,0,0,0,0,0,0,0,0,0,0,0,0,0,0,0,0,0,0,0,0,0,0,0,0,0,0,0,0,0,0,0,0,0,0,0,0,0,0,0,0,0,0,0,0,0,0,0,0,0],"trees":[{"base_weights":[4.8000406E-2,-8.7984586E-1,4.8408934E-1,-1.5450991E0,-1.175902E-1,9.9311787E-1,-3.9362636E-1,-8.084945E-1,-9.6666664E-2,-5.5801636E-1,7.174111E-1,-3.4805468E-1,1.1469333E0,7.659896E-1,-9.856753E-1,-7.028835E-2,5.8081795E-2,-7.25816E-2,2.3667764E-2,8.650551E-2,-1.1917515E-2,4.1932546E-2,-8.444445E-2,-2.2031773E-2,6.104936E-2,-3.3677097E-2,6.1296232E-2,1.1364883E-2,-6.953656E-2],"categories":[],"categories_nodes":[],"categories_segments":[],"categories_sizes":[],"default_left":[0,0,0,0,0,0,0,0,0,0,0,0,0,0,0,0,0,0,0,0,0,0,0,0,0,0,0,0,0],"id":0,"left_children":[1,3,5,7,9,11,13,15,-1,17,19,21,23,25,27,-1,-1,-1,-1,-1,-1,-1,-1,-1,-1,-1,-1,-1,-1],"loss_changes":[1.1731676E2,4.6648705E1,8.860421E1,1.22715225E1,1.669176E1,2.631482E1,5.0942493E1,2.3821478E1,0E0,2.8131628E1,1.5729903E1,2.3118668E1,1.3860092E1,1.7567215E1,2.4441696E1,0E0,0E0,0E0,0E0,0E0,0E0,0E0,0E0,0E0,0E0,0E0,0E0,0E0,0E0],"parents":[2147483647,0,0,1,1,2,2,3,3,4,4,5,5,6,6,7,7,9,9,10,10,11,11,12,12,13,13,14,14],"right_children":[2,4,6,8,10,12,14,16,-1,18,20,22,24,26,28,-1,-1,-1,-1,-1,-1,-1,-1,-1,-1,-1,-1,-1,-1],"split_conditions":[7E0,2.21519E-1,4.5599556E0,2.1257485E-1,1.0596026E-1,6.603774E-1,2.3E1,2.1012658E-1,-9.6666664E-2,1.4246464E-1,1.1176471E-1,3.854247E0,7.2E1,2.58E1,5.7E1,-7.028835E-2,5.8081795E-2,-7.25816E-2,2.3667764E-2,8.650551E-2,-1.1917515E-2,4.1932546E-2,-8.444445E-2,-2.2031773E-2,6.104936E-2,-3.3677097E-2,6.1296232E-2,1.1364883E-2,-6.953656E-2],"split_indices":[2,32,21,29,24,31,12,29,0,22,24,21,33,34,6,0,0,0,0,0,0,0,0,0,0,0,0,0,0],"split_type":[0,0,0,0,0,0,0,0,0,0,0,0,0,0,0,0,0,0,0,0,0,0,0,0,0,0,0,0,0],"sum_hessian":[2.8798572E2,9.167857E1,1.9630714E2,4.8335716E1,4.3342857E1,1.242381E2,7.2069046E1,1.7835714E1,3.05E1,2.8671429E1,1.4671429E1,1.2585714E1,1.1165238E2,2.4202381E1,4.786667E1,1.3945238E1,3.8904762E0,1.5195238E1,1.3476191E1,6.7809525E0,7.890476E0,6.8357143E0,5.75E0,4.695238E0,1.06957146E2,5.695238E0,1.8507143E1,1.2030952E1,3.5835716E1],"tree_param":{"num_deleted":"0","num_feature":"36","num_nodes":"29","size_leaf_vector":"1"}},{"base_weights":[-1.3080831E-2,-1.0028174E0,3.3714664E-1,-1.638068E0,-5.333017E-1,-1.0731146E-1,9.911618E-1,-9.218391E-2,-1.323242E-2,9.824434E-2,-9.053686E-2,-1.4817483E0,1.3202652E-1,3.887111E-1,1.387063E0,-8.3081156E-2,2.9405965E-2,-9.095248E-2,3.6954307E-3,2.5251163E-2,-3.0403882E-2,4.838341E-2,-8.642295E-2,7.5629696E-2,-6.0999594E-3],"categories":[],"categories_nodes":[],"categories_segments":[],"categories_sizes":[],"default_left":[0,0,0,0,0,0,0,0,0,0,0,0,0,0,0,0,0,0,0,0,0,0,0,0,0],"id":1,"left_children":[1,3,5,7,9,11,13,-1,-1,15,-1,17,19,21,23,-1,-1,-1,-1,-1,-1,-1,-1,-1,-1],"loss_changes":[9.659825E1,2.0640175E1,5.9973476E1,7.8833694E0,3.541716E1,4.0874996E1,1.9174484E1,0E0,0E0,2.6719126E1,0E0,9.976082E0,2.9511532E1,4.3959915E1,9.764282E0,0E0,0E0,0E0,0E0,0E0,0E0,0E0,0E0,0E0,0E0],"parents":[2147483647,0,0,1,1,2,2,3,3,4,4,5,5,6,6,9,9,11,11,12,12,13,13,14,14],"right_children":[2,4,6,8,10,12,14,-1,-1,16,-1,18,20,22,24,-1,-1,-1,-1,-1,-1,-1,-1,-1,-1],"split_conditions":[2.5833333E0,7E0,8.1E1,2.7E1,3.23E2,2E0,1.0485437E1,-9.218391E-2,-1.323242E-2,6.2628335E-1,-9.053686E-2,5.3851314E0,2.3513514E-1,3.85E2,4.4378533E0,-8.3081156E-2,2.9405965E-2,-9.095248E-2,3.6954307E-3,2.5251163E-2,-3.0403882E-2,4.838341E-2,-8.642295E-2,7.5629696E-2,-6.0999594E-3],"split_indices":[25,2,6,10,7,15,26,0,0,31,0,21,29,7,21,0,0,0,0,0,0,0,0,0,0],"split_type":[0,0,0,0,0,0,0,0,0,0,0,0,0,0,0,0,0,0,0,0,0,0,0,0,0],"sum_hessian":[2.7650854E2,7.185887E1,2.0464966E2,2.9391113E1,4.2467754E1,1.2225212E2,8.239754E1,2.5202862E1,4.188253E0,2.8983522E1,1.3484232E1,1.7423227E1,1.04828896E2,3.3561207E1,4.8836334E1,5.745792E0,2.323773E1,1.4232314E1,3.1909144E0,7.000209E1,3.482681E1,2.6817831E1,6.7433753E0,4.5144897E1,3.6914368E0],"tree_param":{"num_deleted":"0","num_feature":"36","num_nodes":"25","size_leaf_vector":"1"}},{"base_weights":[3.8646072E-2,-7.5915444E-1,4.5134416E-1,-8.953845E-2,-2.8688967E-1,8.259819E-1,-1.7743757E-1,-6.96059E-1,4.224367E-1,-7.704211E-2,9.147733E-1,4.6525633E-1,-7.1181935E-1,-8.886998E-3,-8.855309E-2,4.876786E-2,-7.957233E-2,2.3672638E-2,5.668469E-2,-2.8914401E-2,4.6988767E-2,-7.666065E-2,1.7737858E-2],"categories":[],"categories_nodes":[],"categories_segments":[],"categories_sizes":[],"default_left":[0,0,0,0,0,0,0,0,0,0,0,0,0,0,0,0,0,0,0,0,0,0,0],"id":2,"left_children":[1,3,5,-1,7,9,11,13,15,-1,17,19,21,-1,-1,-1,-1,-1,-1,-1,-1,-1,-1],"loss_changes":[9.705773E1,4.8226303E1,4.599776E1,0E0,2.0688791E1,2.7001404E1,2.552784E1,2.4547905E1,3.0669922E1,0E0,1.0734795E1,1.7313824E1,3.6141922E1,0E0,0E0,0E0,0E0,0E0,0E0,0E0,0E0,0E0,0E0],"parents":[2147483647,0,0,1,1,2,2,4,4,5,5,6,6,7,7,8,8,10,10,11,11,12,12],"right_children":[2,4,6,-1,8,10,12,14,16,-1,18,20,22,-1,-1,-1,-1,-1,-1,-1,-1,-1,-1],"split_conditions":[7E0,1.7460316E-1,4.5599556E0,-8.953845E-2,7.6E1,7.2E1,1.5E1,3.8079348E0,3.189189E-1,-7.704211E-2,9.1E1,5.422131E0,1.3E1,-8.886998E-3,-8.855309E-2,4.876786E-2,-7.957233E-2,2.3672638E-2,5.668469E-2,-2.8914401E-2,4.6988767E-2,-7.666065E-2,1.7737858E-2],"split_indices":[2,32,21,0,33,33,1,21,30,0,13,19,11,0,0,0,0,0,0,0,0,0,0],"split_type":[0,0,0,0,0,0,0,0,0,0,0,0,0,0,0,0,0,0,0,0,0,0,0],"sum_hessian":[2.928365E2,9.94686E1,1.9336787E2,3.0292997E1,6.91756E1,1.21074974E2,7.229291E1,4.397097E1,2.5204624E1,3.7458472E0,1.17329124E2,3.2794098E1,3.9498806E1,3.0515905E1,1.3455066E1,2.0218803E1,4.985822E0,4.0103737E1,7.7225395E1,1.011661E1,2.267749E1,2.2119982E1,1.7378824E1],"tree_param":{"num_deleted":"0","num_feature":"36","num_nodes":"23","size_leaf_vector":"1"}},{"base_weights":[8.328686E-3,-3.199142E-1,7.2962534E-1,-1.14022E0,-1.087929E-1,8.635772E-1,-7.570797E-2,-2.1943705E-1,-8.588318E-2,-6.3391787E-1,1.8610731E-1,9.406679E-2,1.1699095E0,-8.007163E-2,3.8614042E-2,5.127949E-3,-6.9051296E-2,2.5223915E-2,-2.815373E-2,-7.733048E-2,2.6853679E-2,-1.4931037E-2,6.910928E-2],"categories":[],"categories_nodes":[],"categories_segments":[],"categories_sizes":[],"default_left":[0,0,0,0,0,0,0,0,0,0,0,0,0,0,0,0,0,0,0,0,0,0,0],"id":3,"left_children":[1,3,5,7,9,11,-1,13,-1,15,17,19,21,-1,-1,-1,-1,-1,-1,-1,-1,-1,-1],"loss_changes":[6.914516E1,3.447666E1,2.8706161E1,2.1144135E1,2.5044426E1,2.0249603E1,0E0,2.4555662E1,0E0,3.22545E1,2.4974821E1,1.9573378E1,1.9842537E1,0E0,0E0,0E0,0E0,0E0,0E0,0E0,0E0,0E0,0E0],"parents":[2147483647,0,0,1,1,2,2,3,3,4,4,5,5,7,7,9,9,10,10,11,11,12,12],"right_children":[2,4,6,8,10,12,-1,14,-1,16,18,20,22,-1,-1,-1,-1,-1,-1,-1,-1,-1,-1],"split_conditions":[9.1E1,4.1E1,5.3E1,1.2418033E0,2.6E1,-6.630997E-1,-7.570797E-2,3.76161E0,-8.588318E-2,9.432314E0,2.5E1,1.8E-1,4E0,-8.007163E-2,3.8614042E-2,5.127949E-3,-6.9051296E-2,2.5223915E-2,-2.815373E-2,-7.733048E-2,2.6853679E-2,-1.4931037E-2,6.910928E-2],"split_indices":[13,13,9,20,34,22,0,19,0,26,12,32,15,0,0,0,0,0,0,0,0,0,0],"split_type":[0,0,0,0,0,0,0,0,0,0,0,0,0,0,0,0,0,0,0,0,0,0,0],"sum_hessian":[2.8988794E2,1.995128E2,9.037512E1,3.984024E1,1.5967256E2,8.590629E1,4.4688325E0,1.5953774E1,2.3886463E1,5.713051E1,1.0254205E2,2.4925827E1,6.0980465E1,6.450622E0,9.503153E0,2.9136997E1,2.7993511E1,7.228434E1,3.0257715E1,4.7217865E0,2.020404E1,7.5906177E0,5.3389847E1],"tree_param":{"num_deleted":"0","num_feature":"36","num_nodes":"23","size_leaf_vector":"1"}},{"base_weights":[-9.9196145E-3,-7.592198E-1,3.6057374E-1,-1.5485549E0,-2.021992E-1,7.486401E-1,-3.235804E-1,7.431529E-3,-8.547258E-2,-6.530439E-1,4.756998E-1,9.7975713E-1,3.273748E-1,7.586051E-1,-6.2088037E-1,5.0185937E-2,-5.3563338E-2,5.5439916E-2,-2.1041384E-2,1.8059317E-2,5.7144936E-2,-5.4650214E-2,3.5373475E-2,-1.4004178E-2,5.9541762E-2,3.7206754E-2,-4.2146098E-2],"categories":[],"categories_nodes":[],"categories_segments":[],"categories_sizes":[],"default_left":[0,0,0,0,0,0,0,0,0,0,0,0,0,0,0,0,0,0,0,0,0,0,0,0,0,0,0],"id":4,"left_children":[1,3,5,7,9,11,13,-1,-1,15,17,19,21,23,25,-1,-1,-1,-1,-1,-1,-1,-1,-1,-1,-1,-1],"loss_changes":[7.7870026E1,4.0332905E1,5.007277E1,1.083802E1,1.7338488E1,1.1236908E1,2.2488373E1,0E0,0E0,2.4596159E1,1.3431242E1,7.19368E0,2.458932E1,7.2196283E0,1.7107374E1,0E0,0E0,0E0,0E0,0E0,0E0,0E0,0E0,0E0,0E0,0E0,0E0],"parents":[2147483647,0,0,1,1,2,2,3,3,4,4,5,5,6,6,9,9,10,10,11,11,12,12,13,13,14,14],"right_children":[2,4,6,8,10,12,14,-1,-1,16,18,20,22,24,26,-1,-1,-1,-1,-1,-1,-1,-1,-1,-1,-1,-1],"split_conditions":[7E0,2.9473683E-1,4.5599556E0,4.166667E-2,5E0,2.2E1,2.1E1,7.431529E-3,-8.547258E-2,2.1E1,3.4786468E0,1.6911764E-1,3.36E2,1.8E1,2.08E2,5.0185937E-2,-5.3563338E-2,5.5439916E-2,-2.1041384E-2,1.8059317E-2,5.7144936E-2,-5.4650214E-2,3.5373475E-2,-1.4004178E-2,5.9541762E-2,3.7206754E-2,-4.2146098E-2],"split_indices":[2,23,21,24,15,0,12,0,0,0,21,32,7,12,7,0,0,0,0,0,0,0,0,0,0,0,0],"split_type":[0,0,0,0,0,0,0,0,0,0,0,0,0,0,0,0,0,0,0,0,0,0,0,0,0,0,0],"sum_hessian":[2.7837103E2,9.184362E1,1.8652742E2,3.7187244E1,5.4656376E1,1.19051094E2,6.747633E1,3.1729338E0,3.401431E1,3.293605E1,2.1720325E1,7.586595E1,4.318514E1,1.4135273E1,5.334106E1,6.30805E0,2.6627998E1,1.2657081E1,9.063245E0,1.6631712E1,5.923424E1,8.665238E0,3.45199E1,4.189108E0,9.946165E0,7.070851E0,4.627021E1],"tree_param":{"num_deleted":"0","num_feature":"36","num_nodes":"27","size_leaf_vector":"1"}},{"base_weights":[-1.01169676E-1,-4.6922606E-1,6.616344E-1,-3.2042852E-1,-1.5137974E0,8.0088055E-1,-7.4518956E-2,-5.917285E-1,4.579574E-1,4.101895E-3,-8.935063E-2,-7.299426E-2,9.102429E-1,-4.515284E-2,-2.7918976E-3,3.242453E-2,-6.551596E-2,-2.1627387E-2,4.973392E-2],"categories":[],"categories_nodes":[],"categories_segments":[],"categories_sizes":[],"default_left":[0,0,0,0,0,0,0,0,0,0,0,0,0,0,0,0,0,0,0],"id":5,"left_children":[1,3,5,7,9,11,-1,13,15,-1,-1,-1,17,-1,-1,-1,-1,-1,-1],"loss_changes":[7.63072E1,2.7822933E1,2.762902E1,3.4453438E1,1.0128883E1,2.1984684E1,0E0,1.9960274E1,1.503101E1,0E0,0E0,0E0,9.620285E0,0E0,0E0,0E0,0E0,0E0,0E0],"parents":[2147483647,0,0,1,1,2,2,3,3,4,4,5,5,7,7,8,8,12,12],"right_children":[2,4,6,8,10,12,-1,14,16,-1,-1,-1,18,-1,-1,-1,-1,-1,-1],"split_conditions":[8.1E1,1.4E1,5.3E1,7E0,5.576208E-2,-1.5390416E0,-7.4518956E-2,6E0,5.9358783E0,4.101895E-3,-8.935063E-2,-7.299426E-2,2.7058825E-1,-4.515284E-2,-2.7918976E-3,3.242453E-2,-6.551596E-2,-2.1627387E-2,4.973392E-2],"split_indices":[6,2,9,15,24,22,0,2,21,0,0,0,30,0,0,0,0,0,0],"split_type":[0,0,0,0,0,0,0,0,0,0,0,0,0,0,0,0,0,0,0],"sum_hessian":[2.6975568E2,1.8230746E2,8.7448204E1,1.6080371E2,2.1503748E1,8.2767075E1,4.6811337E0,1.1951575E2,4.1287964E1,3.1921723E0,1.8311577E1,3.2070334E0,7.9560036E1,7.5045784E1,4.4469963E1,3.7894604E1,3.3933573E0,4.3928404E0,7.51672E1],"tree_param":{"num_deleted":"0","num_feature":"36","num_nodes":"19","size_leaf_vector":"1"}},{"base_weights":[5.2636217E-2,-6.931166E-1,3.7475595E-1,-1.4222703E0,-2.3645468E-1,-2.1610902E-1,7.1496516E-1,-8.035354E-2,-5.585628E-3,8.2106906E-1,-8.3286816E-1,-1.4576148E0,2.5181258E-1,8.8247114E-1,-3.1694403E-1,6.0886867E-2,-2.1048635E-2,-7.3016755E-2,1.5423457E-2,1.0620705E-2,-8.971631E-2,-2.4678228E-2,3.631469E-2,4.8108775E-2,-2.7521474E-2,2.4508571E-2,-7.70817E-2],"categories":[],"categories_nodes":[],"categories_segments":[],"categories_sizes":[],"default_left":[0,0,0,0,0,0,0,0,0,0,0,0,0,0,0,0,0,0,0,0,0,0,0,0,0,0,0],"id":6,"left_children":[1,3,5,7,9,11,13,-1,-1,15,17,19,21,23,25,-1,-1,-1,-1,-1,-1,-1,-1,-1,-1,-1,-1],"loss_changes":[6.657016E1,2.7322433E1,3.912297E1,7.373726E0,3.3902878E1,4.1967957E1,2.1632187E1,0E0,0E0,1.0167391E1,2.508074E1,1.1645744E1,1.9003225E1,1.2716339E1,1.8513449E1,0E0,0E0,0E0,0E0,0E0,0E0,0E0,0E0,0E0,0E0,0E0,0E0],"parents":[2147483647,0,0,1,1,2,2,3,3,4,4,5,5,6,6,9,9,10,10,11,11,12,12,13,13,14,14],"right_children":[2,4,6,8,10,12,14,-1,-1,16,18,20,22,24,26,-1,-1,-1,-1,-1,-1,-1,-1,-1,-1,-1,-1],"split_conditions":[2.6842105E0,7E0,4E0,2.83E1,5E0,7.826087E-1,4.767451E0,-8.035354E-2,-5.585628E-3,2.2105262E0,5.821101E0,1.52E1,5E0,2.8E1,3E0,6.0886867E-2,-2.1048635E-2,-7.3016755E-2,1.5423457E-2,1.0620705E-2,-8.971631E-2,-2.4678228E-2,3.631469E-2,4.8108775E-2,-2.7521474E-2,2.4508571E-2,-7.70817E-2],"split_indices":[25,2,15,34,14,28,21,0,0,25,19,6,17,1,35,0,0,0,0,0,0,0,0,0,0,0,0],"split_type":[0,0,0,0,0,0,0,0,0,0,0,0,0,0,0,0,0,0,0,0,0,0,0,0,0,0,0],"sum_hessian":[2.7517093E2,8.256322E1,1.9260771E2,3.0896767E1,5.1666447E1,7.040365E1,1.2220407E2,2.6813295E1,4.0834713E0,1.8434744E1,3.3231705E1,1.875113E1,5.165252E1,1.0534546E2,1.6858612E1,1.4048261E1,4.386483E0,2.1319252E1,1.1912452E1,3.158363E0,1.5592766E1,1.9993359E1,3.165916E1,1.0017175E2,5.173703E0,1.0473982E1,6.3846307E0],"tree_param":{"num_deleted":"0","num_feature":"36","num_nodes":"27","size_leaf_vector":"1"}},{"base_weights":[-1.7063966E-2,-8.538619E-1,3.2319558E-1,1.1596532E-1,-1.4194471E0,-2.6018682E-1,6.363119E-1,-7.881572E-1,7.686818E-1,-8.3005734E-2,-5.0258493E-1,-7.866866E-1,5.241996E-1,-7.845076E-2,7.074532E-1,2.720665E-2,-8.2850315E-2,7.844015E-2,-9.627746E-3,-7.55696E-2,6.2823296E-2,4.2597647E-3,-7.0856385E-2,4.4689957E-2,-3.3817902E-2,4.8486948E-2,6.2379753E-3],"categories":[],"categories_nodes":[],"categories_segments":[],"categories_sizes":[],"default_left":[0,0,0,0,0,0,0,0,0,0,0,0,0,0,0,0,0,0,0,0,0,0,0,0,0,0,0],"id":7,"left_children":[1,3,5,7,9,11,13,15,17,-1,19,21,23,-1,25,-1,-1,-1,-1,-1,-1,-1,-1,-1,-1,-1,-1],"loss_changes":[7.766335E1,4.355935E1,3.559162E1,1.8257034E1,9.97374E0,2.862957E1,2.0865726E1,1.6027681E1,1.4239499E1,0E0,2.3056166E1,2.2967321E1,1.3024183E1,0E0,1.8606297E1,0E0,0E0,0E0,0E0,0E0,0E0,0E0,0E0,0E0,0E0,0E0,0E0],"parents":[2147483647,0,0,1,1,2,2,3,3,4,4,5,5,6,6,7,7,8,8,10,10,11,11,12,12,14,14],"right_children":[2,4,6,8,10,12,14,16,18,-1,20,22,24,-1,26,-1,-1,-1,-1,-1,-1,-1,-1,-1,-1,-1,-1],"split_conditions":[1.6666667E-1,3.292683E0,6E0,2.9634147E0,4.2E1,1.3285714E1,2.5185186E-1,2.929293E-1,1.5E1,-8.3005734E-2,1.9E1,-1.016635E0,3.8356164E-1,-7.845076E-2,4.1E1,2.720665E-2,-8.2850315E-2,7.844015E-2,-9.627746E-3,-7.55696E-2,6.2823296E-2,4.2597647E-3,-7.0856385E-2,4.4689957E-2,-3.3817902E-2,4.8486948E-2,6.2379753E-3],"split_indices":[32,27,2,27,10,26,30,30,1,0,1,22,23,0,9,0,0,0,0,0,0,0,0,0,0,0,0],"split_type":[0,0,0,0,0,0,0,0,0,0,0,0,0,0,0,0,0,0,0,0,0,0,0,0,0,0,0],"sum_hessian":[2.706073E2,7.7874794E1,1.927325E2,2.8913698E1,4.8961098E1,6.726237E1,1.2547013E2,1.1971055E1,1.6942642E1,3.8052868E1,1.0908229E1,4.0321873E1,2.6940495E1,3.2191234E0,1.2225101E2,4.8273892E0,7.1436663E0,8.958045E0,7.984597E0,7.0580893E0,3.8501396E0,1.7217209E1,2.3104662E1,2.0858023E1,6.082472E0,8.3727295E1,3.8523716E1],"tree_param":{"num_deleted":"0","num_feature":"36","num_nodes":"27","size_leaf_vector":"1"}},{"base_weights":[2.6466178E-2,-7.675311E-1,3.9966246E-1,-1.3563547E0,3.9621692E-2,7.155116E-1,-1.464798E-1,-1.4596087E0,-0E0,-7.236048E-2,3.146399E-1,8.2281545E-2,9.518584E-1,8.4480137E-1,-5.848851E-1,-7.891684E-2,-3.374007E-2,4.9958803E-2,-1.5716903E-2,-3.19121E-2,5.2958645E-2,-2.3161052E-2,5.1694114E-2,-1.5557815E-2,5.90758E-2,-7.199096E-2,2.5589168E-2],"categories":[],"categories_nodes":[],"categories_segments":[],"categories_sizes":[],"default_left":[0,0,0,0,0,0,0,0,0,0,0,0,0,0,0,0,0,0,0,0,0,0,0,0,0,0,0],"id":8,"left_children":[1,3,5,7,9,11,13,15,-1,-1,17,19,21,23,25,-1,-1,-1,-1,-1,-1,-1,-1,-1,-1,-1,-1],"loss_changes":[8.251298E1,4.248467E1,3.2858917E1,7.353691E0,1.606058E1,1.7834824E1,3.0962284E1,3.1798477E0,0E0,0E0,1.4727964E1,2.4599667E1,1.0686668E1,8.961645E0,4.706431E1,0E0,0E0,0E0,0E0,0E0,0E0,0E0,0E0,0E0,0E0,0E0,0E0],"parents":[2147483647,0,0,1,1,2,2,3,3,4,4,5,5,6,6,7,7,10,10,11,11,12,12,13,13,14,14],"right_children":[2,4,6,8,10,12,14,16,-1,-1,18,20,22,24,26,-1,-1,-1,-1,-1,-1,-1,-1,-1,-1,-1,-1],"split_conditions":[7E0,2.2891566E-1,4.5599556E0,7.9E1,1.2E1,4E0,5.7E1,2.86E1,-0E0,-7.236048E-2,2.1E1,7.6655054E-1,2.5E-1,2.59E1,1.3E1,-7.891684E-2,-3.374007E-2,4.9958803E-2,-1.5716903E-2,-3.19121E-2,5.2958645E-2,-2.3161052E-2,5.1694114E-2,-1.5557815E-2,5.90758E-2,-7.199096E-2,2.5589168E-2],"split_indices":[2,32,21,33,26,15,6,34,0,0,1,31,30,34,11,0,0,0,0,0,0,0,0,0,0,0,0],"split_type":[0,0,0,0,0,0,0,0,0,0,0,0,0,0,0,0,0,0,0,0,0,0,0,0,0,0,0],"sum_hessian":[2.765509E2,8.800034E1,1.8855057E2,5.0559967E1,3.744038E1,1.1938177E2,6.916879E1,4.6974888E1,3.5850778E0,5.1222277E0,3.231815E1,3.2928795E1,8.645297E1,2.0856022E1,4.8312775E1,3.9813282E1,7.1616063E0,1.5269882E1,1.704827E1,1.9091682E1,1.3837114E1,4.4152E0,8.203777E1,4.654796E0,1.6201225E1,2.7023918E1,2.1288855E1],"tree_param":{"num_deleted":"0","num_feature":"36","num_nodes":"27","size_leaf_vector":"1"}},{"base_weights":[8.4320106E-2,-5.4904646E-1,3.8771704E-1,-7.3936395E-2,-1.5829886E-1,9.1908073E-1,9.090186E-2,1.7940232E-1,-1.1991814E0,-2.9686127E-2,1.0334479E0,4.5186836E-1,-5.187162E-1,-7.320129E-2,2.21216E-2,1.0328505E-2,-7.797298E-2,6.0670014E-2,1.25608025E-2,5.172908E-2,-2.856405E-3,-7.75818E-2,3.9559927E-2],"categories":[],"categories_nodes":[],"categories_segments":[],"categories_sizes":[],"default_left":[0,0,0,0,0,0,0,0,0,0,0,0,0,0,0,0,0,0,0,0,0,0,0],"id":9,"left_children":[1,3,5,-1,7,9,11,13,15,-1,17,19,21,-1,-1,-1,-1,-1,-1,-1,-1,-1,-1],"loss_changes":[5.3680233E1,3.246031E1,2.960424E1,0E0,2.3122807E1,1.232938E1,2.7165056E1,2.2065704E1,8.609314E0,0E0,8.437439E0,2.3150604E1,6.339315E1,0E0,0E0,0E0,0E0,0E0,0E0,0E0,0E0,0E0,0E0],"parents":[2147483647,0,0,1,1,2,2,4,4,5,5,6,6,7,7,8,8,10,10,11,11,12,12],"right_children":[2,4,6,-1,8,10,12,14,16,-1,18,20,22,-1,-1,-1,-1,-1,-1,-1,-1,-1,-1],"split_conditions":[7E0,1.7460316E-1,3.8637643E0,-7.3936395E-2,2.3157895E-1,-8.5030735E-1,9.849786E0,9E0,1.1E1,-2.9686127E-2,2.5876012E-1,2.3E1,1.2E1,-7.320129E-2,2.21216E-2,1.0328505E-2,-7.797298E-2,6.0670014E-2,1.25608025E-2,5.172908E-2,-2.856405E-3,-7.75818E-2,3.9559927E-2],"split_indices":[2,32,21,0,29,22,26,9,9,0,32,12,26,0,0,0,0,0,0,0,0,0,0],"split_type":[0,0,0,0,0,0,0,0,0,0,0,0,0,0,0,0,0,0,0,0,0,0,0],"sum_hessian":[2.773258E2,8.945071E1,1.878751E2,2.5570982E1,6.3879723E1,6.646139E1,1.2141371E2,4.8783955E1,1.5095766E1,4.3152466E0,6.2146145E1,7.652475E1,4.488896E1,6.048197E0,4.273576E1,3.1100166E0,1.1985749E1,4.9971226E1,1.2174921E1,3.528891E1,4.1235844E1,2.5037615E1,1.9851345E1],"tree_param":{"num_deleted":"0","num_feature":"36","num_nodes":"23","size_leaf_vector":"1"}},{"base_weights":[1.2996623E-2,3.5481912E-1,-5.1873785E-1,-9.708916E-1,5.131387E-1,2.3138434E-1,-8.232984E-1,-5.4066665E-3,-7.9036586E-2,2.6393896E-1,1.1440098E0,8.5249364E-1,-1.078556E0,-4.5461023E-1,-1.3888125E0,1.2109575E-2,-1.1684954E-2,4.0151417E-2,-1.1861824E-2,6.552281E-2,1.5293377E-2,6.079463E-2,-2.0549383E-2,-8.092179E-2,6.49929E-3,-5.0290138E-2,3.9047357E-2,-7.7515503E-4,-8.031711E-2],"categories":[],"categories_nodes":[],"categories_segments":[],"categories_sizes":[],"default_left":[0,0,0,0,0,0,0,0,0,0,0,0,0,0,0,0,0,0,0,0,0,0,0,0,0,0,0,0,0],"id":10,"left_children":[1,3,5,7,9,11,13,15,-1,17,19,21,23,25,27,-1,-1,-1,-1,-1,-1,-1,-1,-1,-1,-1,-1,-1,-1],"loss_changes":[4.880796E1,3.4790184E1,2.4239342E1,1.027318E1,2.2647148E1,2.6125992E1,1.482132E1,5.040629E-1,0E0,2.9074074E1,5.1815643E0,1.0518572E1,7.121003E0,3.2811954E1,8.477692E0,0E0,0E0,0E0,0E0,0E0,0E0,0E0,0E0,0E0,0E0,0E0,0E0,0E0,0E0],"parents":[2147483647,0,0,1,1,2,2,3,3,4,4,5,5,6,6,7,7,9,9,10,10,11,11,12,12,13,13,14,14],"right_children":[2,4,6,8,10,12,14,16,-1,18,20,22,24,26,28,-1,-1,-1,-1,-1,-1,-1,-1,-1,-1,-1,-1,-1,-1],"split_conditions":[4.4216537E0,2E0,7.458564E-2,7.3E1,3E1,1.7168675E-1,5.7E1,1.1E1,-7.9036586E-2,1.1073825E0,9E0,2.2E1,1.6758621E0,9E0,2.606635E-1,1.2109575E-2,-1.1684954E-2,4.0151417E-2,-1.1861824E-2,6.552281E-2,1.5293377E-2,6.079463E-2,-2.0549383E-2,-8.092179E-2,6.49929E-3,-5.0290138E-2,3.9047357E-2,-7.7515503E-4,-8.031711E-2],"split_indices":[21,15,24,33,12,32,6,9,0,20,17,0,28,2,30,0,0,0,0,0,0,0,0,0,0,0,0,0,0],"split_type":[0,0,0,0,0,0,0,0,0,0,0,0,0,0,0,0,0,0,0,0,0,0,0,0,0,0,0,0,0],"sum_hessian":[2.66609E2,1.62602E2,1.04007E2,1.6731806E1,1.4587021E2,3.000865E1,7.399835E1,6.931251E0,9.800554E0,1.0569616E2,4.0174046E1,2.0645243E1,9.363408E0,4.5993507E1,2.8004847E1,3.0856946E0,3.8455565E0,5.0727917E1,5.4968243E1,3.294806E1,7.2259865E0,1.61244E1,4.520842E0,6.294921E0,3.0684874E0,3.1989574E1,1.4003933E1,4.038697E0,2.396615E1],"tree_param":{"num_deleted":"0","num_feature":"36","num_nodes":"29","size_leaf_vector":"1"}},{"base_weights":[-4.6121202E-2,2.8432626E-1,-6.490209E-1,-6.91168E-2,3.4467265E-1,-9.017054E-1,6.783291E-1,-2.2249411E-1,4.9380198E-1,-1.4796884E0,-2.874006E-1,7.128939E-2,-1.1514829E-1,5.063792E-3,-7.8312404E-2,3.847402E-2,4.1324883E-3,-8.090901E-2,8.901848E-3,2.6371915E-2,-5.0334014E-2,-6.7897E-2,5.7357837E-2],"categories":[],"categories_nodes":[],"categories_segments":[],"categories_sizes":[],"default_left":[0,0,0,0,0,0,0,0,0,0,0,0,0,0,0,0,0,0,0,0,0,0,0],"id":11,"left_children":[1,3,5,-1,7,9,11,13,15,17,19,-1,21,-1,-1,-1,-1,-1,-1,-1,-1,-1,-1],"loss_changes":[5.3653645E1,1.7856333E1,3.2620113E1,0E0,1.4398863E1,2.8018555E1,9.64165E0,1.5817484E1,1.5035259E1,9.892441E0,2.4257874E1,0E0,1.49205E1,0E0,0E0,0E0,0E0,0E0,0E0,0E0,0E0,0E0,0E0],"parents":[2147483647,0,0,1,1,2,2,4,4,5,5,6,6,7,7,8,8,9,9,10,10,12,12],"right_children":[2,4,6,-1,8,10,12,14,16,18,20,-1,22,-1,-1,-1,-1,-1,-1,-1,-1,-1,-1],"split_conditions":[1.3285714E0,8E0,8.11E1,-6.91168E-2,-1.2165319E0,5.717647E0,7E0,-1.3867551E0,2.2297297E-1,8.196721E-1,6.2191014E0,7.128939E-2,9E0,5.063792E-3,-7.8312404E-2,3.847402E-2,4.1324883E-3,-8.090901E-2,8.901848E-3,2.6371915E-2,-5.0334014E-2,-6.7897E-2,5.7357837E-2],"split_indices":[20,9,6,0,22,19,11,22,29,31,19,0,17,0,0,0,0,0,0,0,0,0,0],"split_type":[0,0,0,0,0,0,0,0,0,0,0,0,0,0,0,0,0,0,0,0,0,0,0],"sum_hessian":[2.6720023E2,1.7283334E2,9.436688E1,5.2158856E0,1.6761745E2,7.9608086E1,1.4758795E1,3.4655098E1,1.3296236E2,4.0206944E1,3.9401146E1,7.25433E0,7.5044646E0,2.8611526E1,6.0435724E0,7.892694E1,5.403541E1,3.7184605E1,3.0223405E0,1.8533302E1,2.0867842E1,3.7832026E0,3.721262E0],"tree_param":{"num_deleted":"0","num_feature":"36","num_nodes":"23","size_leaf_vector":"1"}},{"base_weights":[5.5985473E-2,-2.592937E-1,6.661603E-1,-6.0445803E-1,1.6513833E-1,-3.095739E-1,8.558559E-1,-2.6729884E-2,-1.089726E0,-9.9818397E-1,3.646894E-1,5.061311E-1,-8.3712175E-2,-2.4752703E-2,9.359706E-1,3.4224045E-2,-3.9327826E-2,-6.835865E-2,-3.5567295E-3,-7.2358556E-2,1.3564347E-2,5.0951105E-2,5.5491067E-3,-2.0156728E-2,6.0881443E-2,2.5412753E-2,6.0109105E-2],"categories":[],"categories_nodes":[],"categories_segments":[],"categories_sizes":[],"default_left":[0,0,0,0,0,0,0,0,0,0,0,0,0,0,0,0,0,0,0,0,0,0,0,0,0,0,0],"id":12,"left_children":[1,3,5,7,9,11,13,15,17,19,21,23,-1,-1,25,-1,-1,-1,-1,-1,-1,-1,-1,-1,-1,-1,-1],"loss_changes":[5.4266808E1,2.7373186E1,1.8108944E1,2.8693691E1,1.980465E1,1.9100355E1,9.254227E0,2.6526289E1,1.5522385E1,7.632601E0,1.1813106E1,7.6363955E0,0E0,0E0,7.9523087E0,0E0,0E0,0E0,0E0,0E0,0E0,0E0,0E0,0E0,0E0,0E0,0E0],"parents":[2147483647,0,0,1,1,2,2,3,3,4,4,5,5,6,6,7,7,8,8,9,9,10,10,11,11,14,14],"right_children":[2,4,6,8,10,12,14,16,18,20,22,24,-1,-1,26,-1,-1,-1,-1,-1,-1,-1,-1,-1,-1,-1,-1],"split_conditions":[8.1E1,2.962963E-1,9.1965065E0,9.271698E0,2E0,8.351695E0,1.843318E-1,1.5E1,3.2E1,2.4107143E-1,1.2013216E1,-4.2560452E-1,-8.3712175E-2,-2.4752703E-2,8E0,3.4224045E-2,-3.9327826E-2,-6.835865E-2,-3.5567295E-3,-7.2358556E-2,1.3564347E-2,5.0951105E-2,5.5491067E-3,-2.0156728E-2,6.0881443E-2,2.5412753E-2,6.0109105E-2],"split_indices":[6,23,26,26,15,26,29,1,12,29,26,22,0,0,17,0,0,0,0,0,0,0,0,0,0,0,0],"split_type":[0,0,0,0,0,0,0,0,0,0,0,0,0,0,0,0,0,0,0,0,0,0,0,0,0,0,0],"sum_hessian":[2.7997864E2,1.8486797E2,9.511068E1,1.0185062E2,8.301735E1,1.5292385E1,7.98183E1,4.7071518E1,5.4779102E1,1.1495982E1,7.152137E1,9.919209E0,5.3731766E0,4.1087193E0,7.570957E1,2.4296827E1,2.2774693E1,4.2706245E1,1.2072856E1,8.447174E0,3.048808E0,1.9030193E1,5.2491173E1,4.482985E0,5.436224E0,3.0304659E1,4.5404915E1],"tree_param":{"num_deleted":"0","num_feature":"36","num_nodes":"27","size_leaf_vector":"1"}},{"base_weights":[2.5632452E-2,-4.1369238E-1,3.634781E-1,-1.0626608E0,-3.5811238E-2,-6.957236E-1,5.0842756E-1,2.55347E-1,-1.288879E0,2.6408374E-1,-1.1457158E0,-1.1429569E0,4.3324094E-2,5.6224054E-1,-6.6780694E-2,1.670049E-2,4.5242007E-3,-7.173795E-2,-1.6466869E-2,-2.857917E-2,3.6167063E-2,-7.5504735E-2,1.3812348E-2,-7.559695E-2,-9.206887E-4,6.3500516E-2,2.0799076E-2],"categories":[],"categories_nodes":[],"categories_segments":[],"categories_sizes":[],"default_left":[0,0,0,0,0,0,0,0,0,0,0,0,0,0,0,0,0,0,0,0,0,0,0,0,0,0,0],"id":13,"left_children":[1,3,5,7,9,11,13,15,17,19,21,23,-1,25,-1,-1,-1,-1,-1,-1,-1,-1,-1,-1,-1,-1,-1],"loss_changes":[4.023675E1,2.8730965E1,2.3879416E1,1.3314011E1,2.5540285E1,1.4152326E1,1.412508E1,1.9391328E-2,4.544937E0,2.3542637E1,9.002121E0,6.0829926E0,0E0,1.3015781E1,0E0,0E0,0E0,0E0,0E0,0E0,0E0,0E0,0E0,0E0,0E0,0E0,0E0],"parents":[2147483647,0,0,1,1,2,2,3,3,4,4,5,5,6,6,7,7,8,8,9,9,10,10,11,11,13,13],"right_children":[2,4,6,8,10,12,14,16,18,20,22,24,-1,26,-1,-1,-1,-1,-1,-1,-1,-1,-1,-1,-1,-1,-1],"split_conditions":[3.1111112E0,7E0,2E0,3.2286768E0,1.5E1,1.02E2,2.840909E-1,3.3451957E-1,2.86E1,2.62E1,1.5428572E0,1.3285714E1,4.3324094E-2,3.2916667E0,-6.6780694E-2,1.670049E-2,4.5242007E-3,-7.173795E-2,-1.6466869E-2,-2.857917E-2,3.6167063E-2,-7.5504735E-2,1.3812348E-2,-7.559695E-2,-9.206887E-4,6.3500516E-2,2.0799076E-2],"split_indices":[25,2,15,21,2,13,29,23,34,34,28,26,0,25,0,0,0,0,0,0,0,0,0,0,0,0,0],"split_type":[0,0,0,0,0,0,0,0,0,0,0,0,0,0,0,0,0,0,0,0,0,0,0,0,0,0,0],"sum_hessian":[2.691141E2,1.1676097E2,1.5235313E2,4.220384E1,7.455714E1,1.7799038E1,1.345541E2,6.0989447E0,3.6104893E1,5.922624E1,1.5330894E1,1.4095979E1,3.7030604E0,1.3146695E2,3.0871456E0,3.023678E0,3.0752668E0,3.0819849E1,5.2850437E0,2.0841188E1,3.838505E1,1.2210335E1,3.1205592E0,1.0287164E1,3.8088145E0,2.1081816E1,1.1038513E2],"tree_param":{"num_deleted":"0","num_feature":"36","num_nodes":"27","size_leaf_vector":"1"}},{"base_weights":[4.167532E-2,-2.3081776E-1,6.0911286E-1,-1.19151E-1,-7.986655E-2,-3.279908E-1,8.112959E-1,2.8360626E-1,-4.3566018E-1,-7.785194E-2,5.466927E-1,1.3305475E-1,9.6110123E-1,-3.6424197E-2,2.8214404E-2,-3.4179028E-2,2.1963807E-2,6.28004E-2,-1.8463144E-2,-8.054354E-2,4.003724E-2,-9.816631E-3,5.169952E-2],"categories":[],"categories_nodes":[],"categories_segments":[],"categories_sizes":[],"default_left":[0,0,0,0,0,0,0,0,0,0,0,0,0,0,0,0,0,0,0,0,0,0,0],"id":14,"left_children":[1,3,5,7,-1,9,11,13,15,-1,17,19,21,-1,-1,-1,-1,-1,-1,-1,-1,-1,-1],"loss_changes":[4.310798E1,2.8352207E1,1.7454887E1,2.2460712E1,0E0,1.888267E1,7.3614616E0,2.241656E1,2.170928E1,0E0,7.333314E0,1.8455585E1,5.4310036E0,0E0,0E0,0E0,0E0,0E0,0E0,0E0,0E0,0E0,0E0],"parents":[2147483647,0,0,1,1,2,2,3,3,5,5,6,6,7,7,8,8,10,10,11,11,12,12],"right_children":[2,4,6,8,-1,10,12,14,16,-1,18,20,22,-1,-1,-1,-1,-1,-1,-1,-1,-1,-1],"split_conditions":[8.11E1,3.34E2,9.1965065E0,1.5E1,-7.986655E-2,1E1,7E0,4E1,3.554217E-1,-7.785194E-2,3.84E2,3.74E2,1.843318E-1,-3.6424197E-2,2.8214404E-2,-3.4179028E-2,2.1963807E-2,6.28004E-2,-1.8463144E-2,-8.054354E-2,4.003724E-2,-9.816631E-3,5.169952E-2],"split_indices":[6,7,26,1,0,14,17,13,23,0,7,7,29,0,0,0,0,0,0,0,0,0,0],"split_type":[0,0,0,0,0,0,0,0,0,0,0,0,0,0,0,0,0,0,0,0,0,0,0],"sum_hessian":[2.7664053E2,1.871736E2,8.9466934E1,1.7410658E2,1.30670185E1,1.5679016E1,7.378791E1,7.652135E1,9.7585236E1,6.2421565E0,9.436859E0,1.3811642E1,5.9976273E1,1.6190287E1,6.033106E1,7.6298454E1,2.1286785E1,5.1706405E0,4.2662187E0,3.3913841E0,1.0420258E1,3.3716156E0,5.6604656E1],"tree_param":{"num_deleted":"0","num_feature":"36","num_nodes":"23","size_leaf_vector":"1"}},{"base_weights":[9.5719926E-2,-5.359142E-1,3.8430408E-1,-1.3420422E-1,-1.2693427E0,6.771041E-1,-1.624723E-1,1.0825175E-1,-7.425679E-2,-7.214125E-2,4.2775273E-3,3.0554333E-1,9.5636517E-1,2.693299E-1,-9.386305E-1,1.8622436E-2,-6.586215E-2,2.4629807E-2,-8.380497E-2,5.187734E-2,-1.7641999E-2,3.9645843E-2,-1.3260039E-2,9.06109E-3,-7.723907E-2],"categories":[],"categories_nodes":[],"categories_segments":[],"categories_sizes":[],"default_left":[0,0,0,0,0,0,0,0,0,0,0,0,0,0,0,0,0,0,0,0,0,0,0,0,0],"id":15,"left_children":[1,3,5,7,9,11,13,15,-1,-1,-1,17,19,21,23,-1,-1,-1,-1,-1,-1,-1,-1,-1,-1],"loss_changes":[5.0213585E1,2.5136381E1,3.042893E1,1.8972178E1,7.395088E0,1.2389729E1,2.2647495E1,1.892765E1,0E0,0E0,0E0,2.09418E1,7.858288E0,1.2437695E1,1.6789139E1,0E0,0E0,0E0,0E0,0E0,0E0,0E0,0E0,0E0,0E0],"parents":[2147483647,0,0,1,1,2,2,3,3,4,4,5,5,6,6,7,7,11,11,12,12,13,13,14,14],"right_children":[2,4,6,8,10,12,14,16,-1,-1,-1,18,20,22,24,-1,-1,-1,-1,-1,-1,-1,-1,-1,-1],"split_conditions":[7E0,4.084871E0,4.5599556E0,8E0,2.9E1,3.52E2,2.431611E-1,4.640625E0,-7.425679E-2,-7.214125E-2,4.2775273E-3,3.34E2,1.0299003E-1,7E1,2.5E1,1.8622436E-2,-6.586215E-2,2.4629807E-2,-8.380497E-2,5.187734E-2,-1.7641999E-2,3.9645843E-2,-1.3260039E-2,9.06109E-3,-7.723907E-2],"split_indices":[2,19,21,5,1,7,23,27,0,0,0,7,24,8,12,0,0,0,0,0,0,0,0,0,0],"split_type":[0,0,0,0,0,0,0,0,0,0,0,0,0,0,0,0,0,0,0,0,0,0,0,0,0],"sum_hessian":[2.7342892E2,8.5370964E1,1.8805797E2,5.6011784E1,2.9359182E1,1.2243712E2,6.562084E1,4.8205956E1,7.8058295E0,2.6034588E1,3.3245957E0,5.358874E1,6.884838E1,4.250055E1,2.3120289E1,4.1350964E1,6.8549905E0,4.9699364E1,3.889378E0,6.509578E1,3.7526E0,2.1320374E1,2.1180178E1,8.307814E0,1.4812476E1],"tree_param":{"num_deleted":"0","num_feature":"36","num_nodes":"25","size_leaf_vector":"1"}},{"base_weights":[6.2434837E-2,-1.680418E-1,5.5496025E-1,-7.262136E-2,-7.414666E-2,-7.36169E-2,6.6135037E-1,5.3381845E-3,-6.6851996E-2,9.81734E-1,2.4301708E-1,-1.4836095E-2,1.4402731E-2,-2.3410594E-2,5.5298943E-2,-7.352941E-2,2.7519977E-2],"categories":[],"categories_nodes":[],"categories_segments":[],"categories_sizes":[],"default_left":[0,0,0,0,0,0,0,0,0,0,0,0,0,0,0,0,0],"id":16,"left_children":[1,3,5,7,-1,-1,9,11,-1,13,15,-1,-1,-1,-1,-1,-1],"loss_changes":[3.1163097E1,2.3180536E1,1.976787E1,1.7423363E1,0E0,0E0,1.0882011E1,1.4266603E1,0E0,9.055847E0,2.065218E1,0E0,0E0,0E0,0E0,0E0,0E0],"parents":[2147483647,0,0,1,1,2,2,3,3,6,6,7,7,9,9,10,10],"right_children":[2,4,6,8,-1,-1,10,12,-1,14,16,-1,-1,-1,-1,-1,-1],"split_conditions":[8.1E1,3.34E2,2.6086956E-1,6.32847E0,-7.414666E-2,-7.36169E-2,4.1E1,6E0,-6.6851996E-2,2E0,-6.222634E-1,-1.4836095E-2,1.4402731E-2,-2.3410594E-2,5.5298943E-2,-7.352941E-2,2.7519977E-2],"split_indices":[6,7,30,21,0,0,9,2,0,35,22,0,0,0,0,0,0],"split_type":[0,0,0,0,0,0,0,0,0,0,0,0,0,0,0,0,0],"sum_hessian":[2.7236462E2,1.8585146E2,8.651317E1,1.7433165E2,1.1519802E1,3.626678E0,8.28865E1,1.6507068E2,9.260979E0,4.604034E1,3.6846153E1,7.9610214E1,8.546046E1,3.3517575E0,4.2688583E1,4.979079E0,3.1867075E1],"tree_param":{"num_deleted":"0","num_feature":"36","num_nodes":"17","size_leaf_vector":"1"}},{"base_weights":[-1.8912842E-2,-3.2544953E-1,3.9781502E-1,1.7632974E-2,-6.121137E-1,-7.473826E-2,4.9662757E-1,-6.975373E-2,2.900502E-1,-8.3544004E-1,5.578375E-1,9.1908807E-1,4.2997237E-2,-2.311731E-2,3.421426E-2,-1.5300984E-2,-7.575556E-2,5.5017274E-2,-1.678856E-2,5.4603398E-2,1.2202815E-3,-3.1358946E-2,2.9616997E-2],"categories":[],"categories_nodes":[],"categories_segments":[],"categories_sizes":[],"default_left":[0,0,0,0,0,0,0,0,0,0,0,0,0,0,0,0,0,0,0,0,0,0,0],"id":17,"left_children":[1,3,5,7,9,-1,11,-1,13,15,17,19,21,-1,-1,-1,-1,-1,-1,-1,-1,-1,-1],"loss_changes":[3.360744E1,1.4992001E1,2.1477188E1,2.7186333E1,2.213935E1,0E0,2.0308846E1,0E0,1.79782E1,2.455584E1,7.139311E0,8.385284E0,1.9735363E1,0E0,0E0,0E0,0E0,0E0,0E0,0E0,0E0,0E0,0E0],"parents":[2147483647,0,0,1,1,2,2,3,3,4,4,6,6,8,8,9,9,10,10,11,11,12,12],"right_children":[2,4,6,8,10,-1,12,-1,14,16,18,20,22,-1,-1,-1,-1,-1,-1,-1,-1,-1,-1],"split_conditions":[8.3E1,2.2297297E-1,-1.5390416E0,2E0,1.327686E1,-7.473826E-2,3.328767E0,-6.975373E-2,7.5E1,2.328767E-1,1.7E1,1.8E1,3.74E2,-2.311731E-2,3.421426E-2,-1.5300984E-2,-7.575556E-2,5.5017274E-2,-1.678856E-2,5.4603398E-2,1.2202815E-3,-3.1358946E-2,2.9616997E-2],"split_indices":[13,29,22,15,26,0,19,0,33,23,1,1,7,0,0,0,0,0,0,0,0,0,0],"split_type":[0,0,0,0,0,0,0,0,0,0,0,0,0,0,0,0,0,0,0,0,0,0,0],"sum_hessian":[2.6113074E2,1.507218E2,1.1040894E2,6.887782E1,8.184399E1,4.7272625E0,1.0568168E2,1.0409227E1,5.8468594E1,6.90372E1,1.2806784E1,5.4075394E1,5.160629E1,1.9956068E1,3.8512524E1,3.970608E1,2.9331121E1,7.8945646E0,4.9122195E0,4.5035698E1,9.039695E0,2.310067E1,2.850562E1],"tree_param":{"num_deleted":"0","num_feature":"36","num_nodes":"23","size_leaf_vector":"1"}},{"base_weights":[2.4530757E-2,-3.8203403E-1,3.250931E-1,-9.1923726E-1,4.5569945E-4,-9.3291175E-1,4.20305E-1,-2.3180477E-1,-1.2906271E0,-6.322535E-2,2.3632613E-1,1.1774998E-2,-7.0119254E-2,6.599445E-1,9.3797214E-2,-4.8031144E-2,4.923777E-2,8.153829E-3,-7.318434E-2,2.512964E-2,-3.4180358E-2,4.0521428E-2,-1.0734407E-2,2.638923E-2,-3.204442E-2],"categories":[],"categories_nodes":[],"categories_segments":[],"categories_sizes":[],"default_left":[0,0,0,0,0,0,0,0,0,0,0,0,0,0,0,0,0,0,0,0,0,0,0,0,0],"id":18,"left_children":[1,3,5,7,9,11,13,15,17,-1,19,-1,-1,21,23,-1,-1,-1,-1,-1,-1,-1,-1,-1,-1],"loss_changes":[3.3173782E1,2.3782715E1,1.9051195E1,1.1818432E1,2.0555553E1,6.6057005E0,1.1284977E1,1.7054548E1,8.139713E0,0E0,1.4635713E1,0E0,0E0,1.1269543E1,2.0456795E1,0E0,0E0,0E0,0E0,0E0,0E0,0E0,0E0,0E0,0E0],"parents":[2147483647,0,0,1,1,2,2,3,3,4,4,5,5,6,6,7,7,8,8,10,10,13,13,14,14],"right_children":[2,4,6,8,10,12,14,16,18,-1,20,-1,-1,22,24,-1,-1,-1,-1,-1,-1,-1,-1,-1,-1],"split_conditions":[3.1111112E0,2.62E1,2E0,8.694915E0,3.1E1,2.1E1,3.1111112E-1,3.2E1,1E1,-6.322535E-2,1.1571429E0,1.1774998E-2,-7.0119254E-2,9.41E1,2.2E1,-4.8031144E-2,4.923777E-2,8.153829E-3,-7.318434E-2,2.512964E-2,-3.4180358E-2,4.0521428E-2,-1.0734407E-2,2.638923E-2,-3.204442E-2],"split_indices":[25,34,17,26,6,0,30,12,12,0,28,0,0,6,0,0,0,0,0,0,0,0,0,0,0],"split_type":[0,0,0,0,0,0,0,0,0,0,0,0,0,0,0,0,0,0,0,0,0,0,0,0,0],"sum_hessian":[2.6950577E2,1.14296005E2,1.5520975E2,4.7059513E1,6.7236496E1,1.0227571E1,1.4498218E2,1.7170603E1,2.9888908E1,9.814858E0,5.7421635E1,3.0133646E0,7.214206E0,8.2848366E1,6.2133812E1,1.092076E1,6.249843E0,3.124332E0,2.6764576E1,4.4968315E1,1.24533205E1,7.084666E1,1.2001715E1,3.932299E1,2.281082E1],"tree_param":{"num_deleted":"0","num_feature":"36","num_nodes":"25","size_leaf_vector":"1"}},{"base_weights":[-7.656607E-4,3.9084938E-1,-2.5579083E-1,-9.276785E-1,5.3041965E-1,-9.5330197E-1,-4.343952E-2,1.4873886E-3,-6.776033E-2,6.2622845E-1,-6.8927294E-1,-6.770447E-2,-1.1403399E-1,-2.1170543E-1,7.9659307E-1,-3.9154675E-2,3.552602E-2,-6.785237E-2,5.8223098E-3,4.3818936E-2,-6.394204E-2,8.901786E-3,-3.9234094E-2,-2.7630938E-2,5.617813E-2],"categories":[],"categories_nodes":[],"categories_segments":[],"categories_sizes":[],"default_left":[0,0,0,0,0,0,0,0,0,0,0,0,0,0,0,0,0,0,0,0,0,0,0,0,0],"id":19,"left_children":[1,3,5,7,9,11,13,-1,-1,15,17,-1,19,21,23,-1,-1,-1,-1,-1,-1,-1,-1,-1,-1],"loss_changes":[2.6223644E1,1.9490765E1,2.3447071E1,4.347143E0,1.1439899E1,1.2147812E1,1.7530397E1,0E0,0E0,1.1002071E1,4.1908174E0,0E0,1.6313278E1,2.3327774E1,9.799981E0,0E0,0E0,0E0,0E0,0E0,0E0,0E0,0E0,0E0,0E0],"parents":[2147483647,0,0,1,1,2,2,3,3,4,4,5,5,6,6,9,9,10,10,12,12,13,13,14,14],"right_children":[2,4,6,8,10,12,14,-1,-1,16,18,-1,20,22,24,-1,-1,-1,-1,-1,-1,-1,-1,-1,-1],"split_conditions":[3.8637643E0,2E0,5E0,7.3E1,2.8E1,5.6E1,3.116883E-1,1.4873886E-3,-6.776033E-2,9.064748E-1,1E1,-6.770447E-2,1.9E2,2.4266668E-1,1.1953125E0,-3.9154675E-2,3.552602E-2,-6.785237E-2,5.8223098E-3,4.3818936E-2,-6.394204E-2,8.901786E-3,-3.9234094E-2,-2.7630938E-2,5.617813E-2],"split_indices":[21,15,2,33,1,13,23,0,0,20,5,0,7,23,20,0,0,0,0,0,0,0,0,0,0],"split_type":[0,0,0,0,0,0,0,0,0,0,0,0,0,0,0,0,0,0,0,0,0,0,0,0,0],"sum_hessian":[2.6070752E2,1.0245443E2,1.5825308E2,9.197928E0,9.32565E1,3.6010166E1,1.2224291E2,3.0543628E0,6.1435657E0,8.6991714E1,6.264784E0,2.3875837E1,1.2134331E1,1.02565216E2,1.9677692E1,4.3745546E0,8.2617165E1,3.1193404E0,3.1454432E0,6.6455317E0,5.488799E0,6.134966E1,4.121556E1,3.6442094E0,1.6033484E1],"tree_param":{"num_deleted":"0","num_feature":"36","num_nodes":"25","size_leaf_vector":"1"}},{"base_weights":[1.0730105E-1,3.8275978E-1,-2.3659942E-1,-9.933912E-1,5.07157E-1,2.1650529E-1,-5.8021665E-1,-6.584139E-2,-3.3301746E-3,5.753449E-1,-7.6382E-2,7.999435E-1,-5.303863E-1,-9.0890175E-1,6.0258114E-1,3.362848E-2,-3.9927244E-2,-6.068185E-2,5.8098495E-2,2.2047339E-2,-7.6541476E-2,-6.55979E-2,-2.2719692E-2,-6.309769E-2,6.543549E-2],"categories":[],"categories_nodes":[],"categories_segments":[],"categories_sizes":[],"default_left":[0,0,0,0,0,0,0,0,0,0,0,0,0,0,0,0,0,0,0,0,0,0,0,0,0],"id":20,"left_children":[1,3,5,7,9,11,13,-1,-1,15,-1,17,19,21,23,-1,-1,-1,-1,-1,-1,-1,-1,-1,-1],"loss_changes":[2.3650719E1,2.4174006E1,1.74441E1,3.2983618E0,1.8515144E1,2.1575308E1,2.5274511E1,0E0,0E0,1.7144783E1,0E0,2.1590065E1,2.195486E1,8.418922E0,2.0548216E1,0E0,0E0,0E0,0E0,0E0,0E0,0E0,0E0,0E0,0E0],"parents":[2147483647,0,0,1,1,2,2,3,3,4,4,5,5,6,6,9,9,11,11,12,12,13,13,14,14],"right_children":[2,4,6,8,10,12,14,-1,-1,16,-1,18,20,22,24,-1,-1,-1,-1,-1,-1,-1,-1,-1,-1],"split_conditions":[4.2753134E0,2E0,1.5E1,3E0,1.4769231E1,2.251462E-1,8E0,-6.584139E-2,-3.3301746E-3,8E0,-7.6382E-2,9.118541E-2,3.6E1,4.138686E0,1.3216783E0,3.362848E-2,-3.9927244E-2,-6.068185E-2,5.8098495E-2,2.2047339E-2,-7.6541476E-2,-6.55979E-2,-2.2719692E-2,-6.309769E-2,6.543549E-2],"split_indices":[21,15,1,18,26,23,17,0,0,5,0,32,8,27,28,0,0,0,0,0,0,0,0,0,0],"split_type":[0,0,0,0,0,0,0,0,0,0,0,0,0,0,0,0,0,0,0,0,0,0,0,0,0],"sum_hessian":[2.475532E2,1.3755313E2,1.1000006E2,1.0757559E1,1.2679558E2,4.7475826E1,6.252424E1,7.5825863E0,3.1749725E0,1.2342586E2,3.3697212E0,2.6689804E1,2.078602E1,4.917517E1,1.334907E1,1.1581346E2,7.6123996E0,3.6667697E0,2.3023035E1,1.0779482E1,1.0006537E1,2.4946304E1,2.4228867E1,3.411701E0,9.937368E0],"tree_param":{"num_deleted":"0","num_feature":"36","num_nodes":"25","size_leaf_vector":"1"}},{"base_weights":[1.0166055E-1,-4.2398942E-1,3.3138776E-1,-6.364681E-2,-8.0949716E-2,4.113596E-1,-9.5353854E-1,-5.47584E-1,5.982769E-1,-1.8149553E-1,5.448173E-1,-7.006829E-2,5.5023115E-3,-4.4805225E-2,3.4065854E-2,5.407011E-2,-6.0966946E-2,1.8416751E-2,-5.245387E-2,4.511471E-2,1.7662738E-2],"categories":[],"categories_nodes":[],"categories_segments":[],"categories_sizes":[],"default_left":[0,0,0,0,0,0,0,0,0,0,0,0,0,0,0,0,0,0,0,0,0],"id":21,"left_children":[1,3,5,-1,7,9,11,13,15,17,19,-1,-1,-1,-1,-1,-1,-1,-1,-1,-1],"loss_changes":[3.221315E1,2.3380915E1,1.940693E1,0E0,1.8995712E1,1.4018591E1,5.5708094E0,1.5850366E1,2.27163E1,1.6126839E1,9.3903885E0,0E0,0E0,0E0,0E0,0E0,0E0,0E0,0E0,0E0,0E0],"parents":[2147483647,0,0,1,1,2,2,4,4,5,5,6,6,7,7,8,8,9,9,10,10],"right_children":[2,4,6,-1,8,10,12,14,16,18,20,-1,-1,-1,-1,-1,-1,-1,-1,-1,-1],"split_conditions":[7E0,1.7460316E-1,5.3E1,-6.364681E-2,7.6E1,-1.0463542E0,1E1,2.88E1,2.2252011E-1,4.5365157E0,2.9E1,-7.006829E-2,5.5023115E-3,-4.4805225E-2,3.4065854E-2,5.407011E-2,-6.0966946E-2,1.8416751E-2,-5.245387E-2,4.511471E-2,1.7662738E-2],"split_indices":[2,32,9,0,33,22,15,34,29,21,10,0,0,0,0,0,0,0,0,0,0],"split_type":[0,0,0,0,0,0,0,0,0,0,0,0,0,0,0,0,0,0,0,0,0],"sum_hessian":[2.6467523E2,8.010414E1,1.8457108E2,2.2189014E1,5.7915127E1,1.7447002E2,1.0101064E1,3.4532234E1,2.3382893E1,3.1854498E1,1.4261552E2,6.950823E0,3.1502414E0,2.7176945E1,7.355291E0,1.8836248E1,4.5466447E0,1.9779446E1,1.2075052E1,4.8282627E1,9.433289E1],"tree_param":{"num_deleted":"0","num_feature":"36","num_nodes":"21","size_leaf_vector":"1"}},{"base_weights":[-2.7586307E-2,-3.3999777E-1,3.778529E-1,-5.217453E-1,4.030841E-1,6.5218526E-1,-3.865158E-1,6.1922517E-2,-1.03394E0,-6.049812E-2,6.847886E-1,-2.9248172E-2,7.292473E-1,8.194742E-2,-6.957982E-2,3.2671448E-2,-2.9555416E-2,-1.7952829E-4,-7.051469E-2,5.1050395E-2,-2.4567273E-2,-1.3691667E-2,4.1314866E-2,4.351464E-2,-2.4993805E-2],"categories":[],"categories_nodes":[],"categories_segments":[],"categories_sizes":[],"default_left":[0,0,0,0,0,0,0,0,0,0,0,0,0,0,0,0,0,0,0,0,0,0,0,0,0],"id":22,"left_children":[1,3,5,7,9,11,13,15,17,-1,19,-1,21,23,-1,-1,-1,-1,-1,-1,-1,-1,-1,-1,-1],"loss_changes":[3.1316177E1,1.9095737E1,2.2821503E1,3.3891777E1,1.3462748E1,8.027958E0,1.3864092E1,2.1091856E1,2.3213913E1,0E0,1.02270355E1,0E0,7.625042E0,9.923471E0,0E0,0E0,0E0,0E0,0E0,0E0,0E0,0E0,0E0,0E0,0E0],"parents":[2147483647,0,0,1,1,2,2,3,3,4,4,5,5,6,6,7,7,8,8,10,10,12,12,13,13],"right_children":[2,4,6,8,10,12,14,16,18,-1,20,-1,22,24,-1,-1,-1,-1,-1,-1,-1,-1,-1,-1,-1],"split_conditions":[8.3E1,1.327686E1,4.2189355E0,9.271698E0,2E0,7.2E1,3.4363637E0,1.5E1,1.1E1,-6.049812E-2,6.4E1,-2.9248172E-2,2.4840765E-1,1.6985646E-1,-6.957982E-2,3.2671448E-2,-2.9555416E-2,-1.7952829E-4,-7.051469E-2,5.1050395E-2,-2.4567273E-2,-1.3691667E-2,4.1314866E-2,4.351464E-2,-2.4993805E-2],"split_indices":[13,26,21,26,17,33,27,1,10,0,13,0,23,32,0,0,0,0,0,0,0,0,0,0,0],"split_type":[0,0,0,0,0,0,0,0,0,0,0,0,0,0,0,0,0,0,0,0,0,0,0,0,0],"sum_hessian":[2.452541E2,1.3874901E2,1.0650509E2,1.118295E2,2.6919512E1,7.85802E1,2.7924889E1,5.2587574E1,5.924193E1,3.4596052E0,2.3459908E1,4.1451855E0,7.443502E1,1.9605726E1,8.319162E0,2.7673666E1,2.4913906E1,1.619095E1,4.3050976E1,1.8413105E1,5.0468016E0,6.3148317E0,6.8120186E1,8.187752E0,1.14179735E1],"tree_param":{"num_deleted":"0","num_feature":"36","num_nodes":"25","size_leaf_vector":"1"}},{"base_weights":[-8.069902E-3,-5.826184E-1,1.8069252E-1,-6.1982866E-2,-2.3888578E-1,-1.3939875E-2,7.10761E-1,2.215883E-1,-6.738102E-2,8.9493215E-2,-6.9288276E-2,-2.1359986E-1,9.5819795E-1,-1.7408794E-2,4.8534397E-2,3.1503182E-2,-3.1562631E-3,6.0658224E-2,-7.848635E-2,2.3298852E-2,5.6023356E-2],"categories":[],"categories_nodes":[],"categories_segments":[],"categories_sizes":[],"default_left":[0,0,0,0,0,0,0,0,0,0,0,0,0,0,0,0,0,0,0,0,0],"id":23,"left_children":[1,3,5,-1,7,9,11,13,-1,15,-1,17,19,-1,-1,-1,-1,-1,-1,-1,-1],"loss_changes":[2.6901476E1,1.3417656E1,1.9302872E1,0E0,2.1667372E1,1.9711248E1,1.1760809E1,1.3295047E1,0E0,1.0688499E1,0E0,2.3866955E1,2.5035057E0,0E0,0E0,0E0,0E0,0E0,0E0,0E0,0E0],"parents":[2147483647,0,0,1,1,2,2,4,4,5,5,6,6,7,7,9,9,11,11,12,12],"right_children":[2,4,6,-1,8,10,12,14,-1,16,-1,18,20,-1,-1,-1,-1,-1,-1,-1,-1],"split_conditions":[2.5833333E0,7E0,7E0,-6.1982866E-2,6.8E1,8E0,6.7193675E-1,5.196157E-1,-6.738102E-2,5.405405E-2,-6.9288276E-2,1.5460525E-1,-6.630997E-1,-1.7408794E-2,4.8534397E-2,3.1503182E-2,-3.1562631E-3,6.0658224E-2,-7.848635E-2,2.3298852E-2,5.6023356E-2],"split_indices":[25,2,15,0,8,5,31,22,0,24,0,32,22,0,0,0,0,0,0,0,0],"split_type":[0,0,0,0,0,0,0,0,0,0,0,0,0,0,0,0,0,0,0,0,0],"sum_hessian":[2.4570561E2,6.0376614E1,1.85329E2,1.9742256E1,4.0634357E1,1.3612953E2,4.919947E1,2.9212088E1,1.1422269E1,1.2738668E2,8.74285E0,1.0332503E1,3.8866966E1,1.6820303E1,1.2391786E1,2.7502052E1,9.988463E1,5.0505567E0,5.2819467E0,1.07490635E1,2.8117905E1],"tree_param":{"num_deleted":"0","num_feature":"36","num_nodes":"21","size_leaf_vector":"1"}},{"base_weights":[-3.630929E-3,-1.8148448E-1,4.368891E-1,-9.286086E-2,-1.2741592E0,7.1652234E-1,-2.6402894E-1,-6.197494E-2,-2.9921442E-2,-8.085549E-2,-1.229033E-2,7.991462E-3,9.2926276E-1,-7.0224285E-2,1.8982713E-1,1.3131449E-2,-1.6077235E-2,3.527969E-2,-8.237368E-2,5.639978E-2,-7.637217E-3,2.9239407E-2,-5.3865444E-2],"categories":[],"categories_nodes":[],"categories_segments":[],"categories_sizes":[],"default_left":[0,0,0,0,0,0,0,0,0,0,0,0,0,0,0,0,0,0,0,0,0,0,0],"id":24,"left_children":[1,3,5,7,9,11,13,-1,15,-1,-1,17,19,-1,21,-1,-1,-1,-1,-1,-1,-1,-1],"loss_changes":[1.9621609E1,1.7058458E1,1.4339616E1,1.1854973E1,4.08914E0,7.708851E0,1.1336299E1,0E0,1.3653806E1,0E0,0E0,1.6176098E1,8.81329E0,0E0,8.562563E0,0E0,0E0,0E0,0E0,0E0,0E0,0E0,0E0],"parents":[2147483647,0,0,1,1,2,2,3,3,4,4,5,5,6,6,8,8,11,11,12,12,14,14],"right_children":[2,4,6,8,10,12,14,-1,16,-1,-1,18,20,-1,22,-1,-1,-1,-1,-1,-1,-1,-1],"split_conditions":[3.56E2,3.34E2,4.3657064E0,8E0,3.6E1,4E0,4.194175E0,-6.197494E-2,1.6E1,-8.085549E-2,-1.229033E-2,9.21E1,1.20229E0,-7.0224285E-2,5.062201E0,1.3131449E-2,-1.6077235E-2,3.527969E-2,-8.237368E-2,5.639978E-2,-7.637217E-3,2.9239407E-2,-5.3865444E-2],"split_indices":[7,7,21,9,12,15,19,0,1,0,0,6,20,0,21,0,0,0,0,0,0,0,0],"split_type":[0,0,0,0,0,0,0,0,0,0,0,0,0,0,0,0,0,0,0,0,0,0,0],"sum_hessian":[2.4875555E2,1.7779033E2,7.0965225E1,1.6554034E2,1.2249983E1,5.081346E1,2.0151768E1,7.5583878E0,1.5798196E2,8.684108E0,3.565875E0,1.2082007E1,3.8731453E1,5.203102E0,1.4948666E1,7.8744064E1,7.92379E1,8.946285E0,3.1357222E0,3.2763653E1,5.967801E0,1.1867141E1,3.0815241E0],"tree_param":{"num_deleted":"0","num_feature":"36","num_nodes":"23","size_leaf_vector":"1"}},{"base_weights":[-4.5363396E-2,-2.3297226E-1,5.73025E-1,-5.776185E-1,7.25476E-2,-6.6880114E-2,7.2959405E-1,-1.3188348E0,-3.4496614E-1,4.2244112E-1,-4.2463112E-1,1.4088278E-1,9.2570573E-1,-7.362539E-2,-1.9792875E-2,4.129122E-2,-2.6374131E-2,-6.311601E-2,3.0234536E-2,-4.3392804E-2,3.4511648E-2,5.0399404E-2,-4.4013817E-2,1.0801096E-2,5.3651392E-2],"categories":[],"categories_nodes":[],"categories_segments":[],"categories_sizes":[],"default_left":[0,0,0,0,0,0,0,0,0,0,0,0,0,0,0,0,0,0,0,0,0,0,0,0,0],"id":25,"left_children":[1,3,5,7,9,-1,11,13,15,17,19,21,23,-1,-1,-1,-1,-1,-1,-1,-1,-1,-1,-1,-1],"loss_changes":[2.8512356E1,1.9965569E1,1.8017511E1,1.4718441E1,1.7711052E1,0E0,5.9438534E0,2.1795883E0,1.5184563E1,1.9050285E1,2.1375237E1,1.3902566E1,3.80587E0,0E0,0E0,0E0,0E0,0E0,0E0,0E0,0E0,0E0,0E0,0E0,0E0],"parents":[2147483647,0,0,1,1,2,2,3,3,4,4,6,6,7,7,8,8,9,9,10,10,11,11,12,12],"right_children":[2,4,6,8,10,-1,12,14,16,18,20,22,24,-1,-1,-1,-1,-1,-1,-1,-1,-1,-1,-1,-1],"split_conditions":[8.81E1,1.8947367E-1,-1.5143163E0,6.639344E-1,3.407767E0,-6.6880114E-2,-5.477321E-1,1E1,7.105263E-1,4.9E1,5.6511626E0,3.79E2,4E0,-7.362539E-2,-1.9792875E-2,4.129122E-2,-2.6374131E-2,-6.311601E-2,3.0234536E-2,-4.3392804E-2,3.4511648E-2,5.0399404E-2,-4.4013817E-2,1.0801096E-2,5.3651392E-2],"split_indices":[6,32,22,28,19,0,22,15,28,13,19,7,15,0,0,0,0,0,0,0,0,0,0,0,0],"split_type":[0,0,0,0,0,0,0,0,0,0,0,0,0,0,0,0,0,0,0,0,0,0,0,0,0],"sum_hessian":[2.4390652E2,1.8773561E2,5.6170925E1,8.795423E1,9.978137E1,3.63468E0,5.2536247E1,1.9793812E1,6.816042E1,5.8771744E1,4.100963E1,1.3684569E1,3.8851677E1,1.6365303E1,3.4285088E0,8.643339E0,5.9517082E1,5.104981E0,5.3666763E1,2.9566456E1,1.1443173E1,7.4604454E0,6.224124E0,7.2193837E0,3.1632294E1],"tree_param":{"num_deleted":"0","num_feature":"36","num_nodes":"25","size_leaf_vector":"1"}},{"base_weights":[6.5780565E-2,-1.2066086E-1,4.6720192E-1,-3.5124198E-2,-6.682884E-2,-1.9914988E-1,6.4921814E-1,4.9344093E-2,-9.753511E-1,4.654289E-1,-7.3657624E-2,-2.7072418E-2,7.3490316E-1,-6.39655E-3,3.9063755E-2,-6.3945785E-2,1.6664788E-3,-1.8127266E-2,5.2866723E-2,5.4185975E-2,2.4376461E-2],"categories":[],"categories_nodes":[],"categories_segments":[],"categories_sizes":[],"default_left":[0,0,0,0,0,0,0,0,0,0,0,0,0,0,0,0,0,0,0,0,0],"id":26,"left_children":[1,3,5,7,-1,9,11,13,15,17,-1,-1,19,-1,-1,-1,-1,-1,-1,-1,-1],"loss_changes":[1.8810295E1,1.764426E1,9.840956E0,1.2947528E1,0E0,1.5812429E1,6.839937E0,1.9474747E1,4.282032E0,6.5158205E0,0E0,0E0,4.425373E0,0E0,0E0,0E0,0E0,0E0,0E0,0E0,0E0],"parents":[2147483647,0,0,1,1,2,2,3,3,5,5,6,6,7,7,8,8,9,9,12,12],"right_children":[2,4,6,8,-1,10,12,14,16,18,-1,-1,20,-1,-1,-1,-1,-1,-1,-1,-1],"split_conditions":[8.1E1,3.34E2,9.271698E0,6.491803E0,-6.682884E-2,3.85E2,1.843318E-1,5.564885E0,1.2948979E1,1E1,-7.3657624E-2,-2.7072418E-2,7E0,-6.39655E-3,3.9063755E-2,-6.3945785E-2,1.6664788E-3,-1.8127266E-2,5.2866723E-2,5.4185975E-2,2.4376461E-2],"split_indices":[6,7,26,19,0,7,29,19,26,14,0,0,11,0,0,0,0,0,0,0,0],"split_type":[0,0,0,0,0,0,0,0,0,0,0,0,0,0,0,0,0,0,0,0,0],"sum_hessian":[2.4911859E2,1.704178E2,7.870078E1,1.6025537E2,1.0162436E1,1.6747078E1,6.195371E1,1.4781693E2,1.2438444E1,1.1371406E1,5.3756723E0,3.7236936E0,5.8230015E1,1.19550224E2,2.8266705E1,9.431304E0,3.0071406E0,4.8315063E0,6.539899E0,2.259051E1,3.5639507E1],"tree_param":{"num_deleted":"0","num_feature":"36","num_nodes":"21","size_leaf_vector":"1"}},{"base_weights":[5.8324452E-2,-4.981809E-1,1.9197117E-1,-1.1251361E0,4.8372903E-1,-6.6185586E-2,2.436677E-1,1.6093591E-2,-6.595077E-2,9.528428E-1,-2.8600052E-2,4.0209595E-2,5.237417E-1,-7.1666585E-3,7.442607E-2,1.6310208E-2,-2.8798277E-2,-1.4165774E-2,3.3311553E-2],"categories":[],"categories_nodes":[],"categories_segments":[],"categories_sizes":[],"default_left":[0,0,0,0,0,0,0,0,0,0,0,0,0,0,0,0,0,0,0],"id":27,"left_children":[1,3,5,7,9,-1,11,-1,-1,13,-1,15,17,-1,-1,-1,-1,-1,-1],"loss_changes":[1.8350882E1,3.000002E1,1.5816416E1,8.800713E0,1.0112997E1,0E0,1.0946388E1,0E0,0E0,8.42957E0,0E0,2.013693E1,9.554684E0,0E0,0E0,0E0,0E0,0E0,0E0],"parents":[2147483647,0,0,1,1,2,2,3,3,4,4,6,6,9,9,11,11,12,12],"right_children":[2,4,6,8,10,-1,12,-1,-1,14,-1,16,18,-1,-1,-1,-1,-1,-1],"split_conditions":[3.9E1,1.327686E1,7.534884E0,5.319149E-1,3.6567163E-1,-6.6185586E-2,2.9473683E-1,1.6093591E-2,-6.595077E-2,3.529412E-1,-2.8600052E-2,9.849786E0,4E0,-7.1666585E-3,7.442607E-2,1.6310208E-2,-2.8798277E-2,-1.4165774E-2,3.3311553E-2],"split_indices":[6,26,26,31,23,0,23,0,0,23,0,26,17,0,0,0,0,0,0],"split_type":[0,0,0,0,0,0,0,0,0,0,0,0,0,0,0,0,0,0,0],"sum_hessian":[2.4486E2,4.674361E1,1.981164E2,2.8501326E1,1.8242285E1,5.659075E0,1.9245732E2,3.2286336E0,2.5272692E1,1.2763154E1,5.479131E0,1.1234533E2,8.0111984E1,4.3688293E0,8.394325E0,7.716328E1,3.5182053E1,1.1768015E1,6.834397E1],"tree_param":{"num_deleted":"0","num_feature":"36","num_nodes":"19","size_leaf_vector":"1"}},{"base_weights":[1.0103656E-2,2.2829373E-1,-4.1750485E-1,-5.004649E-1,3.3443588E-1,-1.1447129E0,-4.6118695E-2,-1.1092517E0,6.6933894E-1,1.7299892E-1,8.5305244E-1,1.7345322E-2,-6.733861E-2,-6.176232E-1,4.5370477E-1,-1.894207E-2,-6.86128E-2,-8.042381E-3,6.804881E-2,-7.15013E-2,1.639468E-2,-6.1375783E-3,5.8523547E-2,-6.656247E-2,4.180492E-3,-4.6574105E-2,3.2429706E-2],"categories":[],"categories_nodes":[],"categories_segments":[],"categories_sizes":[],"default_left":[0,0,0,0,0,0,0,0,0,0,0,0,0,0,0,0,0,0,0,0,0,0,0,0,0,0,0],"id":28,"left_children":[1,3,5,7,9,11,13,15,17,19,21,-1,-1,23,25,-1,-1,-1,-1,-1,-1,-1,-1,-1,-1,-1,-1],"loss_changes":[2.2545107E1,1.2547149E1,2.1856285E1,1.54959955E1,1.152177E1,8.837452E0,1.604264E1,1.997797E0,4.724164E0,2.7331026E1,1.04625225E1,0E0,0E0,1.3364214E1,8.644615E0,0E0,0E0,0E0,0E0,0E0,0E0,0E0,0E0,0E0,0E0,0E0,0E0],"parents":[2147483647,0,0,1,1,2,2,3,3,4,4,5,5,6,6,7,7,8,8,9,9,10,10,13,13,14,14],"right_children":[2,4,6,8,10,12,14,16,18,20,22,-1,-1,24,26,-1,-1,-1,-1,-1,-1,-1,-1,-1,-1,-1,-1],"split_conditions":[1.3149351E0,2E0,2.62E1,1.2705882E0,7.7E1,1.34375E0,3.409091E-1,7.3E1,-2.2508718E-1,2.5454545E-1,7.36342E-2,1.7345322E-2,-6.733861E-2,5.544643E0,3.8E1,-1.894207E-2,-6.86128E-2,-8.042381E-3,6.804881E-2,-7.15013E-2,1.639468E-2,-6.1375783E-3,5.8523547E-2,-6.656247E-2,4.180492E-3,-4.6574105E-2,3.2429706E-2],"split_indices":[20,15,34,28,33,25,30,33,22,30,24,0,0,19,13,0,0,0,0,0,0,0,0,0,0,0,0],"split_type":[0,0,0,0,0,0,0,0,0,0,0,0,0,0,0,0,0,0,0,0,0,0,0,0,0,0,0],"sum_hessian":[2.3982239E2,1.5925928E2,8.0563126E1,1.965479E1,1.3960448E2,2.6439882E1,5.412324E1,1.3017499E1,6.637292E0,1.0762801E2,3.1976465E1,3.009766E0,2.3430117E1,2.523435E1,2.8888891E1,4.1931167E0,8.824383E0,3.2995856E0,3.337706E0,8.701125E0,9.892689E1,7.921752E0,2.4054714E1,1.2132052E1,1.3102298E1,3.033743E0,2.5855148E1],"tree_param":{"num_deleted":"0","num_feature":"36","num_nodes":"27","size_leaf_vector":"1"}},{"base_weights":[5.1384717E-2,-1.8674399E-1,3.588499E-1,-1.0175534E0,-0E0,-6.209707E-2,4.7752973E-1,1.8843958E-2,-6.1550494E-2,-6.556723E-2,1.2197482E-1,5.565715E-1,-4.8354936E-1,2.9563336E-2,-1.2399878E-2,3.7092965E-2,4.8535285E-3,-7.938873E-2,3.8821172E-2],"categories":[],"categories_nodes":[],"categories_segments":[],"categories_sizes":[],"default_left":[0,0,0,0,0,0,0,0,0,0,0,0,0,0,0,0,0,0,0],"id":29,"left_children":[1,3,5,7,9,-1,11,-1,-1,-1,13,15,17,-1,-1,-1,-1,-1,-1],"loss_changes":[1.7811508E1,2.1302975E1,2.0692986E1,8.045944E0,1.8121908E1,0E0,7.846531E0,0E0,0E0,0E0,1.8254795E1,7.731468E0,1.2460684E1,0E0,0E0,0E0,0E0,0E0,0E0],"parents":[2147483647,0,0,1,1,2,2,3,3,4,4,6,6,10,10,11,11,12,12],"right_children":[2,4,6,8,10,-1,12,-1,-1,-1,14,16,18,-1,-1,-1,-1,-1,-1],"split_conditions":[2.9473683E-1,6E0,2E0,1.02E1,9.375E-2,-6.209707E-2,3.8356164E-1,1.8843958E-2,-6.1550494E-2,-6.556723E-2,7.4E1,2.1E1,7E0,2.9563336E-2,-1.2399878E-2,3.7092965E-2,4.8535285E-3,-7.938873E-2,3.8821172E-2],"split_indices":[23,2,17,6,32,0,23,0,0,0,13,1,15,0,0,0,0,0,0],"split_type":[0,0,0,0,0,0,0,0,0,0,0,0,0,0,0,0,0,0,0],"sum_hessian":[2.4112216E2,1.359205E2,1.0520166E2,2.4185884E1,1.1173462E2,6.549718E0,9.865195E1,3.0469806E0,2.1138905E1,8.637667E0,1.0309695E2,9.1640144E1,7.0117965E0,4.5303646E1,5.7793304E1,6.471325E1,2.6926895E1,3.6405036E0,3.371293E0],"tree_param":{"num_deleted":"0","num_feature":"36","num_nodes":"19","size_leaf_vector":"1"}},{"base_weights":[4.3061987E-2,-7.3169574E-2,1.4366023E-1,6.591465E-1,-1.604876E-2,-6.488349E-2,8.119364E-1,-2.648896E-1,4.0873405E-1,-2.8494349E-2,4.806585E-2,-4.814617E-2,1.5833349E-3,3.949392E-2,-1.4262703E-3],"categories":[],"categories_nodes":[],"categories_segments":[],"categories_sizes":[],"default_left":[0,0,0,0,0,0,0,0,0,0,0,0,0,0,0],"id":30,"left_children":[1,-1,3,5,7,-1,9,11,13,-1,-1,-1,-1,-1,-1],"loss_changes":[3.70381E1,0E0,1.8976572E1,1.7293169E1,1.8709496E1,0E0,1.1154636E1,2.3269049E1,1.0981769E1,0E0,0E0,0E0,0E0,0E0,0E0],"parents":[2147483647,0,0,2,2,3,3,4,4,6,6,7,7,8,8],"right_children":[2,-1,4,6,8,-1,10,12,14,-1,-1,-1,-1,-1,-1],"split_conditions":[2.5396824E-1,-7.3169574E-2,2.1943462E0,6.321839E-1,7E0,-6.488349E-2,4E0,1.6666667E-1,7.431193E-1,-2.8494349E-2,4.806585E-2,-4.814617E-2,1.5833349E-3,3.949392E-2,-1.4262703E-3],"split_indices":[30,0,27,31,15,0,17,32,28,0,0,0,0,0,0],"split_type":[0,0,0,0,0,0,0,0,0,0,0,0,0,0,0],"sum_hessian":[2.4288438E2,1.4293847E1,2.2859053E2,5.3478645E1,1.751119E2,3.2831318E0,5.019551E1,1.10810265E2,6.430163E1,4.557019E0,4.5638493E1,3.247078E1,7.8339485E1,3.404661E1,3.0255014E1],"tree_param":{"num_deleted":"0","num_feature":"36","num_nodes":"15","size_leaf_vector":"1"}},{"base_weights":[1.0819274E-2,-6.2576525E-2,8.393794E-2,-8.183034E-2,4.495644E-1,2.0753242E-2,-7.439285E-2,-4.1455665E-1,5.816688E-1,4.4616174E-2,-8.980267E-3,-7.145031E-2,5.1387396E-2,5.2785456E-2,1.9076532E-2],"categories":[],"categories_nodes":[],"categories_segments":[],"categories_sizes":[],"default_left":[0,0,0,0,0,0,0,0,0,0,0,0,0,0,0],"id":31,"left_children":[1,-1,3,5,7,9,-1,11,13,-1,-1,-1,-1,-1,-1],"loss_changes":[2.2144222E1,0E0,1.3886942E1,2.2890388E1,8.41281E0,2.6020863E1,0E0,1.607665E1,5.381342E0,0E0,0E0,0E0,0E0,0E0,0E0],"parents":[2147483647,0,0,2,2,3,3,4,4,5,5,7,7,8,8],"right_children":[2,-1,4,6,8,10,-1,12,14,-1,-1,-1,-1,-1,-1],"split_conditions":[9.482759E-2,-6.2576525E-2,3.56E2,3.34E2,6.603774E-1,8.93077E0,-7.439285E-2,1.8E1,2E1,4.4616174E-2,-8.980267E-3,-7.145031E-2,5.1387396E-2,5.2785456E-2,1.9076532E-2],"split_indices":[32,0,7,7,31,26,0,2,12,0,0,0,0,0,0],"split_type":[0,0,0,0,0,0,0,0,0,0,0,0,0,0,0],"sum_hessian":[2.3903912E2,1.2130433E1,2.2690869E2,1.5647054E2,7.0438156E1,1.466827E2,9.78784E0,8.956544E0,6.1481613E1,2.6864817E1,1.1981788E2,5.304301E0,3.6522431E0,1.6834183E1,4.464743E1],"tree_param":{"num_deleted":"0","num_feature":"36","num_nodes":"15","size_leaf_vector":"1"}},{"base_weights":[-3.635759E-2,-9.534905E-1,6.343979E-2,-6.674824E-2,4.755312E-2,-2.6688E-1,3.3322155E-1,-5.834259E-2,-1.141975E0,4.0578437E-1,-6.299134E-2,-5.8661886E-2,5.7106963E-3,5.7201735E-3,-7.1429715E-2,-3.2273557E-2,2.3695622E-2],"categories":[],"categories_nodes":[],"categories_segments":[],"categories_sizes":[],"default_left":[0,0,0,0,0,0,0,0,0,0,0,0,0,0,0,0,0],"id":32,"left_children":[1,3,5,-1,-1,7,9,11,13,15,-1,-1,-1,-1,-1,-1,-1],"loss_changes":[2.060687E1,1.7360992E1,1.8133686E1,0E0,0E0,1.6490501E1,1.3375927E1,1.4658207E1,6.575247E0,8.021179E0,0E0,0E0,0E0,0E0,0E0,0E0,0E0],"parents":[2147483647,0,0,1,1,2,2,5,5,6,6,7,7,8,8,9,9],"right_children":[2,4,6,-1,-1,8,10,12,14,16,-1,-1,-1,-1,-1,-1,-1],"split_conditions":[2E0,1.4E1,1.9090909E-1,-6.674824E-2,4.755312E-2,7.300885E-1,1E1,1.86E2,2E0,1.3E1,-6.299134E-2,-5.8661886E-2,5.7106963E-3,5.7201735E-3,-7.1429715E-2,-3.2273557E-2,2.3695622E-2],"split_indices":[15,11,32,0,0,31,5,7,17,9,0,0,0,0,0,0,0],"split_type":[0,0,0,0,0,0,0,0,0,0,0,0,0,0,0,0,0],"sum_hessian":[2.2251082E2,2.1095156E1,2.0141566E2,1.7867867E1,3.2272897E0,9.038666E1,1.1102901E2,7.394606E1,1.6440594E1,1.0696484E2,4.0641623E0,9.21137E0,6.4734695E1,3.10072E0,1.3339874E1,5.9050026E0,1.01059845E2],"tree_param":{"num_deleted":"0","num_feature":"36","num_nodes":"17","size_leaf_vector":"1"}},{"base_weights":[9.076066E-2,-3.1322733E-1,2.6779583E-1,-5.7441182E-2,-5.8196288E-2,5.634682E-1,5.895688E-2,-4.0862536E-1,5.0249606E-1,-2.7963477E-1,7.6870143E-1,-5.560422E-1,3.2140866E-1,-4.115782E-2,3.2231264E-2,4.3002848E-2,-5.6648534E-2,-7.898324E-2,1.7055945E-2,-0E0,4.274371E-2,3.2784812E-2,-4.990008E-2,3.75359E-2,-1.3767101E-2],"categories":[],"categories_nodes":[],"categories_segments":[],"categories_sizes":[],"default_left":[0,0,0,0,0,0,0,0,0,0,0,0,0,0,0,0,0,0,0,0,0,0,0,0,0],"id":33,"left_children":[1,3,5,-1,7,9,11,13,15,17,19,21,23,-1,-1,-1,-1,-1,-1,-1,-1,-1,-1,-1,-1],"loss_changes":[1.7285084E1,1.5494707E1,1.0277084E1,0E0,1.14990015E1,1.224118E1,1.6257626E1,1.6293585E1,1.4083792E1,1.2113279E1,3.6758423E0,1.6804008E1,1.83593E1,0E0,0E0,0E0,0E0,0E0,0E0,0E0,0E0,0E0,0E0,0E0,0E0],"parents":[2147483647,0,0,1,1,2,2,4,4,5,5,6,6,7,7,8,8,9,9,10,10,11,11,12,12],"right_children":[2,4,6,-1,8,10,12,14,16,18,20,22,24,-1,-1,-1,-1,-1,-1,-1,-1,-1,-1,-1,-1],"split_conditions":[7E0,1.7460316E-1,2.3E1,-5.7441182E-2,7.6E1,3E0,2.8E1,3.6956522E-1,3.189189E-1,4.290173E0,6.2166965E-1,3.4628131E0,4.5411887E0,-4.115782E-2,3.2231264E-2,4.3002848E-2,-5.6648534E-2,-7.898324E-2,1.7055945E-2,-0E0,4.274371E-2,3.2784812E-2,-4.990008E-2,3.75359E-2,-1.3767101E-2],"split_indices":[2,32,12,0,33,15,12,30,30,21,31,21,21,0,0,0,0,0,0,0,0,0,0,0,0],"split_type":[0,0,0,0,0,0,0,0,0,0,0,0,0,0,0,0,0,0,0,0,0,0,0,0,0],"sum_hessian":[2.395722E2,7.259008E1,1.6698213E2,1.6063168E1,5.6526913E1,6.821996E1,9.876217E1,3.5062588E1,2.1464325E1,1.318909E1,5.5030872E1,2.9091904E1,6.9670265E1,2.5385103E1,9.677485E0,1.8052736E1,3.4115899E0,3.8152475E0,9.373842E0,5.6968555E0,4.9334015E1,7.5852447E0,2.1506659E1,4.0467236E1,2.9203028E1],"tree_param":{"num_deleted":"0","num_feature":"36","num_nodes":"25","size_leaf_vector":"1"}},{"base_weights":[8.542352E-2,-1.054391E-1,4.7529006E-1,1.4385414E-1,-4.917497E-1,-9.1790415E-2,6.1393833E-1,2.3372717E-1,-6.899652E-2,-7.155353E-2,-2.5076228E-1,-6.18752E-2,5.566016E-1,-1.0996987E-1,7.9640996E-1,-2.5420649E-2,2.1340406E-2,1.4405924E-2,-3.679129E-2,-4.4352054E-3,4.3391798E-2,-6.743928E-2,1.8502913E-2,5.6187775E-2,2.7288904E-2],"categories":[],"categories_nodes":[],"categories_segments":[],"categories_sizes":[],"default_left":[0,0,0,0,0,0,0,0,0,0,0,0,0,0,0,0,0,0,0,0,0,0,0,0,0],"id":34,"left_children":[1,3,5,7,9,11,13,15,-1,-1,17,-1,19,21,23,-1,-1,-1,-1,-1,-1,-1,-1,-1,-1],"loss_changes":[1.7911451E1,1.5654733E1,6.3262787E0,1.3731223E1,1.389466E1,1.2839358E1,8.585892E0,1.3702137E1,0E0,0E0,1.3848963E1,0E0,2.3682733E0,8.693853E0,3.4203835E0,0E0,0E0,0E0,0E0,0E0,0E0,0E0,0E0,0E0,0E0],"parents":[2147483647,0,0,1,1,2,2,3,3,4,4,5,5,6,6,7,7,10,10,12,12,13,13,14,14],"right_children":[2,4,6,8,10,12,14,16,-1,-1,18,-1,20,22,24,-1,-1,-1,-1,-1,-1,-1,-1,-1,-1],"split_conditions":[8.1E1,2.3660713E-1,-9.185618E-1,1E0,7.0680624E-1,1.8025751E-1,4E0,2E0,-6.899652E-2,-7.155353E-2,9.056962E0,-6.18752E-2,1.054054E0,1E2,9.4E1,-2.5420649E-2,2.1340406E-2,1.4405924E-2,-3.679129E-2,-4.4352054E-3,4.3391798E-2,-6.743928E-2,1.8502913E-2,5.6187775E-2,2.7288904E-2],"split_indices":[6,29,22,16,28,32,15,35,0,0,26,0,20,13,13,0,0,0,0,0,0,0,0,0,0],"split_type":[0,0,0,0,0,0,0,0,0,0,0,0,0,0,0,0,0,0,0,0,0,0,0,0,0],"sum_hessian":[2.3853935E2,1.6045853E2,7.808083E1,9.774844E1,6.271008E1,1.5264547E1,6.2816288E1,9.316576E1,4.5826893E0,1.1710718E1,5.0999363E1,5.2440047E0,1.0020542E1,1.2615786E1,5.0200504E1,1.879042E1,7.4375336E1,2.425413E1,2.6745234E1,3.3885326E0,6.63201E0,3.0760064E0,9.53978E0,2.0085083E1,3.011542E1],"tree_param":{"num_deleted":"0","num_feature":"36","num_nodes":"25","size_leaf_vector":"1"}},{"base_weights":[6.7697994E-2,1.6537717E-2,5.8748465E-2,-1.4487542E-1,3.6529544E-1,4.2241356E-1,-3.257773E-1,4.5496577E-1,-5.0893392E-2,-5.9370246E-2,3.6292173E-2,-4.3959748E-2,-5.5195317E-3,1.2944313E-2,7.556968E-2],"categories":[],"categories_nodes":[],"categories_segments":[],"categories_sizes":[],"default_left":[0,0,0,0,0,0,0,0,0,0,0,0,0,0,0],"id":35,"left_children":[1,3,-1,5,7,9,11,13,-1,-1,-1,-1,-1,-1,-1],"loss_changes":[1.2829986E1,1.2455242E1,0E0,1.5609798E1,9.096381E0,1.8780388E1,1.3521714E1,1.321805E1,0E0,0E0,0E0,0E0,0E0,0E0,0E0],"parents":[2147483647,0,0,1,1,3,3,4,4,5,5,6,6,7,7],"right_children":[2,4,-1,6,8,10,12,14,-1,-1,-1,-1,-1,-1,-1],"split_conditions":[2E0,7E0,5.8748465E-2,2.1943462E0,5.9358783E0,2.09E2,1.6447368E-1,5.672689E0,-5.0893392E-2,-5.9370246E-2,3.6292173E-2,-4.3959748E-2,-5.5195317E-3,1.2944313E-2,7.556968E-2],"split_indices":[4,15,0,27,21,7,32,21,0,0,0,0,0,0,0],"split_type":[0,0,0,0,0,0,0,0,0,0,0,0,0,0,0],"sum_hessian":[2.2793126E2,2.1892148E2,9.009783E0,1.4986046E2,6.906102E1,3.577767E1,1.1408279E2,6.55545E1,3.5065246E0,5.1598315E0,3.061784E1,3.0967701E1,8.311508E1,5.642195E1,9.132545E0],"tree_param":{"num_deleted":"0","num_feature":"36","num_nodes":"15","size_leaf_vector":"1"}},{"base_weights":[-1.3179944E-3,-6.7487067E-1,1.019764E-1,7.1501195E-2,-6.2862635E-2,-1.0275783E-1,4.1499177E-1,-4.999245E-2,7.578591E-1,5.5679464E-1,-2.82124E-1,7.3862046E-1,-9.316357E-2,-0E0,6.2306833E-2,-2.5551334E-2,4.1637003E-2,-2.7415663E-2,1.7092993E-2,-1.5494443E-2,4.283509E-2,-1.7693868E-2,4.164894E-2],"categories":[],"categories_nodes":[],"categories_segments":[],"categories_sizes":[],"default_left":[0,0,0,0,0,0,0,0,0,0,0,0,0,0,0,0,0,0,0,0,0,0,0],"id":36,"left_children":[1,3,5,7,-1,9,11,-1,13,15,17,19,21,-1,-1,-1,-1,-1,-1,-1,-1,-1,-1],"loss_changes":[1.5852909E1,1.3386094E1,1.2681131E1,1.1144525E1,0E0,1.4271801E1,1.2990953E1,0E0,3.3061504E0,8.052976E0,1.5948741E1,6.2625637E0,7.7772903E0,0E0,0E0,0E0,0E0,0E0,0E0,0E0,0E0,0E0,0E0],"parents":[2147483647,0,0,1,1,2,2,3,3,5,5,6,6,8,8,9,9,10,10,11,11,12,12],"right_children":[2,4,6,8,-1,10,12,-1,14,16,18,20,22,-1,-1,-1,-1,-1,-1,-1,-1,-1,-1],"split_conditions":[1.54E2,6.407942E-1,2.73E1,1.9330855E-1,-6.2862635E-2,5.487805E-2,3E1,-4.999245E-2,1.327686E1,3E0,5E0,2.5274724E-1,1.3E1,-0E0,6.2306833E-2,-2.5551334E-2,4.1637003E-2,-2.7415663E-2,1.7092993E-2,-1.5494443E-2,4.283509E-2,-1.7693868E-2,4.164894E-2],"split_indices":[7,31,34,32,0,24,10,0,26,15,18,30,14,0,0,0,0,0,0,0,0,0,0],"split_type":[0,0,0,0,0,0,0,0,0,0,0,0,0,0,0,0,0,0,0,0,0,0,0],"sum_hessian":[2.2504349E2,2.9316137E1,1.9572736E2,1.3158247E1,1.615789E1,1.1854365E2,7.71837E1,4.9028482E0,8.255399E0,2.4776293E1,9.376736E1,4.6996387E1,3.0187315E1,3.703055E0,4.552344E0,4.8385057E0,1.9937788E1,6.592537E1,2.7841991E1,4.506798E0,4.248959E1,2.4122566E1,6.0647483E0],"tree_param":{"num_deleted":"0","num_feature":"36","num_nodes":"23","size_leaf_vector":"1"}},{"base_weights":[6.560383E-2,-7.806407E-1,1.4436379E-1,-6.25093E-2,1.7265923E-2,-6.439403E-2,1.8080075E-1,8.6093485E-2,6.48154E-1,8.462826E-3,-7.343781E-2,4.3551583E-2,-2.2201685E-2],"categories":[],"categories_nodes":[],"categories_segments":[],"categories_sizes":[],"default_left":[0,0,0,0,0,0,0,0,0,0,0,0,0],"id":37,"left_children":[1,3,5,-1,-1,-1,7,9,11,-1,-1,-1,-1],"loss_changes":[1.5379751E1,1.0901882E1,1.1153569E1,0E0,0E0,0E0,9.036713E0,2.2556103E1,8.842873E0,0E0,0E0,0E0,0E0],"parents":[2147483647,0,0,1,1,2,2,6,6,7,7,8,8],"right_children":[2,4,6,-1,-1,-1,8,10,12,-1,-1,-1,-1],"split_conditions":[2.030303E0,1.8191489E0,7.714286E0,-6.25093E-2,1.7265923E-2,-6.439403E-2,3.59375E-1,3.448276E-1,3.9393938E-1,8.462826E-3,-7.343781E-2,4.3551583E-2,-2.2201685E-2],"split_indices":[25,20,26,0,0,0,30,30,30,0,0,0,0],"split_type":[0,0,0,0,0,0,0,0,0,0,0,0,0],"sum_hessian":[2.2901709E2,1.8632877E1,2.1038422E2,1.3134173E1,5.4987035E0,4.2993107E0,2.060849E2,1.7252217E2,3.3562737E1,1.6467004E2,7.852119E0,2.8118729E1,5.444008E0],"tree_param":{"num_deleted":"0","num_feature":"36","num_nodes":"13","size_leaf_vector":"1"}},{"base_weights":[9.533325E-3,7.164455E-2,-5.8645587E-2,-4.3095905E-2,5.7735515E-1,2.820409E-1,-4.2377242E-1,8.2296914E-1,-5.726767E-1,-5.772539E-2,2.0134166E-2,-3.0547097E-2,1.9970614E-2,5.4666556E-2,-6.511889E-3,1.0968662E-2,-5.7552803E-2],"categories":[],"categories_nodes":[],"categories_segments":[],"categories_sizes":[],"default_left":[0,0,0,0,0,0,0,0,0,0,0,0,0,0,0,0,0],"id":38,"left_children":[1,3,-1,5,7,9,11,13,15,-1,-1,-1,-1,-1,-1,-1,-1],"loss_changes":[1.6963915E1,1.2891101E1,0E0,2.2505163E1,1.2095927E1,1.7364248E1,1.3177219E1,9.083544E0,3.893714E0,0E0,0E0,0E0,0E0,0E0,0E0,0E0,0E0],"parents":[2147483647,0,0,1,1,3,3,4,4,5,5,6,6,7,7,8,8],"right_children":[2,4,-1,6,8,10,12,14,16,-1,-1,-1,-1,-1,-1,-1,-1],"split_conditions":[5.9358783E0,5.422131E0,-5.8645587E-2,3.407767E0,1.4210527E0,4.8E1,1.4157304E0,6.491803E0,9E0,-5.772539E-2,2.0134166E-2,-3.0547097E-2,1.9970614E-2,5.4666556E-2,-6.511889E-3,1.0968662E-2,-5.7552803E-2],"split_indices":[21,19,0,19,28,13,28,19,2,0,0,0,0,0,0,0,0],"split_type":[0,0,0,0,0,0,0,0,0,0,0,0,0,0,0,0,0],"sum_hessian":[2.3033562E2,2.198133E2,1.0522326E1,1.797475E2,4.0065792E1,9.6943886E1,8.280361E1,3.3320774E1,6.7450175E0,6.78252E0,9.016137E1,6.777317E1,1.503044E1,2.5925364E1,7.39541E0,3.0356803E0,3.7093375E0],"tree_param":{"num_deleted":"0","num_feature":"36","num_nodes":"17","size_leaf_vector":"1"}},{"base_weights":[9.049919E-2,-1.131254E0,1.4761212E-1,-1.6196592E-2,-6.996215E-2,2.1080664E-1,-8.6362135E-1,9.466661E-2,6.138236E-1,-5.7118576E-2,1.3043184E-3,7.593475E-3,-6.123514E-2,4.6112053E-2,-4.3504904E-3],"categories":[],"categories_nodes":[],"categories_segments":[],"categories_sizes":[],"default_left":[0,0,0,0,0,0,0,0,0,0,0,0,0,0,0],"id":39,"left_children":[1,3,5,-1,-1,7,9,11,13,-1,-1,-1,-1,-1,-1],"loss_changes":[1.6578121E1,1.6685457E0,1.4622887E1,0E0,0E0,9.913012E0,3.4782019E0,1.2752114E1,1.0456825E1,0E0,0E0,0E0,0E0,0E0,0E0],"parents":[2147483647,0,0,1,1,2,2,5,5,6,6,7,7,8,8],"right_children":[2,4,6,-1,-1,8,10,12,14,-1,-1,-1,-1,-1,-1],"split_conditions":[7.2E1,1.1111112E0,5.9358783E0,-1.6196592E-2,-6.996215E-2,2.82E1,2.8767124E-1,8E0,6.61E1,-5.7118576E-2,1.3043184E-3,7.593475E-3,-6.123514E-2,4.6112053E-2,-4.3504904E-3],"split_indices":[33,20,21,0,0,34,23,5,6,0,0,0,0,0,0],"split_type":[0,0,0,0,0,0,0,0,0,0,0,0,0,0,0],"sum_hessian":[2.3560063E2,9.603587E0,2.2599704E2,3.0368664E0,6.566721E0,2.1354265E2,1.2454391E1,1.6692252E2,4.6620132E1,9.352587E0,3.1018045E0,1.6090689E2,6.01563E0,3.2253166E1,1.4366963E1],"tree_param":{"num_deleted":"0","num_feature":"36","num_nodes":"15","size_leaf_vector":"1"}},{"base_weights":[5.4015856E-2,2.768188E-1,-4.254318E-1,1.2630898E-1,8.518595E-1,-6.9571185E-1,3.6273855E-1,2.4712534E-1,-6.8949096E-2,1.1148446E0,-2.5332272E-2,-1.1856635E0,8.6308785E-2,7.558579E-1,-2.8883895E-2,-4.6462204E-2,1.6163971E-2,6.309836E-2,-0E0,-6.559044E-2,1.1504901E-3,3.0879755E-2,-5.579281E-2,5.9765257E-2,-1.0940252E-2],"categories":[],"categories_nodes":[],"categories_segments":[],"categories_sizes":[],"default_left":[0,0,0,0,0,0,0,0,0,0,0,0,0,0,0,0,0,0,0,0,0,0,0,0,0],"id":40,"left_children":[1,3,5,7,9,11,13,15,-1,17,-1,19,21,23,-1,-1,-1,-1,-1,-1,-1,-1,-1,-1,-1],"loss_changes":[2.4307007E1,1.3248072E1,1.5653335E1,2.2871367E1,1.2034435E1,2.0962132E1,7.472768E0,1.0646778E1,0E0,4.4917374E0,0E0,5.257904E0,1.4507771E1,6.310939E0,0E0,0E0,0E0,0E0,0E0,0E0,0E0,0E0,0E0,0E0,0E0],"parents":[2147483647,0,0,1,1,2,2,3,3,4,4,5,5,6,6,7,7,9,9,11,11,12,12,13,13],"right_children":[2,4,6,8,10,12,14,16,-1,18,-1,20,22,24,-1,-1,-1,-1,-1,-1,-1,-1,-1,-1,-1],"split_conditions":[4.6188188E0,7.7E1,1.3E1,2.7E1,-3.1412706E-1,5.877551E0,6.858407E-1,7.2E1,-6.8949096E-2,7.6655054E-1,-2.5332272E-2,2.8E1,3.28125E-1,1.3813953E0,-2.8883895E-2,-4.6462204E-2,1.6163971E-2,6.309836E-2,-0E0,-6.559044E-2,1.1504901E-3,3.0879755E-2,-5.579281E-2,5.9765257E-2,-1.0940252E-2],"split_indices":[21,33,11,1,22,19,31,33,0,31,0,1,30,20,0,0,0,0,0,0,0,0,0,0,0],"split_type":[0,0,0,0,0,0,0,0,0,0,0,0,0,0,0,0,0,0,0,0,0,0,0,0,0],"sum_hessian":[2.2558272E2,1.5444305E2,7.113966E1,1.23509514E2,3.0933546E1,5.315566E1,1.7984001E1,1.15168236E2,8.341273E0,2.612846E1,4.8050857E0,3.2441887E1,2.071377E1,1.2895799E1,5.088203E0,6.2413535E0,1.0892689E2,2.299224E1,3.13622E0,2.9373657E1,3.0682313E0,1.4760114E1,5.9536567E0,8.803002E0,4.092797E0],"tree_param":{"num_deleted":"0","num_feature":"36","num_nodes":"25","size_leaf_vector":"1"}},{"base_weights":[2.6578356E-2,-3.1790456E-1,1.7419884E-1,-5.698114E-1,3.478324E-1,3.9084175E-1,-2.22657E-1,-6.466672E-2,-6.157399E-2,-7.7109325E-1,1.0643733E0,7.637169E-1,8.8647306E-2,-1.3162086E0,1.8768671E-1,-6.1113805E-2,1.6752847E-2,2.5390422E-3,-6.502079E-2,2.132499E-2,7.016652E-2,4.375943E-2,-1.7963013E-2,-7.1956E-2,1.0039714E-2,-8.090767E-2,-2.605111E-3,3.478932E-2,-1.237988E-2],"categories":[],"categories_nodes":[],"categories_segments":[],"categories_sizes":[],"default_left":[0,0,0,0,0,0,0,0,0,0,0,0,0,0,0,0,0,0,0,0,0,0,0,0,0,0,0,0,0],"id":41,"left_children":[1,3,5,7,9,11,13,15,-1,17,19,21,23,25,27,-1,-1,-1,-1,-1,-1,-1,-1,-1,-1,-1,-1,-1,-1],"loss_changes":[1.14432955E1,1.1525719E1,1.3671646E1,1.6300373E1,1.6097612E1,1.1409067E1,2.557896E1,1.3987386E1,0E0,3.6493917E0,1.8277493E0,6.080883E0,1.0094876E1,5.6747513E0,9.434231E0,0E0,0E0,0E0,0E0,0E0,0E0,0E0,0E0,0E0,0E0,0E0,0E0,0E0,0E0],"parents":[2147483647,0,0,1,1,2,2,3,3,4,4,5,5,6,6,7,7,9,9,10,10,11,11,12,12,13,13,14,14],"right_children":[2,4,6,8,10,12,14,16,-1,18,20,22,24,26,28,-1,-1,-1,-1,-1,-1,-1,-1,-1,-1,-1,-1,-1,-1],"split_conditions":[7E0,2.6764706E-1,2.2E1,2.2252011E-1,3.1417626E-1,2.3E1,5E0,1.9273743E-1,-6.157399E-2,2.4242423E-1,8.4375E-1,5.399427E-1,2E0,7.848101E-1,2.8181818E0,-6.1113805E-2,1.6752847E-2,2.5390422E-3,-6.502079E-2,2.132499E-2,7.016652E-2,4.375943E-2,-1.7963013E-2,-7.1956E-2,1.0039714E-2,-8.090767E-2,-2.605111E-3,3.478932E-2,-1.237988E-2],"split_indices":[2,32,0,29,30,12,15,29,0,30,28,22,18,31,25,0,0,0,0,0,0,0,0,0,0,0,0,0,0],"split_type":[0,0,0,0,0,0,0,0,0,0,0,0,0,0,0,0,0,0,0,0,0,0,0,0,0,0,0,0,0],"sum_hessian":[2.232217E2,6.641248E1,1.568092E2,4.8394783E1,1.80177E1,1.0160846E2,5.5200745E1,2.8151583E1,2.0243202E1,6.9496584E0,1.1068042E1,4.4653156E1,5.6955303E1,1.45258875E1,4.067486E1,6.761753E0,2.138983E1,3.002637E0,3.9470215E0,4.7265615E0,6.3414807E0,4.090268E1,3.7504787E0,3.0247872E0,5.3930515E1,1.143527E1,3.0906165E0,1.8597544E1,2.2077316E1],"tree_param":{"num_deleted":"0","num_feature":"36","num_nodes":"29","size_leaf_vector":"1"}},{"base_weights":[-4.2377975E-2,-2.2243153E-1,2.893451E-1,-1.3189396E-1,-1.1829666E0,-3.22446E-1,4.7931534E-1,-9.4397455E-1,-1.247444E-2,-7.967255E-2,-0E0,-1.0121156E0,3.9762866E-2,6.18985E-1,-6.171197E-1,-6.064098E-2,8.191324E-3,1.6123557E-2,-2.1358138E-2,-8.164292E-2,-8.019774E-3,5.3715724E-2,2.0854538E-2,-3.3471602E-4,-5.2274395E-2],"categories":[],"categories_nodes":[],"categories_segments":[],"categories_sizes":[],"default_left":[0,0,0,0,0,0,0,0,0,0,0,0,0,0,0,0,0,0,0,0,0,0,0,0,0],"id":42,"left_children":[1,3,5,7,9,11,13,15,17,-1,-1,19,-1,21,23,-1,-1,-1,-1,-1,-1,-1,-1,-1,-1],"loss_changes":[1.325194E1,1.2230825E1,9.230753E0,1.2768277E1,5.920326E0,1.5430027E1,9.572627E0,5.3369837E0,1.6381018E1,0E0,0E0,6.0147123E0,0E0,4.3497105E0,1.7707322E0,0E0,0E0,0E0,0E0,0E0,0E0,0E0,0E0,0E0,0E0],"parents":[2147483647,0,0,1,1,2,2,3,3,4,4,5,5,6,6,7,7,8,8,11,11,13,13,14,14],"right_children":[2,4,6,8,10,12,14,16,18,-1,-1,20,-1,22,24,-1,-1,-1,-1,-1,-1,-1,-1,-1,-1],"split_conditions":[8.1E1,7.7E1,4E0,2E0,2.6174498E-1,7.968128E-1,4.767451E0,5.8719077E0,2.2751322E-1,-7.967255E-2,-0E0,3.224299E-1,3.9762866E-2,2.51E1,7E0,-6.064098E-2,8.191324E-3,1.6123557E-2,-2.1358138E-2,-8.164292E-2,-8.019774E-3,5.3715724E-2,2.0854538E-2,-3.3471602E-4,-5.2274395E-2],"split_indices":[6,6,15,15,29,31,21,21,29,0,0,30,0,34,15,0,0,0,0,0,0,0,0,0,0],"split_type":[0,0,0,0,0,0,0,0,0,0,0,0,0,0,0,0,0,0,0,0,0,0,0,0,0],"sum_hessian":[2.1990627E2,1.4294766E2,7.69586E1,1.3176889E2,1.1178774E1,1.7944704E1,5.9013897E1,1.5900399E1,1.1586849E2,8.043971E0,3.1348026E0,1.1210992E1,6.7337127E0,5.2812965E1,6.2009315E0,1.2791567E1,3.1088326E0,6.4086655E1,5.178184E1,5.886389E0,5.324603E0,1.4744165E1,3.80688E1,3.0721643E0,3.1287675E0],"tree_param":{"num_deleted":"0","num_feature":"36","num_nodes":"25","size_leaf_vector":"1"}},{"base_weights":[5.8392633E-2,1.2968974E-1,-7.533393E-1,1.7815796E-1,-7.8453153E-1,-6.2127214E-2,8.171909E-3,4.9527037E-1,3.8652696E-2,9.509701E-3,-6.218006E-2,-5.7328767E-3,3.8393084E-2,-3.1317489E-3,4.238962E-2],"categories":[],"categories_nodes":[],"categories_segments":[],"categories_sizes":[],"default_left":[0,0,0,0,0,0,0,0,0,0,0,0,0,0,0],"id":43,"left_children":[1,3,5,7,9,-1,-1,11,13,-1,-1,-1,-1,-1,-1],"loss_changes":[1.2638972E1,8.99264E0,8.212183E0,8.419132E0,4.9100075E0,0E0,0E0,9.8531685E0,1.1163671E1,0E0,0E0,0E0,0E0,0E0,0E0],"parents":[2147483647,0,0,1,1,2,2,3,3,4,4,7,7,8,8],"right_children":[2,4,6,8,10,-1,-1,12,14,-1,-1,-1,-1,-1,-1],"split_conditions":[5.4606743E0,8E0,6.8450704E0,2.1311475E-1,3.4726688E-1,-6.2127214E-2,8.171909E-3,1.9273743E-1,7.986111E-1,9.509701E-3,-6.218006E-2,-5.7328767E-3,3.8393084E-2,-3.1317489E-3,4.238962E-2],"split_indices":[27,5,19,29,28,0,0,29,31,0,0,0,0,0,0],"split_type":[0,0,0,0,0,0,0,0,0,0,0,0,0,0,0],"sum_hessian":[2.1677663E2,2.001594E2,1.6617239E1,1.909505E2,9.208892E0,1.0674773E1,5.9424663E0,5.7340824E1,1.3360968E2,3.0662668E0,6.142625E0,1.7776999E1,3.9563824E1,1.1945533E2,1.415435E1],"tree_param":{"num_deleted":"0","num_feature":"36","num_nodes":"15","size_leaf_vector":"1"}},{"base_weights":[5.764456E-3,3.0071658E-1,-2.0571093E-1,-5.4791372E-2,4.105819E-1,-6.361543E-1,1.4058302E-1,6.1066383E-1,-8.58858E-2,1.24627426E-1,-1.1493616E0,-5.2356903E-2,7.37476E-1,3.7312385E-2,-1.0261392E-2,-7.588455E-2,3.6204483E-2,-4.8376672E-2,2.5032071E-2,4.4619576E-3,-6.3838355E-2,-4.9130138E-2,1.682696E-2,5.8282133E-2,-5.0844558E-2],"categories":[],"categories_nodes":[],"categories_segments":[],"categories_sizes":[],"default_left":[0,0,0,0,0,0,0,0,0,0,0,0,0,0,0,0,0,0,0,0,0,0,0,0,0],"id":44,"left_children":[1,3,5,-1,7,9,11,13,15,17,19,21,23,-1,-1,-1,-1,-1,-1,-1,-1,-1,-1,-1,-1],"loss_changes":[1.393448E1,1.4713934E1,1.9493065E1,0E0,8.786152E0,2.2968042E1,8.473133E0,7.127449E0,3.1142002E1,1.0403548E1,5.744709E0,2.0547876E1,1.4674793E1,0E0,0E0,0E0,0E0,0E0,0E0,0E0,0E0,0E0,0E0,0E0,0E0],"parents":[2147483647,0,0,1,1,2,2,4,4,5,5,6,6,7,7,8,8,9,9,10,10,11,11,12,12],"right_children":[2,4,6,-1,8,10,12,14,16,18,20,22,24,-1,-1,-1,-1,-1,-1,-1,-1,-1,-1,-1,-1],"split_conditions":[3.407767E0,1.41E2,3.5E1,-5.4791372E-2,7.684631E-1,3.12E1,1.5671642E0,8.3076924E-1,8.669725E-1,2.741117E-1,5.7391304E-1,6.671664E-1,1.4E1,3.7312385E-2,-1.0261392E-2,-7.588455E-2,3.6204483E-2,-4.8376672E-2,2.5032071E-2,4.4619576E-3,-6.3838355E-2,-4.9130138E-2,1.682696E-2,5.8282133E-2,-5.0844558E-2],"split_indices":[19,7,10,0,31,6,20,28,28,23,31,31,2,0,0,0,0,0,0,0,0,0,0,0,0],"split_type":[0,0,0,0,0,0,0,0,0,0,0,0,0,0,0,0,0,0,0,0,0,0,0,0,0],"sum_hessian":[2.21254E2,9.241309E1,1.2884091E2,6.0189686E0,8.639413E1,5.71969E1,7.1644005E1,6.1557274E1,2.4836853E1,2.3267427E1,3.392947E1,5.4705673E1,1.6938334E1,5.2963745E1,8.593526E0,8.702691E0,1.6134161E1,5.4880104E0,1.7779417E1,3.1192844E0,3.0810186E1,1.57535095E1,3.8952164E1,1.3930955E1,3.0073788E0],"tree_param":{"num_deleted":"0","num_feature":"36","num_nodes":"25","size_leaf_vector":"1"}},{"base_weights":[6.720106E-2,-5.7136744E-2,1.2796094E-1,-3.2397773E-2,4.6099457E-1,-3.1131035E-1,3.4842366E-1,-1.7677303E-1,5.954273E-1,2.00189E-2,-2.6487062E-2,3.53195E-2,-1.5997713E-2,1.9495921E-2,-6.339788E-2,3.4311265E-2,-7.6203817E-3],"categories":[],"categories_nodes":[],"categories_segments":[],"categories_sizes":[],"default_left":[0,0,0,0,0,0,0,0,0,0,0,0,0,0,0,0,0],"id":45,"left_children":[1,-1,3,5,7,9,11,13,15,-1,-1,-1,-1,-1,-1,-1,-1],"loss_changes":[1.6583326E1,0E0,1.1549874E1,1.5610242E1,6.166459E0,1.3430122E1,1.5107174E1,8.536832E0,4.119581E0,0E0,0E0,0E0,0E0,0E0,0E0,0E0,0E0],"parents":[2147483647,0,0,2,2,3,3,4,4,5,5,6,6,7,7,8,8],"right_children":[2,-1,4,6,8,10,12,14,16,-1,-1,-1,-1,-1,-1,-1,-1],"split_conditions":[1.7647059E0,-5.7136744E-2,3.56E2,2.74E1,9.115385E0,8.740385E0,3E0,3.85E2,1E0,2.00189E-2,-2.6487062E-2,3.53195E-2,-1.5997713E-2,1.9495921E-2,-6.339788E-2,3.4311265E-2,-7.6203817E-3],"split_indices":[25,0,7,34,26,26,35,7,16,0,0,0,0,0,0,0,0],"split_type":[0,0,0,0,0,0,0,0,0,0,0,0,0,0,0,0,0],"sum_hessian":[2.2396706E2,9.779078E0,2.1418799E2,1.4498085E2,6.920714E1,8.394493E1,6.103592E1,1.1863972E1,5.7343166E1,1.9410646E1,6.453428E1,3.9808327E1,2.1227592E1,8.171328E0,3.6926441E0,5.132738E1,6.0157843E0],"tree_param":{"num_deleted":"0","num_feature":"36","num_nodes":"17","size_leaf_vector":"1"}},{"base_weights":[4.0346712E-2,7.511129E-2,-6.83762E-2,-3.0756328E-1,1.792611E-1,2.2307183E-1,-9.155862E-1,-1.2312027E-1,3.9852753E-1,3.773363E-2,-3.227913E-2,2.8909976E-3,-7.516311E-2,-5.0371457E-2,8.566842E-3,3.6144562E-2,7.7063628E-3],"categories":[],"categories_nodes":[],"categories_segments":[],"categories_sizes":[],"default_left":[0,0,0,0,0,0,0,0,0,0,0,0,0,0,0,0,0],"id":46,"left_children":[1,3,-1,5,7,9,11,13,15,-1,-1,-1,-1,-1,-1,-1,-1],"loss_changes":[1.0632106E1,8.553093E0,0E0,1.5065558E1,1.1261372E1,1.2133911E1,1.2615921E1,1.886901E1,7.5867434E0,0E0,0E0,0E0,0E0,0E0,0E0,0E0,0E0],"parents":[2147483647,0,0,1,1,3,3,4,4,5,5,6,6,7,7,8,8],"right_children":[2,4,-1,6,8,10,12,14,16,-1,-1,-1,-1,-1,-1,-1,-1],"split_conditions":[1.4769231E1,2E0,-6.83762E-2,6.858407E-1,1.8947367E-1,8.542714E-2,3.5800998E0,3E0,6.136364E-1,3.773363E-2,-3.227913E-2,2.8909976E-3,-7.516311E-2,-5.0371457E-2,8.566842E-3,3.6144562E-2,7.7063628E-3],"split_indices":[26,35,0,31,32,24,21,18,28,0,0,0,0,0,0,0,0],"split_type":[0,0,0,0,0,0,0,0,0,0,0,0,0,0,0,0,0],"sum_hessian":[2.1677184E2,2.1254123E2,4.2306075E0,4.4847206E1,1.6769402E2,2.4197853E1,2.0649353E1,7.048015E1,9.721387E1,1.5164061E1,9.0337925E0,8.048894E0,1.2600459E1,1.7086012E1,5.339414E1,4.075611E1,5.645776E1],"tree_param":{"num_deleted":"0","num_feature":"36","num_nodes":"17","size_leaf_vector":"1"}},{"base_weights":[3.455655E-2,-7.0680803E-1,1.08544804E-1,4.282041E-2,-5.7511967E-2,-1.1440957E-1,3.6618447E-1,1.6838421E-1,-7.0564663E-1,4.496908E-1,-5.777186E-2,2.540182E-2,-1.5455182E-2,-6.8570875E-2,-3.408001E-3,4.8834797E-2,1.4072827E-2],"categories":[],"categories_nodes":[],"categories_segments":[],"categories_sizes":[],"default_left":[0,0,0,0,0,0,0,0,0,0,0,0,0,0,0,0,0],"id":47,"left_children":[1,3,5,-1,-1,7,9,11,13,15,-1,-1,-1,-1,-1,-1,-1],"loss_changes":[1.1781628E1,1.4512906E1,1.1326091E1,0E0,0E0,1.783377E1,1.2059779E1,1.1877641E1,1.4398241E1,7.3486347E0,0E0,0E0,0E0,0E0,0E0,0E0,0E0],"parents":[2147483647,0,0,1,1,2,2,5,5,6,6,7,7,8,8,9,9],"right_children":[2,4,6,-1,-1,8,10,12,14,16,-1,-1,-1,-1,-1,-1,-1],"split_conditions":[4.1E1,5E-1,2.9310346E-1,4.282041E-2,-5.7511967E-2,9.849786E0,1E1,6.910569E-1,9.1E1,3.0555555E-1,-5.777186E-2,2.540182E-2,-1.5455182E-2,-6.8570875E-2,-3.408001E-3,4.8834797E-2,1.4072827E-2],"split_indices":[13,31,23,0,0,26,5,31,13,23,0,0,0,0,0,0,0],"split_type":[0,0,0,0,0,0,0,0,0,0,0,0,0,0,0,0,0],"sum_hessian":[2.1348033E2,1.847325E1,1.9500708E2,3.8266013E0,1.4646648E1,1.0463049E2,9.0376595E1,7.1146545E1,3.3483944E1,8.640489E1,3.9716978E0,4.1658787E1,2.948776E1,1.5738743E1,1.7745203E1,1.9601593E1,6.68033E1],"tree_param":{"num_deleted":"0","num_feature":"36","num_nodes":"17","size_leaf_vector":"1"}},{"base_weights":[4.7716456E-3,-2.1553151E-1,2.2452334E-1,8.848795E-2,-6.1253154E-1,2.7933046E-1,-6.063204E-2,3.415616E-1,-9.326815E-1,-1.3765649E0,-1.7610645E-1,8.424216E-2,6.2316614E-1,-3.597943E-2,2.4820672E-2,-6.3411616E-2,8.8881154E-4,-2.8350774E-2,-7.912084E-2,3.245982E-2,-3.8744584E-2,-2.487002E-3,3.8568765E-2,3.959058E-2,-1.8756334E-3],"categories":[],"categories_nodes":[],"categories_segments":[],"categories_sizes":[],"default_left":[0,0,0,0,0,0,0,0,0,0,0,0,0,0,0,0,0,0,0,0,0,0,0,0,0],"id":48,"left_children":[1,3,5,7,9,11,-1,13,15,17,19,21,23,-1,-1,-1,-1,-1,-1,-1,-1,-1,-1,-1,-1],"loss_changes":[1.0364015E1,1.2982445E1,8.703476E0,1.606149E1,1.5118805E1,6.8741302E0,0E0,8.520124E0,4.081107E0,1.6687126E0,1.5759425E1,6.361297E0,4.2745132E0,0E0,0E0,0E0,0E0,0E0,0E0,0E0,0E0,0E0,0E0,0E0,0E0],"parents":[2147483647,0,0,1,1,2,2,3,3,4,4,5,5,7,7,8,8,9,9,10,10,11,11,12,12],"right_children":[2,4,6,8,10,12,-1,14,16,18,20,22,24,-1,-1,-1,-1,-1,-1,-1,-1,-1,-1,-1,-1],"split_conditions":[2.8514057E-1,9.44523E0,1.5324325E1,1.7E1,-4.3742734E-1,2.79E1,-6.063204E-2,7.714286E0,5E0,7.029703E-1,3.854247E0,2.483871E-1,3.2E1,-3.597943E-2,2.4820672E-2,-6.3411616E-2,8.8881154E-4,-2.8350774E-2,-7.912084E-2,3.245982E-2,-3.8744584E-2,-2.487002E-3,3.8568765E-2,3.959058E-2,-1.8756334E-3],"split_indices":[23,26,26,1,22,34,0,26,18,31,21,29,10,0,0,0,0,0,0,0,0,0,0,0,0],"split_type":[0,0,0,0,0,0,0,0,0,0,0,0,0,0,0,0,0,0,0,0,0,0,0,0,0],"sum_hessian":[2.1206136E2,1.05680145E2,1.0638121E2,6.0146023E1,4.5534126E1,1.0331639E2,3.0648148E0,4.881242E1,1.1333603E1,1.568742E1,2.9846706E1,6.689615E1,3.6420242E1,5.669362E0,4.314306E1,8.207049E0,3.1265533E0,4.0399303E0,1.1647489E1,1.2444002E1,1.7402704E1,5.663511E1,1.0261044E1,2.8976545E1,7.4436955E0],"tree_param":{"num_deleted":"0","num_feature":"36","num_nodes":"25","size_leaf_vector":"1"}},{"base_weights":[5.9082188E-2,-6.344939E-1,1.2800112E-1,-1.0491811E0,2.8638855E-2,4.336083E-1,-3.169071E-2,-6.1770942E-2,-1.1016062E-2,-2.2799727E-2,6.269974E-1,-2.518144E-1,2.9375678E-1,-4.3428116E-2,5.8806807E-2,5.971501E-2,1.5768958E-2,-5.2283384E-2,-2.9323022E-3,2.3448382E-2,-2.8468952E-2],"categories":[],"categories_nodes":[],"categories_segments":[],"categories_sizes":[],"default_left":[0,0,0,0,0,0,0,0,0,0,0,0,0,0,0,0,0,0,0,0,0],"id":49,"left_children":[1,3,5,7,-1,9,11,-1,-1,13,15,17,19,-1,-1,-1,-1,-1,-1,-1,-1],"loss_changes":[1.0482324E1,1.0561241E1,9.807384E0,1.9212494E0,0E0,6.1537724E0,9.524675E0,0E0,0E0,2.2598154E1,8.057713E0,1.201191E1,8.352188E0,0E0,0E0,0E0,0E0,0E0,0E0,0E0,0E0],"parents":[2147483647,0,0,1,1,2,2,3,3,5,5,6,6,9,9,10,10,11,11,12,12],"right_children":[2,4,6,8,-1,10,12,-1,-1,14,16,18,20,-1,-1,-1,-1,-1,-1,-1,-1],"split_conditions":[2E0,5.877551E0,3.292683E0,8.392435E-1,2.8638855E-2,1.9259259E-1,7E0,-6.1770942E-2,-1.1016062E-2,7.7E1,2.062147E-1,3.8297873E0,4.4E1,-4.3428116E-2,5.8806807E-2,5.971501E-2,1.5768958E-2,-5.2283384E-2,-2.9323022E-3,2.3448382E-2,-2.8468952E-2],"split_indices":[15,19,19,31,0,29,15,0,0,33,29,19,10,0,0,0,0,0,0,0,0],"split_type":[0,0,0,0,0,0,0,0,0,0,0,0,0,0,0,0,0,0,0,0,0],"sum_hessian":[2.1765358E2,1.8799967E1,1.9885362E2,1.4152487E1,4.647479E0,6.7873314E1,1.309803E2,1.1056938E1,3.0955493E0,2.030872E1,4.756459E1,7.845145E1,5.2528862E1,1.2118769E1,8.189952E0,1.5745797E1,3.1818792E1,1.4388577E1,6.406287E1,4.4141052E1,8.387813E0],"tree_param":{"num_deleted":"0","num_feature":"36","num_nodes":"21","size_leaf_vector":"1"}},{"base_weights":[1.2218609E-3,-5.2916604E-1,1.3013142E-1,-9.743484E-1,2.80889E-3,3.712756E-1,-3.017086E-1,-1.0731436E-3,-1.2272335E0,5.407645E-1,-5.2828666E-2,4.3547615E-1,-5.241828E-2,-5.4228395E-1,6.230858E-1,-2.6355991E-2,-7.948549E-2,4.046314E-2,-9.942934E-3,-3.6157407E-2,2.4121743E-2,-6.4457E-2,-1.7660967E-3,5.4484565E-2,-1.5387303E-2],"categories":[],"categories_nodes":[],"categories_segments":[],"categories_sizes":[],"default_left":[0,0,0,0,0,0,0,0,0,0,0,0,0,0,0,0,0,0,0,0,0,0,0,0,0],"id":50,"left_children":[1,3,5,7,9,11,13,-1,15,17,-1,19,-1,21,23,-1,-1,-1,-1,-1,-1,-1,-1,-1,-1],"loss_changes":[1.3937297E1,9.530248E0,1.725987E1,5.0979805E0,1.136855E1,1.0076175E1,1.35415535E1,0E0,3.2934875E0,2.8729613E0,0E0,5.895933E0,0E0,1.7899525E1,5.902801E0,0E0,0E0,0E0,0E0,0E0,0E0,0E0,0E0,0E0,0E0],"parents":[2147483647,0,0,1,1,2,2,3,3,4,4,5,5,6,6,8,8,9,9,11,11,13,13,14,14],"right_children":[2,4,6,8,10,12,14,-1,16,18,-1,20,-1,22,24,-1,-1,-1,-1,-1,-1,-1,-1,-1,-1],"split_conditions":[2E0,4.5849056E0,4.084871E0,9.8630136E-1,4.189655E0,8E0,1.3285714E1,-1.0731436E-3,4E0,2.6973683E-1,-5.2828666E-2,9.064748E-1,-5.241828E-2,3.8E1,1.3855263E1,-2.6355991E-2,-7.948549E-2,4.046314E-2,-9.942934E-3,-3.6157407E-2,2.4121743E-2,-6.4457E-2,-1.7660967E-3,5.4484565E-2,-1.5387303E-2],"split_indices":[35,19,19,20,27,5,26,0,14,29,0,20,0,10,26,0,0,0,0,0,0,0,0,0,0],"split_type":[0,0,0,0,0,0,0,0,0,0,0,0,0,0,0,0,0,0,0,0,0,0,0,0,0],"sum_hessian":[2.0242133E2,3.881979E1,1.6360155E2,2.0783533E1,1.8036257E1,1.0521831E2,5.8383232E1,4.669374E0,1.6114159E1,1.2349238E1,5.6870174E0,1.0139653E2,3.8217764E0,4.6744816E1,1.1638414E1,6.4282517E0,9.685907E0,9.090318E0,3.2589214E0,3.305667E0,9.8090866E1,1.8196955E1,2.8547863E1,7.710219E0,3.9281952E0],"tree_param":{"num_deleted":"0","num_feature":"36","num_nodes":"25","size_leaf_vector":"1"}},{"base_weights":[-3.3802103E-2,-1.0951375E0,5.9998542E-2,-4.2265613E-4,-6.776068E-2,-1.0996371E-1,3.5867885E-1,4.0457517E-1,-2.7360177E-1,-3.4608856E-2,4.6287334E-1,-4.9142964E-2,3.1179354E-2,-6.615961E-2,-4.5617647E-3,2.8994579E-2,-2.9041622E-2],"categories":[],"categories_nodes":[],"categories_segments":[],"categories_sizes":[],"default_left":[0,0,0,0,0,0,0,0,0,0,0,0,0,0,0,0,0],"id":51,"left_children":[1,3,5,-1,-1,7,9,11,13,-1,15,-1,-1,-1,-1,-1,-1],"loss_changes":[1.9792124E1,4.414894E0,9.301599E0,0E0,0E0,9.90863E0,7.572283E0,9.198215E0,1.6802277E1,0E0,7.803071E0,0E0,0E0,0E0,0E0,0E0,0E0],"parents":[2147483647,0,0,1,1,2,2,5,5,6,6,7,7,8,8,10,10],"right_children":[2,4,6,-1,-1,8,10,12,14,-1,16,-1,-1,-1,-1,-1,-1],"split_conditions":[-1.4191331E0,2.1782178E-1,7E0,-4.2265613E-4,-6.776068E-2,2.163763E0,7.3E1,5E1,6.876791E-2,-3.4608856E-2,2.86E1,-4.9142964E-2,3.1179354E-2,-6.615961E-2,-4.5617647E-3,2.8994579E-2,-2.9041622E-2],"split_indices":[22,23,15,0,0,27,33,6,24,0,34,0,0,0,0,0,0],"split_type":[0,0,0,0,0,0,0,0,0,0,0,0,0,0,0,0,0],"sum_hessian":[1.9610823E2,1.5144314E1,1.8096393E2,3.1981964E0,1.1946117E1,1.1552318E2,6.544075E1,2.7371988E1,8.8151184E1,5.307632E0,6.0133118E1,3.1939712E0,2.4178017E1,1.2041813E1,7.6109375E1,5.455655E1,5.5765676E0],"tree_param":{"num_deleted":"0","num_feature":"36","num_nodes":"17","size_leaf_vector":"1"}},{"base_weights":[9.309289E-2,-6.3387804E-2,1.599491E-1,4.1414973E-1,-3.5940003E-2,6.9125846E-2,6.259295E-1,-1.5931256E-1,1.0374306E0,-3.1073758E-2,4.192427E-2,4.137536E-2,-2.0606152E-3,6.0967454E-3,-3.129339E-2,5.9346326E-2,2.8358622E-2],"categories":[],"categories_nodes":[],"categories_segments":[],"categories_sizes":[],"default_left":[0,0,0,0,0,0,0,0,0,0,0,0,0,0,0,0,0],"id":52,"left_children":[1,-1,3,5,7,9,11,13,15,-1,-1,-1,-1,-1,-1,-1,-1],"loss_changes":[1.9808712E1,0E0,1.0386283E1,6.5087566E0,1.5690533E1,1.9548687E1,7.623377E0,1.4127299E1,9.364128E-3,0E0,0E0,0E0,0E0,0E0,0E0,0E0,0E0],"parents":[2147483647,0,0,2,2,3,3,4,4,5,5,6,6,7,7,8,8],"right_children":[2,-1,4,6,8,10,12,14,16,-1,-1,-1,-1,-1,-1,-1,-1],"split_conditions":[-1.618942E0,-6.3387804E-2,2.2297297E-1,7.5E1,7.968128E-1,8.31E1,7E0,2.2E1,4E0,-3.1073758E-2,4.192427E-2,4.137536E-2,-2.0606152E-3,6.0967454E-3,-3.129339E-2,5.9346326E-2,2.8358622E-2],"split_indices":[22,0,29,33,31,6,17,0,15,0,0,0,0,0,0,0,0],"split_type":[0,0,0,0,0,0,0,0,0,0,0,0,0,0,0,0,0],"sum_hessian":[2.1571198E2,9.190121E0,2.0652185E2,8.962017E1,1.1690168E2,3.477104E1,5.484913E1,1.0569761E2,1.1204076E1,1.8356194E1,1.6414848E1,4.2052444E1,1.2796684E1,6.627202E1,3.942559E1,7.1837206E0,4.020355E0],"tree_param":{"num_deleted":"0","num_feature":"36","num_nodes":"17","size_leaf_vector":"1"}},{"base_weights":[2.9093271E-2,-7.949746E-1,1.0608203E-1,-5.9581604E-2,1.593009E-2,7.0703894E-1,1.7222729E-2,-2.2801964E-2,9.242808E-1,1.9586742E-1,-3.801657E-1,5.7347666E-2,1.4789948E-2,-5.4467153E-2,1.3047258E-2,-6.1363686E-2,-7.880083E-3],"categories":[],"categories_nodes":[],"categories_segments":[],"categories_sizes":[],"default_left":[0,0,0,0,0,0,0,0,0,0,0,0,0,0,0,0,0],"id":53,"left_children":[1,3,5,-1,-1,7,9,-1,11,13,15,-1,-1,-1,-1,-1,-1],"loss_changes":[1.3322014E1,8.38559E0,1.0211573E1,0E0,0E0,6.700947E0,1.206372E1,0E0,2.4815788E0,1.0030663E1,9.589338E0,0E0,0E0,0E0,0E0,0E0,0E0],"parents":[2147483647,0,0,1,1,2,2,5,5,6,6,8,8,9,9,10,10],"right_children":[2,4,6,-1,-1,8,10,-1,12,14,16,-1,-1,-1,-1,-1,-1],"split_conditions":[2E0,4E0,1.2E1,-5.9581604E-2,1.593009E-2,2.8643215E-1,4.570694E0,-2.2801964E-2,4.9E1,1.3E1,4.304348E0,5.7347666E-2,1.4789948E-2,-5.4467153E-2,1.3047258E-2,-6.1363686E-2,-7.880083E-3],"split_indices":[15,18,1,0,0,30,21,0,13,9,19,0,0,0,0,0,0],"split_type":[0,0,0,0,0,0,0,0,0,0,0,0,0,0,0,0,0],"sum_hessian":[2.0873738E2,1.6927288E1,1.9181009E2,1.2495928E1,4.43136E0,2.3667074E1,1.6814302E2,3.479398E0,2.0187675E1,1.165204E2,5.1622616E1,1.4179704E1,6.007972E0,4.7831426E0,1.1173726E2,9.708236E0,4.191438E1],"tree_param":{"num_deleted":"0","num_feature":"36","num_nodes":"17","size_leaf_vector":"1"}},{"base_weights":[9.813458E-2,2.279061E-1,-2.5467348E-1,3.909111E-1,-6.6828296E-2,1.53606E-1,-1.0941737E0,-2.9070336E-2,5.439715E-1,7.4775E-2,-1.0832231E0,5.465888E-1,-5.384504E-1,-0E0,-6.6381164E-2,1.3456345E-2,-6.1597884E-2,-5.0462913E-2,3.1790823E-2,-3.557422E-2,1.260774E-2,-7.416845E-2,-2.0183254E-2,4.63243E-2,-8.325611E-3,-6.985184E-2,1.1684992E-2],"categories":[],"categories_nodes":[],"categories_segments":[],"categories_sizes":[],"default_left":[0,0,0,0,0,0,0,0,0,0,0,0,0,0,0,0,0,0,0,0,0,0,0,0,0,0,0],"id":54,"left_children":[1,3,5,7,9,11,13,15,17,19,21,23,25,-1,-1,-1,-1,-1,-1,-1,-1,-1,-1,-1,-1,-1,-1],"loss_changes":[9.889289E0,7.63799E0,2.0149897E1,6.6207104E0,8.359148E0,1.1128908E1,5.013241E0,1.0473149E1,1.1295315E1,7.206918E0,1.1427832E0,7.2726827E0,1.0280554E1,0E0,0E0,0E0,0E0,0E0,0E0,0E0,0E0,0E0,0E0,0E0,0E0,0E0,0E0],"parents":[2147483647,0,0,1,1,2,2,3,3,4,4,5,5,6,6,7,7,8,8,9,9,10,10,11,11,12,12],"right_children":[2,4,6,8,10,12,14,16,18,20,22,24,26,-1,-1,-1,-1,-1,-1,-1,-1,-1,-1,-1,-1,-1,-1],"split_conditions":[4E0,2.2E1,4.084871E0,5E0,8.6E1,7.3333335E-1,1.8E0,7.4590164E-1,1.1146497E-1,3.91E1,4.8E1,5.4E-1,3.2911393E-1,-0E0,-6.6381164E-2,1.3456345E-2,-6.1597884E-2,-5.0462913E-2,3.1790823E-2,-3.557422E-2,1.260774E-2,-7.416845E-2,-2.0183254E-2,4.63243E-2,-8.325611E-3,-6.985184E-2,1.1684992E-2],"split_indices":[35,0,19,11,8,31,25,31,32,6,9,28,23,0,0,0,0,0,0,0,0,0,0,0,0,0,0],"split_type":[0,0,0,0,0,0,0,0,0,0,0,0,0,0,0,0,0,0,0,0,0,0,0,0,0,0,0],"sum_hessian":[2.1378746E2,1.5676346E2,5.7024006E1,1.0094697E2,5.581649E1,3.883503E1,1.8188978E1,2.7004953E1,7.394201E1,4.971788E1,6.09861E0,2.499587E1,1.3839158E1,3.3108122E0,1.4878167E1,2.2195736E1,4.8092175E0,3.5097432E0,7.043227E1,8.49368E0,4.12242E1,3.0013309E0,3.0972788E0,1.620423E1,8.79164E0,6.2309413E0,7.608217E0],"tree_param":{"num_deleted":"0","num_feature":"36","num_nodes":"27","size_leaf_vector":"1"}},{"base_weights":[1.509784E-1,1.7767262E-1,-6.473763E-2,2.0998679E-1,-4.970763E-2,1.0829581E-1,6.254442E-1,1.0127064E-2,-4.147978E-2,5.2035786E-2,8.47008E-3],"categories":[],"categories_nodes":[],"categories_segments":[],"categories_sizes":[],"default_left":[0,0,0,0,0,0,0,0,0,0,0],"id":55,"left_children":[1,3,-1,5,-1,7,9,-1,-1,-1,-1],"loss_changes":[8.809633E0,8.539387E0,0E0,9.027595E0,0E0,1.5640053E1,7.7081337E0,0E0,0E0,0E0,0E0],"parents":[2147483647,0,0,1,1,3,3,5,5,6,6],"right_children":[2,4,-1,6,-1,8,10,-1,-1,-1,-1],"split_conditions":[1.5324325E1,6.32847E0,-6.473763E-2,5.544643E0,-4.970763E-2,4.7564764E0,3.2142857E-1,1.0127064E-2,-4.147978E-2,5.2035786E-2,8.47008E-3],"split_indices":[26,21,0,19,0,19,30,0,0,0,0],"split_type":[0,0,0,0,0,0,0,0,0,0,0],"sum_hessian":[2.2420604E2,2.2107043E2,3.1356072E0,2.1601962E2,5.050802E0,1.7474811E2,4.127151E1,1.5960103E2,1.5147085E1,2.081556E1,2.0455952E1],"tree_param":{"num_deleted":"0","num_feature":"36","num_nodes":"11","size_leaf_vector":"1"}},{"base_weights":[6.1572265E-2,-5.9138454E-2,1.1535793E-1,-5.1021047E-2,1.5466404E-1,2.2039802E-1,-5.330031E-1,6.3348985E-3,3.338964E-2,-7.944465E-2,7.203466E-3],"categories":[],"categories_nodes":[],"categories_segments":[],"categories_sizes":[],"default_left":[0,0,0,0,0,0,0,0,0,0,0],"id":56,"left_children":[1,-1,3,-1,5,7,9,-1,-1,-1,-1],"loss_changes":[1.3819311E1,0E0,8.932387E0,0E0,8.8014965E0,7.2484407E0,1.2513904E1,0E0,0E0,0E0,0E0],"parents":[2147483647,0,0,2,2,4,4,5,5,6,6],"right_children":[2,-1,4,-1,6,8,10,-1,-1,-1,-1],"split_conditions":[1.9465649E-1,-5.9138454E-2,1.8E1,-5.1021047E-2,1E0,3.5874438E-1,1.0629922E0,6.3348985E-3,3.338964E-2,-7.944465E-2,7.203466E-3],"split_indices":[23,0,8,0,16,30,28,0,0,0,0],"split_type":[0,0,0,0,0,0,0,0,0,0,0],"sum_hessian":[2.0503732E2,7.548634E0,1.974887E2,5.6858854E0,1.9180281E2,1.7582103E2,1.598178E1,1.4662033E2,2.9200695E1,5.775661E0,1.020612E1],"tree_param":{"num_deleted":"0","num_feature":"36","num_nodes":"11","size_leaf_vector":"1"}},{"base_weights":[1.0107088E-1,1.31098E-1,-4.8578836E-2,1.4952887E-2,5.412896E-1,-6.5958774E-1,1.180458E-1,7.7618504E-1,-1.4879793E-1,3.9168105E-2,-5.054326E-2,-1.3532562E-3,3.0505884E-2,5.5499744E-2,1.2413132E-2,4.3516394E-2,-3.4228887E-2],"categories":[],"categories_nodes":[],"categories_segments":[],"categories_sizes":[],"default_left":[0,0,0,0,0,0,0,0,0,0,0,0,0,0,0,0,0],"id":57,"left_children":[1,3,-1,5,7,9,11,13,15,-1,-1,-1,-1,-1,-1,-1,-1],"loss_changes":[6.879881E0,9.819614E0,0E0,1.1351267E1,7.563305E0,1.1772368E1,1.023387E1,5.6258507E0,7.2936816E0,0E0,0E0,0E0,0E0,0E0,0E0,0E0,0E0],"parents":[2147483647,0,0,1,1,3,3,4,4,5,5,6,6,7,7,8,8],"right_children":[2,4,-1,6,8,10,12,14,16,-1,-1,-1,-1,-1,-1,-1,-1],"split_conditions":[6.32847E0,5.422131E0,-4.8578836E-2,6.671664E-1,3E0,2.9E1,7.7E1,9.818182E0,1.8E0,3.9168105E-2,-5.054326E-2,-1.3532562E-3,3.0505884E-2,5.5499744E-2,1.2413132E-2,4.3516394E-2,-3.4228887E-2],"split_indices":[21,19,0,31,35,13,33,26,25,0,0,0,0,0,0,0,0],"split_type":[0,0,0,0,0,0,0,0,0,0,0,0,0,0,0,0,0],"sum_hessian":[2.1125932E2,2.0645107E2,4.808271E0,1.6189188E2,4.4559185E1,2.0618208E1,1.4127367E2,3.3258602E1,1.1300582E1,3.740121E0,1.6878088E1,1.0967309E2,3.1600578E1,1.9583683E1,1.3674921E1,3.614416E0,7.6861653E0],"tree_param":{"num_deleted":"0","num_feature":"36","num_nodes":"17","size_leaf_vector":"1"}},{"base_weights":[5.6154E-2,1.12651214E-1,-6.2955245E-2,1.6637784E-1,-5.365264E-2,4.141864E-1,-0E0,-9.806824E-3,2.8319392E-2,-7.6138037E-3,2.4721993E-2],"categories":[],"categories_nodes":[],"categories_segments":[],"categories_sizes":[],"default_left":[0,0,0,0,0,0,0,0,0,0,0],"id":58,"left_children":[1,3,-1,5,-1,7,9,-1,-1,-1,-1],"loss_changes":[1.5893998E1,1.3193199E1,0E0,8.153492E0,0E0,7.5272436E0,9.058403E0,0E0,0E0,0E0,0E0],"parents":[2147483647,0,0,1,1,3,3,5,5,6,6],"right_children":[2,4,-1,6,-1,8,10,-1,-1,-1,-1],"split_conditions":[2.8E1,5.9358783E0,-6.2955245E-2,3.854247E0,-5.365264E-2,1.0514852E1,1.5087719E0,-9.806824E-3,2.8319392E-2,-7.6138037E-3,2.4721993E-2],"split_indices":[1,21,0,21,0,26,20,0,0,0,0],"split_type":[0,0,0,0,0,0,0,0,0,0,0],"sum_hessian":[2.1252621E2,2.047227E2,7.803524E0,1.9675151E2,7.971187E0,7.8437706E1,1.18313805E2,1.5467568E1,6.2970135E1,9.09855E1,2.7328306E1],"tree_param":{"num_deleted":"0","num_feature":"36","num_nodes":"11","size_leaf_vector":"1"}},{"base_weights":[5.3851344E-3,5.3744543E-2,-8.8878906E-1,-7.665581E-2,4.2071304E-1,-3.3735E-3,-6.061491E-2,1.1819285E-2,-9.9454284E-1,-6.3855574E-3,7.498685E-1,-3.6150285E-3,4.1042678E-2,7.017333E-3,-6.885173E-2,2.706278E-2,-7.8603536E-2,4.4353124E-2,-1.3721812E-2],"categories":[],"categories_nodes":[],"categories_segments":[],"categories_sizes":[],"default_left":[0,0,0,0,0,0,0,0,0,0,0,0,0,0,0,0,0,0,0],"id":59,"left_children":[1,3,5,7,9,-1,-1,11,13,15,17,-1,-1,-1,-1,-1,-1,-1,-1],"loss_changes":[8.68803E0,9.275556E0,2.5275106E0,1.1693226E1,7.222063E0,0E0,0E0,9.048272E0,5.808442E0,2.0652647E1,4.356949E0,0E0,0E0,0E0,0E0,0E0,0E0,0E0,0E0],"parents":[2147483647,0,0,1,1,2,2,3,3,4,4,7,7,8,8,9,9,10,10],"right_children":[2,4,6,8,10,-1,-1,12,14,16,18,-1,-1,-1,-1,-1,-1,-1,-1],"split_conditions":[5.3E1,8.5E1,5.858748E-1,3.34E2,1.0125E1,-3.3735E-3,-6.061491E-2,3.01E1,2.43E1,9.41E1,4.3657064E0,-3.6150285E-3,4.1042678E-2,7.017333E-3,-6.885173E-2,2.706278E-2,-7.8603536E-2,4.4353124E-2,-1.3721812E-2],"split_indices":[9,6,31,7,26,0,0,34,34,6,21,0,0,0,0,0,0,0,0],"split_type":[0,0,0,0,0,0,0,0,0,0,0,0,0,0,0,0,0,0,0],"sum_hessian":[2.0074416E2,1.9144217E2,9.3019905E0,1.4163242E2,4.9809742E1,3.057452E0,6.2445383E0,1.2998167E2,1.1650751E1,2.197399E1,2.783575E1,1.1845252E2,1.1529147E1,3.0305243E0,8.620227E0,1.6717144E1,5.2568464E0,2.4752102E1,3.0836492E0],"tree_param":{"num_deleted":"0","num_feature":"36","num_nodes":"19","size_leaf_vector":"1"}},{"base_weights":[6.477624E-2,2.1654616E-1,-1.4878936E-1,8.881896E-2,7.1355605E-1,-5.889916E-1,1.7241172E-1,5.5886084E-1,-1.9031145E-1,-4.7674354E-2,9.8810834E-1,-7.965411E-1,4.029259E-1,6.4848536E-1,-2.9129335E-1,4.7010286E-3,4.5578934E-2,-5.8409434E-2,-7.430041E-5,6.0368985E-2,1.2867995E-2,-7.5965776E-4,-5.4349937E-2,4.5071002E-2,-8.142799E-3,4.373258E-2,-1.0649606E-2,-2.7847124E-2,5.8048546E-2],"categories":[],"categories_nodes":[],"categories_segments":[],"categories_sizes":[],"default_left":[0,0,0,0,0,0,0,0,0,0,0,0,0,0,0,0,0,0,0,0,0,0,0,0,0,0,0,0,0],"id":60,"left_children":[1,3,5,7,9,11,13,15,17,-1,19,21,23,25,27,-1,-1,-1,-1,-1,-1,-1,-1,-1,-1,-1,-1,-1,-1],"loss_changes":[7.0212336E0,7.893639E0,1.284152E1,1.3529181E1,1.2654524E1,8.233638E0,1.1828657E1,6.1097736E0,1.1814073E1,0E0,3.1492462E0,7.1459618E0,