{"learner":{"attributes":{"scikit_learn":"{\"_estimator_type\": \"classifier\"}"},"feature_names":[],"feature_types":[],"gradient_booster":{"model":{"cats":{"enc":[],"feature_segments":[],"sorted_idx":[]},"gbtree_model_param":{"num_parallel_tree":"1","num_trees":"500"},"iteration_indptr":[0,1,2,3,4,5,6,7,8,9,10,11,12,13,14,15,16,17,18,19,20,21,22,23,24,25,26,27,28,29,30,31,32,33,34,35,36,37,38,39,40,41,42,43,44,45,46,47,48,49,50,51,52,53,54,55,56,57,58,59,60,61,62,63,64,65,66,67,68,69,70,71,72,73,74,75,76,77,78,79,80,81,82,83,84,85,86,87,88,89,90,91,92,93,94,95,96,97,98,99,100,101,102,103,104,105,106,107,108,109,110,111,112,113,114,115,116,117,118,119,120,121,122,123,124,125,126,127,128,129,130,131,132,133,134,135,136,137,138,139,140,141,142,143,144,145,146,147,148,149,150,151,152,153,154,155,156,157,158,159,160,161,162,163,164,165,166,167,168,169,170,171,172,173,174,175,176,177,178,179,180,181,182,183,184,185,186,187,188,189,190,191,192,193,194,195,196,197,198,199,200,201,202,203,204,205,206,207,208,209,210,211,212,213,214,215,216,217,218,219,220,221,222,223,224,225,226,227,228,229,230,231,232,233,234,235,236,237,238,239,240,241,242,243,244,245,246,247,248,249,250,251,252,253,254,255,256,257,258,259,260,261,262,263,264,265,266,267,268,269,270,271,272,273,274,275,276,277,278,279,280,281,282,283,284,285,286,287,288,289,290,291,292,293,294,295,296,297,298,299,300,301,302,303,304,305,306,307,308,309,310,311,312,313,314,315,316,317,318,319,320,321,322,323,324,325,326,327,328,329,330,331,332,333,334,335,336,337,338,339,340,341,342,343,344,345,346,347,348,349,350,351,352,353,354,355,356,357,358,359,360,361,362,363,364,365,366,367,368,369,370,371,372,373,374,375,376,377,378,379,380,381,382,383,384,385,386,387,388,389,390,391,392,393,394,395,396,397,398,399,400,401,402,403,404,405,406,407,408,409,410,411,412,413,414,415,416,417,418,419,420,421,422,423,424,425,426,427,428,429,430,431,432,433,434,435,436,437,438,439,440,441,442,443,444,445,446,447,448,449,450,451,452,453,454,455,456,457,458,459,460,461,462,463,464,465,466,467,468,469,470,471,472,473,474,475,476,477,478,479,480,481,482,483,484,485,486,487,488,489,490,491,492,493,494,495,496,497,498,499,500],"tree_info":[0,0,0,0,0,0,0,0,0,0,0,0,0,0,0,0,0,0,0,0,0,0,0,0,0,0,0,0,0,0,0,0,0,0,0,0,0,0,0,0,0,0,0,0,0,0,0,0,0,0,0,0,0,0,0,0,0,0,0,0,0,0,0,0,0,0,0,0,0,0,0,0,0,0,0,0,0,0,0,0,0,0,0,0,0,0,0,0,0,0,0,0,0,0,0,0,0,0,0,0,0,0,0,0,0,0,0,0,0,0,0,0,0,0,0,0,0,0,0,0,0,0,0,0,0,0,0,0,0,0,0,0,0,0,0,0,0,0,0,0,0,0,0,0,0,0,0,0,0,0,0,0,0,0,0,0,0,0,0,0,0,0,0,0,0,0,0,0,0,0,0,0,0,0,0,0,0,0,0,0,0,0,0,0,0,0,0,0,0,0,0,0,0,0,0,0,0,0,0,0,0,0,0,0,0,0,0,0,0,0,0,0,0,0,0,0,0,0,0,0,0,0,0,0,0,0,0,0,0,0,0,0,0,0,0,0,0,0,0,0,0,0,0,0,0,0,0,0,0,0,0,0,0,0,0,0,0,0,0,0,0,0,0,0,0,0,0,0,0,0,0,0,0,0,0,0,0,0,0,0,0,0,0,0,0,0,0,0,0,0,0,0,0,0,0,0,0,0,0,0,0,0,0,0,0,0,0,0,0,0,0,0,0,0,0,0,0,0,0,0,0,0,0,0,0,0,0,0,0,0,0,0,0,0,0,0,0,0,0,0,0,0,0,0,0,0,0,0,0,0,0,0,0,0,0,0,0,0,0,0,0,0,0,0,0,0,0,0,0,0,0,0,0,0,0,0,0,0,0,0,0,0,0,0,0,0,0,0,0,0,0,0,0,0,0,0,0,0,0,0,0,0,0,0,0,0,0,0,0,0,0,0,0,0,0,0,0,0,0,0,0,0,0,0,0,0,0,0,0,0,0,0,0,0,0,0,0,0,0,0,0,0,0,0,0,0,0,0,0,0,0,0,0,0,0,0,0,0,0,0,0,0,0,0,0,0,0,0,0,0,0,0,0,0,0,0,0,0,0,0,0,0,0,0,0,0,0,0,0,0,0,0,0,0,0,0,0,0,0,0],"trees":[{"base_weights":[4.2018183E-3,-1.9878352E0,6.172734E-1,-9.967184E-2,-1.5927366E0,-5.5435914E-1,1.1579893E0,4.2739946E-2,-9.729033E-2,-2.355649E-1,-1.5248555E0,3.889508E-1,1.5055755E0,-2.88725E-2,2.9235234E-2,-1.5715823E-3,-8.479612E-2,3.147355E-2,-2.9191036E-2,5.9300866E-2,8.61032E-2],"categories":[],"categories_nodes":[],"categories_segments":[],"categories_sizes":[],"default_left":[0,0,0,0,0,0,0,0,0,0,0,0,0,0,0,0,0,0,0,0,0],"id":0,"left_children":[1,3,5,-1,7,9,11,-1,-1,13,15,17,19,-1,-1,-1,-1,-1,-1,-1,-1],"loss_changes":[1.4375675E4,2.5976562E0,5.7031006E3,0E0,3.975161E1,8.7903937E2,1.6456201E3,0E0,0E0,6.008242E2,1.7929565E2,4.492897E2,2.910957E2,0E0,0E0,0E0,0E0,0E0,0E0,0E0,0E0],"parents":[2147483647,0,0,1,1,2,2,4,4,5,5,6,6,9,9,10,10,11,11,12,12],"right_children":[2,4,6,-1,8,10,12,-1,-1,14,16,18,20,-1,-1,-1,-1,-1,-1,-1,-1],"split_conditions":[1.8E1,7.8E1,2.006689E-1,-9.967184E-2,7.9E1,2.2E1,3.7E1,4.2739946E-2,-9.729033E-2,4.02E1,4.7163363E0,2.2E1,6.5E1,-2.88725E-2,2.9235234E-2,-1.5715823E-3,-8.479612E-2,3.147355E-2,-2.9191036E-2,5.9300866E-2,8.61032E-2],"split_indices":[0,13,23,0,13,0,13,0,0,6,21,0,13,0,0,0,0,0,0,0,0],"split_type":[0,0,0,0,0,0,0,0,0,0,0,0,0,0,0,0,0,0,0,0,0],"sum_hessian":[1.1769278E4,2.7691497E3,9.000129E3,2.7261997E3,4.2949783E1,2.841944E3,6.1581846E3,5.1997843E0,3.775E1,2.1402485E3,7.016955E2,1.9176875E3,4.240497E3,1.5109207E3,6.293278E2,7.229806E1,6.293974E2,1.5378948E3,3.7979266E2,1.7153755E3,2.5251218E3],"tree_param":{"num_deleted":"0","num_feature":"50","num_nodes":"21","size_leaf_vector":"1"}},{"base_weights":[-1.51599655E-2,-1.8876692E0,5.673311E-1,-1.893213E0,-1.3059423E0,-5.3689146E-1,1.1028212E0,-9.492922E-2,-1.396155E0,-9.099471E-2,1.9299233E-2,-1.4552782E0,-5.299651E-2,4.5137683E-1,1.421187E0,3.541547E-2,-9.177198E-2,-7.8007065E-2,-9.886436E-3,1.1617887E-2,-6.709402E-2,3.4660477E-2,-2.7170321E-2,3.7382644E-2,7.8168176E-2],"categories":[],"categories_nodes":[],"categories_segments":[],"categories_sizes":[],"default_left":[0,0,0,0,0,0,0,0,0,0,0,0,0,0,0,0,0,0,0,0,0,0,0,0,0],"id":1,"left_children":[1,3,5,7,9,11,13,-1,15,-1,-1,17,19,21,23,-1,-1,-1,-1,-1,-1,-1,-1,-1,-1],"loss_changes":[1.2776008E4,6.1689453E0,5.283361E3,4.364258E0,2.6611149E1,1.2966533E3,1.2470405E3,0E0,3.227446E1,0E0,0E0,1.322981E2,7.0376056E2,4.7593896E2,3.855752E2,0E0,0E0,0E0,0E0,0E0,0E0,0E0,0E0,0E0,0E0],"parents":[2147483647,0,0,1,1,2,2,3,3,4,4,5,5,6,6,8,8,11,11,12,12,13,13,14,14],"right_children":[2,4,6,8,10,12,14,-1,16,-1,-1,18,20,22,24,-1,-1,-1,-1,-1,-1,-1,-1,-1,-1],"split_conditions":[1.8E1,8E0,8.921933E-2,7.8E1,1.3416148E0,7.461E-1,4.2E1,-9.492922E-2,7.9E1,-9.099471E-2,1.9299233E-2,4.9E1,2.2E1,2.2E1,7.461E-1,3.541547E-2,-9.177198E-2,-7.8007065E-2,-9.886436E-3,1.1617887E-2,-6.709402E-2,3.4660477E-2,-2.7170321E-2,3.7382644E-2,7.8168176E-2],"split_indices":[0,17,32,13,28,35,13,0,13,0,0,13,0,0,35,0,0,0,0,0,0,0,0,0,0],"split_type":[0,0,0,0,0,0,0,0,0,0,0,0,0,0,0,0,0,0,0,0,0,0,0,0,0],"sum_hessian":[1.1711269E4,2.778209E3,8.93306E3,2.749579E3,2.8629976E1,2.9172573E3,6.0158022E3,2.7171956E3,3.2383507E1,2.1946745E1,6.6832304E0,1.005914E3,1.9113434E3,1.9757429E3,4.0400596E3,5.4472966E0,2.6936209E1,9.2819464E2,7.7719345E1,1.5654913E3,3.4585202E2,1.5896913E3,3.8605173E2,7.0538666E2,3.3346729E3],"tree_param":{"num_deleted":"0","num_feature":"50","num_nodes":"25","size_leaf_vector":"1"}},{"base_weights":[1.5331959E-2,-7.789045E-1,9.4383806E-1,-1.5137837E0,-2.31109E-1,-6.178035E-2,1.233412E0,-1.5967083E0,-7.5334644E-1,-8.981579E-1,4.1617837E-2,-7.1861416E-1,9.524957E-1,9.0434986E-1,1.6025908E0,-6.70457E-2,-8.546696E-2,-6.0265876E-2,-4.2222925E-3,-2.681475E-2,-6.17449E-2,-1.6057959E-2,2.18024E-2,-9.066207E-2,-2.0881724E-2,-2.4390472E-3,6.907643E-2,3.0307716E-2,6.8391375E-2,8.0534995E-2,-8.050224E-2],"categories":[],"categories_nodes":[],"categories_segments":[],"categories_sizes":[],"default_left":[0,0,0,0,0,0,0,0,0,0,0,0,0,0,0,0,0,0,0,0,0,0,0,0,0,0,0,0,0,0,0],"id":2,"left_children":[1,3,5,7,9,11,13,15,17,19,21,23,25,27,29,-1,-1,-1,-1,-1,-1,-1,-1,-1,-1,-1,-1,-1,-1,-1,-1],"loss_changes":[8.686652E3,2.5551917E3,1.5815991E3,1.6951904E2,6.6205493E2,8.101301E2,5.1054395E2,6.7799805E1,8.096724E1,1.2784686E2,3.6982123E2,2.4219183E2,2.0551547E2,3.0743323E2,5.4324707E1,0E0,0E0,0E0,0E0,0E0,0E0,0E0,0E0,0E0,0E0,0E0,0E0,0E0,0E0,0E0,0E0],"parents":[2147483647,0,0,1,1,2,2,3,3,4,4,5,5,6,6,7,7,8,8,9,9,10,10,11,11,12,12,13,13,14,14],"right_children":[2,4,6,8,10,12,14,16,18,20,22,24,26,28,30,-1,-1,-1,-1,-1,-1,-1,-1,-1,-1,-1,-1,-1,-1,-1,-1],"split_conditions":[3.7E1,7.568E-1,7.461E-1,8.9E-3,7.171875E0,1.6129032E-1,6.9E1,6.2963576E0,2.48E0,1.4016E0,2.2946E0,2.667E-1,7E1,2.29E-2,1.3583E0,-6.70457E-2,-8.546696E-2,-6.0265876E-2,-4.2222925E-3,-2.681475E-2,-6.17449E-2,-1.6057959E-2,2.18024E-2,-9.066207E-2,-2.0881724E-2,-2.4390472E-3,6.907643E-2,3.0307716E-2,6.8391375E-2,8.0534995E-2,-8.050224E-2],"split_indices":[13,35,35,48,26,32,13,21,25,37,35,35,13,48,37,0,0,0,0,0,0,0,0,0,0,0,0,0,0,0,0],"split_type":[0,0,0,0,0,0,0,0,0,0,0,0,0,0,0,0,0,0,0,0,0,0,0,0,0,0,0,0,0,0,0],"sum_hessian":[1.1777236E4,6.3476025E3,5.4296333E3,2.7100574E3,3.6375454E3,1.2140344E3,4.2155986E3,2.4424775E3,2.6757968E2,1.0550717E3,2.5824736E3,7.37092E2,4.7694247E2,2.2308677E3,1.9847312E3,7.509042E2,1.6915735E3,1.5911526E2,1.08464424E2,5.099576E2,5.451141E2,1.3451783E3,1.2372953E3,1.5780768E2,5.792843E2,1.4325868E2,3.3368378E2,1.3590172E3,8.718504E2,1.9802626E3,4.468685E0],"tree_param":{"num_deleted":"0","num_feature":"50","num_nodes":"31","size_leaf_vector":"1"}},{"base_weights":[1.8892996E-2,-9.7618544E-1,6.885104E-1,-1.2720832E0,-5.6193456E-2,-1.8445794E-2,1.1906195E0,-1.5393093E0,-8.6600494E-1,-5.7494676E-1,4.2394048E-1,-1.0784245E0,3.5991994E-1,4.7328123E-1,1.3616745E0,-5.849715E-2,-8.2818955E-2,-5.5500012E-2,-3.6570304E-3,-4.6606697E-2,4.4373046E-3,-8.295619E-3,3.742023E-2,-3.6647093E-2,-7.569093E-2,-4.7783574E-4,3.507354E-2,-1.0126966E-2,5.014273E-2,5.6370705E-2,7.9856925E-2],"categories":[],"categories_nodes":[],"categories_segments":[],"categories_sizes":[],"default_left":[0,0,0,0,0,0,0,0,0,0,0,0,0,0,0,0,0,0,0,0,0,0,0,0,0,0,0,0,0,0,0],"id":3,"left_children":[1,3,5,7,9,11,13,15,17,19,21,23,25,27,29,-1,-1,-1,-1,-1,-1,-1,-1,-1,-1,-1,-1,-1,-1,-1,-1],"loss_changes":[7.863972E3,1.2921226E3,2.5043743E3,3.8819727E2,2.8829123E2,1.1758323E3,5.0534375E2,9.139209E1,2.7605518E2,1.3206458E2,1.1521383E2,1.146781E2,2.7270987E2,2.8513867E2,1.816206E2,0E0,0E0,0E0,0E0,0E0,0E0,0E0,0E0,0E0,0E0,0E0,0E0,0E0,0E0,0E0,0E0],"parents":[2147483647,0,0,1,1,2,2,3,3,4,4,5,5,6,6,7,7,8,8,9,9,10,10,11,11,12,12,13,13,14,14],"right_children":[2,4,6,8,10,12,14,16,18,20,22,24,26,28,30,-1,-1,-1,-1,-1,-1,-1,-1,-1,-1,-1,-1,-1,-1,-1,-1],"split_conditions":[2.006689E-1,1.557E0,4.2E1,7.461E-1,-8.98E-2,7.461E-1,7.461E-1,3.427E-1,3E0,2.9758E0,1.3E1,1.839E-1,2.2946E0,1.6129032E-1,7.5E1,-5.849715E-2,-8.2818955E-2,-5.5500012E-2,-3.6570304E-3,-4.6606697E-2,4.4373046E-3,-8.295619E-3,3.742023E-2,-3.6647093E-2,-7.569093E-2,-4.7783574E-4,3.507354E-2,-1.0126966E-2,5.014273E-2,5.6370705E-2,7.9856925E-2],"split_indices":[23,35,13,35,41,35,35,37,17,35,12,44,35,32,13,0,0,0,0,0,0,0,0,0,0,0,0,0,0,0,0],"split_type":[0,0,0,0,0,0,0,0,0,0,0,0,0,0,0,0,0,0,0,0,0,0,0,0,0,0,0,0,0,0,0],"sum_hessian":[1.1800097E4,4.746299E3,7.053798E3,3.5908723E3,1.1554265E3,2.9296675E3,4.1241304E3,2.1638682E3,1.427004E3,5.553827E2,6.000438E2,7.702507E2,2.1594167E3,7.9491565E2,3.3292146E3,5.236265E2,1.6402417E3,1.0907971E3,3.3620694E2,3.6089948E2,1.9448322E2,2.1300189E2,3.8704193E2,4.310936E2,3.3915707E2,1.0376288E3,1.1217878E3,3.494237E2,4.4549194E2,1.6719867E3,1.657228E3],"tree_param":{"num_deleted":"0","num_feature":"50","num_nodes":"31","size_leaf_vector":"1"}},{"base_weights":[2.4977008E-2,-1.731015E0,5.610685E-1,-1.7442439E0,-1.3838766E0,-2.308151E-1,1.1085562E0,-1.7055954E0,-8.986332E-2,6.668987E-2,-9.1035575E-2,-1.1125405E0,1.3705596E-1,2.8491512E-1,1.2930833E0,-6.784391E-2,-8.581795E-2,8.642297E-2,-8.396048E-2,-8.472603E-3,-6.89797E-2,1.7044997E-2,-3.716928E-2,4.0912222E-2,-2.7170265E-2,5.3175177E-2,7.611619E-2],"categories":[],"categories_nodes":[],"categories_segments":[],"categories_sizes":[],"default_left":[0,0,0,0,0,0,0,0,0,0,0,0,0,0,0,0,0,0,0,0,0,0,0,0,0,0,0],"id":4,"left_children":[1,3,5,7,9,11,13,15,-1,17,-1,19,21,23,25,-1,-1,-1,-1,-1,-1,-1,-1,-1,-1,-1,-1],"loss_changes":[1.1031512E4,9.860352E0,3.8926445E3,1.9868164E0,6.729477E1,1.1908398E3,8.0624414E2,3.1640625E0,0E0,7.655102E1,0E0,2.7181006E2,4.651897E2,4.3029504E2,2.2633643E2,0E0,0E0,0E0,0E0,0E0,0E0,0E0,0E0,0E0,0E0,0E0,0E0],"parents":[2147483647,0,0,1,1,2,2,3,3,4,4,5,5,6,6,7,7,9,9,11,11,12,12,13,13,14,14],"right_children":[2,4,6,8,10,12,14,16,-1,18,-1,20,22,24,26,-1,-1,-1,-1,-1,-1,-1,-1,-1,-1,-1,-1],"split_conditions":[1.8E1,6E0,3.3E1,7.461E-1,7.21E1,7.461E-1,7.461E-1,-1.109E-1,-8.986332E-2,2.52E1,-9.1035575E-2,5.458081E0,2.2E1,5.4004126E0,6.5E1,-6.784391E-2,-8.581795E-2,8.642297E-2,-8.396048E-2,-8.472603E-3,-6.89797E-2,1.7044997E-2,-3.716928E-2,4.0912222E-2,-2.7170265E-2,5.3175177E-2,7.611619E-2],"split_indices":[0,17,13,35,33,35,35,48,0,34,0,21,0,21,13,0,0,0,0,0,0,0,0,0,0,0,0],"split_type":[0,0,0,0,0,0,0,0,0,0,0,0,0,0,0,0,0,0,0,0,0,0,0,0,0,0,0],"sum_hessian":[1.1716635E4,2.7398188E3,8.976816E3,2.6350867E3,1.0473205E2,3.6695674E3,5.307249E3,1.5444087E3,1.090678E3,2.4383133E1,8.0348915E1,1.0797749E3,2.5897922E3,9.719617E2,4.335287E3,5.0325394E1,1.4940834E3,1.25270195E1,1.18561125E1,2.3872757E2,8.4104736E2,2.1035054E3,4.8628708E2,5.9134576E2,3.8061594E2,2.1690757E3,2.1662117E3],"tree_param":{"num_deleted":"0","num_feature":"50","num_nodes":"27","size_leaf_vector":"1"}},{"base_weights":[1.1629327E-3,-1.6687545E0,5.1086813E-1,-1.6738107E0,-8.609699E-1,-2.3042175E-1,1.0824078E0,-1.6784531E0,-1.1397313E0,5.5871528E-2,-8.214939E-2,-8.7617725E-1,3.2260758E-1,6.883311E-1,1.307173E0,-8.1973456E-2,-8.654889E-2,-8.415334E-2,2.6423493E-2,-3.0323977E-2,-7.860612E-2,2.6674097E-2,-3.1257566E-2,-1.7565772E-2,4.1960374E-2,-1.5065161E-2,6.716836E-2],"categories":[],"categories_nodes":[],"categories_segments":[],"categories_sizes":[],"default_left":[0,0,0,0,0,0,0,0,0,0,0,0,0,0,0,0,0,0,0,0,0,0,0,0,0,0,0],"id":5,"left_children":[1,3,5,7,9,11,13,15,17,-1,-1,19,21,23,25,-1,-1,-1,-1,-1,-1,-1,-1,-1,-1,-1,-1],"loss_changes":[9.777353E3,9.276855E0,3.7290796E3,4.4213867E0,3.1116741E1,1.3689093E3,4.3909082E2,2.2363281E0,2.48387E1,0E0,0E0,3.307207E2,4.1302563E2,2.838305E2,1.8467432E2,0E0,0E0,0E0,0E0,0E0,0E0,0E0,0E0,0E0,0E0,0E0,0E0],"parents":[2147483647,0,0,1,1,2,2,3,3,4,4,5,5,6,6,7,7,8,8,11,11,12,12,13,13,14,14],"right_children":[2,4,6,8,10,12,14,16,18,-1,-1,20,22,24,26,-1,-1,-1,-1,-1,-1,-1,-1,-1,-1,-1,-1],"split_conditions":[1.8E1,1.6E1,1.1688312E-1,8E0,1.9E1,1.101E0,3E0,7.461E-1,1.3416148E0,5.5871528E-2,-8.214939E-2,2.2E1,2.2E1,6.335E-1,-6.11E-2,-8.1973456E-2,-8.654889E-2,-8.415334E-2,2.6423493E-2,-3.0323977E-2,-7.860612E-2,2.6674097E-2,-3.1257566E-2,-1.7565772E-2,4.1960374E-2,-1.5065161E-2,6.716836E-2],"split_indices":[0,2,32,17,12,35,2,35,28,0,0,0,0,35,41,0,0,0,0,0,0,0,0,0,0,0,0],"split_type":[0,0,0,0,0,0,0,0,0,0,0,0,0,0,0,0,0,0,0,0,0,0,0,0,0,0,0],"sum_hessian":[1.148515E4,2.685227E3,8.799923E3,2.6673354E3,1.7891747E1,3.8312258E3,4.9686973E3,2.64204E3,2.529521E1,4.9109416E0,1.2980805E1,1.7672539E3,2.063972E3,1.8062828E3,3.1624146E3,1.536078E3,1.1059622E3,1.911912E1,6.176091E0,1.2751238E3,4.9213007E2,1.6887675E3,3.7520456E2,2.2865994E2,1.5776228E3,6.937304E1,3.0930415E3],"tree_param":{"num_deleted":"0","num_feature":"50","num_nodes":"27","size_leaf_vector":"1"}},{"base_weights":[-1.695008E-5,-1.6184218E0,4.862294E-1,-8.170616E-2,-1.3199351E0,-4.0108344E-1,9.105831E-1,1.1864966E-1,-8.1702575E-2,-1.2132608E0,6.603537E-3,1.0977118E0,2.0305495E-1,8.61636E-2,-7.6581515E-2,-4.4840213E-2,-7.445612E-2,1.3560178E-2,-5.588894E-2,5.8256444E-2,1.0594436E-2,-3.1872213E-2,2.3755131E-2],"categories":[],"categories_nodes":[],"categories_segments":[],"categories_sizes":[],"default_left":[0,0,0,0,0,0,0,0,0,0,0,0,0,0,0,0,0,0,0,0,0,0,0],"id":6,"left_children":[1,3,5,-1,7,9,11,13,-1,15,17,19,21,-1,-1,-1,-1,-1,-1,-1,-1,-1,-1],"loss_changes":[8.901613E3,9.79541E0,3.2755508E3,0E0,6.185643E1,9.320989E2,7.787407E2,6.957744E1,0E0,8.055286E1,5.5801904E2,2.775083E2,2.8202386E2,0E0,0E0,0E0,0E0,0E0,0E0,0E0,0E0,0E0,0E0],"parents":[2147483647,0,0,1,1,2,2,4,4,5,5,6,6,7,7,9,9,10,10,11,11,12,12],"right_children":[2,4,6,-1,8,10,12,14,-1,16,18,20,22,-1,-1,-1,-1,-1,-1,-1,-1,-1,-1],"split_conditions":[1.8E1,1.1E1,2.009804E-1,-8.170616E-2,7.21E1,7.461E-1,1.186E-1,2.52E1,-8.1702575E-2,5.417E-1,2.2E1,2.3E1,7.461E-1,8.61636E-2,-7.6581515E-2,-4.4840213E-2,-7.445612E-2,1.3560178E-2,-5.588894E-2,5.8256444E-2,1.0594436E-2,-3.1872213E-2,2.3755131E-2],"split_indices":[0,14,23,0,33,35,38,34,0,40,0,0,35,0,0,0,0,0,0,0,0,0,0],"split_type":[0,0,0,0,0,0,0,0,0,0,0,0,0,0,0,0,0,0,0,0,0,0,0],"sum_hessian":[1.1309487E4,2.6123875E3,8.6971E3,2.4772659E3,1.3512158E2,2.8136494E3,5.88345E3,2.4270748E1,1.1085083E2,9.397624E2,1.873887E3,4.652305E3,1.2311453E3,1.2313899E1,1.1956849E1,4.3982626E2,4.9993616E2,1.5175992E3,3.562877E2,4.322877E3,3.2942807E2,3.0062985E2,9.305154E2],"tree_param":{"num_deleted":"0","num_feature":"50","num_nodes":"23","size_leaf_vector":"1"}},{"base_weights":[-9.8146135E-3,-6.8112594E-1,7.783968E-1,-1.0153106E0,5.4734144E-2,-3.4161005E-2,1.0339023E0,-1.290016E0,-6.552917E-1,-7.040733E-1,3.0667216E-1,-9.300961E-1,4.165268E-1,4.5249048E-1,1.1768413E0,-3.8689163E-2,-7.0633695E-2,-4.4263776E-2,-4.2802296E-3,-1.984794E-3,-5.2651633E-2,-9.474609E-2,1.841401E-2,3.6376987E-2,-5.1766634E-2,5.8544646E-3,4.431045E-2,-1.52466325E-2,4.6886977E-2,4.5699213E-2,6.746607E-2],"categories":[],"categories_nodes":[],"categories_segments":[],"categories_sizes":[],"default_left":[0,0,0,0,0,0,0,0,0,0,0,0,0,0,0,0,0,0,0,0,0,0,0,0,0,0,0,0,0,0,0],"id":7,"left_children":[1,3,5,7,9,11,13,15,17,19,21,23,25,27,29,-1,-1,-1,-1,-1,-1,-1,-1,-1,-1,-1,-1,-1,-1,-1,-1],"loss_changes":[5.933629E3,1.4894187E3,1.070956E3,4.1085986E2,3.619165E2,4.9900803E2,3.25417E2,1.4819531E2,2.3627863E2,1.0924487E2,1.9333273E2,7.293823E1,1.1541771E2,2.8559937E2,1.4130566E2,0E0,0E0,0E0,0E0,0E0,0E0,0E0,0E0,0E0,0E0,0E0,0E0,0E0,0E0,0E0,0E0],"parents":[2147483647,0,0,1,1,2,2,3,3,4,4,5,5,6,6,7,7,8,8,9,9,10,10,11,11,12,12,13,13,14,14],"right_children":[2,4,6,8,10,12,14,16,18,20,22,24,26,28,30,-1,-1,-1,-1,-1,-1,-1,-1,-1,-1,-1,-1,-1,-1,-1,-1],"split_conditions":[3.7E1,1.557E0,2.1428572E-1,7.461E-1,-8.98E-2,7.461E-1,7.461E-1,5.4004126E0,-1.87E-2,5.697248E0,2.24E1,1E0,2.2946E0,6.4E1,6.3E1,-3.8689163E-2,-7.0633695E-2,-4.4263776E-2,-4.2802296E-3,-1.984794E-3,-5.2651633E-2,-9.474609E-2,1.841401E-2,3.6376987E-2,-5.1766634E-2,5.8544646E-3,4.431045E-2,-1.52466325E-2,4.6886977E-2,4.5699213E-2,6.746607E-2],"split_indices":[13,35,23,35,41,35,35,21,41,19,34,17,35,13,13,0,0,0,0,0,0,0,0,0,0,0,0,0,0,0,0],"split_type":[0,0,0,0,0,0,0,0,0,0,0,0,0,0,0,0,0,0,0,0,0,0,0,0,0,0,0,0,0,0,0],"sum_hessian":[1.121184E4,6.0550664E3,5.1567734E3,4.163846E3,1.89122E3,1.2337333E3,3.92304E3,2.3601326E3,1.8037139E3,4.7085846E2,1.4203615E3,4.1262415E2,8.2110913E2,7.7510876E2,3.1479314E3,4.5467087E2,1.9054617E3,1.2844495E3,5.1926434E2,1.6263014E2,3.0822833E2,3.7810284E1,1.3825511E3,2.4222317E1,3.8840182E2,5.0232376E2,3.1878534E2,3.0273563E2,4.7237314E2,1.249933E3,1.8979984E3],"tree_param":{"num_deleted":"0","num_feature":"50","num_nodes":"31","size_leaf_vector":"1"}},{"base_weights":[6.141072E-3,-7.00631E-1,6.956479E-1,-1.2689048E0,-2.8051928E-1,-1.6372444E-1,9.49311E-1,-1.3442444E0,-6.4514863E-1,-4.526962E-1,4.002024E-1,-6.7827123E-1,6.581875E-1,6.5092194E-1,1.2789731E0,-7.535024E-2,-5.8175534E-2,-5.8288332E-2,6.593879E-3,-3.426778E-2,3.1336935E-3,-5.423487E-2,2.5773037E-2,-7.610499E-2,-1.9659443E-2,-5.302121E-2,4.039004E-2,1.6404755E-2,4.9435176E-2,-9.8499276E-2,6.438828E-2],"categories":[],"categories_nodes":[],"categories_segments":[],"categories_sizes":[],"default_left":[0,0,0,0,0,0,0,0,0,0,0,0,0,0,0,0,0,0,0,0,0,0,0,0,0,0,0,0,0,0,0],"id":8,"left_children":[1,3,5,7,9,11,13,15,17,19,21,23,25,27,29,-1,-1,-1,-1,-1,-1,-1,-1,-1,-1,-1,-1,-1,-1,-1,-1],"loss_changes":[5.464005E3,1.3213223E3,1.2374463E3,1.0950928E2,3.7345285E2,5.477922E2,4.300498E2,5.9705566E1,1.03672935E2,3.0495544E2,1.10605576E2,1.9081812E2,1.2906566E2,2.506142E2,6.191162E1,0E0,0E0,0E0,0E0,0E0,0E0,0E0,0E0,0E0,0E0,0E0,0E0,0E0,0E0,0E0,0E0],"parents":[2147483647,0,0,1,1,2,2,3,3,4,4,5,5,6,6,7,7,8,8,9,9,10,10,11,11,12,12,13,13,14,14],"right_children":[2,4,6,8,10,12,14,16,18,20,22,24,26,28,30,-1,-1,-1,-1,-1,-1,-1,-1,-1,-1,-1,-1,-1,-1,-1,-1],"split_conditions":[3.3E1,7.568E-1,7.461E-1,2.5925925E0,2.9758E0,6.4E1,6.5E1,-8.36E-2,3.1153846E0,-2.12E-2,-1.448E-1,3.009E-1,8.152941E0,2.2946E0,2.19E1,-7.535024E-2,-5.8175534E-2,-5.8288332E-2,6.593879E-3,-3.426778E-2,3.1336935E-3,-5.423487E-2,2.5773037E-2,-7.610499E-2,-1.9659443E-2,-5.302121E-2,4.039004E-2,1.6404755E-2,4.9435176E-2,-9.8499276E-2,6.438828E-2],"split_indices":[13,35,35,25,35,13,13,41,27,41,41,35,26,35,34,0,0,0,0,0,0,0,0,0,0,0,0,0,0,0,0],"split_type":[0,0,0,0,0,0,0,0,0,0,0,0,0,0,0,0,0,0,0,0,0,0,0,0,0,0,0,0,0,0,0],"sum_hessian":[1.1210259E4,5.535741E3,5.6745176E3,2.3519985E3,3.183743E3,1.2932256E3,4.381292E3,2.0973564E3,2.5464194E2,2.5414167E3,6.423262E2,7.9550616E2,4.977194E2,2.3014468E3,2.0798452E3,1.0993983E3,9.979582E2,1.5225647E2,1.02385475E2,1.7508671E3,7.9054974E2,4.5598003E1,5.967282E2,1.9970377E2,5.958024E2,3.9317867E1,4.5840152E2,1.1779325E3,1.1235143E3,4.98075E0,2.0748645E3],"tree_param":{"num_deleted":"0","num_feature":"50","num_nodes":"31","size_leaf_vector":"1"}},{"base_weights":[-9.163238E-3,-1.523752E0,4.3879852E-1,-1.4612571E0,-1.6085234E0,-3.3217868E-1,8.128392E-1,-1.4700872E0,-5.876504E-2,-7.876404E-2,-8.613008E-2,-1.0266505E0,1.930317E-2,3.7298825E-1,1.1115471E0,-7.3928416E-2,-2.8492218E-2,-6.501169E-2,7.53154E-2,-2.833252E-2,-7.116174E-2,1.3487712E-2,-5.0915033E-2,-2.9859502E-2,2.7184526E-2,5.6366462E-2,-1.0293982E-1],"categories":[],"categories_nodes":[],"categories_segments":[],"categories_sizes":[],"default_left":[0,0,0,0,0,0,0,0,0,0,0,0,0,0,0,0,0,0,0,0,0,0,0,0,0,0,0],"id":9,"left_children":[1,3,5,7,9,11,13,15,17,-1,-1,19,21,23,25,-1,-1,-1,-1,-1,-1,-1,-1,-1,-1,-1,-1],"loss_changes":[7.4444043E3,1.061084E1,2.4421763E3,1.7757568E1,9.470215E-1,6.754597E2,7.4858984E2,9.9782715E0,2.1765955E1,0E0,0E0,1.6862402E2,4.7780655E2,3.8250925E2,1.7210156E2,0E0,0E0,0E0,0E0,0E0,0E0,0E0,0E0,0E0,0E0,0E0,0E0],"parents":[2147483647,0,0,1,1,2,2,3,3,4,4,5,5,6,6,7,7,8,8,11,11,12,12,13,13,14,14],"right_children":[2,4,6,8,10,12,14,16,18,-1,-1,20,22,24,26,-1,-1,-1,-1,-1,-1,-1,-1,-1,-1,-1,-1],"split_conditions":[1.8E1,7.461E-1,2.006689E-1,1.6E1,3.7E1,7.461E-1,4.4E1,8E0,3.5555556E0,-7.876404E-2,-8.613008E-2,4.909091E0,2.2E1,6.335E-1,2.8154E0,-7.3928416E-2,-2.8492218E-2,-6.501169E-2,7.53154E-2,-2.833252E-2,-7.116174E-2,1.3487712E-2,-5.0915033E-2,-2.9859502E-2,2.7184526E-2,5.6366462E-2,-1.0293982E-1],"split_indices":[0,35,23,2,13,35,13,17,25,0,0,27,0,35,36,0,0,0,0,0,0,0,0,0,0,0,0],"split_type":[0,0,0,0,0,0,0,0,0,0,0,0,0,0,0,0,0,0,0,0,0,0,0,0,0,0,0],"sum_hessian":[1.0970069E4,2.5034749E3,8.466595E3,1.4522614E3,1.0512135E3,2.7657146E3,5.70088E3,1.4430565E3,9.2049E0,8.2615497E2,2.2505847E2,9.2883966E2,1.836875E3,2.3067485E3,3.3941313E3,1.4288419E3,1.4214578E1,5.2631245E0,3.9417748E0,4.3127847E2,4.9756122E2,1.4803844E3,3.5649057E2,3.446817E2,1.9620668E3,3.3779917E3,1.6139812E1],"tree_param":{"num_deleted":"0","num_feature":"50","num_nodes":"27","size_leaf_vector":"1"}},{"base_weights":[-4.863046E-3,-5.775416E-1,7.085919E-1,-9.0462327E-1,1.0643492E-1,-8.542308E-2,9.452203E-1,-1.1433228E0,-5.4088396E-1,-6.4145094E-1,3.3974928E-1,-5.850296E-1,6.4308816E-1,5.322544E-1,1.1353983E0,-3.8652208E-2,-6.286284E-2,-4.6245817E-2,-8.258924E-3,-1.2904376E-2,-6.143869E-2,-9.045445E-2,1.9850627E-2,6.696035E-3,-4.697735E-2,-8.5743755E-2,3.47361E-2,1.0127213E-4,4.4207733E-2,4.862526E-2,6.738641E-2],"categories":[],"categories_nodes":[],"categories_segments":[],"categories_sizes":[],"default_left":[0,0,0,0,0,0,0,0,0,0,0,0,0,0,0,0,0,0,0,0,0,0,0,0,0,0,0,0,0,0,0],"id":10,"left_children":[1,3,5,7,9,11,13,15,17,19,21,23,25,27,29,-1,-1,-1,-1,-1,-1,-1,-1,-1,-1,-1,-1,-1,-1,-1,-1],"loss_changes":[4.452937E3,1.3527269E3,9.119346E2,3.5434106E2,3.4160837E2,4.061881E2,2.9286157E2,1.02964355E2,2.3386414E2,1.043465E2,1.8418459E2,1.689379E2,5.6361206E1,2.2025598E2,8.696045E1,0E0,0E0,0E0,0E0,0E0,0E0,0E0,0E0,0E0,0E0,0E0,0E0,0E0,0E0,0E0,0E0],"parents":[2147483647,0,0,1,1,2,2,3,3,4,4,5,5,6,6,7,7,8,8,9,9,10,10,11,11,12,12,13,13,14,14],"right_children":[2,4,6,8,10,12,14,16,18,20,22,24,26,28,30,-1,-1,-1,-1,-1,-1,-1,-1,-1,-1,-1,-1,-1,-1,-1,-1],"split_conditions":[3.8E1,1.557E0,2.1428572E-1,-4.96E-2,-8.98E-2,1.3463E0,1.101E0,-4.575E-1,7.461E-1,3.1E-1,2.24E1,-5.414E-1,-4.4687E0,6.4E1,7.8E1,-3.8652208E-2,-6.286284E-2,-4.6245817E-2,-8.258924E-3,-1.2904376E-2,-6.143869E-2,-9.045445E-2,1.9850627E-2,6.696035E-3,-4.697735E-2,-8.5743755E-2,3.47361E-2,1.0127213E-4,4.4207733E-2,4.862526E-2,6.738641E-2],"split_indices":[13,35,23,41,41,35,35,47,35,29,34,43,39,13,13,0,0,0,0,0,0,0,0,0,0,0,0,0,0,0,0],"split_type":[0,0,0,0,0,0,0,0,0,0,0,0,0,0,0,0,0,0,0,0,0,0,0,0,0,0,0,0,0,0,0],"sum_hessian":[1.0896591E4,6.044833E3,4.8517573E3,4.089184E3,1.955649E3,1.1139788E3,3.7377786E3,2.467499E3,1.621685E3,4.6450546E2,1.4911437E3,6.61003E2,4.5297577E2,1.1799269E3,2.5578516E3,5.8263446E2,1.8848645E3,8.011011E2,8.20584E2,2.8202737E2,1.8247809E2,3.7865868E1,1.4532777E3,2.1841144E2,4.4259158E2,8.974789E0,4.4400098E2,4.712127E2,7.0871423E2,1.4508522E3,1.1069994E3],"tree_param":{"num_deleted":"0","num_feature":"50","num_nodes":"31","size_leaf_vector":"1"}},{"base_weights":[-1.0893376E-2,-1.4734805E0,4.1106924E-1,-1.4138645E0,-1.5520298E0,8.5616195E-1,-1.531673E-1,-1.4226537E0,-2.722818E-2,-7.48885E-2,-8.119847E-2,5.3155345E-1,1.1482466E0,-9.12603E-1,1.9321479E-1,-5.5583697E-2,-7.173745E-2,-6.2374663E-2,7.1071416E-2,1.225836E-2,4.604463E-2,5.9977997E-2,1.100867E-2,-5.144797E-2,7.910426E-3,1.999714E-2,-3.459811E-2],"categories":[],"categories_nodes":[],"categories_segments":[],"categories_sizes":[],"default_left":[0,0,0,0,0,0,0,0,0,0,0,0,0,0,0,0,0,0,0,0,0,0,0,0,0,0,0],"id":11,"left_children":[1,3,5,7,9,11,13,15,17,-1,-1,19,21,23,25,-1,-1,-1,-1,-1,-1,-1,-1,-1,-1,-1,-1],"loss_changes":[6.6389434E3,8.788086E0,2.0968247E3,1.6650879E1,1.2692871E0,4.417378E2,9.688855E2,3.3127441E0,1.9064528E1,0E0,0E0,2.4636249E2,1.1653882E2,1.4399377E2,4.631375E2,0E0,0E0,0E0,0E0,0E0,0E0,0E0,0E0,0E0,0E0,0E0,0E0],"parents":[2147483647,0,0,1,1,2,2,3,3,4,4,5,5,6,6,7,7,8,8,11,11,12,12,13,13,14,14],"right_children":[2,4,6,8,10,12,14,16,18,-1,-1,20,22,24,26,-1,-1,-1,-1,-1,-1,-1,-1,-1,-1,-1,-1],"split_conditions":[1.8E1,7.461E-1,5.4004126E0,1.6E1,1.9512194E-1,6E0,7.461E-1,-3.7777E0,3.5555556E0,-7.48885E-2,-8.119847E-2,2.8767124E-1,2.3E1,1.4E1,2.2E1,-5.5583697E-2,-7.173745E-2,-6.2374663E-2,7.1071416E-2,1.225836E-2,4.604463E-2,5.9977997E-2,1.100867E-2,-5.144797E-2,7.910426E-3,1.999714E-2,-3.459811E-2],"split_indices":[0,35,21,2,23,2,35,46,25,0,0,23,0,2,0,0,0,0,0,0,0,0,0,0,0,0,0],"split_type":[0,0,0,0,0,0,0,0,0,0,0,0,0,0,0,0,0,0,0,0,0,0,0,0,0,0,0],"sum_hessian":[1.07551455E4,2.4076404E3,8.347505E3,1.3803113E3,1.0273291E3,4.666243E3,3.681262E3,1.3715199E3,8.7914E0,5.988559E2,4.284732E2,2.2115728E3,2.4546704E3,1.1526826E3,2.5285793E3,5.513496E1,1.316385E3,4.8847003E0,3.9066997E0,1.2753499E3,9.3622296E2,2.3256829E3,1.2898758E2,1.0398258E3,1.12856895E2,2.0503848E3,4.7819452E2],"tree_param":{"num_deleted":"0","num_feature":"50","num_nodes":"27","size_leaf_vector":"1"}},{"base_weights":[3.677932E-3,-1.4335719E0,4.1231835E-1,-1.3727247E0,-1.5121876E0,-1.6030338E-1,8.3691317E-1,-1.3968809E0,-8.4731054E-1,-7.39781E-2,-8.1049226E-2,-7.890721E-1,1.2279331E-1,2.528785E-1,1.007972E0,-4.9425345E-2,-7.047409E-2,-7.454174E-2,2.6302842E-2,1.8216433E-3,-5.2690472E-2,2.2955442E-2,-2.0371698E-2,3.0513499E-2,-5.273176E-2,3.8433664E-2,5.9049547E-2],"categories":[],"categories_nodes":[],"categories_segments":[],"categories_sizes":[],"default_left":[0,0,0,0,0,0,0,0,0,0,0,0,0,0,0,0,0,0,0,0,0,0,0,0,0,0,0],"id":12,"left_children":[1,3,5,7,9,11,13,15,17,-1,-1,19,21,23,25,-1,-1,-1,-1,-1,-1,-1,-1,-1,-1,-1,-1],"loss_changes":[6.29099E3,8.978516E0,2.0279957E3,1.5704346E1,9.2626953E-1,6.324044E2,4.7810303E2,4.990967E0,5.5663025E1,0E0,0E0,2.4118176E2,4.3707007E2,5.0829718E2,1.5225317E2,0E0,0E0,0E0,0E0,0E0,0E0,0E0,0E0,0E0,0E0,0E0,0E0],"parents":[2147483647,0,0,1,1,2,2,3,3,4,4,5,5,6,6,7,7,8,8,11,11,12,12,13,13,14,14],"right_children":[2,4,6,8,10,12,14,16,18,-1,-1,20,22,24,26,-1,-1,-1,-1,-1,-1,-1,-1,-1,-1,-1,-1],"split_conditions":[1.8E1,7.461E-1,3.3E1,6E0,3.7E1,7.568E-1,2.1428572E-1,-1.109E-1,1.1E1,-7.39781E-2,-8.1049226E-2,5.458081E0,2.1E1,2.2E1,6.3E1,-4.9425345E-2,-7.047409E-2,-7.454174E-2,2.6302842E-2,1.8216433E-3,-5.2690472E-2,2.2955442E-2,-2.0371698E-2,3.0513499E-2,-5.273176E-2,3.8433664E-2,5.9049547E-2],"split_indices":[0,35,13,17,13,35,23,48,14,0,0,21,0,0,13,0,0,0,0,0,0,0,0,0,0,0,0],"split_type":[0,0,0,0,0,0,0,0,0,0,0,0,0,0,0,0,0,0,0,0,0,0,0,0,0,0,0],"sum_hessian":[1.0709548E4,2.3702542E3,8.339293E3,1.3472437E3,1.0230105E3,3.5508687E3,4.788425E3,1.2862583E3,6.0985256E1,7.989441E2,2.2406636E2,1.1019535E3,2.4489153E3,1.0854631E3,3.7029614E3,4.1116825E1,1.2451415E3,4.151819E1,1.9467066E1,2.6769873E2,8.342547E2,1.4986597E3,9.5025555E2,8.529346E2,2.325286E2,1.5563829E3,2.1465786E3],"tree_param":{"num_deleted":"0","num_feature":"50","num_nodes":"27","size_leaf_vector":"1"}},{"base_weights":[1.3605902E-2,-1.4057738E0,4.0240422E-1,-1.3533034E0,-1.4743172E0,-3.0028138E-1,7.409071E-1,-1.3619701E0,-6.318687E-1,-7.224948E-2,-7.8675136E-2,1.1747553E-1,-8.031971E-1,4.2136684E-1,1.0900055E0,-4.8326056E-2,-6.870254E-2,8.314208E-2,-7.1431585E-2,-3.8596746E-2,1.9673957E-2,-6.6920975E-3,-4.8986685E-2,3.0381832E-2,-1.4982867E-2,5.739814E-2,3.1877715E-2],"categories":[],"categories_nodes":[],"categories_segments":[],"categories_sizes":[],"default_left":[0,0,0,0,0,0,0,0,0,0,0,0,0,0,0,0,0,0,0,0,0,0,0,0,0,0,0],"id":13,"left_children":[1,3,5,7,9,11,13,15,17,-1,-1,19,21,23,25,-1,-1,-1,-1,-1,-1,-1,-1,-1,-1,-1,-1],"loss_changes":[5.855204E3,5.927246E0,1.9813777E3,7.10083E0,2.6708984E-1,5.6919403E2,6.264656E2,4.5942383E0,3.4340637E1,0E0,0E0,3.6363516E2,1.4500574E2,3.946328E2,6.951587E1,0E0,0E0,0E0,0E0,0E0,0E0,0E0,0E0,0E0,0E0,0E0,0E0],"parents":[2147483647,0,0,1,1,2,2,3,3,4,4,5,5,6,6,7,7,8,8,11,11,12,12,13,13,14,14],"right_children":[2,4,6,8,10,12,14,16,18,-1,-1,20,22,24,26,-1,-1,-1,-1,-1,-1,-1,-1,-1,-1,-1,-1],"split_conditions":[1.8E1,7.461E-1,2.006689E-1,8E0,3.7E1,2.1E1,5.6E1,-1.109E-1,-1.705E0,-7.224948E-2,-7.8675136E-2,6.666E-1,-2.0776E0,2.2E1,4.089E-1,-4.8326056E-2,-6.870254E-2,8.314208E-2,-7.1431585E-2,-3.8596746E-2,1.9673957E-2,-6.6920975E-3,-4.8986685E-2,3.0381832E-2,-1.4982867E-2,5.739814E-2,3.1877715E-2],"split_indices":[0,35,23,17,13,0,13,48,47,0,0,35,47,0,36,0,0,0,0,0,0,0,0,0,0,0,0],"split_type":[0,0,0,0,0,0,0,0,0,0,0,0,0,0,0,0,0,0,0,0,0,0,0,0,0,0,0],"sum_hessian":[1.0608247E4,2.2803904E3,8.327857E3,1.304212E3,9.761783E2,2.707427E3,5.62043E3,1.2877161E3,1.6495907E1,7.66201E2,2.099773E2,1.479237E3,1.2281901E3,2.9357466E3,2.6846833E3,4.081913E1,1.246897E3,3.9389796E0,1.2556928E1,3.4981458E2,1.1294225E3,2.56807E2,9.71383E2,2.3332654E3,6.024812E2,2.3782769E3,3.0640643E2],"tree_param":{"num_deleted":"0","num_feature":"50","num_nodes":"27","size_leaf_vector":"1"}},{"base_weights":[1.7815642E-2,-5.108251E-1,5.711537E-1,-7.6514584E-1,2.9870605E-1,1.7756832E-1,8.3980507E-1,-1.051325E0,-4.6475875E-1,-1.5691598E-1,6.756093E-1,-2.607881E-1,5.534649E-1,5.1061577E-1,1.1605501E0,-5.8732327E-2,-2.5394753E-2,-4.333923E-2,-9.084021E-3,-7.365683E-2,-1.5945699E-3,-5.7155485E-3,4.072119E-2,-3.242593E-2,1.5159863E-2,-1.4515741E-3,4.2772036E-2,5.5750404E-3,4.3205824E-2,-8.6021595E-2,5.8402617E-2],"categories":[],"categories_nodes":[],"categories_segments":[],"categories_sizes":[],"default_left":[0,0,0,0,0,0,0,0,0,0,0,0,0,0,0,0,0,0,0,0,0,0,0,0,0,0,0,0,0,0,0],"id":14,"left_children":[1,3,5,7,9,11,13,15,17,19,21,23,25,27,29,-1,-1,-1,-1,-1,-1,-1,-1,-1,-1,-1,-1,-1,-1,-1,-1],"loss_changes":[3.0724343E3,1.1061649E3,5.423832E2,3.507644E2,2.2077695E2,3.434521E2,3.2123657E2,1.3946338E2,2.2693195E2,9.562798E1,7.729324E1,2.106618E2,1.9746594E2,2.1241577E2,3.5318848E1,0E0,0E0,0E0,0E0,0E0,0E0,0E0,0E0,0E0,0E0,0E0,0E0,0E0,0E0,0E0,0E0],"parents":[2147483647,0,0,1,1,2,2,3,3,4,4,5,5,6,6,7,7,8,8,9,9,10,10,11,11,12,12,13,13,14,14],"right_children":[2,4,6,8,10,12,14,16,18,20,22,24,26,28,30,-1,-1,-1,-1,-1,-1,-1,-1,-1,-1,-1,-1,-1,-1,-1,-1],"split_conditions":[1.147541E-1,2.2946E0,3E0,7.461E-1,1.4E1,2.68E-2,1.32E-2,8E0,-8.14E-2,2.36E1,-9.06E-2,1.557E0,9.6E1,1.1807E0,2.16E1,-5.8732327E-2,-2.5394753E-2,-4.333923E-2,-9.084021E-3,-7.365683E-2,-1.5945699E-3,-5.7155485E-3,4.072119E-2,-3.242593E-2,1.5159863E-2,-1.4515741E-3,4.2772036E-2,5.5750404E-3,4.3205824E-2,-8.6021595E-2,5.8402617E-2],"split_indices":[32,35,2,35,12,48,48,2,41,34,41,35,7,35,34,0,0,0,0,0,0,0,0,0,0,0,0,0,0,0,0],"split_type":[0,0,0,0,0,0,0,0,0,0,0,0,0,0,0,0,0,0,0,0,0,0,0,0,0,0,0,0,0,0,0],"sum_hessian":[1.050142E4,5.37051E3,5.13091E3,4.08679E3,1.28372E3,2.0822952E3,3.0486147E3,2.09144E3,1.9953501E3,5.8131354E2,7.0240643E2,9.6130164E2,1.1209935E3,1.5059358E3,1.5426791E3,1.7035131E3,3.879268E2,8.234612E2,1.1718889E3,4.94228E1,5.318907E2,1.0490472E2,5.975017E2,5.696821E2,3.9161948E2,3.829243E2,7.380693E2,7.0808307E2,7.9785266E2,3.3791034E0,1.5392999E3],"tree_param":{"num_deleted":"0","num_feature":"50","num_nodes":"31","size_leaf_vector":"1"}},{"base_weights":[-1.1012633E-2,-1.3617089E0,3.5872477E-1,-1.3019893E0,-1.4388145E0,-6.46948E-2,8.4815943E-1,-1.3275357E0,-7.557653E-1,-7.0376076E-2,-7.697236E-2,-7.485626E-1,2.0545357E-1,-2.768877E-1,9.096338E-1,-5.0320413E-2,-6.704802E-2,-7.0630014E-2,2.634042E-2,-2.8147405E-2,-6.79199E-2,1.5419408E-2,-7.169467E-2,-1.1039716E-3,-8.0526985E-2,4.9604904E-2,1.6718833E-2],"categories":[],"categories_nodes":[],"categories_segments":[],"categories_sizes":[],"default_left":[0,0,0,0,0,0,0,0,0,0,0,0,0,0,0,0,0,0,0,0,0,0,0,0,0,0,0],"id":15,"left_children":[1,3,5,7,9,11,13,15,17,-1,-1,19,21,23,25,-1,-1,-1,-1,-1,-1,-1,-1,-1,-1,-1,-1],"loss_changes":[5.107702E3,7.974121E0,1.6641188E3,1.6229736E1,5.274658E-1,7.956974E2,2.5791113E2,3.5566406E0,4.9982216E1,0E0,0E0,1.3709595E2,5.212892E2,6.560967E1,1.6708252E2,0E0,0E0,0E0,0E0,0E0,0E0,0E0,0E0,0E0,0E0,0E0,0E0],"parents":[2147483647,0,0,1,1,2,2,3,3,4,4,5,5,6,6,7,7,8,8,11,11,12,12,13,13,14,14],"right_children":[2,4,6,8,10,12,14,16,18,-1,-1,20,22,24,26,-1,-1,-1,-1,-1,-1,-1,-1,-1,-1,-1,-1],"split_conditions":[1.8E1,7.461E-1,1.3636364E-1,6E0,3.7E1,7.461E-1,1E1,-3.7777E0,1.1E1,-7.0376076E-2,-7.697236E-2,1.0674E0,2.3E1,4.6384E0,4.413E-1,-5.0320413E-2,-6.704802E-2,-7.0630014E-2,2.634042E-2,-2.8147405E-2,-6.79199E-2,1.5419408E-2,-7.169467E-2,-1.1039716E-3,-8.0526985E-2,4.9604904E-2,1.6718833E-2],"split_indices":[0,35,32,17,13,35,13,46,14,0,0,44,0,43,36,0,0,0,0,0,0,0,0,0,0,0,0],"split_type":[0,0,0,0,0,0,0,0,0,0,0,0,0,0,0,0,0,0,0,0,0,0,0,0,0,0,0],"sum_hessian":[1.0225439E4,2.197025E3,8.0284146E3,1.2489097E3,9.4811523E2,4.3048594E3,3.7235552E3,1.1915677E3,5.734185E1,7.3541003E2,2.1270523E2,1.2186086E3,3.0862507E3,1.9265375E2,3.5309014E3,5.1161682E1,1.1404061E3,3.790595E1,1.9435904E1,9.358522E2,2.8275647E2,2.9047354E3,1.815154E2,1.6266618E2,2.9987556E1,3.0874158E3,4.4348553E2],"tree_param":{"num_deleted":"0","num_feature":"50","num_nodes":"27","size_leaf_vector":"1"}},{"base_weights":[2.4623333E-2,-1.341217E0,3.8281608E-1,-1.2896744E0,-1.4070537E0,-1.1480391E-1,7.6132345E-1,-1.3075813E0,-9.0348834E-1,-6.7245096E-2,-7.234542E-2,-6.9805175E-1,9.873773E-2,-8.68248E-1,8.1424594E-1,-4.3711867E-2,-6.606095E-2,4.4702563E-2,-6.7056745E-2,2.536639E-2,-4.2083416E-2,-2.3409482E-2,1.3737741E-2,-6.9464445E-2,6.470617E-2,4.4339534E-2,-5.4537742E-3],"categories":[],"categories_nodes":[],"categories_segments":[],"categories_sizes":[],"default_left":[0,0,0,0,0,0,0,0,0,0,0,0,0,0,0,0,0,0,0,0,0,0,0,0,0,0,0],"id":16,"left_children":[1,3,5,7,9,11,13,15,17,-1,-1,19,21,23,25,-1,-1,-1,-1,-1,-1,-1,-1,-1,-1,-1,-1],"loss_changes":[5.0099565E3,5.135498E0,1.5282535E3,6.938843E0,5.9692383E-2,4.3676178E2,3.981194E2,5.4229736E0,4.603267E1,0E0,0E0,1.631513E2,2.5626236E2,1.6559943E2,2.991731E2,0E0,0E0,0E0,0E0,0E0,0E0,0E0,0E0,0E0,0E0,0E0,0E0],"parents":[2147483647,0,0,1,1,2,2,3,3,4,4,5,5,6,6,7,7,8,8,11,11,12,12,13,13,14,14],"right_children":[2,4,6,8,10,12,14,16,18,-1,-1,20,22,24,26,-1,-1,-1,-1,-1,-1,-1,-1,-1,-1,-1,-1],"split_conditions":[1.8E1,7.461E-1,3.3E1,1E1,1.672355E-1,7.461E-1,2.667E-1,-1.109E-1,-2.104E-1,-6.7245096E-2,-7.234542E-2,4.3397937E0,1.5384614E-1,1.06E2,2.3E1,-4.3711867E-2,-6.606095E-2,4.4702563E-2,-6.7056745E-2,2.536639E-2,-4.2083416E-2,-2.3409482E-2,1.3737741E-2,-6.9464445E-2,6.470617E-2,4.4339534E-2,-5.4537742E-3],"split_indices":[0,35,13,11,23,35,35,48,44,0,0,21,23,13,0,0,0,0,0,0,0,0,0,0,0,0,0],"split_type":[0,0,0,0,0,0,0,0,0,0,0,0,0,0,0,0,0,0,0,0,0,0,0,0,0,0,0],"sum_hessian":[1.0238554E4,2.126579E3,8.1119746E3,1.2051733E3,9.214057E2,3.5047483E3,4.6072266E3,1.1492397E3,5.593359E1,3.7455533E2,5.4685034E2,9.3879895E2,2.5659492E3,1.4437527E2,4.462851E3,3.727406E1,1.1119657E3,1.0702794E1,4.5230797E1,9.960247E1,8.391965E2,6.0739233E2,1.9585569E3,1.1666714E2,2.7708134E1,4.1378877E3,3.249632E2],"tree_param":{"num_deleted":"0","num_feature":"50","num_nodes":"27","size_leaf_vector":"1"}},{"base_weights":[8.939656E-3,-1.3114027E0,3.480542E-1,-1.327701E0,-1.0174028E0,6.060959E-1,-3.8307756E-1,-1.2894461E0,-6.9073625E-2,2.9545343E-1,-6.764994E-2,1.8048362E-1,8.252781E-1,-9.6899635E-1,-1.1286456E-1,-4.591978E-2,-6.515627E-2,8.1801124E-2,-6.27054E-2,2.0978535E-2,-3.1360477E-2,2.0584777E-2,4.907068E-2,-5.924481E-2,-2.1069538E-2,-2.3884375E-2,1.1024402E-2],"categories":[],"categories_nodes":[],"categories_segments":[],"categories_sizes":[],"default_left":[0,0,0,0,0,0,0,0,0,0,0,0,0,0,0,0,0,0,0,0,0,0,0,0,0,0,0],"id":17,"left_children":[1,3,5,7,9,11,13,15,-1,17,-1,19,21,23,25,-1,-1,-1,-1,-1,-1,-1,-1,-1,-1,-1,-1],"loss_changes":[4.487669E3,8.22876E0,1.5048003E3,1.9362793E0,4.9930923E1,5.496692E2,3.2923114E2,4.4074707E0,0E0,5.111E1,0E0,3.8747903E2,2.506958E2,7.695856E1,1.7347453E2,0E0,0E0,0E0,0E0,0E0,0E0,0E0,0E0,0E0,0E0,0E0,0E0],"parents":[2147483647,0,0,1,1,2,2,3,3,4,4,5,5,6,6,7,7,9,9,11,11,12,12,13,13,14,14],"right_children":[2,4,6,8,10,12,14,16,-1,18,-1,20,22,24,26,-1,-1,-1,-1,-1,-1,-1,-1,-1,-1,-1,-1],"split_conditions":[1.8E1,1.1E1,1.0035E0,7.568E-1,7.21E1,2.2580644E-1,7.461E-1,-1.109E-1,-6.9073625E-2,2.52E1,-6.764994E-2,2.2E1,1E0,-4.878E-1,-6.93E-2,-4.591978E-2,-6.515627E-2,8.1801124E-2,-6.27054E-2,2.0978535E-2,-3.1360477E-2,2.0584777E-2,4.907068E-2,-5.924481E-2,-2.1069538E-2,-2.3884375E-2,1.1024402E-2],"split_indices":[0,14,37,35,33,23,35,48,0,34,0,0,2,39,41,0,0,0,0,0,0,0,0,0,0,0,0],"split_type":[0,0,0,0,0,0,0,0,0,0,0,0,0,0,0,0,0,0,0,0,0,0,0,0,0,0,0],"sum_hessian":[1.0020969E4,2.0471661E3,7.9738022E3,1.9359858E3,1.1118026E2,5.893936E3,2.079866E3,1.14689E3,7.8909576E2,2.259804E1,8.858222E1,2.0042753E3,3.889661E3,6.55516E2,1.4243501E3,4.346123E1,1.1034288E3,1.2120764E1,1.0477276E1,1.5469604E3,4.5731488E2,1.0671626E3,2.8224983E3,4.6918716E2,1.8632883E2,6.800102E2,7.443399E2],"tree_param":{"num_deleted":"0","num_feature":"50","num_nodes":"27","size_leaf_vector":"1"}},{"base_weights":[2.394014E-2,-1.2901523E0,3.5298944E-1,-1.2950187E0,-5.7875925E-1,-3.7786978E-1,5.844958E-1,-1.248049E0,-6.7715526E-2,4.7794793E-2,-6.4687364E-2,-8.904896E-1,-3.4323487E-2,2.5039363E-1,8.8196695E-1,-4.1762166E-2,-6.3051425E-2,3.4065098E-2,-4.854059E-2,1.505312E-2,-2.7122471E-2,2.1621767E-2,-2.2590894E-2,-3.651005E-2,4.550555E-2],"categories":[],"categories_nodes":[],"categories_segments":[],"categories_sizes":[],"default_left":[0,0,0,0,0,0,0,0,0,0,0,0,0,0,0,0,0,0,0,0,0,0,0,0,0],"id":18,"left_children":[1,3,5,7,9,11,13,15,-1,-1,-1,17,19,21,23,-1,-1,-1,-1,-1,-1,-1,-1,-1,-1],"loss_changes":[4.3172163E3,5.984619E0,1.3512998E3,3.5771484E0,1.831281E1,3.3824924E2,6.02407E2,4.744629E0,0E0,0E0,0E0,9.800629E1,1.9643497E2,3.6553815E2,1.4622314E2,0E0,0E0,0E0,0E0,0E0,0E0,0E0,0E0,0E0,0E0],"parents":[2147483647,0,0,1,1,2,2,3,3,4,4,5,5,6,6,7,7,11,11,12,12,13,13,14,14],"right_children":[2,4,6,8,10,12,14,16,-1,-1,-1,18,20,22,24,-1,-1,-1,-1,-1,-1,-1,-1,-1,-1],"split_conditions":[1.8E1,1.6E1,-6.44E-2,7.461E-1,1.9E1,9.095E-1,4.5E1,-1.109E-1,-6.7715526E-2,4.7794793E-2,-6.4687364E-2,-2.4365E0,2.1E1,2.2E1,2.133E-1,-4.1762166E-2,-6.3051425E-2,3.4065098E-2,-4.854059E-2,1.505312E-2,-2.7122471E-2,2.1621767E-2,-2.2590894E-2,-3.651005E-2,4.550555E-2],"split_indices":[0,2,41,35,12,35,13,48,0,0,0,47,0,0,35,0,0,0,0,0,0,0,0,0,0],"split_type":[0,0,0,0,0,0,0,0,0,0,0,0,0,0,0,0,0,0,0,0,0,0,0,0,0],"sum_hessian":[9.982447E3,1.9984009E3,7.984046E3,1.9838691E3,1.4531724E1,1.9203837E3,6.0636626E3,1.1202045E3,8.636647E2,4.466975E0,1.0064749E1,7.6981995E2,1.1505637E3,2.8570117E3,3.2066506E3,3.6375145E1,1.0838293E3,3.70027E1,7.3281726E2,6.932189E2,4.5734482E2,2.2692554E3,5.877565E2,5.45299E1,3.1521206E3],"tree_param":{"num_deleted":"0","num_feature":"50","num_nodes":"25","size_leaf_vector":"1"}},{"base_weights":[1.6144994E-3,-5.6203E-1,3.7908524E-1,-1.0121709E0,-2.6274943E-1,9.937042E-2,7.9782784E-1,-1.0456674E0,7.762428E-1,2.6636709E-2,-5.321789E-1,-6.788754E-1,2.7913767E-1,4.860574E-1,1.0127556E0,-6.5249875E-2,-4.52695E-2,8.1364945E-2,-5.725516E-2,-1.9324249E-2,1.5160819E-2,2.7228072E-2,-3.2108337E-2,-3.7577495E-2,5.2209433E-2,1.6455175E-3,3.12122E-2,-7.462972E-2,2.810706E-2,4.4315927E-2,5.8927663E-2],"categories":[],"categories_nodes":[],"categories_segments":[],"categories_sizes":[],"default_left":[0,0,0,0,0,0,0,0,0,0,0,0,0,0,0,0,0,0,0,0,0,0,0,0,0,0,0,0,0,0,0],"id":19,"left_children":[1,3,5,7,9,11,13,15,17,19,21,23,25,27,29,-1,-1,-1,-1,-1,-1,-1,-1,-1,-1,-1,-1,-1,-1,-1,-1],"loss_changes":[2.0732695E3,5.261411E2,6.8343384E2,9.431128E1,1.8322003E2,4.898554E2,1.5595776E2,5.4333496E1,4.9669083E1,1.296083E2,1.444523E2,8.302783E1,2.4160817E2,1.4463145E2,2.7724976E1,0E0,0E0,0E0,0E0,0E0,0E0,0E0,0E0,0E0,0E0,0E0,0E0,0E0,0E0,0E0,0E0],"parents":[2147483647,0,0,1,1,2,2,3,3,4,4,5,5,6,6,7,7,8,8,9,9,10,10,11,11,12,12,13,13,14,14],"right_children":[2,4,6,8,10,12,14,16,18,20,22,24,26,28,30,-1,-1,-1,-1,-1,-1,-1,-1,-1,-1,-1,-1,-1,-1,-1,-1],"split_conditions":[2.006689E-1,7.461E-1,4.9E1,8E1,8.654E-1,6.335E-1,2.5E-1,3.009E-1,5.417E-1,1.3E1,2.1090908E-1,4.3E1,4.05E-2,7.2E1,7.8E1,-6.5249875E-2,-4.52695E-2,8.1364945E-2,-5.725516E-2,-1.9324249E-2,1.5160819E-2,2.7228072E-2,-3.2108337E-2,-3.7577495E-2,5.2209433E-2,1.6455175E-3,3.12122E-2,-7.462972E-2,2.810706E-2,4.4315927E-2,5.8927663E-2],"split_indices":[23,35,6,33,36,35,23,35,40,12,29,9,48,33,6,0,0,0,0,0,0,0,0,0,0,0,0,0,0,0,0],"split_type":[0,0,0,0,0,0,0,0,0,0,0,0,0,0,0,0,0,0,0,0,0,0,0,0,0,0,0,0,0,0,0],"sum_hessian":[9.742756E3,3.9074077E3,5.8353486E3,1.5593339E3,2.3480737E3,3.4993215E3,2.336027E3,1.5311274E3,2.8206352E1,1.1323646E3,1.2157091E3,6.56008E2,2.8433135E3,9.547746E2,1.3812524E3,5.3431903E2,9.968085E2,1.9689861E1,8.516493E0,4.5378934E2,6.785753E2,1.1222337E2,1.1034857E3,6.300557E2,2.5952288E1,1.6601854E3,1.1831279E3,3.4615818E1,9.201588E2,7.8758765E2,5.9366473E2],"tree_param":{"num_deleted":"0","num_feature":"50","num_nodes":"31","size_leaf_vector":"1"}},{"base_weights":[-1.2693682E-2,-1.2634028E0,2.995034E-1,-1.2804159E0,-9.559669E-1,-4.2638513E-1,5.333826E-1,-1.2394048E0,-6.649916E-2,3.2420367E-1,-6.520528E-2,-6.6437393E-1,1.4671488E-1,3.172292E-1,9.674105E-1,-4.3446884E-2,-6.2744275E-2,7.8974254E-2,-5.9580173E-2,7.180492E-4,-4.7779914E-2,1.7167281E-2,-5.2258905E-2,2.4495607E-2,-1.4875092E-2,-1.3732031E-2,4.9814217E-2],"categories":[],"categories_nodes":[],"categories_segments":[],"categories_sizes":[],"default_left":[0,0,0,0,0,0,0,0,0,0,0,0,0,0,0,0,0,0,0,0,0,0,0,0,0,0,0],"id":20,"left_children":[1,3,5,7,9,11,13,15,-1,17,-1,19,21,23,25,-1,-1,-1,-1,-1,-1,-1,-1,-1,-1,-1,-1],"loss_changes":[3.7026746E3,8.459961E0,1.2884946E3,1.7368164E0,4.6684387E1,2.5241556E2,5.380397E2,4.4105225E0,0E0,4.5466553E1,0E0,2.5849036E2,1.2764058E2,4.0706696E2,6.875452E1,0E0,0E0,0E0,0E0,0E0,0E0,0E0,0E0,0E0,0E0,0E0,0E0],"parents":[2147483647,0,0,1,1,2,2,3,3,4,4,5,5,6,6,7,7,9,9,11,11,12,12,13,13,14,14],"right_children":[2,4,6,8,10,12,14,16,-1,18,-1,20,22,24,26,-1,-1,-1,-1,-1,-1,-1,-1,-1,-1,-1,-1],"split_conditions":[1.8E1,1.1E1,-6.44E-2,7.461E-1,7.21E1,2.2946E0,6.5E1,-3.7777E0,-6.649916E-2,2.52E1,-6.520528E-2,2E1,3.4375E-1,2.2E1,2.667E-1,-4.3446884E-2,-6.2744275E-2,7.8974254E-2,-5.9580173E-2,7.180492E-4,-4.7779914E-2,1.7167281E-2,-5.2258905E-2,2.4495607E-2,-1.4875092E-2,-1.3732031E-2,4.9814217E-2],"split_indices":[0,14,41,35,33,35,13,46,0,34,0,0,29,0,35,0,0,0,0,0,0,0,0,0,0,0,0],"split_type":[0,0,0,0,0,0,0,0,0,0,0,0,0,0,0,0,0,0,0,0,0,0,0,0,0,0,0],"sum_hessian":[9.480449E3,1.8932148E3,7.5872344E3,1.7906339E3,1.0258085E2,1.8485763E3,5.7386577E3,9.9522504E2,7.9540894E2,2.1885464E1,8.069539E1,1.3061798E3,5.4239655E2,3.8321448E3,1.9065131E3,4.246972E1,9.527553E2,1.1984628E1,9.900836E0,3.923548E2,9.13825E2,4.6627014E2,7.612637E1,2.9920261E3,8.4011865E2,4.304148E1,1.8634716E3],"tree_param":{"num_deleted":"0","num_feature":"50","num_nodes":"27","size_leaf_vector":"1"}},{"base_weights":[-8.842649E-3,-1.2453473E0,2.8895947E-1,-1.2622916E0,-9.435101E-1,-1.3472497E-1,6.840521E-1,-6.0892798E-2,-6.510579E-2,3.0801055E-1,-6.415114E-2,1.18794E-1,-5.305706E-1,8.991456E-1,3.0545616E-1,7.50919E-2,-5.8888257E-2,2.0323005E-2,-1.2610658E-2,-4.1742705E-2,-8.875657E-3,5.0072808E-2,2.9137159E-2,2.6880613E-2,-1.7749855E-2],"categories":[],"categories_nodes":[],"categories_segments":[],"categories_sizes":[],"default_left":[0,0,0,0,0,0,0,0,0,0,0,0,0,0,0,0,0,0,0,0,0,0,0,0,0],"id":21,"left_children":[1,3,5,7,9,11,13,-1,-1,15,-1,17,19,21,23,-1,-1,-1,-1,-1,-1,-1,-1,-1,-1],"loss_changes":[3.4809866E3,7.9729004E0,1.2753801E3,1.2307129E0,4.374859E1,3.6908347E2,3.206454E2,0E0,0E0,4.1652218E1,0E0,2.3939566E2,1.5399634E2,8.0618774E1,2.1946846E2,0E0,0E0,0E0,0E0,0E0,0E0,0E0,0E0,0E0,0E0],"parents":[2147483647,0,0,1,1,2,2,3,3,4,4,5,5,6,6,9,9,11,11,12,12,13,13,14,14],"right_children":[2,4,6,8,10,12,14,-1,-1,16,-1,18,20,22,24,-1,-1,-1,-1,-1,-1,-1,-1,-1,-1],"split_conditions":[1.8E1,1.1E1,3.7E1,1.7142858E-1,7.21E1,1.3583E0,-4.945E-1,-6.0892798E-2,-6.510579E-2,2.52E1,-6.415114E-2,2.1E1,3.9645E0,2.2E1,2.2E1,7.50919E-2,-5.8888257E-2,2.0323005E-2,-1.2610658E-2,-4.1742705E-2,-8.875657E-3,5.0072808E-2,2.9137159E-2,2.6880613E-2,-1.7749855E-2],"split_indices":[0,14,13,23,33,37,43,0,0,34,0,0,44,0,0,0,0,0,0,0,0,0,0,0,0],"split_type":[0,0,0,0,0,0,0,0,0,0,0,0,0,0,0,0,0,0,0,0,0,0,0,0,0],"sum_hessian":[9.450963E3,1.8338375E3,7.6171255E3,1.7330366E3,1.0080081E2,3.6757632E3,3.9413625E3,8.3520917E2,8.9782745E2,2.1466967E1,7.933385E1,2.240978E3,1.4347852E3,2.5123628E3,1.4289998E3,1.1934242E1,9.532723E0,1.2623611E3,9.7861694E2,7.6973724E2,6.6504785E2,1.896604E3,6.157588E2,1.0575852E3,3.714146E2],"tree_param":{"num_deleted":"0","num_feature":"50","num_nodes":"25","size_leaf_vector":"1"}},{"base_weights":[-2.0494661E-3,-1.2347978E0,2.8714326E-1,-1.1831685E0,-6.439438E-2,5.3038484E-1,-2.2688738E-1,-6.119895E-2,-8.726482E-1,-1.4535579E-1,6.535847E-1,-4.35991E-1,2.9994878E-1,-5.3102303E-2,2.533499E-2,-4.1882325E-2,9.830072E-3,1.4300671E-2,4.0215846E-2,-3.377032E-2,-1.3947649E-3,1.8003529E-2,-7.606435E-2],"categories":[],"categories_nodes":[],"categories_segments":[],"categories_sizes":[],"default_left":[0,0,0,0,0,0,0,0,0,0,0,0,0,0,0,0,0,0,0,0,0,0,0],"id":22,"left_children":[1,3,5,7,-1,9,11,-1,13,15,17,19,21,-1,-1,-1,-1,-1,-1,-1,-1,-1,-1],"loss_changes":[3.3188347E3,3.078125E0,9.429327E2,1.0255005E1,0E0,4.262821E2,2.6702023E2,0E0,2.9195198E1,1.8725195E2,2.3954529E2,1.694053E2,7.585005E1,0E0,0E0,0E0,0E0,0E0,0E0,0E0,0E0,0E0,0E0],"parents":[2147483647,0,0,1,1,2,2,3,3,5,5,6,6,8,8,9,9,10,10,11,11,12,12],"right_children":[2,4,6,8,-1,10,12,-1,14,16,18,20,22,-1,-1,-1,-1,-1,-1,-1,-1,-1,-1],"split_conditions":[1.8E1,6.666E-1,8.654E-1,6.266E-1,-6.439438E-2,6.335E-1,2.2946E0,-6.119895E-2,1.1E1,8.409836E0,1E0,9.54878E0,7.81E1,-5.3102303E-2,2.533499E-2,-4.1882325E-2,9.830072E-3,1.4300671E-2,4.0215846E-2,-3.377032E-2,-1.3947649E-3,1.8003529E-2,-7.606435E-2],"split_indices":[0,35,36,35,0,35,35,0,14,26,2,26,33,0,0,0,0,0,0,0,0,0,0],"split_type":[0,0,0,0,0,0,0,0,0,0,0,0,0,0,0,0,0,0,0,0,0,0,0],"sum_hessian":[9.307185E3,1.7679557E3,7.539229E3,9.0906433E2,8.5889136E2,5.117682E3,2.4215469E3,8.0058295E2,1.084814E2,7.890145E2,4.3286675E3,1.7337686E3,6.8777826E2,9.565023E1,1.2831171E1,2.6049222E2,5.2852234E2,1.2598918E3,3.068776E3,1.0921454E3,6.4162317E2,6.66629E2,2.114924E1],"tree_param":{"num_deleted":"0","num_feature":"50","num_nodes":"23","size_leaf_vector":"1"}},{"base_weights":[-1.0240552E-2,-1.2218484E0,2.6462385E-1,-6.199869E-2,-9.07405E-1,5.595446E-1,-1.977195E-1,4.1871294E-1,-6.2543266E-2,7.082151E-1,6.6300906E-2,-4.405047E-1,3.1880212E-1,-5.569833E-2,7.3500425E-2,4.8879716E-3,3.9462022E-2,-2.4512446E-2,2.6386604E-2,-1.2267323E-2,-5.002431E-2,-9.733155E-2,1.874142E-2],"categories":[],"categories_nodes":[],"categories_segments":[],"categories_sizes":[],"default_left":[0,0,0,0,0,0,0,0,0,0,0,0,0,0,0,0,0,0,0,0,0,0,0],"id":23,"left_children":[1,3,5,-1,7,9,11,13,-1,15,17,19,21,-1,-1,-1,-1,-1,-1,-1,-1,-1,-1],"loss_changes":[3.045869E3,8.298584E0,1.0166064E3,0E0,4.442379E1,3.3365613E2,3.64302E2,3.46719E1,0E0,1.7281665E2,2.7131403E2,2.155643E2,1.18475945E2,0E0,0E0,0E0,0E0,0E0,0E0,0E0,0E0,0E0,0E0],"parents":[2147483647,0,0,1,1,2,2,4,4,5,5,6,6,7,7,9,9,10,10,11,11,12,12],"right_children":[2,4,6,-1,8,10,12,14,-1,16,18,20,22,-1,-1,-1,-1,-1,-1,-1,-1,-1,-1],"split_conditions":[1.8E1,1.1E1,6.51E-2,-6.199869E-2,7.21E1,2.2E1,2.2946E0,7.2E1,-6.2543266E-2,7.1052628E0,1.6129032E-1,2.2E1,2.25E1,-5.569833E-2,7.3500425E-2,4.8879716E-3,3.9462022E-2,-2.4512446E-2,2.6386604E-2,-1.2267323E-2,-5.002431E-2,-9.733155E-2,1.874142E-2],"split_indices":[0,14,38,0,33,0,35,33,0,26,32,0,34,0,0,0,0,0,0,0,0,0,0],"split_type":[0,0,0,0,0,0,0,0,0,0,0,0,0,0,0,0,0,0,0,0,0,0,0],"sum_hessian":[9.1437295E3,1.6902021E3,7.453527E3,1.5950006E3,9.520156E1,4.5507124E3,2.9028145E3,1.9479597E1,7.572196E1,3.4962546E3,1.0544578E3,1.9748833E3,9.27931E2,7.8623595E0,1.1617237E1,4.1008206E2,3.0861726E3,4.7783887E2,5.766189E2,1.4656936E3,5.091898E2,2.1537283E1,9.0639374E2],"tree_param":{"num_deleted":"0","num_feature":"50","num_nodes":"23","size_leaf_vector":"1"}},{"base_weights":[4.4435523E-3,-3.6313254E-1,4.5453885E-1,-8.019023E-1,-1.0563662E-1,7.811064E-3,7.1628594E-1,-9.0000045E-1,-1.8181993E-1,-1.066582E0,-2.855187E-2,-3.012859E-1,5.409082E-1,4.859832E-1,9.710068E-1,-4.6574496E-2,3.6800936E-2,-7.155783E-2,2.0810417E-3,1.4050351E-2,-7.269783E-2,-1.3848305E-2,1.3254925E-2,-6.157861E-2,-7.340149E-3,1.6459545E-2,5.120827E-2,1.5967576E-2,4.769407E-2,4.2763706E-2,5.581286E-2],"categories":[],"categories_nodes":[],"categories_segments":[],"categories_sizes":[],"default_left":[0,0,0,0,0,0,0,0,0,0,0,0,0,0,0,0,0,0,0,0,0,0,0,0,0,0,0,0,0,0,0],"id":24,"left_children":[1,3,5,7,9,11,13,15,17,19,21,23,25,27,29,-1,-1,-1,-1,-1,-1,-1,-1,-1,-1,-1,-1,-1,-1,-1,-1],"loss_changes":[1.4974946E3,5.627275E2,4.757135E2,1.1179114E2,2.3252687E2,2.4809067E2,1.498866E2,8.262988E1,7.083314E1,1.2222394E2,2.1226753E2,1.3661557E2,5.606987E1,1.0479001E2,1.930603E1,0E0,0E0,0E0,0E0,0E0,0E0,0E0,0E0,0E0,0E0,0E0,0E0,0E0,0E0,0E0,0E0],"parents":[2147483647,0,0,1,1,2,2,3,3,4,4,5,5,6,6,7,7,8,8,9,9,10,10,11,11,12,12,13,13,14,14],"right_children":[2,4,6,8,10,12,14,16,18,20,22,24,26,28,30,-1,-1,-1,-1,-1,-1,-1,-1,-1,-1,-1,-1,-1,-1,-1,-1],"split_conditions":[3.7E1,7.568E-1,1.101E0,2.6363637E0,2.31E1,8.9E-3,6.6E1,8E1,-7.05E-2,7.41E1,1E0,2.667E-1,9.2E1,8.03E-2,9E1,-4.6574496E-2,3.6800936E-2,-7.155783E-2,2.0810417E-3,1.4050351E-2,-7.269783E-2,-1.3848305E-2,1.3254925E-2,-6.157861E-2,-7.340149E-3,1.6459545E-2,5.120827E-2,1.5967576E-2,4.769407E-2,4.2763706E-2,5.581286E-2],"split_indices":[13,35,35,25,34,48,13,33,42,33,2,35,13,48,13,0,0,0,0,0,0,0,0,0,0,0,0,0,0,0,0],"split_type":[0,0,0,0,0,0,0,0,0,0,0,0,0,0,0,0,0,0,0,0,0,0,0,0,0,0,0,0,0,0,0],"sum_hessian":[9.049301E3,4.981261E3,4.0680393E3,1.8412654E3,3.1399956E3,1.5034647E3,2.5645747E3,1.5892333E3,2.520322E2,2.3212842E2,2.9078672E3,9.518288E2,5.516359E2,1.3485764E3,1.2159983E3,1.5597045E3,2.9528831E1,3.7484657E1,2.1454753E2,5.1832226E1,1.802962E2,1.5754818E3,1.3323854E3,1.3446564E2,8.1736316E2,3.8489822E2,1.6673772E2,9.9582965E2,3.5274673E2,6.8098193E2,5.3501636E2],"tree_param":{"num_deleted":"0","num_feature":"50","num_nodes":"31","size_leaf_vector":"1"}},{"base_weights":[1.4838378E-2,-3.9557192E-1,4.401094E-1,-5.9490454E-1,1.9557329E-1,2.4751917E-1,8.960733E-1,-7.59587E-1,-3.0192482E-1,-2.8073874E-1,4.6024945E-1,-6.308789E-2,5.671231E-1,9.4079715E-1,-2.1002673E-2,-4.920972E-2,-3.1219825E-2,2.4951955E-2,-2.18361E-2,-3.1303365E-2,6.346638E-3,2.5412807E-2,-9.103783E-2,3.89963E-3,-5.077639E-2,-1.7455494E-2,3.338332E-2,-9.292003E-2,4.7572266E-2,-8.424501E-2,3.1875063E-2],"categories":[],"categories_nodes":[],"categories_segments":[],"categories_sizes":[],"default_left":[0,0,0,0,0,0,0,0,0,0,0,0,0,0,0,0,0,0,0,0,0,0,0,0,0,0,0,0,0,0,0],"id":25,"left_children":[1,3,5,7,9,11,13,15,17,19,21,23,25,27,29,-1,-1,-1,-1,-1,-1,-1,-1,-1,-1,-1,-1,-1,-1,-1,-1],"loss_changes":[1.5753837E3,5.413954E2,3.8893616E2,1.6541443E2,1.4624588E2,3.0962164E2,5.408081E1,6.597571E1,1.3387863E2,5.8473377E1,8.242378E1,2.1275233E2,1.4185886E2,3.907776E1,6.9177505E1,0E0,0E0,0E0,0E0,0E0,0E0,0E0,0E0,0E0,0E0,0E0,0E0,0E0,0E0,0E0,0E0],"parents":[2147483647,0,0,1,1,2,2,3,3,4,4,5,5,6,6,7,7,8,8,9,9,10,10,11,11,12,12,13,13,14,14],"right_children":[2,4,6,8,10,12,14,16,18,20,22,24,26,28,30,-1,-1,-1,-1,-1,-1,-1,-1,-1,-1,-1,-1,-1,-1,-1,-1],"split_conditions":[1.1578947E-1,2.2946E0,7.5E1,2E0,1.1E1,1.557E0,5.5859227E0,2.56E1,-1.7438E0,2.9758E0,7.81E1,6.711E-1,1.4E1,-2.9828E0,3.418E-1,-4.920972E-2,-3.1219825E-2,2.4951955E-2,-2.18361E-2,-3.1303365E-2,6.346638E-3,2.5412807E-2,-9.103783E-2,3.89963E-3,-5.077639E-2,-1.7455494E-2,3.338332E-2,-9.292003E-2,4.7572266E-2,-8.424501E-2,3.1875063E-2],"split_indices":[32,35,13,17,12,35,21,34,43,35,33,37,13,39,44,0,0,0,0,0,0,0,0,0,0,0,0,0,0,0,0],"split_type":[0,0,0,0,0,0,0,0,0,0,0,0,0,0,0,0,0,0,0,0,0,0,0,0,0,0,0,0,0,0,0],"sum_hessian":[9.024123E3,4.592214E3,4.4319087E3,3.4343298E3,1.1578843E3,3.117078E3,1.3148306E3,2.1973025E3,1.2370273E3,4.134321E2,7.4445215E2,1.581037E3,1.5360409E3,1.25377E3,6.10605E1,8.2297723E2,1.3743253E3,1.776987E2,1.0593286E3,2.236734E2,1.8975868E2,7.2991125E2,1.4540891E1,1.3777678E3,2.0326921E2,1.5154768E2,1.3844933E3,4.0581155E0,1.2497119E3,1.6914467E1,4.4146034E1],"tree_param":{"num_deleted":"0","num_feature":"50","num_nodes":"31","size_leaf_vector":"1"}},{"base_weights":[3.1872573E-3,-5.2895826E-1,2.9206786E-1,-2.3293787E-1,-7.546764E-1,2.7614726E-2,6.7090845E-1,-5.3188306E-1,2.3950103E-1,-8.847093E-1,-2.8629586E-1,-8.860014E-1,1.3465205E-1,5.1566386E-1,1.0179077E0,-4.2964436E-2,-1.10228425E-2,1.793227E-2,-6.39206E-2,-4.786258E-2,-3.653301E-3,4.44486E-3,-4.8445135E-2,-4.48071E-3,-7.210453E-2,-1.3720858E-3,2.642948E-2,-1.9659894E-2,2.8449688E-2,5.143732E-2,-2.2578424E-2],"categories":[],"categories_nodes":[],"categories_segments":[],"categories_sizes":[],"default_left":[0,0,0,0,0,0,0,0,0,0,0,0,0,0,0,0,0,0,0,0,0,0,0,0,0,0,0,0,0,0,0],"id":26,"left_children":[1,3,5,7,9,11,13,15,17,19,21,23,25,27,29,-1,-1,-1,-1,-1,-1,-1,-1,-1,-1,-1,-1,-1,-1,-1,-1],"loss_changes":[1.355047E3,2.0695215E2,5.72313E2,1.898877E2,1.06762146E2,3.2919586E2,1.25836914E2,8.3638885E1,9.462259E1,8.085205E1,9.84874E1,1.5605557E2,1.9251353E2,7.899588E1,1.206488E1,0E0,0E0,0E0,0E0,0E0,0E0,0E0,0E0,0E0,0E0,0E0,0E0,0E0,0E0,0E0,0E0],"parents":[2147483647,0,0,1,1,2,2,3,3,4,4,5,5,6,6,7,7,8,8,9,9,10,10,11,11,12,12,13,13,14,14],"right_children":[2,4,6,8,10,12,14,16,18,20,22,24,26,28,30,-1,-1,-1,-1,-1,-1,-1,-1,-1,-1,-1,-1,-1,-1,-1,-1],"split_conditions":[-5.29E-2,-1.128E-1,5.2E1,-9.13E-2,-6.44E-2,2.37E1,9E1,7.5E1,2.93E1,7.8E1,-4.06E-2,7.51E1,3.77E-2,7.2E1,1.1732E0,-4.2964436E-2,-1.10228425E-2,1.793227E-2,-6.39206E-2,-4.786258E-2,-3.653301E-3,4.44486E-3,-4.8445135E-2,-4.48071E-3,-7.210453E-2,-1.3720858E-3,2.642948E-2,-1.9659894E-2,2.8449688E-2,5.143732E-2,-2.2578424E-2],"split_indices":[41,48,13,41,41,34,13,33,34,33,48,33,48,33,36,0,0,0,0,0,0,0,0,0,0,0,0,0,0,0,0],"split_type":[0,0,0,0,0,0,0,0,0,0,0,0,0,0,0,0,0,0,0,0,0,0,0,0,0,0,0,0,0,0,0],"sum_hessian":[8.812809E3,3.1004001E3,5.7124087E3,1.3423873E3,1.7580128E3,3.3648682E3,2.3475403E3,8.222059E2,5.2018146E2,1.3751406E3,3.828722E2,3.5201712E2,3.012851E3,1.6238276E3,7.237127E2,3.998057E2,4.2240015E2,4.8309207E2,3.7089363E1,1.2620405E3,1.1310006E2,2.4753726E2,1.3533493E2,1.4528801E2,2.0672913E2,2.1350266E3,8.778244E2,8.954419E1,1.5342834E3,7.1877905E2,4.9336324E0],"tree_param":{"num_deleted":"0","num_feature":"50","num_nodes":"31","size_leaf_vector":"1"}},{"base_weights":[1.4534182E-3,-4.3145278E-1,3.2097876E-1,-6.007659E-1,4.061972E-1,-1.8588994E-1,5.6195235E-1,-8.0053985E-1,-3.3774415E-1,-9.185536E-1,4.9727744E-1,-7.690827E-2,-1.03197E0,3.8739014E-1,9.066813E-1,-2.8306875E-2,-5.0116967E-2,-2.484279E-2,6.4501623E-3,-6.9857724E-2,2.1069173E-2,-7.9504035E-2,2.7274385E-2,-3.4245554E-2,7.3230043E-3,-7.69024E-2,1.5603143E-2,-5.261279E-2,2.1585682E-2,-7.807225E-2,4.5783136E-2],"categories":[],"categories_nodes":[],"categories_segments":[],"categories_sizes":[],"default_left":[0,0,0,0,0,0,0,0,0,0,0,0,0,0,0,0,0,0,0,0,0,0,0,0,0,0,0,0,0,0,0],"id":27,"left_children":[1,3,5,7,9,11,13,15,17,19,21,23,25,27,29,-1,-1,-1,-1,-1,-1,-1,-1,-1,-1,-1,-1,-1,-1,-1,-1],"loss_changes":[1.2176774E3,5.3043097E2,6.1878485E2,1.630376E2,7.631412E1,1.5035385E2,2.0612256E2,8.284204E1,9.994943E1,2.6817078E1,6.0065063E1,1.9674431E2,1.2719743E2,1.4594977E2,2.6927979E1,0E0,0E0,0E0,0E0,0E0,0E0,0E0,0E0,0E0,0E0,0E0,0E0,0E0,0E0,0E0,0E0],"parents":[2147483647,0,0,1,1,2,2,3,3,4,4,5,5,6,6,7,7,8,8,9,9,10,10,11,11,12,12,13,13,14,14],"right_children":[2,4,6,8,10,12,14,16,18,20,22,24,26,28,30,-1,-1,-1,-1,-1,-1,-1,-1,-1,-1,-1,-1,-1,-1,-1,-1],"split_conditions":[1.101E0,6.5E1,2.2E1,6.335E-1,8.152941E0,2.93E1,6.5E1,6.2963576E0,2.516129E0,4.090909E0,2.25E1,2.5E1,7.5E1,2.24E1,-3.1114E0,-2.8306875E-2,-5.0116967E-2,-2.484279E-2,6.4501623E-3,-6.9857724E-2,2.1069173E-2,-7.9504035E-2,2.7274385E-2,-3.4245554E-2,7.3230043E-3,-7.69024E-2,1.5603143E-2,-5.261279E-2,2.1585682E-2,-7.807225E-2,4.5783136E-2],"split_indices":[35,13,13,35,26,34,13,21,25,25,34,34,33,34,39,0,0,0,0,0,0,0,0,0,0,0,0,0,0,0,0],"split_type":[0,0,0,0,0,0,0,0,0,0,0,0,0,0,0,0,0,0,0,0,0,0,0,0,0,0,0,0,0,0,0],"sum_hessian":[8.801127E3,3.737179E3,5.063948E3,3.1091357E3,6.280433E2,1.6316714E3,3.432277E3,1.7656445E3,1.3434911E3,3.9746872E1,5.882964E2,1.4465532E3,1.8511816E2,2.280103E3,1.152174E3,8.188277E2,9.4681683E2,1.00204816E3,3.4144296E2,2.9309858E1,1.0437014E1,1.2511922E1,5.757844E2,3.882173E2,1.0583359E3,1.3443027E2,5.0687897E1,6.7356E1,2.212747E3,3.5104277E0,1.1486636E3],"tree_param":{"num_deleted":"0","num_feature":"50","num_nodes":"31","size_leaf_vector":"1"}},{"base_weights":[6.7665507E-3,-3.4541017E-1,3.9862692E-1,-7.87336E-1,-1.502579E-1,9.23445E-2,6.995439E-1,-4.1762018E-1,-1.0429614E0,-5.185803E-1,7.2309874E-2,-5.3516155E-1,2.2036922E-1,4.3942323E-1,8.685452E-1,-3.8782492E-2,6.86797E-3,-5.576035E-2,-3.6475867E-2,6.207036E-4,-3.561475E-2,-2.8168638E-3,3.6961827E-2,-5.642701E-2,-8.540755E-3,3.6099253E-3,3.256115E-2,2.723223E-2,-2.4113974E-2,4.6861786E-2,2.7117519E-2],"categories":[],"categories_nodes":[],"categories_segments":[],"categories_sizes":[],"default_left":[0,0,0,0,0,0,0,0,0,0,0,0,0,0,0,0,0,0,0,0,0,0,0,0,0,0,0,0,0,0,0],"id":28,"left_children":[1,3,5,7,9,11,13,15,17,19,21,23,25,27,29,-1,-1,-1,-1,-1,-1,-1,-1,-1,-1,-1,-1,-1,-1,-1,-1],"loss_changes":[1.1906589E3,3.9165735E2,3.7624945E2,1.3092535E2,2.585802E2,1.6278458E2,9.003204E1,1.13554665E2,1.761261E1,1.2228177E2,1.6881303E2,7.390406E1,1.0731566E2,7.9156296E1,2.7290222E1,0E0,0E0,0E0,0E0,0E0,0E0,0E0,0E0,0E0,0E0,0E0,0E0,0E0,0E0,0E0,0E0],"parents":[2147483647,0,0,1,1,2,2,3,3,4,4,5,5,6,6,7,7,8,8,9,9,10,10,11,11,12,12,13,13,14,14],"right_children":[2,4,6,8,10,12,14,16,18,20,22,24,26,28,30,-1,-1,-1,-1,-1,-1,-1,-1,-1,-1,-1,-1,-1,-1,-1,-1],"split_conditions":[2.2580644E-1,6.335E-1,4.7E1,6.2362227E0,1E0,6.335E-1,1.1343E0,4.7908515E-1,-4.51E-2,2.3121387E-1,2.9758E0,2.5531915E-1,2E0,1.5454545E0,2.3E1,-3.8782492E-2,6.86797E-3,-5.576035E-2,-3.6475867E-2,6.207036E-4,-3.561475E-2,-2.8168638E-3,3.6961827E-2,-5.642701E-2,-8.540755E-3,3.6099253E-3,3.256115E-2,2.723223E-2,-2.4113974E-2,4.6861786E-2,2.7117519E-2],"split_indices":[23,35,13,21,2,35,35,22,41,29,35,23,5,20,1,0,0,0,0,0,0,0,0,0,0,0,0,0,0,0,0],"split_type":[0,0,0,0,0,0,0,0,0,0,0,0,0,0,0,0,0,0,0,0,0,0,0,0,0,0,0,0,0,0,0],"sum_hessian":[8.625671E3,4.542791E3,4.08288E3,1.3904791E3,3.152312E3,2.0242135E3,2.0586665E3,5.6963293E2,8.208462E2,1.1870345E3,1.9652775E3,3.4233182E2,1.6818816E3,8.1241614E2,1.2462502E3,3.461235E2,2.235094E2,6.64751E2,1.5609518E2,3.174065E2,8.6962805E2,1.6481268E3,3.1715063E2,1.2933063E2,2.1300119E2,1.2525344E3,4.293472E2,7.2963837E2,8.277779E1,1.0276636E3,2.1858665E2],"tree_param":{"num_deleted":"0","num_feature":"50","num_nodes":"31","size_leaf_vector":"1"}},{"base_weights":[-3.4838007E-3,-1.1813227E0,2.514279E-1,-1.1990889E0,-8.8760227E-1,4.697436E-1,-1.3779445E-1,-1.0319359E0,-1.2144055E0,3.777549E-1,-6.1654694E-2,2.4277605E-1,7.3818517E-1,7.3127106E-2,-9.723713E-1,-5.7824936E-2,7.836733E-2,-5.9257865E-2,-6.376258E-2,-5.5649575E-2,7.0307374E-2,-5.340754E-2,1.615728E-2,2.8863007E-2,4.9410243E-2,-2.3915138E-2,1.1516933E-2,-1.0064252E-2,-5.6793183E-2],"categories":[],"categories_nodes":[],"categories_segments":[],"categories_sizes":[],"default_left":[0,0,0,0,0,0,0,0,0,0,0,0,0,0,0,0,0,0,0,0,0,0,0,0,0,0,0,0,0],"id":29,"left_children":[1,3,5,7,9,11,13,15,17,19,-1,21,23,25,27,-1,-1,-1,-1,-1,-1,-1,-1,-1,-1,-1,-1,-1,-1],"loss_changes":[2.547474E3,6.604492E0,5.927676E2,2.1584473E0,4.001574E1,2.7199634E2,4.4146136E2,4.2704956E1,5.4711914E-1,3.2355217E1,0E0,2.5557098E2,8.161926E1,1.7364378E2,6.341803E1,0E0,0E0,0E0,0E0,0E0,0E0,0E0,0E0,0E0,0E0,0E0,0E0,0E0,0E0],"parents":[2147483647,0,0,1,1,2,2,3,3,4,4,5,5,6,6,7,7,8,8,9,9,11,11,12,12,13,13,14,14],"right_children":[2,4,6,8,10,12,14,16,18,20,-1,22,24,26,28,-1,-1,-1,-1,-1,-1,-1,-1,-1,-1,-1,-1,-1,-1],"split_conditions":[1.8E1,1.1E1,5.8841887E0,3.857143E0,7.21E1,5.2E1,2.2E1,6E0,1.0869565E-1,7.2E1,-6.1654694E-2,2.31E1,8.4E1,6.335E-1,6E0,-5.7824936E-2,7.836733E-2,-5.9257865E-2,-6.376258E-2,-5.5649575E-2,7.0307374E-2,-5.340754E-2,1.615728E-2,2.8863007E-2,4.9410243E-2,-2.3915138E-2,1.1516933E-2,-1.0064252E-2,-5.6793183E-2],"split_indices":[0,14,21,26,33,13,0,15,32,33,0,34,13,35,8,0,0,0,0,0,0,0,0,0,0,0,0,0,0],"split_type":[0,0,0,0,0,0,0,0,0,0,0,0,0,0,0,0,0,0,0,0,0,0,0,0,0,0,0,0,0],"sum_hessian":[8.482355E3,1.5085844E3,6.9737715E3,1.419312E3,8.927238E1,4.467814E3,2.5059573E3,1.25425995E2,1.293886E3,1.9064852E1,7.020753E1,2.4221562E3,2.0456578E3,2.0010316E3,5.049257E2,1.2025661E2,5.169392E0,8.887779E2,4.0510815E2,7.7095995E0,1.1355251E1,1.3913629E2,2.28302E3,1.2468392E3,7.9881854E2,4.4333313E2,1.5576985E3,8.8827515E1,4.1609818E2],"tree_param":{"num_deleted":"0","num_feature":"50","num_nodes":"29","size_leaf_vector":"1"}},{"base_weights":[-1.5669633E-3,-1.1687326E0,2.4154933E-1,-1.1867392E0,-8.6592877E-1,5.658921E-1,-1.769611E-2,-1.0146668E0,-1.2019284E0,-5.98377E-2,1.0521156E-1,6.3233685E-1,-2.0896605E-1,1.5516219E-1,-5.98352E-1,-5.7329487E-2,1.10381894E-1,-5.901236E-2,-6.3752405E-2,4.6141446E-2,-6.0462642E-2,9.62529E-4,3.522874E-2,-7.808461E-2,1.722779E-2,-1.0023735E-2,1.8555328E-2,-4.2011168E-2,5.7727187E-3],"categories":[],"categories_nodes":[],"categories_segments":[],"categories_sizes":[],"default_left":[0,0,0,0,0,0,0,0,0,0,0,0,0,0,0,0,0,0,0,0,0,0,0,0,0,0,0,0,0],"id":30,"left_children":[1,3,5,7,9,11,13,15,17,-1,19,21,23,25,27,-1,-1,-1,-1,-1,-1,-1,-1,-1,-1,-1,-1,-1,-1],"loss_changes":[2.4010134E3,6.720581E0,5.888665E2,2.149292E0,2.7827675E1,1.6034027E2,3.908427E2,5.274993E1,2.4145508E-1,0E0,2.5446272E1,1.2682495E2,1.8510037E2,2.3050732E2,1.5439944E2,0E0,0E0,0E0,0E0,0E0,0E0,0E0,0E0,0E0,0E0,0E0,0E0,0E0,0E0],"parents":[2147483647,0,0,1,1,2,2,3,3,4,4,5,5,6,6,7,7,8,8,10,10,11,11,12,12,13,13,14,14],"right_children":[2,4,6,8,10,12,14,16,18,-1,20,22,24,26,28,-1,-1,-1,-1,-1,-1,-1,-1,-1,-1,-1,-1,-1,-1],"split_conditions":[1.8E1,1.1E1,-8.48E-2,3.857143E0,6E0,2.3E1,2.2E1,3E0,3.7E1,-5.98377E-2,3.22E2,1.6E1,1.5333334E-1,1E0,2.2946E0,-5.7329487E-2,1.10381894E-1,-5.901236E-2,-6.3752405E-2,4.6141446E-2,-6.0462642E-2,9.62529E-4,3.522874E-2,-7.808461E-2,1.722779E-2,-1.0023735E-2,1.8555328E-2,-4.2011168E-2,5.7727187E-3],"split_indices":[0,14,45,26,17,0,0,17,13,0,7,13,32,2,35,0,0,0,0,0,0,0,0,0,0,0,0,0,0],"split_type":[0,0,0,0,0,0,0,0,0,0,0,0,0,0,0,0,0,0,0,0,0,0,0,0,0,0,0,0,0],"sum_hessian":[8.45919E3,1.4576812E3,7.00151E3,1.3727971E3,8.488401E1,3.109903E3,3.8916064E3,1.1738462E2,1.2554125E3,6.321878E1,2.1665232E1,2.8645762E3,2.4532686E2,2.9992927E3,8.9231366E2,1.134165E2,3.9681268E0,9.825722E2,2.7284033E2,1.3587571E1,8.0776615E0,3.0222577E2,2.5623506E3,7.075973E1,1.7456712E2,1.13299E3,1.8663027E3,6.664514E2,2.2586224E2],"tree_param":{"num_deleted":"0","num_feature":"50","num_nodes":"29","size_leaf_vector":"1"}},{"base_weights":[9.063232E-3,-1.1642443E0,2.4284485E-1,-1.1695566E0,-4.8484433E-1,4.959369E-1,-1.493918E-1,-1.0051721E0,-1.1838393E0,-5.7674613E-2,3.629383E-2,2.6925772E-1,7.5130516E-1,-6.630699E-2,-1.1257976E0,-5.6889076E-2,4.9674965E-2,-5.8095653E-2,-6.290089E-2,1.8661112E-2,-4.7466464E-2,-8.229441E-2,3.9088737E-2,7.2754634E-4,-4.774969E-2,-1.6976738E-2,-6.134459E-2],"categories":[],"categories_nodes":[],"categories_segments":[],"categories_sizes":[],"default_left":[0,0,0,0,0,0,0,0,0,0,0,0,0,0,0,0,0,0,0,0,0,0,0,0,0,0,0],"id":31,"left_children":[1,3,5,7,9,11,13,15,17,-1,-1,19,21,23,25,-1,-1,-1,-1,-1,-1,-1,-1,-1,-1,-1,-1],"loss_changes":[2.2976768E3,4.2906494E0,6.9354016E2,1.8314209E0,1.1122193E1,2.4548438E2,2.22098E2,3.228961E1,3.5144043E-1,0E0,0E0,2.8549255E2,1.4698364E2,1.8164908E2,1.6494385E1,0E0,0E0,0E0,0E0,0E0,0E0,0E0,0E0,0E0,0E0,0E0,0E0],"parents":[2147483647,0,0,1,1,2,2,3,3,4,4,5,5,6,6,7,7,8,8,11,11,12,12,13,13,14,14],"right_children":[2,4,6,8,10,12,14,16,18,-1,-1,20,22,24,26,-1,-1,-1,-1,-1,-1,-1,-1,-1,-1,-1,-1],"split_conditions":[1.8E1,1.6E1,6.51E-2,-1.775E-1,1.5E1,8.9E-3,2.3E1,6E0,1.328125E-1,-5.7674613E-2,3.629383E-2,2.3E1,2.2E0,2.98E1,4.5575128E0,-5.6889076E-2,4.9674965E-2,-5.8095653E-2,-6.290089E-2,1.8661112E-2,-4.7466464E-2,-8.229441E-2,3.9088737E-2,7.2754634E-4,-4.774969E-2,-1.6976738E-2,-6.134459E-2],"split_indices":[0,2,38,41,14,48,0,15,32,0,0,0,6,34,21,0,0,0,0,0,0,0,0,0,0,0,0],"split_type":[0,0,0,0,0,0,0,0,0,0,0,0,0,0,0,0,0,0,0,0,0,0,0,0,0,0,0],"sum_hessian":[8.374885E3,1.3907177E3,6.9841675E3,1.3790659E3,1.1651707E1,4.2450347E3,2.7391326E3,1.165087E2,1.2625573E3,7.589885E0,4.0618215E0,2.250135E3,1.9948998E3,2.5254097E3,2.1372307E2,1.0971032E2,6.798376E0,9.8840753E2,2.741497E2,2.0739688E3,1.7616617E2,2.4331327E1,1.9705685E3,2.3155942E3,2.0981522E2,2.4958138E1,1.8876492E2],"tree_param":{"num_deleted":"0","num_feature":"50","num_nodes":"27","size_leaf_vector":"1"}},{"base_weights":[-1.7970467E-2,-1.1523887E0,2.0261027E-1,-1.1577756E0,-4.9118206E-1,-1.6249253E-1,4.9034235E-1,-1.1058501E0,-6.03459E-2,-5.720083E-2,3.4211718E-2,-7.068906E-1,-4.8360582E-2,-8.239903E-1,5.465494E-1,-1.9457962E-2,-5.6446414E-2,4.6619787E-3,-6.422186E-2,1.3049417E-3,-5.968788E-2,-5.712069E-2,5.4537125E-2,3.4348313E-2,6.3722054E-3],"categories":[],"categories_nodes":[],"categories_segments":[],"categories_sizes":[],"default_left":[0,0,0,0,0,0,0,0,0,0,0,0,0,0,0,0,0,0,0,0,0,0,0,0,0],"id":32,"left_children":[1,3,5,7,9,11,13,15,-1,-1,-1,17,19,21,23,-1,-1,-1,-1,-1,-1,-1,-1,-1,-1],"loss_changes":[2.04778E3,4.0115967E0,7.198262E2,1.8039551E0,1.0538001E1,1.8754137E2,2.83503E2,1.0243042E1,0E0,0E0,0E0,2.420184E2,2.1318585E2,9.726323E1,2.1612756E2,0E0,0E0,0E0,0E0,0E0,0E0,0E0,0E0,0E0,0E0],"parents":[2147483647,0,0,1,1,2,2,3,3,4,4,5,5,6,6,7,7,11,11,12,12,13,13,14,14],"right_children":[2,4,6,8,10,12,14,16,-1,-1,-1,18,20,22,24,-1,-1,-1,-1,-1,-1,-1,-1,-1,-1],"split_conditions":[1.8E1,1.6E1,3.2E1,6.666E-1,1.5E1,2.43E1,3.009E-1,-1.109E-1,-6.03459E-2,-5.720083E-2,3.4211718E-2,7.51E1,3.06E1,1.06E2,2.2E1,-1.9457962E-2,-5.6446414E-2,4.6619787E-3,-6.422186E-2,1.3049417E-3,-5.968788E-2,-5.712069E-2,5.4537125E-2,3.4348313E-2,6.3722054E-3],"split_indices":[0,2,13,35,14,34,35,48,0,0,0,33,34,13,0,0,0,0,0,0,0,0,0,0,0],"split_type":[0,0,0,0,0,0,0,0,0,0,0,0,0,0,0,0,0,0,0,0,0,0,0,0,0],"sum_hessian":[8.181252E3,1.331215E3,6.850037E3,1.319562E3,1.1652917E1,3.019141E3,3.830896E3,6.5402954E2,6.655325E2,7.5637474E0,4.089169E0,5.22205E2,2.496936E3,1.5647523E2,3.6744207E3,2.1095804E1,6.329337E2,2.1919658E2,3.0300845E2,2.3453599E3,1.5157613E2,1.3455421E2,2.1921019E1,2.751636E3,9.227848E2],"tree_param":{"num_deleted":"0","num_feature":"50","num_nodes":"25","size_leaf_vector":"1"}},{"base_weights":[1.0350261E-2,-1.1414613E0,2.2407298E-1,-1.1531062E0,-7.7412343E-1,4.8529992E-1,-7.6304436E-2,-9.735841E-1,-5.8424182E-2,3.76157E-1,-6.194043E-2,1.950503E-1,6.987273E-1,1.0624123E-1,-7.78836E-1,-5.6082554E-2,1.1574646E-1,-5.0621636E-2,6.278897E-2,-1.786477E-2,1.7507946E-2,3.8108796E-2,-1.0505869E-2,-1.4345082E-2,1.4359983E-2,8.228188E-3,-4.5430798E-2],"categories":[],"categories_nodes":[],"categories_segments":[],"categories_sizes":[],"default_left":[0,0,0,0,0,0,0,0,0,0,0,0,0,0,0,0,0,0,0,0,0,0,0,0,0,0,0],"id":33,"left_children":[1,3,5,7,9,11,13,15,-1,17,-1,19,21,23,25,-1,-1,-1,-1,-1,-1,-1,-1,-1,-1,-1,-1],"loss_changes":[2.0162051E3,4.397949E0,5.421892E2,2.0716553E0,2.3373318E1,2.2870227E2,4.1236218E2,5.3291E1,0E0,1.7162142E1,0E0,1.3441994E2,1.2298425E2,1.8164566E2,8.141901E1,0E0,0E0,0E0,0E0,0E0,0E0,0E0,0E0,0E0,0E0,0E0,0E0],"parents":[2147483647,0,0,1,1,2,2,3,3,4,4,5,5,6,6,7,7,9,9,11,11,12,12,13,13,14,14],"right_children":[2,4,6,8,10,12,14,16,-1,18,-1,20,22,24,26,-1,-1,-1,-1,-1,-1,-1,-1,-1,-1,-1,-1],"split_conditions":[1.8E1,7E0,5.4004126E0,3.857143E0,7.21E1,3E0,2.2E1,3E0,-5.8424182E-2,7.2E1,-6.194043E-2,1.5E1,2.3E1,-2.5653E0,-1.8015E0,-5.6082554E-2,1.1574646E-1,-5.0621636E-2,6.278897E-2,-1.786477E-2,1.7507946E-2,3.8108796E-2,-1.0505869E-2,-1.4345082E-2,1.4359983E-2,8.228188E-3,-4.5430798E-2],"split_indices":[0,17,21,26,33,2,0,17,0,33,0,13,0,39,43,0,0,0,0,0,0,0,0,0,0,0,0],"split_type":[0,0,0,0,0,0,0,0,0,0,0,0,0,0,0,0,0,0,0,0,0,0,0,0,0,0,0],"sum_hessian":[8.1886865E3,1.2808763E3,6.90781E3,1.2391818E3,4.1694645E1,3.694532E3,3.213278E3,1.0335757E2,1.1358242E3,1.1989984E1,2.9704662E1,1.5665255E3,2.1280063E3,2.5511057E3,6.6217236E2,9.956398E1,3.7935896E0,4.547127E0,7.442857E0,3.4303198E2,1.2234935E3,1.9893936E3,1.3861281E2,8.037573E2,1.7473484E3,7.9951096E1,5.822213E2],"tree_param":{"num_deleted":"0","num_feature":"50","num_nodes":"27","size_leaf_vector":"1"}},{"base_weights":[1.0417556E-2,-2.4235858E-1,3.879128E-1,-5.229671E-1,2.4822792E-2,2.1528307E-1,7.9734105E-1,-1.0419849E0,-4.208478E-1,-1.0544305E0,9.015791E-2,-8.504976E-1,2.778333E-1,6.062457E-1,9.2880994E-1,-5.8173206E-2,-3.272235E-2,-1.7954042E-2,-6.859826E-2,-6.306632E-2,2.2318592E-2,5.9515562E-2,2.2922696E-4,2.9714344E-2,-7.240405E-2,1.8997295E-2,-1.6259942E-2,2.5134336E-3,3.6016632E-2,-2.2289537E-2,4.717424E-2],"categories":[],"categories_nodes":[],"categories_segments":[],"categories_sizes":[],"default_left":[0,0,0,0,0,0,0,0,0,0,0,0,0,0,0,0,0,0,0,0,0,0,0,0,0,0,0,0,0,0,0],"id":34,"left_children":[1,3,5,7,9,11,13,15,17,19,21,23,25,27,29,-1,-1,-1,-1,-1,-1,-1,-1,-1,-1,-1,-1,-1,-1,-1,-1],"loss_changes":[7.6737714E2,3.6116647E2,2.2769562E2,1.2393811E2,1.7402611E2,1.5152988E2,2.3302551E1,1.7201569E1,1.147728E2,4.4386E1,2.1905547E2,1.0974515E2,1.322311E2,2.4805405E1,1.1851593E1,0E0,0E0,0E0,0E0,0E0,0E0,0E0,0E0,0E0,0E0,0E0,0E0,0E0,0E0,0E0,0E0],"parents":[2147483647,0,0,1,1,2,2,3,3,4,4,5,5,6,6,7,7,8,8,9,9,10,10,11,11,12,12,13,13,14,14],"right_children":[2,4,6,8,10,12,14,16,18,20,22,24,26,28,30,-1,-1,-1,-1,-1,-1,-1,-1,-1,-1,-1,-1,-1,-1,-1,-1],"split_conditions":[2.3913044E-1,1.101E0,5.62E1,2.667E-1,7.2E1,2.31E1,1.99E-2,1E0,3.02E1,3E0,7.21E1,7.41E1,2.6758E0,4.547E-1,7.1E1,-5.8173206E-2,-3.272235E-2,-1.7954042E-2,-6.859826E-2,-6.306632E-2,2.2318592E-2,5.9515562E-2,2.2922696E-4,2.9714344E-2,-7.240405E-2,1.8997295E-2,-1.6259942E-2,2.5134336E-3,3.6016632E-2,-2.2289537E-2,4.717424E-2],"split_indices":[23,35,6,35,33,34,48,5,34,5,33,33,40,35,33,0,0,0,0,0,0,0,0,0,0,0,0,0,0,0,0],"split_type":[0,0,0,0,0,0,0,0,0,0,0,0,0,0,0,0,0,0,0,0,0,0,0,0,0,0,0,0,0,0,0],"sum_hessian":[8.039811E3,4.815427E3,3.2243845E3,2.3484124E3,2.4670144E3,2.269325E3,9.5505945E2,3.8442126E2,1.9639911E3,1.3987001E2,2.3271443E3,1.2501553E2,2.1443096E3,3.9185477E2,5.632047E2,2.9095663E2,9.346464E1,1.8456168E3,1.18374374E2,1.2312288E2,1.6747124E1,1.6693297E2,2.1602114E3,3.6531372E1,8.848416E1,1.8342485E3,3.1006097E2,6.7112785E1,3.2474197E2,5.566802E0,5.576379E2],"tree_param":{"num_deleted":"0","num_feature":"50","num_nodes":"31","size_leaf_vector":"1"}},{"base_weights":[1.2107672E-2,-1.1209756E0,2.161869E-1,-1.1423867E0,-7.8636295E-1,3.617037E-1,-2.8548878E-1,-9.6201533E-1,-5.794825E-2,-2.0607192E-2,-5.7312377E-2,8.493154E-2,6.129973E-1,2.1310985E-1,-7.107398E-1,-5.5597007E-2,5.8725297E-2,-5.7974458E-2,5.8280986E-2,7.859538E-3,-5.8374386E-2,-4.907122E-2,3.2620817E-2,-6.64608E-2,1.5242194E-2,-2.1960208E-2,-6.258757E-2],"categories":[],"categories_nodes":[],"categories_segments":[],"categories_sizes":[],"default_left":[0,0,0,0,0,0,0,0,0,0,0,0,0,0,0,0,0,0,0,0,0,0,0,0,0,0,0],"id":35,"left_children":[1,3,5,7,9,11,13,15,-1,17,-1,19,21,23,25,-1,-1,-1,-1,-1,-1,-1,-1,-1,-1,-1,-1],"loss_changes":[1.8496171E3,7.654907E0,4.9494302E2,2.0963135E0,2.1053528E1,3.6535883E2,3.2343225E2,3.421599E1,0E0,3.606408E1,0E0,2.2651111E2,1.7368835E2,9.967755E1,1.2019571E2,0E0,0E0,0E0,0E0,0E0,0E0,0E0,0E0,0E0,0E0,0E0,0E0],"parents":[2147483647,0,0,1,1,2,2,3,3,4,4,5,5,6,6,7,7,9,9,11,11,12,12,13,13,14,14],"right_children":[2,4,6,8,10,12,14,16,-1,18,-1,20,22,24,26,-1,-1,-1,-1,-1,-1,-1,-1,-1,-1,-1,-1],"split_conditions":[1.8E1,1.1E1,2.2E1,-1.775E-1,-1.848E-1,3.2E1,4.9574704E0,-1.808E-1,-5.794825E-2,-2.256E-1,-5.7312377E-2,3.02E1,2.667E-1,1.8461539E0,2.3E1,-5.5597007E-2,5.8725297E-2,-5.7974458E-2,5.8280986E-2,7.859538E-3,-5.8374386E-2,-4.907122E-2,3.2620817E-2,-6.64608E-2,1.5242194E-2,-2.1960208E-2,-6.258757E-2],"split_indices":[0,14,0,41,44,13,21,41,0,44,0,34,35,25,0,0,0,0,0,0,0,0,0,0,0,0,0],"split_type":[0,0,0,0,0,0,0,0,0,0,0,0,0,0,0,0,0,0,0,0,0,0,0,0,0,0,0],"sum_hessian":[7.9970767E3,1.2197622E3,6.7773145E3,1.1438568E3,7.590529E1,5.2538525E3,1.523462E3,1.0176134E2,1.0420956E3,2.4694952E1,5.1210342E1,2.501006E3,2.7528462E3,7.013759E2,8.220861E2,9.558058E1,6.180757E0,1.2653409E1,1.2041542E1,2.3654822E3,1.3552382E2,6.577914E1,2.6870671E3,3.855584E1,6.6282007E2,5.486922E2,2.7339392E2],"tree_param":{"num_deleted":"0","num_feature":"50","num_nodes":"27","size_leaf_vector":"1"}},{"base_weights":[1.4397418E-4,-1.1199905E0,1.9435568E-1,-1.1325982E0,-7.152552E-1,-2.972958E-1,3.535904E-1,-9.4138193E-1,-5.7436187E-2,4.4467136E-1,-6.0216766E-2,5.5600875E-3,-6.931185E-1,4.2109758E-1,-4.5306674E-1,-5.5198103E-2,9.7486265E-2,6.583924E-2,-4.7930446E-2,1.7100278E-2,-2.7019655E-2,-1.5583483E-2,-5.679504E-2,1.2232529E-2,3.48369E-2,8.539202E-3,-6.7285486E-2],"categories":[],"categories_nodes":[],"categories_segments":[],"categories_sizes":[],"default_left":[0,0,0,0,0,0,0,0,0,0,0,0,0,0,0,0,0,0,0,0,0,0,0,0,0,0,0],"id":36,"left_children":[1,3,5,7,9,11,13,15,-1,17,-1,19,21,23,25,-1,-1,-1,-1,-1,-1,-1,-1,-1,-1,-1,-1],"loss_changes":[1.7127032E3,4.94104E0,5.2542645E2,2.182373E0,2.2223547E1,1.9690555E2,2.7622546E2,4.6068695E1,0E0,1.5945719E1,0E0,1.711864E2,1.1973828E2,2.2726709E2,2.185462E2,0E0,0E0,0E0,0E0,0E0,0E0,0E0,0E0,0E0,0E0,0E0,0E0],"parents":[2147483647,0,0,1,1,2,2,3,3,4,4,5,5,6,6,7,7,9,9,11,11,12,12,13,13,14,14],"right_children":[2,4,6,8,10,12,14,16,-1,18,-1,20,22,24,26,-1,-1,-1,-1,-1,-1,-1,-1,-1,-1,-1,-1],"split_conditions":[1.8E1,7E0,-6.52E-2,3.857143E0,7.21E1,2.1E1,2.3E1,3E0,-5.7436187E-2,2.52E1,-6.0216766E-2,7.1352725E0,4E0,7E0,-3.938E-1,-5.5198103E-2,9.7486265E-2,6.583924E-2,-4.7930446E-2,1.7100278E-2,-2.7019655E-2,-1.5583483E-2,-5.679504E-2,1.2232529E-2,3.48369E-2,8.539202E-3,-6.7285486E-2],"split_indices":[0,17,41,26,33,0,0,17,0,34,0,21,14,2,44,0,0,0,0,0,0,0,0,0,0,0,0],"split_type":[0,0,0,0,0,0,0,0,0,0,0,0,0,0,0,0,0,0,0,0,0,0,0,0,0,0,0],"sum_hessian":[7.871357E3,1.1623147E3,6.7090425E3,1.1252183E3,3.7096527E1,1.6409541E3,5.0680884E3,9.261151E1,1.0326067E3,1.0968775E1,2.612775E1,9.3006586E2,7.108882E2,4.6772617E3,3.908267E2,8.8298805E1,4.3127036E0,6.8466225E0,4.1221523E0,5.757901E2,3.542758E2,3.8293036E2,3.2795782E2,2.8531267E3,1.8241349E3,2.304596E2,1.6036708E2],"tree_param":{"num_deleted":"0","num_feature":"50","num_nodes":"27","size_leaf_vector":"1"}},{"base_weights":[-2.4137026E-2,-1.1220493E0,1.6277689E-1,-1.129709E0,-6.1737543E-1,3.928518E-1,-2.0238355E-1,-5.6918204E-2,-8.125851E-1,-5.7761904E-2,3.802156E-2,4.6580866E-1,-4.9502644E-1,-6.761613E-1,-4.4468194E-2,4.0696282E-2,-5.6134384E-2,1.6581876E-2,3.8303114E-2,2.4101224E-4,-7.230993E-2,3.5076279E-3,-6.6345215E-2,-1.8526806E-2,1.795504E-2],"categories":[],"categories_nodes":[],"categories_segments":[],"categories_sizes":[],"default_left":[0,0,0,0,0,0,0,0,0,0,0,0,0,0,0,0,0,0,0,0,0,0,0,0,0],"id":37,"left_children":[1,3,5,7,9,11,13,-1,15,-1,-1,17,19,21,23,-1,-1,-1,-1,-1,-1,-1,-1,-1,-1],"loss_changes":[1.5685785E3,3.4263916E0,5.4881616E2,1.8825684E0,1.5016804E1,2.598042E2,1.8881012E2,0E0,1.7521023E1,0E0,0E0,1.4883673E2,1.449957E2,3.0666412E2,2.4950018E2,0E0,0E0,0E0,0E0,0E0,0E0,0E0,0E0,0E0,0E0],"parents":[2147483647,0,0,1,1,2,2,3,3,4,4,5,5,6,6,8,8,11,11,12,12,13,13,14,14],"right_children":[2,4,6,8,10,12,14,-1,16,-1,-1,18,20,22,24,-1,-1,-1,-1,-1,-1,-1,-1,-1,-1],"split_conditions":[1.8E1,8E0,8.65E-2,3.6E1,5.238806E0,2.3E1,2.5E1,-5.6918204E-2,4.401585E0,-5.7761904E-2,3.802156E-2,6.5E1,-3.938E-1,7.51E1,7.5E1,4.0696282E-2,-5.6134384E-2,1.6581876E-2,3.8303114E-2,2.4101224E-4,-7.230993E-2,3.5076279E-3,-6.6345215E-2,-1.8526806E-2,1.795504E-2],"split_indices":[0,17,38,12,19,0,34,0,21,0,0,13,44,33,33,0,0,0,0,0,0,0,0,0,0],"split_type":[0,0,0,0,0,0,0,0,0,0,0,0,0,0,0,0,0,0,0,0,0,0,0,0,0],"sum_hessian":[7.6412246E3,1.1109799E3,6.5302446E3,1.0929548E3,1.8024963E1,4.006246E3,2.5239985E3,1.0610903E3,3.1864489E1,1.3132477E1,4.8924866E0,3.7025925E3,3.036536E2,6.2998926E2,1.8940092E3,4.7905474E0,2.707394E1,2.5607395E3,1.141853E3,1.9963435E2,1.0401926E2,2.9379025E2,3.36199E2,1.0477765E3,8.462327E2],"tree_param":{"num_deleted":"0","num_feature":"50","num_nodes":"25","size_leaf_vector":"1"}},{"base_weights":[1.1073272E-2,-1.1025552E0,1.904965E-1,-1.1089312E0,-3.22159E-1,3.4195483E-1,-2.36213E-1,-9.211024E-1,-1.1248181E0,4.566869E-2,-5.1532753E-2,4.7338477E-1,-7.412651E-2,-1.6225715E-1,-1.2471346E0,-5.4559357E-2,1.03739254E-1,-5.6721684E-2,-3.9075624E-2,8.895004E-3,3.1216666E-2,-2.0537859E-2,2.1135861E-2,-3.841605E-2,-1.987637E-3,-6.648556E-2,3.388731E-2],"categories":[],"categories_nodes":[],"categories_segments":[],"categories_sizes":[],"default_left":[0,0,0,0,0,0,0,0,0,0,0,0,0,0,0,0,0,0,0,0,0,0,0,0,0,0,0],"id":38,"left_children":[1,3,5,7,9,11,13,15,17,-1,-1,19,21,23,25,-1,-1,-1,-1,-1,-1,-1,-1,-1,-1,-1,-1],"loss_changes":[1.54405E3,4.834961E0,4.30241E2,1.9313965E0,9.904754E0,2.687309E2,1.3004166E2,4.747222E1,2.140747E0,0E0,0E0,1.6634534E2,1.9752817E2,1.2063558E2,1.982486E1,0E0,0E0,0E0,0E0,0E0,0E0,0E0,0E0,0E0,0E0,0E0,0E0],"parents":[2147483647,0,0,1,1,2,2,3,3,4,4,5,5,6,6,7,7,8,8,11,11,12,12,13,13,14,14],"right_children":[2,4,6,8,10,12,14,16,18,-1,-1,20,22,24,26,-1,-1,-1,-1,-1,-1,-1,-1,-1,-1,-1,-1],"split_conditions":[1.8E1,1.6E1,2.584E-1,3.857143E0,1.9E1,2.2E1,2.3E1,3E0,3.6E1,4.566869E-2,-5.1532753E-2,3.2E1,2.6086956E-1,2.43E1,2.5E1,-5.4559357E-2,1.03739254E-1,-5.6721684E-2,-3.9075624E-2,8.895004E-3,3.1216666E-2,-2.0537859E-2,2.1135861E-2,-3.841605E-2,-1.987637E-3,-6.648556E-2,3.388731E-2],"split_indices":[0,2,38,26,12,0,0,17,12,0,0,13,23,34,1,0,0,0,0,0,0,0,0,0,0,0,0],"split_type":[0,0,0,0,0,0,0,0,0,0,0,0,0,0,0,0,0,0,0,0,0,0,0,0,0,0,0],"sum_hessian":[7.7259653E3,1.07126E3,6.654705E3,1.0620338E3,9.226134E0,4.911741E3,1.742964E3,8.7914116E1,9.7411975E2,3.2056117E0,6.0205226E0,3.732757E3,1.1789844E3,1.6253201E3,1.176439E2,8.382433E1,4.0897846E0,9.450544E2,2.906538E1,1.2630848E3,2.469672E3,7.030295E2,4.7595483E2,2.7226422E2,1.3530559E3,1.1315092E2,4.492981E0],"tree_param":{"num_deleted":"0","num_feature":"50","num_nodes":"27","size_leaf_vector":"1"}},{"base_weights":[8.269061E-3,-1.0912963E0,1.7995428E-1,-1.1090137E0,-8.0458665E-1,5.046656E-2,6.5943885E-1,-9.096844E-1,-5.635587E-2,3.1049734E-1,-5.6247927E-2,-4.946158E-1,1.7687339E-1,-1.6581753E0,6.8761706E-1,-5.42634E-2,1.0416724E-1,-4.9259614E-2,6.558406E-2,-1.0930135E-2,-4.1920085E-2,1.4542835E-2,-1.400155E-2,-1.08842395E-1,1.6546547E-2,3.7572294E-2,1.6135065E-3],"categories":[],"categories_nodes":[],"categories_segments":[],"categories_sizes":[],"default_left":[0,0,0,0,0,0,0,0,0,0,0,0,0,0,0,0,0,0,0,0,0,0,0,0,0,0,0],"id":39,"left_children":[1,3,5,7,9,11,13,15,-1,17,-1,19,21,23,25,-1,-1,-1,-1,-1,-1,-1,-1,-1,-1,-1,-1],"loss_changes":[1.4340999E3,4.1276855E0,4.0788483E2,2.2471924E0,2.3179935E1,3.5663803E2,9.227661E1,4.727559E1,0E0,2.0687868E1,0E0,9.216539E1,2.1891324E2,1.8476517E1,5.7663757E1,0E0,0E0,0E0,0E0,0E0,0E0,0E0,0E0,0E0,0E0,0E0,0E0],"parents":[2147483647,0,0,1,1,2,2,3,3,4,4,5,5,6,6,7,7,9,9,11,11,12,12,13,13,14,14],"right_children":[2,4,6,8,10,12,14,16,-1,18,-1,20,22,24,26,-1,-1,-1,-1,-1,-1,-1,-1,-1,-1,-1,-1],"split_conditions":[1.8E1,1.1E1,6.5E1,-1.775E-1,7.21E1,6.335E-1,-6.18E-2,3E0,-5.635587E-2,7.2E1,-5.6247927E-2,6.316108E0,2.2E1,9.72E1,2.3E1,-5.42634E-2,1.0416724E-1,-4.9259614E-2,6.558406E-2,-1.0930135E-2,-4.1920085E-2,1.4542835E-2,-1.400155E-2,-1.08842395E-1,1.6546547E-2,3.7572294E-2,1.6135065E-3],"split_indices":[0,14,13,41,33,35,41,17,0,33,0,21,0,6,0,0,0,0,0,0,0,0,0,0,0,0,0],"split_type":[0,0,0,0,0,0,0,0,0,0,0,0,0,0,0,0,0,0,0,0,0,0,0,0,0,0,0],"sum_hessian":[7.5951504E3,1.0249398E3,6.5702104E3,9.6225977E2,6.2680122E1,5.1742E3,1.3960103E3,8.484603E1,8.774137E2,1.3926462E1,4.875366E1,9.7333813E2,4.200862E3,1.6031721E1,1.3799785E3,8.077806E1,4.067968E0,6.0338287E0,7.8926334E0,5.409533E2,4.3238483E2,3.362585E3,8.382771E2,1.2680964E1,3.350757E0,1.257229E3,1.22749565E2],"tree_param":{"num_deleted":"0","num_feature":"50","num_nodes":"27","size_leaf_vector":"1"}},{"base_weights":[1.222238E-2,-1.0872853E0,1.7858712E-1,-1.0935917E0,-3.5693917E-1,4.8759887E-1,-4.3680333E-3,-8.9976496E-1,-1.1100672E0,-5.086707E-2,3.3290558E-2,3.245935E-1,7.8626627E-1,6.39081E-2,-8.9002275E-1,-5.3954758E-2,8.062713E-2,-5.601702E-2,-3.8707968E-2,-1.0609126E-1,1.7360365E-2,3.150052E-2,4.8966035E-2,-1.6854623E-2,1.00576505E-2,-4.68437E-2,9.514721E-2],"categories":[],"categories_nodes":[],"categories_segments":[],"categories_sizes":[],"default_left":[0,0,0,0,0,0,0,0,0,0,0,0,0,0,0,0,0,0,0,0,0,0,0,0,0,0,0],"id":40,"left_children":[1,3,5,7,9,11,13,15,17,-1,-1,19,21,23,25,-1,-1,-1,-1,-1,-1,-1,-1,-1,-1,-1,-1],"loss_changes":[1.3709474E3,4.0010986E0,3.681109E2,1.9168701E0,7.5023293E0,1.1751251E2,2.4745738E2,3.872518E1,2.0307617E0,0E0,0E0,8.732243E1,2.4983093E1,2.0908276E2,4.0014145E1,0E0,0E0,0E0,0E0,0E0,0E0,0E0,0E0,0E0,0E0,0E0,0E0],"parents":[2147483647,0,0,1,1,2,2,3,3,4,4,5,5,6,6,7,7,8,8,11,11,12,12,13,13,14,14],"right_children":[2,4,6,8,10,12,14,16,18,-1,-1,20,22,24,26,-1,-1,-1,-1,-1,-1,-1,-1,-1,-1,-1,-1],"split_conditions":[1.8E1,1.6E1,-1.568E-1,3.857143E0,1.5E1,6.5E1,2.3E1,3E0,3.6E1,-5.086707E-2,3.3290558E-2,-5.9318E0,9.1E1,-2.5653E0,8.05E1,-5.3954758E-2,8.062713E-2,-5.601702E-2,-3.8707968E-2,-1.0609126E-1,1.7360365E-2,3.150052E-2,4.8966035E-2,-1.6854623E-2,1.00576505E-2,-4.68437E-2,9.514721E-2],"split_indices":[0,2,45,26,14,13,0,17,12,0,0,40,13,39,33,0,0,0,0,0,0,0,0,0,0,0,0],"split_type":[0,0,0,0,0,0,0,0,0,0,0,0,0,0,0,0,0,0,0,0,0,0,0,0,0,0,0],"sum_hessian":[7.4932554E3,9.839796E2,6.509276E3,9.74927E2,9.05264E0,2.4202866E3,4.088989E3,8.121039E1,8.937166E2,5.5633693E0,3.4892704E0,1.5673093E3,8.5297736E2,3.7970825E3,2.919065E2,7.636938E1,4.841016E0,8.646404E2,2.9076225E1,1.3464204E1,1.5538451E3,4.7406015E2,3.7891724E2,9.676447E2,2.8294377E3,2.8777945E2,4.1270514E0],"tree_param":{"num_deleted":"0","num_feature":"50","num_nodes":"27","size_leaf_vector":"1"}},{"base_weights":[-1.0443953E-2,-1.0692215E0,1.472312E-1,-1.093115E0,-6.781944E-1,-3.4504864E-2,5.076544E-1,-8.865033E-1,-5.5570822E-2,-9.54198E-2,-5.7231642E-2,-2.2602098E-1,2.8218162E-1,1.5414955E-1,7.1327454E-1,-5.3662766E-2,8.8644646E-2,-5.5191763E-2,6.0983974E-2,1.05577E-3,-2.7343055E-2,1.8065572E-2,-3.6528178E-2,-5.574603E-2,1.2214345E-2,-3.221024E-2,3.71804E-2],"categories":[],"categories_nodes":[],"categories_segments":[],"categories_sizes":[],"default_left":[0,0,0,0,0,0,0,0,0,0,0,0,0,0,0,0,0,0,0,0,0,0,0,0,0,0,0],"id":41,"left_children":[1,3,5,7,9,11,13,15,-1,17,-1,19,21,23,25,-1,-1,-1,-1,-1,-1,-1,-1,-1,-1,-1,-1],"loss_changes":[1.2275188E3,7.98645E0,4.19234E2,2.2041016E0,1.54675255E1,2.5812543E2,1.557445E2,4.073102E1,0E0,3.696082E1,0E0,2.1036404E2,1.28748E2,9.060164E1,5.632263E1,0E0,0E0,0E0,0E0,0E0,0E0,0E0,0E0,0E0,0E0,0E0,0E0],"parents":[2147483647,0,0,1,1,2,2,3,3,4,4,5,5,6,6,7,7,9,9,11,11,12,12,13,13,14,14],"right_children":[2,4,6,8,10,12,14,16,-1,18,-1,20,22,24,26,-1,-1,-1,-1,-1,-1,-1,-1,-1,-1,-1,-1],"split_conditions":[1.8E1,6E0,8.9E-3,3.857143E0,2.52E1,6E0,1E0,3E0,-5.5570822E-2,2.51E1,-5.7231642E-2,2.1E1,2.3E1,2E0,2.25E1,-5.3662766E-2,8.8644646E-2,-5.5191763E-2,6.0983974E-2,1.05577E-3,-2.7343055E-2,1.8065572E-2,-3.6528178E-2,-5.574603E-2,1.2214345E-2,-3.221024E-2,3.71804E-2],"split_indices":[0,17,48,26,34,2,2,17,0,34,0,0,0,8,34,0,0,0,0,0,0,0,0,0,0,0,0],"split_type":[0,0,0,0,0,0,0,0,0,0,0,0,0,0,0,0,0,0,0,0,0,0,0,0,0,0,0],"sum_hessian":[7.3504307E3,9.5208704E2,6.3983438E3,8.953272E2,5.6759785E1,4.2539854E3,2.1443586E3,7.7321556E1,8.180057E2,2.5863958E1,3.0895826E1,2.6512463E3,1.6027389E3,7.8941754E2,1.3549412E3,7.284048E1,4.4810805E0,1.4772851E1,1.1091107E1,1.4979949E3,1.1532515E3,1.4872742E3,1.1546468E2,5.152356E1,7.37894E2,2.9100588E1,1.3258406E3],"tree_param":{"num_deleted":"0","num_feature":"50","num_nodes":"27","size_leaf_vector":"1"}},{"base_weights":[1.4558167E-2,-1.0616653E0,1.6493507E-1,-1.0884088E0,-6.555347E-1,3.11754E-1,-2.3447563E-1,-8.7908256E-1,-5.5370577E-2,5.4844236E-1,-5.4968275E-2,3.516347E-1,-8.2759637E-1,1.1234921E-2,-6.6439986E-1,-5.3398144E-2,7.2264664E-2,-4.665409E-2,6.538675E-2,-2.598672E-2,2.0413224E-2,-7.891273E-2,6.179998E-4,-1.5842564E-2,7.528502E-2,-8.102127E-2,-1.7362004E-2],"categories":[],"categories_nodes":[],"categories_segments":[],"categories_sizes":[],"default_left":[0,0,0,0,0,0,0,0,0,0,0,0,0,0,0,0,0,0,0,0,0,0,0,0,0,0,0],"id":42,"left_children":[1,3,5,7,9,11,13,15,-1,17,-1,19,21,23,25,-1,-1,-1,-1,-1,-1,-1,-1,-1,-1,-1,-1],"loss_changes":[1.1973802E3,8.963623E0,3.807801E2,2.2059326E0,3.206942E1,2.159685E2,1.844466E2,3.4857166E1,0E0,1.9750599E1,0E0,2.2659271E2,1.01548645E2,5.45555E2,1.9175159E2,0E0,0E0,0E0,0E0,0E0,0E0,0E0,0E0,0E0,0E0,0E0,0E0],"parents":[2147483647,0,0,1,1,2,2,3,3,4,4,5,5,6,6,7,7,9,9,11,11,12,12,13,13,14,14],"right_children":[2,4,6,8,10,12,14,16,-1,18,-1,20,22,24,26,-1,-1,-1,-1,-1,-1,-1,-1,-1,-1,-1,-1],"split_conditions":[1.8E1,1.1E1,2.584E-1,3.857143E0,7.21E1,3.06E1,7.51E1,3E0,-5.5370577E-2,7.2E1,-5.4968275E-2,2.31E1,7.222222E-1,7.5E1,7.6E1,-5.3398144E-2,7.2264664E-2,-4.665409E-2,6.538675E-2,-2.598672E-2,2.0413224E-2,-7.891273E-2,6.179998E-4,-1.5842564E-2,7.528502E-2,-8.102127E-2,-1.7362004E-2],"split_indices":[0,14,38,26,33,34,33,17,0,33,0,34,31,33,33,0,0,0,0,0,0,0,0,0,0,0,0],"split_type":[0,0,0,0,0,0,0,0,0,0,0,0,0,0,0,0,0,0,0,0,0,0,0,0,0,0,0],"sum_hessian":[7.3970547E3,9.060285E2,6.491026E3,8.4824554E2,5.778297E1,4.746672E3,1.744354E3,7.4966255E1,7.732793E2,1.5439452E1,4.2343517E1,4.586896E3,1.5977605E2,1.1104502E3,6.339039E2,6.987197E1,5.0942836E0,5.1094193E0,1.0330033E1,2.7930173E2,4.307594E3,8.3971695E1,7.580435E1,9.11144E2,1.9930617E2,1.5680794E2,4.7709592E2],"tree_param":{"num_deleted":"0","num_feature":"50","num_nodes":"27","size_leaf_vector":"1"}},{"base_weights":[-1.8095292E-2,-1.0774754E0,1.2700325E-1,-1.0841012E0,-3.4533885E-1,-3.0412468E-1,2.5933245E-1,-8.705941E-1,-5.5150148E-2,-4.8568495E-2,3.330594E-2,1.9471687E-1,-5.485627E-1,-6.7245114E-1,3.1598172E-1,-5.3231597E-2,5.0967574E-2,3.1862866E-2,-1.917526E-2,-3.0543227E-2,1.24521665E-1,7.954593E-3,-5.8786817E-2,2.6697299E-2,7.072466E-3],"categories":[],"categories_nodes":[],"categories_segments":[],"categories_sizes":[],"default_left":[0,0,0,0,0,0,0,0,0,0,0,0,0,0,0,0,0,0,0,0,0,0,0,0,0],"id":43,"left_children":[1,3,5,7,9,11,13,15,-1,-1,-1,17,19,21,23,-1,-1,-1,-1,-1,-1,-1,-1,-1,-1],"loss_changes":[1.0989508E3,3.6606445E0,3.5878345E2,2.2844238E0,6.583592E0,1.802323E2,2.5415707E2,2.8426807E1,0E0,0E0,0E0,1.2471028E2,1.8908047E2,1.1578835E2,1.7243857E2,0E0,0E0,0E0,0E0,0E0,0E0,0E0,0E0,0E0,0E0],"parents":[2147483647,0,0,1,1,2,2,3,3,4,4,5,5,6,6,7,7,11,11,12,12,13,13,14,14],"right_children":[2,4,6,8,10,12,14,16,-1,-1,-1,18,20,22,24,-1,-1,-1,-1,-1,-1,-1,-1,-1,-1],"split_conditions":[1.8E1,1.6E1,-7E-2,-1.775E-1,1.5E1,2E1,2.31E1,-1.808E-1,-5.5150148E-2,-4.8568495E-2,3.330594E-2,5.146E-1,8.1E1,7.51E1,-1.568E-1,-5.3231597E-2,5.0967574E-2,3.1862866E-2,-1.917526E-2,-3.0543227E-2,1.24521665E-1,7.954593E-3,-5.8786817E-2,2.6697299E-2,7.072466E-3],"split_indices":[0,2,41,41,14,0,34,41,0,0,0,40,33,33,45,0,0,0,0,0,0,0,0,0,0],"split_type":[0,0,0,0,0,0,0,0,0,0,0,0,0,0,0,0,0,0,0,0,0,0,0,0,0],"sum_hessian":[7.146789E3,8.60253E2,6.286536E3,8.519258E2,8.3272E0,1.4759248E3,4.8106113E3,7.354452E1,7.783813E2,5.2291646E0,3.0980356E0,4.8531113E2,9.906137E2,2.7498264E2,4.535629E3,6.714086E1,6.4036555E0,2.7494992E2,2.103612E2,9.715285E2,1.9085207E1,1.03862724E2,1.7111993E2,2.0156982E3,2.5199304E3],"tree_param":{"num_deleted":"0","num_feature":"50","num_nodes":"25","size_leaf_vector":"1"}},{"base_weights":[-4.154292E-3,-1.1989603E-1,5.2511793E-1,-2.874411E-2,-6.222818E-1,3.2867932E-1,8.6516947E-1,-3.826682E-1,2.0844747E-1,-8.3140075E-1,5.205447E-1,6.3239986E-1,1.4242457E-1,5.752827E-1,9.596503E-1,4.0521366E-3,-4.155008E-2,5.6397794E-3,3.75773E-2,-1.3282636E-2,-5.1754635E-2,-6.457587E-2,3.458923E-2,-1.2493607E-3,3.4569506E-2,1.3813652E-2,-3.8192455E-2,3.198041E-2,-5.5348992E-2,4.8614286E-2,-3.2971503E-4],"categories":[],"categories_nodes":[],"categories_segments":[],"categories_sizes":[],"default_left":[0,0,0,0,0,0,0,0,0,0,0,0,0,0,0,0,0,0,0,0,0,0,0,0,0,0,0,0,0,0,0],"id":44,"left_children":[1,3,5,7,9,11,13,15,17,19,21,23,25,27,29,-1,-1,-1,-1,-1,-1,-1,-1,-1,-1,-1,-1,-1,-1,-1,-1],"loss_changes":[4.368409E2,2.67906E2,8.5070465E1,4.1602588E2,2.1519757E2,4.5814674E1,1.2104706E1,4.1356915E2,1.5395955E2,8.717529E1,4.4127316E1,1.2047104E1,6.146329E1,1.3400784E1,4.3882446E0,0E0,0E0,0E0,0E0,0E0,0E0,0E0,0E0,0E0,0E0,0E0,0E0,0E0,0E0,0E0,0E0],"parents":[2147483647,0,0,1,1,2,2,3,3,4,4,5,5,6,6,7,7,8,8,9,9,10,10,11,11,12,12,13,13,14,14],"right_children":[2,4,6,8,10,12,14,16,18,20,22,24,26,28,30,-1,-1,-1,-1,-1,-1,-1,-1,-1,-1,-1,-1,-1,-1,-1,-1],"split_conditions":[6.5E1,2.88E1,9.1E1,2.56E1,7.6E1,-1.8015E0,2.6865673E-1,7.51E1,7.7E1,2.228261E-1,6.567568E0,-1.575952E0,2.82E1,4.378E-1,1.017E-1,4.0521366E-3,-4.155008E-2,5.6397794E-3,3.75773E-2,-1.3282636E-2,-5.1754635E-2,-6.457587E-2,3.458923E-2,-1.2493607E-3,3.4569506E-2,1.3813652E-2,-3.8192455E-2,3.198041E-2,-5.5348992E-2,4.8614286E-2,-3.2971503E-4],"split_indices":[13,34,13,34,33,43,23,33,33,29,26,22,34,37,38,0,0,0,0,0,0,0,0,0,0,0,0,0,0,0,0],"split_type":[0,0,0,0,0,0,0,0,0,0,0,0,0,0,0,0,0,0,0,0,0,0,0,0,0,0,0,0,0,0,0],"sum_hessian":[7.1296953E3,5.851128E3,1.2785676E3,4.9536104E3,8.9751746E2,8.118464E2,4.667212E2,1.9876129E3,2.9659973E3,7.589937E2,1.385237E2,3.074933E2,5.043531E2,1.1672671E2,3.4999448E2,9.7734344E2,1.0102695E3,2.5230273E3,4.4297006E2,2.0166652E2,5.573272E2,1.1344975E1,1.2717872E2,2.5228466E1,2.822648E2,4.401521E2,6.4201004E1,1.1308197E2,3.6447334E0,3.4557272E2,4.4217563E0],"tree_param":{"num_deleted":"0","num_feature":"50","num_nodes":"31","size_leaf_vector":"1"}},{"base_weights":[1.56856E-2,-1.0645437E0,1.5470044E-1,-5.4722752E-2,-6.206439E-1,3.366251E-1,-1.0744049E-1,5.734326E-1,-5.4344445E-2,7.461775E-2,5.4480547E-1,-5.818688E-1,5.608034E-2,-4.521436E-2,6.288613E-2,-1.0587066E-2,2.2687439E-2,3.0225426E-2,-1.0427674E-2,-4.94769E-2,-1.591902E-2,1.4276057E-2,-1.4722171E-2],"categories":[],"categories_nodes":[],"categories_segments":[],"categories_sizes":[],"default_left":[0,0,0,0,0,0,0,0,0,0,0,0,0,0,0,0,0,0,0,0,0,0,0],"id":45,"left_children":[1,3,5,-1,7,9,11,13,-1,15,17,19,21,-1,-1,-1,-1,-1,-1,-1,-1,-1,-1],"loss_changes":[1.078606E3,1.0022827E1,3.0356897E2,0E0,3.0860512E1,2.0484424E2,2.0239798E2,1.716988E1,0E0,1.8088544E2,9.432251E1,7.13824E1,1.5611795E2,0E0,0E0,0E0,0E0,0E0,0E0,0E0,0E0,0E0,0E0],"parents":[2147483647,0,0,1,1,2,2,4,4,5,5,6,6,7,7,9,9,10,10,11,11,12,12],"right_children":[2,4,6,-1,8,10,12,14,-1,16,18,20,22,-1,-1,-1,-1,-1,-1,-1,-1,-1,-1],"split_conditions":[1.8E1,1.1E1,3.427E-1,-5.4722752E-2,7.21E1,3E0,7.461E-1,7.2E1,-5.4344445E-2,2E0,2.3E1,3E0,2.1E1,-4.521436E-2,6.288613E-2,-1.0587066E-2,2.2687439E-2,3.0225426E-2,-1.0427674E-2,-4.94769E-2,-1.591902E-2,1.4276057E-2,-1.4722171E-2],"split_indices":[0,14,37,0,33,2,35,33,0,5,0,15,0,0,0,0,0,0,0,0,0,0,0],"split_type":[0,0,0,0,0,0,0,0,0,0,0,0,0,0,0,0,0,0,0,0,0,0,0],"sum_hessian":[7.1811753E3,8.1793665E2,6.363239E3,7.647168E2,5.3219803E1,3.7564065E3,2.6068323E3,1.4820188E1,3.8399616E1,1.6640009E3,2.0924055E3,6.676912E2,1.9391411E3,4.5426745E0,1.0277513E1,9.480859E2,7.1591504E2,1.9390664E3,1.533391E2,2.6089676E2,4.0679446E2,1.1722787E3,7.668625E2],"tree_param":{"num_deleted":"0","num_feature":"50","num_nodes":"23","size_leaf_vector":"1"}},{"base_weights":[-1.1002241E-2,-1.0402495E0,1.185885E-1,-1.0693948E0,-5.9661216E-1,-3.677614E-1,2.2996941E-1,-8.3587724E-1,-5.4525383E-2,5.783676E-1,-5.378061E-2,-7.616136E-1,-3.876524E-2,7.435088E-2,5.123062E-1,-5.2593924E-2,6.680325E-2,-4.502207E-2,6.299239E-2,-4.2898595E-2,8.9551456E-2,3.4477965E-3,-5.9016455E-2,1.2441005E-2,-1.3228535E-2,2.889259E-2,-2.2841511E-2],"categories":[],"categories_nodes":[],"categories_segments":[],"categories_sizes":[],"default_left":[0,0,0,0,0,0,0,0,0,0,0,0,0,0,0,0,0,0,0,0,0,0,0,0,0,0,0],"id":46,"left_children":[1,3,5,7,9,11,13,15,-1,17,-1,19,21,23,25,-1,-1,-1,-1,-1,-1,-1,-1,-1,-1,-1,-1],"loss_changes":[9.3217096E2,9.300842E0,3.3628406E2,2.5041504E0,2.9180162E1,1.4977815E2,2.2182224E2,3.2040703E1,0E0,1.6548288E1,0E0,1.3089459E2,7.784402E1,1.9268706E2,1.14256134E2,0E0,0E0,0E0,0E0,0E0,0E0,0E0,0E0,0E0,0E0,0E0,0E0],"parents":[2147483647,0,0,1,1,2,2,3,3,4,4,5,5,6,6,7,7,9,9,11,11,12,12,13,13,14,14],"right_children":[2,4,6,8,10,12,14,16,-1,18,-1,20,22,24,26,-1,-1,-1,-1,-1,-1,-1,-1,-1,-1,-1,-1],"split_conditions":[1.8E1,1.1E1,6.335E-1,3.857143E0,7.21E1,-3.28E-2,6E0,3E0,-5.4525383E-2,7.2E1,-5.378061E-2,8E1,2.3E1,7.51E1,2.3E1,-5.2593924E-2,6.680325E-2,-4.502207E-2,6.299239E-2,-4.2898595E-2,8.9551456E-2,3.4477965E-3,-5.9016455E-2,1.2441005E-2,-1.3228535E-2,2.889259E-2,-2.2841511E-2],"split_indices":[0,14,35,26,33,41,2,17,0,33,0,33,0,33,0,0,0,0,0,0,0,0,0,0,0,0,0],"split_type":[0,0,0,0,0,0,0,0,0,0,0,0,0,0,0,0,0,0,0,0,0,0,0,0,0,0,0],"sum_hessian":[6.986172E3,7.805513E2,6.2056206E3,7.308982E2,4.96531E1,1.1557565E3,5.049864E3,6.4361336E1,6.6653687E2,1.4259225E1,3.5393875E1,5.2529254E2,6.30464E2,3.25654E3,1.7933237E3,5.905047E1,5.310871E0,4.3505373E0,9.908688E0,5.0686234E2,1.8430199E1,5.7687994E2,5.3584015E1,2.1502175E3,1.1063226E3,1.6801942E3,1.1312954E2],"tree_param":{"num_deleted":"0","num_feature":"50","num_nodes":"27","size_leaf_vector":"1"}},{"base_weights":[1.3728893E-3,-1.0411146E0,1.2623988E-1,-1.0617061E0,-6.802333E-1,-8.1716135E-2,3.7397838E-1,-8.270252E-1,-5.418254E-2,4.9799767E-1,-5.5279076E-2,7.291832E-2,-5.630663E-1,5.8800384E-2,5.548912E-1,-5.244095E-2,8.585542E-2,-4.437513E-2,6.441701E-2,5.694106E-3,-8.324248E-2,-3.6010742E-2,3.8427913E-3,-3.8417678E-3,3.8499035E-2,-4.93231E-2,2.9253898E-2],"categories":[],"categories_nodes":[],"categories_segments":[],"categories_sizes":[],"default_left":[0,0,0,0,0,0,0,0,0,0,0,0,0,0,0,0,0,0,0,0,0,0,0,0,0,0,0],"id":47,"left_children":[1,3,5,7,9,11,13,15,-1,17,-1,19,21,23,25,-1,-1,-1,-1,-1,-1,-1,-1,-1,-1,-1,-1],"loss_changes":[8.99423E2,4.595642E0,3.179872E2,2.5029297E0,2.213083E1,2.49853E2,1.605068E2,3.797484E1,0E0,1.4342076E1,0E0,1.808733E2,8.2193054E1,9.933543E1,8.378186E1,0E0,0E0,0E0,0E0,0E0,0E0,0E0,0E0,0E0,0E0,0E0,0E0],"parents":[2147483647,0,0,1,1,2,2,3,3,4,4,5,5,6,6,7,7,9,9,11,11,12,12,13,13,14,14],"right_children":[2,4,6,8,10,12,14,16,-1,18,-1,20,22,24,26,-1,-1,-1,-1,-1,-1,-1,-1,-1,-1,-1,-1],"split_conditions":[1.8E1,6E0,1.557E0,-1.775E-1,7.21E1,2.2E1,1E0,3E0,-5.418254E-2,7.2E1,-5.5279076E-2,3.11E1,1.4E1,4E0,2.24E1,-5.244095E-2,8.585542E-2,-4.437513E-2,6.441701E-2,5.694106E-3,-8.324248E-2,-3.6010742E-2,3.8427913E-3,-3.8417678E-3,3.8499035E-2,-4.93231E-2,2.9253898E-2],"split_indices":[0,17,35,41,33,0,2,17,0,33,0,34,2,5,34,0,0,0,0,0,0,0,0,0,0,0,0],"split_type":[0,0,0,0,0,0,0,0,0,0,0,0,0,0,0,0,0,0,0,0,0,0,0,0,0,0,0],"sum_hessian":[6.9081743E3,7.380678E2,6.1701064E3,6.961283E2,4.1939503E1,3.3545256E3,2.815581E3,6.322553E1,6.329028E2,1.1016759E1,3.0922745E1,2.5393853E3,8.1514044E2,1.027462E3,1.7881189E3,5.873238E1,4.4931464E0,3.9110606E0,7.105698E0,2.4818728E3,5.7512318E1,6.5445404E2,1.6068643E2,8.6352295E2,1.6393907E2,3.3674717E1,1.7544442E3],"tree_param":{"num_deleted":"0","num_feature":"50","num_nodes":"27","size_leaf_vector":"1"}},{"base_weights":[8.545919E-3,-1.029711E0,1.28969E-1,-1.0589796E0,-5.922856E-1,-2.3163179E-1,2.532068E-1,-8.204764E-1,-5.4071546E-2,5.6740445E-1,-5.3272136E-2,2.5767595E-1,-4.7150406E-1,-3.058043E-1,3.4329218E-1,-5.2328784E-2,4.97164E-2,-4.3719154E-2,6.0094338E-2,2.6633173E-2,-3.310384E-2,-3.559618E-2,-9.0309135E-5,1.5386216E-2,-4.6224486E-2,9.341015E-3,3.365059E-2],"categories":[],"categories_nodes":[],"categories_segments":[],"categories_sizes":[],"default_left":[0,0,0,0,0,0,0,0,0,0,0,0,0,0,0,0,0,0,0,0,0,0,0,0,0,0,0],"id":48,"left_children":[1,3,5,7,9,11,13,15,-1,17,-1,19,21,23,25,-1,-1,-1,-1,-1,-1,-1,-1,-1,-1,-1,-1],"loss_changes":[8.62599E2,8.387573E0,2.770501E2,2.5131836E0,2.6691696E1,1.8613214E2,2.3171567E2,2.6576363E1,0E0,1.4203081E1,0E0,1.3231096E2,1.2006018E2,2.427735E2,2.0416785E2,0E0,0E0,0E0,0E0,0E0,0E0,0E0,0E0,0E0,0E0,0E0,0E0],"parents":[2147483647,0,0,1,1,2,2,3,3,4,4,5,5,6,6,7,7,9,9,11,11,12,12,13,13,14,14],"right_children":[2,4,6,8,10,12,14,16,-1,18,-1,20,22,24,26,-1,-1,-1,-1,-1,-1,-1,-1,-1,-1,-1,-1],"split_conditions":[1.8E1,1.1E1,-6.52E-2,-1.775E-1,7.21E1,2E1,2.43E1,3E0,-5.4071546E-2,7.2E1,-5.3272136E-2,3.9604E0,2.2946E0,7.51E1,7.6E1,-5.2328784E-2,4.97164E-2,-4.3719154E-2,6.0094338E-2,2.6633173E-2,-3.310384E-2,-3.559618E-2,-9.0309135E-5,1.5386216E-2,-4.6224486E-2,9.341015E-3,3.365059E-2],"split_indices":[0,14,41,41,33,0,34,18,0,33,0,36,35,33,33,0,0,0,0,0,0,0,0,0,0,0,0],"split_type":[0,0,0,0,0,0,0,0,0,0,0,0,0,0,0,0,0,0,0,0,0,0,0,0,0,0,0],"sum_hessian":[6.897788E3,7.160248E2,6.181763E3,6.695733E2,4.645146E1,1.5836222E3,4.598141E3,6.122005E1,6.083533E2,1.3341476E1,3.3109985E1,5.207894E2,1.0628328E3,6.376705E2,3.9604707E3,5.486327E1,6.356781E0,3.913282E0,9.428194E0,4.0132956E2,1.1945985E2,7.025149E2,3.603179E2,3.2034073E2,3.173297E2,2.6871333E3,1.2733374E3],"tree_param":{"num_deleted":"0","num_feature":"50","num_nodes":"27","size_leaf_vector":"1"}},{"base_weights":[7.0221233E-3,-1.6019866E-1,3.3154312E-1,-3.0094588E-1,2.5575173E-1,1.7686978E-1,6.62367E-1,-1.0485079E0,-2.3203716E-1,1.4867255E-1,8.272018E-1,-8.3451115E-2,2.0299448E-1,-9.281101E-2,6.76099E-1,-4.1821107E-2,-6.84013E-2,-1.9659353E-2,4.5441133E-3,2.3611967E-2,-2.3130521E-4,2.4009323E-2,4.6936046E-2,2.4018286E-2,3.8578098E-3,2.5810305E-2,4.1564897E-2],"categories":[],"categories_nodes":[],"categories_segments":[],"categories_sizes":[],"default_left":[0,0,0,0,0,0,0,0,0,0,0,0,0,0,0,0,0,0,0,0,0,0,0,0,0,0,0],"id":49,"left_children":[1,3,5,7,9,11,13,15,17,19,21,-1,23,-1,25,-1,-1,-1,-1,-1,-1,-1,-1,-1,-1,-1,-1],"loss_changes":[3.7264273E2,2.6536478E2,1.1929169E2,1.740719E2,6.9903824E1,7.7003555E1,2.684784E1,1.797522E1,1.614871E2,4.7990517E1,6.3919144E0,0E0,5.47601E1,0E0,1.7802979E1,0E0,0E0,0E0,0E0,0E0,0E0,0E0,0E0,0E0,0E0,0E0,0E0],"parents":[2147483647,0,0,1,1,2,2,3,3,4,4,5,5,6,6,7,7,8,8,9,9,10,10,12,12,14,14],"right_children":[2,4,6,8,10,12,14,16,18,20,22,-1,24,-1,26,-1,-1,-1,-1,-1,-1,-1,-1,-1,-1,-1,-1],"split_conditions":[2.2946E0,2.5925925E-1,5E1,2.667E-1,9.2E1,1E0,7.1E1,-8.3E-3,7E0,7.31E1,2.0224719E-1,-8.3451115E-2,1.3E0,-9.281101E-2,7.2E1,-4.1821107E-2,-6.84013E-2,-1.9659353E-2,4.5441133E-3,2.3611967E-2,-2.3130521E-4,2.4009323E-2,4.6936046E-2,2.4018286E-2,3.8578098E-3,2.5810305E-2,4.1564897E-2],"split_indices":[35,23,13,35,13,6,33,48,2,33,32,0,25,0,13,0,0,0,0,0,0,0,0,0,0,0,0],"split_type":[0,0,0,0,0,0,0,0,0,0,0,0,0,0,0,0,0,0,0,0,0,0,0,0,0,0,0],"sum_hessian":[6.864588E3,4.53036E3,2.334228E3,3.3853564E3,1.145003E3,1.5918239E3,7.424042E2,2.84396E2,3.1009604E3,9.65518E2,1.7948508E2,2.1283478E1,1.5705404E3,3.258762E0,7.391454E2,1.732975E2,1.1109849E2,