{"learner":{"attributes":{"scikit_learn":"{\"_estimator_type\": \"classifier\"}"},"feature_names":[],"feature_types":[],"gradient_booster":{"model":{"cats":{"enc":[],"feature_segments":[],"sorted_idx":[]},"gbtree_model_param":{"num_parallel_tree":"1","num_trees":"500"},"iteration_indptr":[0,1,2,3,4,5,6,7,8,9,10,11,12,13,14,15,16,17,18,19,20,21,22,23,24,25,26,27,28,29,30,31,32,33,34,35,36,37,38,39,40,41,42,43,44,45,46,47,48,49,50,51,52,53,54,55,56,57,58,59,60,61,62,63,64,65,66,67,68,69,70,71,72,73,74,75,76,77,78,79,80,81,82,83,84,85,86,87,88,89,90,91,92,93,94,95,96,97,98,99,100,101,102,103,104,105,106,107,108,109,110,111,112,113,114,115,116,117,118,119,120,121,122,123,124,125,126,127,128,129,130,131,132,133,134,135,136,137,138,139,140,141,142,143,144,145,146,147,148,149,150,151,152,153,154,155,156,157,158,159,160,161,162,163,164,165,166,167,168,169,170,171,172,173,174,175,176,177,178,179,180,181,182,183,184,185,186,187,188,189,190,191,192,193,194,195,196,197,198,199,200,201,202,203,204,205,206,207,208,209,210,211,212,213,214,215,216,217,218,219,220,221,222,223,224,225,226,227,228,229,230,231,232,233,234,235,236,237,238,239,240,241,242,243,244,245,246,247,248,249,250,251,252,253,254,255,256,257,258,259,260,261,262,263,264,265,266,267,268,269,270,271,272,273,274,275,276,277,278,279,280,281,282,283,284,285,286,287,288,289,290,291,292,293,294,295,296,297,298,299,300,301,302,303,304,305,306,307,308,309,310,311,312,313,314,315,316,317,318,319,320,321,322,323,324,325,326,327,328,329,330,331,332,333,334,335,336,337,338,339,340,341,342,343,344,345,346,347,348,349,350,351,352,353,354,355,356,357,358,359,360,361,362,363,364,365,366,367,368,369,370,371,372,373,374,375,376,377,378,379,380,381,382,383,384,385,386,387,388,389,390,391,392,393,394,395,396,397,398,399,400,401,402,403,404,405,406,407,408,409,410,411,412,413,414,415,416,417,418,419,420,421,422,423,424,425,426,427,428,429,430,431,432,433,434,435,436,437,438,439,440,441,442,443,444,445,446,447,448,449,450,451,452,453,454,455,456,457,458,459,460,461,462,463,464,465,466,467,468,469,470,471,472,473,474,475,476,477,478,479,480,481,482,483,484,485,486,487,488,489,490,491,492,493,494,495,496,497,498,499,500],"tree_info":[0,0,0,0,0,0,0,0,0,0,0,0,0,0,0,0,0,0,0,0,0,0,0,0,0,0,0,0,0,0,0,0,0,0,0,0,0,0,0,0,0,0,0,0,0,0,0,0,0,0,0,0,0,0,0,0,0,0,0,0,0,0,0,0,0,0,0,0,0,0,0,0,0,0,0,0,0,0,0,0,0,0,0,0,0,0,0,0,0,0,0,0,0,0,0,0,0,0,0,0,0,0,0,0,0,0,0,0,0,0,0,0,0,0,0,0,0,0,0,0,0,0,0,0,0,0,0,0,0,0,0,0,0,0,0,0,0,0,0,0,0,0,0,0,0,0,0,0,0,0,0,0,0,0,0,0,0,0,0,0,0,0,0,0,0,0,0,0,0,0,0,0,0,0,0,0,0,0,0,0,0,0,0,0,0,0,0,0,0,0,0,0,0,0,0,0,0,0,0,0,0,0,0,0,0,0,0,0,0,0,0,0,0,0,0,0,0,0,0,0,0,0,0,0,0,0,0,0,0,0,0,0,0,0,0,0,0,0,0,0,0,0,0,0,0,0,0,0,0,0,0,0,0,0,0,0,0,0,0,0,0,0,0,0,0,0,0,0,0,0,0,0,0,0,0,0,0,0,0,0,0,0,0,0,0,0,0,0,0,0,0,0,0,0,0,0,0,0,0,0,0,0,0,0,0,0,0,0,0,0,0,0,0,0,0,0,0,0,0,0,0,0,0,0,0,0,0,0,0,0,0,0,0,0,0,0,0,0,0,0,0,0,0,0,0,0,0,0,0,0,0,0,0,0,0,0,0,0,0,0,0,0,0,0,0,0,0,0,0,0,0,0,0,0,0,0,0,0,0,0,0,0,0,0,0,0,0,0,0,0,0,0,0,0,0,0,0,0,0,0,0,0,0,0,0,0,0,0,0,0,0,0,0,0,0,0,0,0,0,0,0,0,0,0,0,0,0,0,0,0,0,0,0,0,0,0,0,0,0,0,0,0,0,0,0,0,0,0,0,0,0,0,0,0,0,0,0,0,0,0,0,0,0,0,0,0,0,0,0,0,0,0,0,0,0,0,0,0,0,0,0,0,0,0,0,0,0,0,0,0,0,0,0,0,0,0,0,0,0,0],"trees":[{"base_weights":[6.947909E-3,-9.1890895E-1,1.0780809E0,-1.4620627E0,-2.500543E-1,6.922648E-2,1.4742149E0,-1.7021832E0,-9.958759E-1,-5.831195E-1,2.5451657E-1,-4.7063985E-1,1.0581211E0,1.1932821E0,1.8122073E0,-8.646046E-2,1.9446416E-2,-7.4308895E-2,-3.826296E-2,-4.334254E-2,-2.4609435E-3,-1.08366655E-2,3.6013678E-2,-7.214042E-2,-1.1909141E-2,5.652144E-2,-9.25E-2,3.4713157E-2,7.584474E-2,7.848685E-2,9.350218E-2],"categories":[],"categories_nodes":[],"categories_segments":[],"categories_sizes":[],"default_left":[0,0,0,0,0,0,0,0,0,0,0,0,0,0,0,0,0,0,0,0,0,0,0,0,0,0,0,0,0,0,0],"id":0,"left_children":[1,3,5,7,9,11,13,15,17,19,21,23,25,27,29,-1,-1,-1,-1,-1,-1,-1,-1,-1,-1,-1,-1,-1,-1,-1,-1],"loss_changes":[1.2074495E4,2.3719307E3,2.255662E3,4.0142578E2,4.9222693E2,8.5084106E2,3.823994E2,1.351377E2,1.3745056E2,2.6710034E2,2.5586108E2,2.3245111E2,1.20367004E2,3.566682E2,2.249121E1,0E0,0E0,0E0,0E0,0E0,0E0,0E0,0E0,0E0,0E0,0E0,0E0,0E0,0E0,0E0,0E0],"parents":[2147483647,0,0,1,1,2,2,3,3,4,4,5,5,6,6,7,7,8,8,9,9,10,10,11,11,12,12,13,13,14,14],"right_children":[2,4,6,8,10,12,14,16,18,20,22,24,26,28,30,-1,-1,-1,-1,-1,-1,-1,-1,-1,-1,-1,-1,-1,-1,-1,-1],"split_conditions":[3.455642E1,1.101E0,9.095E-1,-1.536E-1,5E0,1.6875338E1,5.685772E1,5.8E1,3.542659E0,7.4E1,2.2946E0,-1.063E-1,5.9E1,2.2946E0,1.3463E0,-8.646046E-2,1.9446416E-2,-7.4308895E-2,-3.826296E-2,-4.334254E-2,-2.4609435E-3,-1.08366655E-2,3.6013678E-2,-7.214042E-2,-1.1909141E-2,5.652144E-2,-9.25E-2,3.4713157E-2,7.584474E-2,7.848685E-2,9.350218E-2],"split_indices":[30,36,36,38,6,31,30,4,26,34,36,40,12,36,36,0,0,0,0,0,0,0,0,0,0,0,0,0,0,0,0],"split_type":[0,0,0,0,0,0,0,0,0,0,0,0,0,0,0,0,0,0,0,0,0,0,0,0,0,0,0,0,0,0,0],"sum_hessian":[1.2173343E4,6.529488E3,5.643855E3,3.602603E3,2.926885E3,1.5916777E3,4.0521772E3,2.3759487E3,1.2266543E3,1.7631073E3,1.1637776E3,1.0298666E3,5.6181116E2,2.2155125E3,1.836665E3,2.3458516E3,3.0097313E1,3.905176E2,8.361367E2,1.1507516E3,6.1235565E2,5.786367E2,5.8514087E2,1.9764597E2,8.322206E2,5.4881116E2,1.3E1,8.7291266E2,1.3425996E3,3.594773E2,1.4771877E3],"tree_param":{"num_deleted":"0","num_feature":"53","num_nodes":"31","size_leaf_vector":"1"}},{"base_weights":[-7.557717E-3,-9.7451456E-2,6.0358673E-1,-5.7445353E-1,1.1120992E0,-7.991542E-2,-1.2029356E0,4.2635056E-1,1.4395235E0,1.2615188E-2,-3.3260077E-2,-6.5297924E-2,4.4774912E-2,3.594004E-2,-4.289988E-2,8.0933474E-2,4.059455E-2],"categories":[],"categories_nodes":[],"categories_segments":[],"categories_sizes":[],"default_left":[0,0,0,0,0,0,0,0,0,0,0,0,0,0,0,0,0],"id":1,"left_children":[1,-1,3,5,7,9,11,13,15,-1,-1,-1,-1,-1,-1,-1,-1],"loss_changes":[1.4400218E4,0E0,5.5303213E3,8.6498694E2,1.4469629E3,3.0335458E2,2.661914E2,7.838523E2,4.8908398E2,0E0,0E0,0E0,0E0,0E0,0E0,0E0,0E0],"parents":[2147483647,0,0,2,2,3,3,4,4,5,5,6,6,7,7,8,8],"right_children":[2,-1,4,6,8,10,12,14,16,-1,-1,-1,-1,-1,-1,-1,-1],"split_conditions":[1.8E1,-9.7451456E-2,-1.246E-1,2.1E1,3.7E1,8.56E-2,5.866E-1,2.2E1,2.2E1,1.2615188E-2,-3.3260077E-2,-6.5297924E-2,4.4774912E-2,3.594004E-2,-4.289988E-2,8.0933474E-2,4.059455E-2],"split_indices":[0,0,38,0,9,42,42,0,0,0,0,0,0,0,0,0,0],"split_type":[0,0,0,0,0,0,0,0,0,0,0,0,0,0,0,0,0],"sum_hessian":[1.2134417E4,2.9047236E3,9.229693E3,2.7827458E3,6.4469473E3,1.5580433E3,1.2247025E3,2.0842852E3,4.362662E3,9.9414594E2,5.6389746E2,1.1677947E3,5.6907787E1,1.6981329E3,3.861521E2,3.392576E3,9.700861E2],"tree_param":{"num_deleted":"0","num_feature":"53","num_nodes":"17","size_leaf_vector":"1"}},{"base_weights":[7.721711E-3,-9.304448E-2,5.86357E-1,-4.411634E-1,1.1300337E0,-1.4494611E-1,-1.4375057E0,5.608395E-2,1.3062007E0,-4.239684E-2,1.584917E-2,-1.5202047E-3,-7.892159E-2,2.395445E-2,-3.2864492E-2,7.439881E-2,3.178649E-2],"categories":[],"categories_nodes":[],"categories_segments":[],"categories_sizes":[],"default_left":[0,0,0,0,0,0,0,0,0,0,0,0,0,0,0,0,0],"id":2,"left_children":[1,-1,3,5,7,9,11,13,15,-1,-1,-1,-1,-1,-1,-1,-1],"loss_changes":[1.312486E4,0E0,5.1784106E3,9.463838E2,1.1466514E3,8.03679E2,1.4553186E2,2.5841025E2,6.33501E2,0E0,0E0,0E0,0E0,0E0,0E0,0E0,0E0],"parents":[2147483647,0,0,2,2,3,3,4,4,5,5,6,6,7,7,8,8],"right_children":[2,-1,4,6,8,10,12,14,16,-1,-1,-1,-1,-1,-1,-1,-1],"split_conditions":[1.8E1,-9.304448E-2,-9.36E-2,2.2E1,2.7410366E1,9.095E-1,7E0,2.1E1,2.2E1,-4.239684E-2,1.584917E-2,-1.5202047E-3,-7.892159E-2,2.395445E-2,-3.2864492E-2,7.439881E-2,3.178649E-2],"split_indices":[0,0,38,0,30,36,3,0,0,0,0,0,0,0,0,0,0],"split_type":[0,0,0,0,0,0,0,0,0,0,0,0,0,0,0,0,0],"sum_hessian":[1.213677E4,2.869094E3,9.267675E3,3.2068682E3,6.060807E3,2.472907E3,7.339611E2,8.543571E2,5.2064497E3,9.803441E2,1.492563E3,6.6992035E1,6.6696906E2,5.3662585E2,3.1773126E2,4.0948906E3,1.1115592E3],"tree_param":{"num_deleted":"0","num_feature":"53","num_nodes":"17","size_leaf_vector":"1"}},{"base_weights":[4.1816933E-3,-8.0593044E-1,9.4873315E-1,-1.2754389E0,-1.3081424E-1,1.8625353E-2,1.3059144E0,-1.5057191E0,-7.5364095E-1,-4.9233082E-1,3.700371E-1,-4.7432718E-1,7.9383624E-1,1.0571488E0,1.6135236E0,-8.3739884E-2,-6.5325215E-2,-4.399234E-2,1.4071641E-2,-3.9986268E-2,-6.0737655E-3,-1.3223573E-2,3.0048853E-2,-9.46199E-2,-1.6544912E-2,-6.709426E-2,4.5916297E-2,3.2239426E-2,6.6734865E-2,-9.276828E-2,8.147436E-2],"categories":[],"categories_nodes":[],"categories_segments":[],"categories_sizes":[],"default_left":[0,0,0,0,0,0,0,0,0,0,0,0,0,0,0,0,0,0,0,0,0,0,0,0,0,0,0,0,0,0,0],"id":3,"left_children":[1,3,5,7,9,11,13,15,17,19,21,23,25,27,29,-1,-1,-1,-1,-1,-1,-1,-1,-1,-1,-1,-1,-1,-1,-1,-1],"loss_changes":[9.257696E3,2.0640342E3,1.8555483E3,4.6018115E2,4.84113E2,5.931025E2,3.0686035E2,8.7239746E1,1.5422375E2,1.7682367E2,1.6443442E2,1.9209735E2,1.6160287E2,2.546709E2,1.0281055E2,0E0,0E0,0E0,0E0,0E0,0E0,0E0,0E0,0E0,0E0,0E0,0E0,0E0,0E0,0E0,0E0],"parents":[2147483647,0,0,1,1,2,2,3,3,4,4,5,5,6,6,7,7,8,8,9,9,10,10,11,11,12,12,13,13,14,14],"right_children":[2,4,6,8,10,12,14,16,18,20,22,24,26,28,30,-1,-1,-1,-1,-1,-1,-1,-1,-1,-1,-1,-1,-1,-1,-1,-1],"split_conditions":[3.455642E1,1.1343E0,9.095E-1,-1.268E-1,5E0,5.4390484E1,5.685772E1,7.3E1,1.101E0,2.2951E0,1.557E0,2.44E1,-6.94E-2,2.2946E0,2.29E1,-8.3739884E-2,-6.5325215E-2,-4.399234E-2,1.4071641E-2,-3.9986268E-2,-6.0737655E-3,-1.3223573E-2,3.0048853E-2,-9.46199E-2,-1.6544912E-2,-6.709426E-2,4.5916297E-2,3.2239426E-2,6.6734865E-2,-9.276828E-2,8.147436E-2],"split_indices":[30,36,36,38,6,30,30,34,36,36,36,35,38,36,35,0,0,0,0,0,0,0,0,0,0,0,0,0,0,0,0],"split_type":[0,0,0,0,0,0,0,0,0,0,0,0,0,0,0,0,0,0,0,0,0,0,0,0,0,0,0,0,0,0,0],"sum_hessian":[1.2096501E4,6.5116787E3,5.584822E3,3.8400708E3,2.671608E3,1.5499777E3,4.034844E3,2.662831E3,1.1772399E3,1.5517588E3,1.1198492E3,9.476384E2,6.023392E2,2.2334229E3,1.8014211E3,1.436083E3,1.2267479E3,1.0495193E3,1.2772062E2,8.476954E2,7.040634E2,2.9867105E2,8.2117816E2,8.585965E1,8.617788E2,3.2593254E1,5.69746E2,8.999819E2,1.333441E3,7.695456E0,1.7937257E3],"tree_param":{"num_deleted":"0","num_feature":"53","num_nodes":"31","size_leaf_vector":"1"}},{"base_weights":[-9.416152E-3,-1.7492698E0,5.3173053E-1,-8.668532E-2,-9.1511905E-2,-3.223124E-1,1.0299965E0,-9.388847E-1,1.4300375E-1,2.8681004E-1,1.2849731E0,-6.347252E-2,-3.0403921E-2,1.8960234E-2,-5.5081844E-2,-5.1328696E-2,2.787201E-2,7.1711175E-2,3.2867055E-2],"categories":[],"categories_nodes":[],"categories_segments":[],"categories_sizes":[],"default_left":[0,0,0,0,0,0,0,0,0,0,0,0,0,0,0,0,0,0,0],"id":4,"left_children":[1,3,5,-1,-1,7,9,11,13,15,17,-1,-1,-1,-1,-1,-1,-1,-1],"loss_changes":[1.1211908E4,3.0273438E-2,3.8656196E3,0E0,0E0,9.6058606E2,1.0865474E3,1.5650122E2,5.6140765E2,5.218859E2,3.9891943E2,0E0,0E0,0E0,0E0,0E0,0E0,0E0,0E0],"parents":[2147483647,0,0,1,1,2,2,5,5,6,6,7,7,8,8,9,9,10,10],"right_children":[2,4,6,-1,-1,8,10,12,14,16,18,-1,-1,-1,-1,-1,-1,-1,-1],"split_conditions":[1.8E1,3.455642E1,2.8E1,-8.668532E-2,-9.1511905E-2,1.101E0,9.095E-1,-1.066E-1,2.2E1,-4.81E-2,2.2E1,-6.347252E-2,-3.0403921E-2,1.8960234E-2,-5.5081844E-2,-5.1328696E-2,2.787201E-2,7.1711175E-2,3.2867055E-2],"split_indices":[0,30,9,0,0,36,36,43,0,37,0,0,0,0,0,0,0,0,0],"split_type":[0,0,0,0,0,0,0,0,0,0,0,0,0,0,0,0,0,0,0],"sum_hessian":[1.1906237E4,2.8241611E3,9.082076E3,2.3886672E3,4.3549402E2,3.3463987E3,5.7356772E3,1.4389283E3,1.9074705E3,1.4657982E3,4.269879E3,7.1815546E2,7.207728E2,1.6038722E3,3.035982E2,2.4989247E2,1.2159058E3,3.4484067E3,8.214722E2],"tree_param":{"num_deleted":"0","num_feature":"53","num_nodes":"19","size_leaf_vector":"1"}},{"base_weights":[-4.7984715E-3,-8.433222E-2,5.156537E-1,-2.280215E-1,1.0814593E0,2.1666178E-1,-8.83266E-1,4.0887746E-1,1.3009053E0,-2.276761E-2,3.0809542E-2,-5.6270864E-2,-6.343476E-3,-4.8579667E-2,2.9779494E-2,7.137298E-2,3.93043E-2],"categories":[],"categories_nodes":[],"categories_segments":[],"categories_sizes":[],"default_left":[0,0,0,0,0,0,0,0,0,0,0,0,0,0,0,0,0],"id":5,"left_children":[1,-1,3,5,7,9,11,13,15,-1,-1,-1,-1,-1,-1,-1,-1],"loss_changes":[1.0349216E4,0E0,3.7995508E3,1.1372295E3,7.5616895E2,6.24598E2,2.8873157E2,3.2610724E2,2.5052979E2,0E0,0E0,0E0,0E0,0E0,0E0,0E0,0E0],"parents":[2147483647,0,0,2,2,3,3,4,4,5,5,6,6,7,7,8,8],"right_children":[2,-1,4,6,8,10,12,14,16,-1,-1,-1,-1,-1,-1,-1,-1],"split_conditions":[1.8E1,-8.433222E-2,3.3515434E1,2.1E1,9.095E-1,1.101E0,-5.33E-2,-1.019E-1,2.2E1,-2.276761E-2,3.0809542E-2,-5.6270864E-2,-6.343476E-3,-4.8579667E-2,2.9779494E-2,7.137298E-2,3.93043E-2],"split_indices":[0,0,30,0,36,36,38,40,0,0,0,0,0,0,0,0,0],"split_type":[0,0,0,0,0,0,0,0,0,0,0,0,0,0,0,0,0],"sum_hessian":[1.182122E4,2.793134E3,9.028086E3,3.9010725E3,5.1270137E3,2.3242388E3,1.5768336E3,1.2621031E3,3.8649104E3,8.6645624E2,1.4577826E3,1.1939763E3,3.828573E2,1.4980089E2,1.1123022E3,3.100718E3,7.641924E2],"tree_param":{"num_deleted":"0","num_feature":"53","num_nodes":"17","size_leaf_vector":"1"}},{"base_weights":[9.822893E-3,-8.15698E-2,5.058075E-1,-3.623974E-1,9.445797E-1,-9.471185E-2,-1.3083007E0,9.841825E-2,1.1227617E0,-2.2786116E-2,2.1167822E-2,1.7706437E-2,-7.103088E-2,-5.359124E-2,1.7838791E-2,6.433462E-2,2.6931731E-2],"categories":[],"categories_nodes":[],"categories_segments":[],"categories_sizes":[],"default_left":[0,0,0,0,0,0,0,0,0,0,0,0,0,0,0,0,0],"id":6,"left_children":[1,-1,3,5,7,9,11,13,15,-1,-1,-1,-1,-1,-1,-1,-1],"loss_changes":[9.548334E3,0E0,3.4318806E3,7.6560706E2,9.019971E2,4.413395E2,1.25153076E2,3.153855E2,4.7244824E2,0E0,0E0,0E0,0E0,0E0,0E0,0E0,0E0],"parents":[2147483647,0,0,2,2,3,3,4,4,5,5,6,6,7,7,8,8],"right_children":[2,-1,4,6,8,10,12,14,16,-1,-1,-1,-1,-1,-1,-1,-1],"split_conditions":[1.8E1,-8.15698E-2,-1.055E-1,2.2E1,2.8E1,-2.105E-1,4E0,2.57E1,2.2E1,-2.2786116E-2,2.1167822E-2,1.7706437E-2,-7.103088E-2,-5.359124E-2,1.7838791E-2,6.433462E-2,2.6931731E-2],"split_indices":[0,0,38,0,9,38,3,35,0,0,0,0,0,0,0,0,0],"split_type":[0,0,0,0,0,0,0,0,0,0,0,0,0,0,0,0,0],"sum_hessian":[1.1727986E4,2.7211567E3,9.006829E3,3.023712E3,5.983117E3,2.3577012E3,6.6601086E2,1.0411161E3,4.9420015E3,1.3896508E3,9.680503E2,4.195664E1,6.2405426E2,1.876429E2,8.534732E2,3.8579297E3,1.0840715E3],"tree_param":{"num_deleted":"0","num_feature":"53","num_nodes":"17","size_leaf_vector":"1"}},{"base_weights":[1.4692264E-4,-7.908072E-2,4.7418678E-1,-4.6612716E-1,8.673672E-1,-4.313974E-2,-1.0238075E0,3.8867056E-1,1.2001857E0,-3.2440033E-2,1.6552618E-2,-5.6440234E-2,4.496748E-2,3.2559246E-2,-3.8211815E-2,4.1197475E-2,7.0215024E-2],"categories":[],"categories_nodes":[],"categories_segments":[],"categories_sizes":[],"default_left":[0,0,0,0,0,0,0,0,0,0,0,0,0,0,0,0,0],"id":7,"left_children":[1,-1,3,5,7,9,11,13,15,-1,-1,-1,-1,-1,-1,-1,-1],"loss_changes":[8.724624E3,0E0,3.3104092E3,6.226753E2,1.00523486E3,3.407903E2,2.3096838E2,7.846312E2,2.845747E2,0E0,0E0,0E0,0E0,0E0,0E0,0E0,0E0],"parents":[2147483647,0,0,2,2,3,3,4,4,5,5,6,6,7,7,8,8],"right_children":[2,-1,4,6,8,10,12,14,16,-1,-1,-1,-1,-1,-1,-1,-1],"split_conditions":[1.8E1,-7.908072E-2,-1.316E-1,2.1E1,4.1E1,9.095E-1,7.5E-1,2.2E1,1.3463E0,-3.2440033E-2,1.6552618E-2,-5.6440234E-2,4.496748E-2,3.2559246E-2,-3.8211815E-2,4.1197475E-2,7.0215024E-2],"split_indices":[0,0,38,0,9,36,21,0,36,0,0,0,0,0,0,0,0],"split_type":[0,0,0,0,0,0,0,0,0,0,0,0,0,0,0,0,0],"sum_hessian":[1.1633806E4,2.6820105E3,8.951795E3,2.6393042E3,6.3124907E3,1.5016185E3,1.1376857E3,2.5898901E3,3.7226003E3,5.732688E2,9.2834973E2,1.0792289E3,5.845681E1,2.1099753E3,4.7991486E2,1.3112168E3,2.4113835E3],"tree_param":{"num_deleted":"0","num_feature":"53","num_nodes":"17","size_leaf_vector":"1"}},{"base_weights":[1.5240385E-2,-7.688682E-2,4.7125414E-1,-4.5333752E-1,8.404889E-1,-7.4989986E-1,2.2943228E-1,4.1099158E-1,1.1439598E0,-1.8250935E-2,-6.0647678E-2,-7.524108E-2,1.7164646E-2,3.3579923E-2,-3.992923E-2,-1.105484E-1,5.8496963E-2],"categories":[],"categories_nodes":[],"categories_segments":[],"categories_sizes":[],"default_left":[0,0,0,0,0,0,0,0,0,0,0,0,0,0,0,0,0],"id":8,"left_children":[1,-1,3,5,7,9,11,13,15,-1,-1,-1,-1,-1,-1,-1,-1],"loss_changes":[8.201265E3,0E0,3.0566382E3,5.1764746E2,8.33271E2,3.169698E2,1.5333308E2,8.3605725E2,3.291792E2,0E0,0E0,0E0,0E0,0E0,0E0,0E0,0E0],"parents":[2147483647,0,0,2,2,3,3,4,4,5,5,6,6,7,7,8,8],"right_children":[2,-1,4,6,8,10,12,14,16,-1,-1,-1,-1,-1,-1,-1,-1],"split_conditions":[1.8E1,-7.688682E-2,-1.063E-1,2.2946E0,4.3009155E1,2.1E1,-2.306E-1,2.2E1,2.3E1,-1.8250935E-2,-6.0647678E-2,-7.524108E-2,1.7164646E-2,3.3579923E-2,-3.992923E-2,-1.105484E-1,5.8496963E-2],"split_indices":[0,0,40,36,30,0,43,0,35,0,0,0,0,0,0,0,0],"split_type":[0,0,0,0,0,0,0,0,0,0,0,0,0,0,0,0,0],"sum_hessian":[1.1578912E4,2.6276687E3,8.951243E3,2.5543813E3,6.396862E3,1.7808947E3,7.734867E2,2.6496042E3,3.7472576E3,9.736336E2,8.07261E2,4.6847057E1,7.2663965E2,2.1803652E3,4.692389E2,2.8118835E1,3.7191387E3],"tree_param":{"num_deleted":"0","num_feature":"53","num_nodes":"17","size_leaf_vector":"1"}},{"base_weights":[-4.407095E-4,-7.489916E-2,4.3350682E-1,-4.3243963E-1,8.051938E-1,-9.66584E-1,-3.7479673E-2,3.6206064E-1,1.1167078E0,-5.2956797E-2,2.772596E-2,1.0108559E-2,-6.243315E-2,2.941682E-2,-2.9472528E-2,3.6999345E-2,6.560555E-2],"categories":[],"categories_nodes":[],"categories_segments":[],"categories_sizes":[],"default_left":[0,0,0,0,0,0,0,0,0,0,0,0,0,0,0,0,0],"id":9,"left_children":[1,-1,3,5,7,9,11,13,15,-1,-1,-1,-1,-1,-1,-1,-1],"loss_changes":[7.3658994E3,0E0,2.8288823E3,5.567645E2,8.4829346E2,1.5859595E2,4.4119385E2,5.4720917E2,2.6458057E2,0E0,0E0,0E0,0E0,0E0,0E0,0E0,0E0],"parents":[2147483647,0,0,2,2,3,3,4,4,5,5,6,6,7,7,8,8],"right_children":[2,-1,4,6,8,10,12,14,16,-1,-1,-1,-1,-1,-1,-1,-1],"split_conditions":[1.8E1,-7.489916E-2,-1.268E-1,9.095E-1,4.1E1,2.382E-1,2.2E1,2.2E1,1.1807E0,-5.2956797E-2,2.772596E-2,1.0108559E-2,-6.243315E-2,2.941682E-2,-2.9472528E-2,3.6999345E-2,6.560555E-2],"split_indices":[0,0,38,36,9,50,0,0,36,0,0,0,0,0,0,0,0],"split_type":[0,0,0,0,0,0,0,0,0,0,0,0,0,0,0,0,0],"sum_hessian":[1.1332522E4,2.545577E3,8.786945E3,2.6387717E3,6.1481733E3,1.1210125E3,1.5177594E3,2.538956E3,3.6092173E3,1.0570645E3,6.394795E1,1.2676803E3,2.5007912E2,2.0515664E3,4.873895E2,1.2345015E3,2.3747158E3],"tree_param":{"num_deleted":"0","num_feature":"53","num_nodes":"17","size_leaf_vector":"1"}},{"base_weights":[-6.693779E-4,-7.310776E-2,4.187477E-1,-2.974128E-1,8.1976146E-1,-7.992789E-1,1.1704918E-1,4.3348327E-1,1.1442688E0,4.2869523E-2,-4.3694317E-2,1.730909E-2,-5.2854028E-2,2.910918E-2,-3.3226114E-2,-6.400161E-2,5.911835E-2],"categories":[],"categories_nodes":[],"categories_segments":[],"categories_sizes":[],"default_left":[0,0,0,0,0,0,0,0,0,0,0,0,0,0,0,0,0],"id":10,"left_children":[1,-1,3,5,7,9,11,13,15,-1,-1,-1,-1,-1,-1,-1,-1],"loss_changes":[6.8755127E3,0E0,2.503251E3,6.510161E2,6.9971216E2,1.7570953E2,4.6155344E2,4.171529E2,2.8188354E2,0E0,0E0,0E0,0E0,0E0,0E0,0E0,0E0],"parents":[2147483647,0,0,2,2,3,3,4,4,5,5,6,6,7,7,8,8],"right_children":[2,-1,4,6,8,10,12,14,16,-1,-1,-1,-1,-1,-1,-1,-1],"split_conditions":[1.7E1,-7.310776E-2,-9.36E-2,1.101E0,1.557E0,1.9E1,2.2E1,6.06E-2,3E0,4.2869523E-2,-4.3694317E-2,1.730909E-2,-5.2854028E-2,2.910918E-2,-3.3226114E-2,-6.400161E-2,5.911835E-2],"split_indices":[0,0,38,36,36,0,0,42,11,0,0,0,0,0,0,0,0],"split_type":[0,0,0,0,0,0,0,0,0,0,0,0,0,0,0,0,0],"sum_hessian":[1.1214514E4,2.5001907E3,8.714322E3,3.1280408E3,5.5862817E3,1.4145251E3,1.7135156E3,2.55161E3,3.0346716E3,6.044748E1,1.3540778E3,1.4343844E3,2.791313E2,2.247762E3,3.0384824E2,4.6407413E1,2.9882642E3],"tree_param":{"num_deleted":"0","num_feature":"53","num_nodes":"17","size_leaf_vector":"1"}},{"base_weights":[-1.766365E-4,-7.1473494E-2,4.0163368E-1,-1.7054299E-1,8.67557E-1,2.179244E-1,-7.7077353E-1,1.061825E0,2.269988E-1,-1.796599E-2,2.7312923E-2,-5.45744E-2,-1.7194336E-2,2.3747597E-2,5.8770996E-2,-1.9640423E-2,4.3484528E-2],"categories":[],"categories_nodes":[],"categories_segments":[],"categories_sizes":[],"default_left":[0,0,0,0,0,0,0,0,0,0,0,0,0,0,0,0,0],"id":11,"left_children":[1,-1,3,5,7,9,11,13,15,-1,-1,-1,-1,-1,-1,-1,-1],"loss_changes":[6.3467104E3,0E0,2.2998027E3,9.031152E2,5.913003E2,4.458901E2,2.0782324E2,2.424624E2,4.4168567E2,0E0,0E0,0E0,0E0,0E0,0E0,0E0,0E0],"parents":[2147483647,0,0,2,2,3,3,4,4,5,5,6,6,7,7,8,8],"right_children":[2,-1,4,6,8,10,12,14,16,-1,-1,-1,-1,-1,-1,-1,-1],"split_conditions":[1.8E1,-7.1473494E-2,3.3515434E1,2.1E1,2.2E1,1.101E0,-1.1489626E0,6.666E-1,7.05E-2,-1.796599E-2,2.7312923E-2,-5.45744E-2,-1.7194336E-2,2.3747597E-2,5.8770996E-2,-1.9640423E-2,4.3484528E-2],"split_indices":[0,0,30,0,0,36,31,36,46,0,0,0,0,0,0,0,0],"split_type":[0,0,0,0,0,0,0,0,0,0,0,0,0,0,0,0,0],"sum_hessian":[1.1048939E4,2.4240303E3,8.624909E3,3.8712473E3,4.753662E3,2.3504885E3,1.5207588E3,3.646838E3,1.1068243E3,8.520683E2,1.4984203E3,8.673437E2,6.5341504E2,5.9239026E2,3.0544475E3,5.6356226E2,5.4326215E2],"tree_param":{"num_deleted":"0","num_feature":"53","num_nodes":"17","size_leaf_vector":"1"}},{"base_weights":[2.3058297E-2,-6.999006E-2,4.0800893E-1,-1.611686E-1,8.275471E-1,-6.875978E-1,2.0999949E-1,1.0145136E0,2.1909036E-1,-5.6581546E-2,-1.609798E-2,1.9341331E-2,-4.093278E-2,-8.064027E-2,5.194626E-2,-1.1579782E-2,5.5122327E-2],"categories":[],"categories_nodes":[],"categories_segments":[],"categories_sizes":[],"default_left":[0,0,0,0,0,0,0,0,0,0,0,0,0,0,0,0,0],"id":12,"left_children":[1,-1,3,5,7,9,11,13,15,-1,-1,-1,-1,-1,-1,-1,-1],"loss_changes":[6.0625156E3,0E0,2.08048E3,7.2262854E2,5.7020605E2,2.4777112E2,3.948191E2,2.4765381E2,4.7022916E2,0E0,0E0,0E0,0E0,0E0,0E0,0E0,0E0],"parents":[2147483647,0,0,2,2,3,3,4,4,5,5,6,6,7,7,8,8],"right_children":[2,-1,4,6,8,10,12,14,16,-1,-1,-1,-1,-1,-1,-1,-1],"split_conditions":[1.8E1,-6.999006E-2,4.6E1,1.101E0,2.2E1,-1.066E-1,2.2E1,2.3E1,6.31E-2,-5.6581546E-2,-1.609798E-2,1.9341331E-2,-4.093278E-2,-8.064027E-2,5.194626E-2,-1.1579782E-2,5.5122327E-2],"split_indices":[0,0,4,36,0,43,0,35,45,0,0,0,0,0,0,0,0],"split_type":[0,0,0,0,0,0,0,0,0,0,0,0,0,0,0,0,0],"sum_hessian":[1.1066563E4,2.3558704E3,8.710693E3,3.6963372E3,5.0143564E3,1.5282421E3,2.168095E3,3.8350813E3,1.1792751E3,6.8906696E2,8.391751E2,1.8506816E3,3.1741336E2,3.46688E1,3.8004126E3,7.8128845E2,3.9798666E2],"tree_param":{"num_deleted":"0","num_feature":"53","num_nodes":"17","size_leaf_vector":"1"}},{"base_weights":[1.8778902E-2,-6.863988E-2,3.8829058E-1,-2.408676E-1,7.753252E-1,7.4176274E-2,-7.357015E-1,1.5361296E-1,9.986025E-1,-4.2226925E-2,1.3673305E-2,6.4242817E-3,-4.2875353E-2,-7.868376E-3,4.6514675E-2,5.6282338E-2,2.4779057E-2],"categories":[],"categories_nodes":[],"categories_segments":[],"categories_sizes":[],"default_left":[0,0,0,0,0,0,0,0,0,0,0,0,0,0,0,0,0],"id":13,"left_children":[1,-1,3,5,7,9,11,13,15,-1,-1,-1,-1,-1,-1,-1,-1],"loss_changes":[5.592645E3,0E0,2.0930322E3,5.105185E2,7.384204E2,3.6657297E2,1.342674E2,3.401602E2,2.4947192E2,0E0,0E0,0E0,0E0,0E0,0E0,0E0,0E0],"parents":[2147483647,0,0,2,2,3,3,4,4,5,5,6,6,7,7,8,8],"right_children":[2,-1,4,6,8,10,12,14,16,-1,-1,-1,-1,-1,-1,-1,-1],"split_conditions":[1.8E1,-6.863988E-2,2.8E1,2.1E1,9.095E-1,-1.797E-1,1.16883114E-1,1.4956572E2,2.2E1,-4.2226925E-2,1.3673305E-2,6.4242817E-3,-4.2875353E-2,-7.868376E-3,4.6514675E-2,5.6282338E-2,2.4779057E-2],"split_indices":[0,0,9,0,36,43,21,29,0,0,0,0,0,0,0,0,0],"split_type":[0,0,0,0,0,0,0,0,0,0,0,0,0,0,0,0,0],"sum_hessian":[1.0874474E4,2.2810566E3,8.593417E3,3.272997E3,5.3204204E3,2.0001915E3,1.2728057E3,1.406415E3,3.9140051E3,3.5587738E2,1.6443141E3,1.5712904E2,1.1156766E3,1.00477496E3,4.0164014E2,3.123652E3,7.903531E2],"tree_param":{"num_deleted":"0","num_feature":"53","num_nodes":"17","size_leaf_vector":"1"}},{"base_weights":[1.7094921E-2,-6.741447E-2,3.715625E-1,-1.835635E-2,9.1723186E-1,1.9659524E-1,-9.234016E-1,5.227535E-1,1.1542583E0,-1.4555766E-2,2.4549184E-2,1.2141054E-2,-5.27216E-2,3.9280664E-2,-8.952773E-3,-4.6690334E-2,5.8331113E-2],"categories":[],"categories_nodes":[],"categories_segments":[],"categories_sizes":[],"default_left":[0,0,0,0,0,0,0,0,0,0,0,0,0,0,0,0,0],"id":14,"left_children":[1,-1,3,5,7,9,11,13,15,-1,-1,-1,-1,-1,-1,-1,-1],"loss_changes":[5.1846333E3,0E0,1.8096271E3,9.653979E2,3.3065356E2,5.7586395E2,1.4587622E2,2.4599768E2,5.825E1,0E0,0E0,0E0,0E0,0E0,0E0,0E0,0E0],"parents":[2147483647,0,0,2,2,3,3,4,4,5,5,6,6,7,7,8,8],"right_children":[2,-1,4,6,8,10,12,14,16,-1,-1,-1,-1,-1,-1,-1,-1],"split_conditions":[1.8E1,-6.741447E-2,4.3009155E1,2.2E1,7.05E-2,1.101E0,-1.197E-1,2.2E1,2.29E1,-1.4555766E-2,2.4549184E-2,1.2141054E-2,-5.27216E-2,3.9280664E-2,-8.952773E-3,-4.6690334E-2,5.8331113E-2],"split_indices":[0,0,30,0,46,36,50,0,35,0,0,0,0,0,0,0,0],"split_type":[0,0,0,0,0,0,0,0,0,0,0,0,0,0,0,0,0],"sum_hessian":[1.0710563E4,2.206849E3,8.503714E3,4.960135E3,3.5435793E3,4.008721E3,9.5141376E2,1.3313937E3,2.2121855E3,1.5087915E3,2.4999294E3,9.593527E1,8.5547845E2,9.686229E2,3.627708E2,1.2535566E1,2.1996501E3],"tree_param":{"num_deleted":"0","num_feature":"53","num_nodes":"17","size_leaf_vector":"1"}},{"base_weights":[5.0587477E-3,-6.6277154E-2,3.4451005E-1,-1.1303265E-1,8.4010714E-1,2.2093034E-1,-5.991899E-1,5.69764E-1,1.1874434E0,-1.4347668E-2,2.784347E-2,5.714641E-3,-4.2307075E-2,4.0654473E-2,-7.5185075E-3,5.989158E-2,-1.0582344E-2],"categories":[],"categories_nodes":[],"categories_segments":[],"categories_sizes":[],"default_left":[0,0,0,0,0,0,0,0,0,0,0,0,0,0,0,0,0],"id":15,"left_children":[1,-1,3,5,7,9,11,13,15,-1,-1,-1,-1,-1,-1,-1,-1],"loss_changes":[4.747439E3,0E0,1.8991611E3,7.072815E2,3.7665723E2,4.4078134E2,3.1272345E2,3.9669495E2,2.5910645E1,0E0,0E0,0E0,0E0,0E0,0E0,0E0,0E0],"parents":[2147483647,0,0,2,2,3,3,4,4,5,5,6,6,7,7,8,8],"right_children":[2,-1,4,6,8,10,12,14,16,-1,-1,-1,-1,-1,-1,-1,-1],"split_conditions":[1.8E1,-6.6277154E-2,3.7E1,2.1E1,1.186E-1,-1.032E-1,-3.9E-2,2.2E1,2.4E1,-1.4347668E-2,2.784347E-2,5.714641E-3,-4.2307075E-2,4.0654473E-2,-7.5185075E-3,5.989158E-2,-1.0582344E-2],"split_indices":[0,0,9,0,46,43,50,0,0,0,0,0,0,0,0,0,0],"split_type":[0,0,0,0,0,0,0,0,0,0,0,0,0,0,0,0,0],"sum_hessian":[1.0508959E4,2.1353774E3,8.373581E3,4.354246E3,4.0193354E3,2.5813452E3,1.7729008E3,2.2618176E3,1.7575177E3,1.0276135E3,1.5537317E3,4.5589096E2,1.3170099E3,1.6905944E3,5.7122327E2,1.7447781E3,1.2739698E1],"tree_param":{"num_deleted":"0","num_feature":"53","num_nodes":"17","size_leaf_vector":"1"}},{"base_weights":[4.7940314E-3,-6.522866E-2,3.3218265E-1,-3.8598818E-1,6.475386E-1,-8.1496704E-1,3.911172E-2,3.6382636E-1,1.0254532E0,3.8571026E-2,-4.4545338E-2,1.0786057E-2,-4.781365E-2,-6.831427E-2,2.1735212E-2,-6.98451E-2,5.2806724E-2],"categories":[],"categories_nodes":[],"categories_segments":[],"categories_sizes":[],"default_left":[0,0,0,0,0,0,0,0,0,0,0,0,0,0,0,0,0],"id":16,"left_children":[1,-1,3,5,7,9,11,13,15,-1,-1,-1,-1,-1,-1,-1,-1],"loss_changes":[4.429225E3,0E0,1.8723423E3,4.6014334E2,6.153816E2,1.5198218E2,2.2302322E2,4.0305493E2,1.8445605E2,0E0,0E0,0E0,0E0,0E0,0E0,0E0,0E0],"parents":[2147483647,0,0,2,2,3,3,4,4,5,5,6,6,7,7,8,8],"right_children":[2,-1,4,6,8,10,12,14,16,-1,-1,-1,-1,-1,-1,-1,-1],"split_conditions":[1.8E1,-6.522866E-2,-1.268E-1,1.1343E0,2.2946E0,1.9E1,2.2E1,2.37E1,4E0,3.8571026E-2,-4.4545338E-2,1.0786057E-2,-4.781365E-2,-6.831427E-2,2.1735212E-2,-6.98451E-2,5.2806724E-2],"split_indices":[0,0,38,36,36,0,0,35,12,0,0,0,0,0,0,0,0],"split_type":[0,0,0,0,0,0,0,0,0,0,0,0,0,0,0,0,0],"sum_hessian":[1.033065E4,2.0657083E3,8.264942E3,2.521684E3,5.7432583E3,1.2547762E3,1.2669078E3,3.281764E3,2.4614944E3,5.6843098E1,1.1979332E3,1.0767463E3,1.9016153E2,1.2837885E2,3.153385E3,3.0189375E1,2.4313052E3],"tree_param":{"num_deleted":"0","num_feature":"53","num_nodes":"17","size_leaf_vector":"1"}},{"base_weights":[1.712063E-2,-6.427508E-2,3.3541116E-1,-3.046193E-1,6.2356853E-1,2.869153E-1,-5.964614E-1,2.7854228E-1,8.9962053E-1,-2.451702E-2,2.8966723E-2,-4.946838E-2,-1.5734414E-2,2.9802209E-2,-5.7577784E-3,5.1867586E-2,2.4119066E-2],"categories":[],"categories_nodes":[],"categories_segments":[],"categories_sizes":[],"default_left":[0,0,0,0,0,0,0,0,0,0,0,0,0,0,0,0,0],"id":17,"left_children":[1,-1,3,5,7,9,11,13,15,-1,-1,-1,-1,-1,-1,-1,-1],"loss_changes":[4.2188374E3,0E0,1.5083928E3,4.3856995E2,5.3673975E2,1.9109067E2,1.8785608E2,3.136267E2,1.7934082E2,0E0,0E0,0E0,0E0,0E0,0E0,0E0,0E0],"parents":[2147483647,0,0,2,2,3,3,4,4,5,5,6,6,7,7,8,8],"right_children":[2,-1,4,6,8,10,12,14,16,-1,-1,-1,-1,-1,-1,-1,-1],"split_conditions":[1.8E1,-6.427508E-2,-1.316E-1,2E1,4.1E1,-1.72E-1,8.841E-1,2.1E1,2.2E1,-2.451702E-2,2.8966723E-2,-4.946838E-2,-1.5734414E-2,2.9802209E-2,-5.7577784E-3,5.1867586E-2,2.4119066E-2],"split_indices":[0,0,38,0,9,43,36,0,0,0,0,0,0,0,0,0,0],"split_type":[0,0,0,0,0,0,0,0,0,0,0,0,0,0,0,0,0],"sum_hessian":[1.0173568E4,1.9970743E3,8.1764937E3,2.5382798E3,5.638214E3,8.384666E2,1.6998132E3,2.5070833E3,3.1311306E3,2.2893477E2,6.0953186E2,7.087132E2,9.9110004E2,1.3876985E3,1.1193846E3,2.352757E3,7.7837366E2],"tree_param":{"num_deleted":"0","num_feature":"53","num_nodes":"17","size_leaf_vector":"1"}},{"base_weights":[1.3501083E-2,-6.3378476E-2,3.1789377E-1,-2.025871E-1,6.551257E-1,8.8448584E-2,-6.900868E-1,2.1183427E-1,9.18033E-1,-3.9730202E-2,1.5094756E-2,-3.966866E-2,5.9249885E-2,-3.853906E-3,4.312582E-2,5.1536094E-2,2.287247E-2],"categories":[],"categories_nodes":[],"categories_segments":[],"categories_sizes":[],"default_left":[0,0,0,0,0,0,0,0,0,0,0,0,0,0,0,0,0],"id":18,"left_children":[1,-1,3,5,7,9,11,13,15,-1,-1,-1,-1,-1,-1,-1,-1],"loss_changes":[3.9300005E3,0E0,1.4295574E3,4.5449078E2,5.7566284E2,3.7830612E2,2.3280511E2,3.462908E2,1.6036963E2,0E0,0E0,0E0,0E0,0E0,0E0,0E0,0E0],"parents":[2147483647,0,0,2,2,3,3,4,4,5,5,6,6,7,7,8,8],"right_children":[2,-1,4,6,8,10,12,14,16,-1,-1,-1,-1,-1,-1,-1,-1],"split_conditions":[1.8E1,-6.3378476E-2,2.8E1,2.1E1,1.1343E0,-1.748E-1,7.5E-1,1.7604069E1,2.2E1,-3.9730202E-2,1.5094756E-2,-3.966866E-2,5.9249885E-2,-3.853906E-3,4.312582E-2,5.1536094E-2,2.287247E-2],"split_indices":[0,0,9,0,36,43,21,31,0,0,0,0,0,0,0,0,0],"split_type":[0,0,0,0,0,0,0,0,0,0,0,0,0,0,0,0,0],"sum_hessian":[1.0076464E4,1.9339071E3,8.142557E3,3.2014966E3,4.9410605E3,2.0050825E3,1.1964142E3,1.8402977E3,3.1007627E3,3.896918E2,1.6153906E3,1.1345493E3,6.186487E1,1.2749355E3,5.653622E2,2.490073E3,6.1068964E2],"tree_param":{"num_deleted":"0","num_feature":"53","num_nodes":"17","size_leaf_vector":"1"}},{"base_weights":[-8.903596E-4,-6.255139E-2,2.8764915E-1,-3.0109173E-1,6.2216055E-1,-7.3811567E-1,1.2256694E-2,2.643086E-1,9.5521075E-1,-5.5586617E-2,-2.3842348E-2,-4.445798E-2,7.960635E-3,2.6804691E-2,-2.8643286E-2,3.691973E-2,5.761972E-2],"categories":[],"categories_nodes":[],"categories_segments":[],"categories_sizes":[],"default_left":[0,0,0,0,0,0,0,0,0,0,0,0,0,0,0,0,0],"id":19,"left_children":[1,-1,3,5,7,9,11,13,15,-1,-1,-1,-1,-1,-1,-1,-1],"loss_changes":[3.5686768E3,0E0,1.5831959E3,3.9896597E2,6.1055774E2,1.1806055E2,2.2490825E2,5.6288196E2,1.1244629E2,0E0,0E0,0E0,0E0,0E0,0E0,0E0,0E0],"parents":[2147483647,0,0,2,2,3,3,4,4,5,5,6,6,7,7,8,8],"right_children":[2,-1,4,6,8,10,12,14,16,-1,-1,-1,-1,-1,-1,-1,-1],"split_conditions":[1.8E1,-6.255139E-2,2.6E1,1.101E0,1.51E-2,-2.3624494E0,2.5E1,2.2E1,2.2946E0,-5.5586617E-2,-2.3842348E-2,-4.445798E-2,7.960635E-3,2.6804691E-2,-2.8643286E-2,3.691973E-2,5.761972E-2],"split_indices":[0,0,9,36,45,31,35,0,36,0,0,0,0,0,0,0,0],"split_type":[0,0,0,0,0,0,0,0,0,0,0,0,0,0,0,0,0],"sum_hessian":[9.891103E3,1.8542631E3,8.03684E3,2.9118237E3,5.125016E3,1.2155175E3,1.6963064E3,2.4715293E3,2.6534868E3,4.9871396E2,7.1680347E2,2.3697708E2,1.4593292E3,1.8661654E3,6.0536395E2,1.2663286E3,1.3871582E3],"tree_param":{"num_deleted":"0","num_feature":"53","num_nodes":"17","size_leaf_vector":"1"}},{"base_weights":[-1.5473569E-2,-6.1792143E-2,2.638719E-1,-3.1954274E-1,5.3386444E-1,-1.3227901E-1,-1.0798005E0,2.5925055E-1,9.1604865E-1,-2.4060564E-2,1.0243377E-2,-5.739705E-2,1.1143412E-1,-8.7250434E-2,1.664148E-2,-3.7696984E-2,4.8391137E-2],"categories":[],"categories_nodes":[],"categories_segments":[],"categories_sizes":[],"default_left":[0,0,0,0,0,0,0,0,0,0,0,0,0,0,0,0,0],"id":20,"left_children":[1,-1,3,5,7,9,11,13,15,-1,-1,-1,-1,-1,-1,-1,-1],"loss_changes":[3.261432E3,0E0,1.2264253E3,3.5044226E2,5.58244E2,2.3279288E2,1.12151E2,4.573919E2,1.931112E2,0E0,0E0,0E0,0E0,0E0,0E0,0E0,0E0],"parents":[2147483647,0,0,2,2,3,3,4,4,5,5,6,6,7,7,8,8],"right_children":[2,-1,4,6,8,10,12,14,16,-1,-1,-1,-1,-1,-1,-1,-1],"split_conditions":[1.8E1,-6.1792143E-2,-1.316E-1,2.2E1,2.2946E0,-2.697E-1,7.9E1,2.37E1,6E0,-2.4060564E-2,1.0243377E-2,-5.739705E-2,1.1143412E-1,-8.7250434E-2,1.664148E-2,-3.7696984E-2,4.8391137E-2],"split_indices":[0,0,38,0,36,38,34,35,10,0,0,0,0,0,0,0,0],"split_type":[0,0,0,0,0,0,0,0,0,0,0,0,0,0,0,0,0],"sum_hessian":[9.564751E3,1.7810144E3,7.783737E3,2.4623667E3,5.32137E3,1.9767634E3,4.856032E2,3.0975808E3,2.2237896E3,9.713387E2,1.0054248E3,4.7647318E2,9.130041E0,1.08836975E2,2.988744E3,6.6404335E1,2.1573853E3],"tree_param":{"num_deleted":"0","num_feature":"53","num_nodes":"17","size_leaf_vector":"1"}},{"base_weights":[-2.0335402E-2,-4.228848E-1,5.879119E-1,-8.4952396E-1,-9.413658E-3,3.6995847E-2,8.124399E-1,-1.1416438E0,-6.012601E-1,-6.5283954E-1,9.554426E-2,-1.9469437E-1,7.008662E-1,5.727008E-1,1.0748645E0,-5.9503537E-2,2.6105557E-2,-3.397353E-2,7.765792E-3,1.2261645E-2,-4.4856332E-2,-2.5063707E-3,2.289473E-2,-2.0598408E-2,1.9001108E-2,4.5284286E-2,-4.9619704E-2,3.309921E-2,-2.633862E-2,5.7998773E-2,4.549304E-2],"categories":[],"categories_nodes":[],"categories_segments":[],"categories_sizes":[],"default_left":[0,0,0,0,0,0,0,0,0,0,0,0,0,0,0,0,0,0,0,0,0,0,0,0,0,0,0,0,0,0,0],"id":21,"left_children":[1,3,5,7,9,11,13,15,17,19,21,23,25,27,29,-1,-1,-1,-1,-1,-1,-1,-1,-1,-1,-1,-1,-1,-1,-1,-1],"loss_changes":[2.329271E3,1.00974316E3,4.685099E2,2.0345837E2,1.9652307E2,1.6909348E2,1.6854407E2,1.0486865E2,9.041162E1,8.982565E1,1.3208528E2,1.0189282E2,9.953294E1,1.3865903E2,1.6763428E1,0E0,0E0,0E0,0E0,0E0,0E0,0E0,0E0,0E0,0E0,0E0,0E0,0E0,0E0,0E0,0E0],"parents":[2147483647,0,0,1,1,2,2,3,3,4,4,5,5,6,6,7,7,8,8,9,9,10,10,11,11,12,12,13,13,14,14],"right_children":[2,4,6,8,10,12,14,16,18,20,22,24,26,28,30,-1,-1,-1,-1,-1,-1,-1,-1,-1,-1,-1,-1,-1,-1,-1,-1],"split_conditions":[5.4E1,1.101E0,9.095E-1,-1.066E-1,1.3E1,1.0576258E0,5.685772E1,4.287E-1,7.6E1,-2.4040165E0,-2.55E-2,1.091623E0,2.72E-2,4.61E-2,-4.24E-2,-5.9503537E-2,2.6105557E-2,-3.397353E-2,7.765792E-3,1.2261645E-2,-4.4856332E-2,-2.5063707E-3,2.289473E-2,-2.0598408E-2,1.9001108E-2,4.5284286E-2,-4.9619704E-2,3.309921E-2,-2.633862E-2,5.7998773E-2,4.549304E-2],"split_indices":[4,36,36,43,1,24,30,50,34,31,38,32,42,42,50,0,0,0,0,0,0,0,0,0,0,0,0,0,0,0,0],"split_type":[0,0,0,0,0,0,0,0,0,0,0,0,0,0,0,0,0,0,0,0,0,0,0,0,0,0,0,0,0,0,0],"sum_hessian":[9.511122E3,5.7236035E3,3.7875183E3,2.8163074E3,2.9072964E3,1.0971333E3,2.690385E3,1.2920338E3,1.5242734E3,4.0713852E2,2.5001577E3,8.1370654E2,2.834268E2,1.4078245E3,1.2825605E3,1.2558253E3,3.620856E1,1.3816777E3,1.4259578E2,8.697588E1,3.2016266E2,1.7836732E3,7.164846E2,5.908069E2,2.2289961E2,2.5331018E2,3.0116623E1,1.3025398E3,1.0528469E2,8.417433E2,4.4081726E2],"tree_param":{"num_deleted":"0","num_feature":"53","num_nodes":"31","size_leaf_vector":"1"}},{"base_weights":[-3.4591137E-3,-6.076593E-2,2.582187E-1,-9.882108E-2,6.739932E-1,-1.1497645E0,1.0376767E-2,8.621161E-1,1.0407805E-1,-3.184549E-2,-7.54424E-2,-1.601293E-2,1.8572692E-2,3.2097843E-2,5.4946255E-2,-2.0111479E-2,3.386491E-2],"categories":[],"categories_nodes":[],"categories_segments":[],"categories_sizes":[],"default_left":[0,0,0,0,0,0,0,0,0,0,0,0,0,0,0,0,0],"id":22,"left_children":[1,-1,3,5,7,9,11,13,15,-1,-1,-1,-1,-1,-1,-1,-1],"loss_changes":[2.9935818E3,0E0,1.1525698E3,4.795273E2,3.8437952E2,7.1252075E1,4.5200858E2,1.3970227E2,2.5901642E2,0E0,0E0,0E0,0E0,0E0,0E0,0E0,0E0],"parents":[2147483647,0,0,2,2,3,3,4,4,5,5,6,6,7,7,8,8],"right_children":[2,-1,4,6,8,10,12,14,16,-1,-1,-1,-1,-1,-1,-1,-1],"split_conditions":[1.8E1,-6.076593E-2,3.7E1,2.43E1,2.2E1,7.608695E-2,7.3E1,8.04E-2,5.774803E1,-3.184549E-2,-7.54424E-2,-1.601293E-2,1.8572692E-2,3.2097843E-2,5.4946255E-2,-2.0111479E-2,3.386491E-2],"split_indices":[0,0,9,35,0,25,34,46,30,0,0,0,0,0,0,0,0],"split_type":[0,0,0,0,0,0,0,0,0,0,0,0,0,0,0,0,0],"sum_hessian":[9.437709E3,1.6754143E3,7.7622944E3,4.176399E3,3.5858953E3,3.922912E2,3.7841077E3,2.6954634E3,8.904319E2,1.628112E2,2.2947998E2,1.9752361E3,1.8088717E3,1.3989786E3,1.2964847E3,4.7287756E2,4.175543E2],"tree_param":{"num_deleted":"0","num_feature":"53","num_nodes":"17","size_leaf_vector":"1"}},{"base_weights":[9.50627E-3,-6.014955E-2,2.6608306E-1,-5.3075008E-2,6.545133E-1,2.2913581E-1,-4.6917772E-1,1.4165768E-1,8.516475E-1,-1.1613897E-2,2.5917545E-2,-3.4092497E-2,1.3600555E-2,3.2847628E-2,-8.734853E-3,3.3575036E-2,5.4186106E-2],"categories":[],"categories_nodes":[],"categories_segments":[],"categories_sizes":[],"default_left":[0,0,0,0,0,0,0,0,0,0,0,0,0,0,0,0,0],"id":23,"left_children":[1,-1,3,5,7,9,11,13,15,-1,-1,-1,-1,-1,-1,-1,-1],"loss_changes":[2.8968171E3,0E0,9.5288043E2,4.956541E2,3.5027795E2,3.3576465E2,2.6911493E2,1.5729793E2,1.0377759E2,0E0,0E0,0E0,0E0,0E0,0E0,0E0,0E0],"parents":[2147483647,0,0,2,2,3,3,4,4,5,5,6,6,7,7,8,8],"right_children":[2,-1,4,6,8,10,12,14,16,-1,-1,-1,-1,-1,-1,-1,-1],"split_conditions":[1.8E1,-6.014955E-2,3.7E1,2.1E1,9.095E-1,-1.032E-1,2.2951E0,2.1E1,5.774803E1,-1.1613897E-2,2.5917545E-2,-3.4092497E-2,1.3600555E-2,3.2847628E-2,-8.734853E-3,3.3575036E-2,5.4186106E-2],"split_indices":[0,0,9,0,36,43,36,0,30,0,0,0,0,0,0,0,0],"split_type":[0,0,0,0,0,0,0,0,0,0,0,0,0,0,0,0,0],"sum_hessian":[9.309843E3,1.6252708E3,7.6845723E3,4.218775E3,3.4657974E3,2.5139575E3,1.7048171E3,9.629236E2,2.5028738E3,9.685632E2,1.5453944E3,1.3248793E3,3.7993787E2,3.660013E2,5.9692224E2,1.4115159E3,1.0913579E3],"tree_param":{"num_deleted":"0","num_feature":"53","num_nodes":"17","size_leaf_vector":"1"}},{"base_weights":[4.4916852E-4,-5.955076E-2,2.4399544E-1,-2.0171426E-1,5.607236E-1,8.313675E-2,-6.911567E-1,9.2418385E-1,2.9303032E-1,-1.9056242E-2,1.7428745E-2,-3.8830187E-2,6.168657E-2,-1.06776886E-1,4.7186967E-2,2.553497E-2,-1.6018858E-2],"categories":[],"categories_nodes":[],"categories_segments":[],"categories_sizes":[],"default_left":[0,0,0,0,0,0,0,0,0,0,0,0,0,0,0,0,0],"id":24,"left_children":[1,-1,3,5,7,9,11,13,15,-1,-1,-1,-1,-1,-1,-1,-1],"loss_changes":[2.665625E3,0E0,1.0769128E3,4.4195947E2,4.3348022E2,2.4709398E2,1.9271259E2,1.15026245E2,3.4327423E2,0E0,0E0,0E0,0E0,0E0,0E0,0E0,0E0],"parents":[2147483647,0,0,2,2,3,3,4,4,5,5,6,6,7,7,8,8],"right_children":[2,-1,4,6,8,10,12,14,16,-1,-1,-1,-1,-1,-1,-1,-1],"split_conditions":[1.8E1,-5.955076E-2,8E0,2.1E1,-4.39E-2,1.101E0,1E0,2.3E1,2.2E1,-1.9056242E-2,1.7428745E-2,-3.8830187E-2,6.168657E-2,-1.06776886E-1,4.7186967E-2,2.553497E-2,-1.6018858E-2],"split_indices":[0,0,6,0,50,36,21,35,0,0,0,0,0,0,0,0,0],"split_type":[0,0,0,0,0,0,0,0,0,0,0,0,0,0,0,0,0],"sum_hessian":[9.184538E3,1.558046E3,7.6264917E3,3.168179E3,4.458313E3,2.0030487E3,1.1651301E3,1.8897206E3,2.5685923E3,7.2834045E2,1.2747083E3,1.1162286E3,4.890158E1,1.1281357E1,1.8784392E3,1.8960905E3,6.725017E2],"tree_param":{"num_deleted":"0","num_feature":"53","num_nodes":"17","size_leaf_vector":"1"}},{"base_weights":[-8.216665E-3,-5.89965E-2,2.2527345E-1,-2.1955787E-1,5.211246E-1,-8.4606564E-1,-1.0788182E-2,6.122237E-1,-7.772504E-1,4.7158893E-2,-4.7956325E-2,6.7947665E-3,-3.676274E-2,3.499682E-2,-1.8853117E-2,-7.1189426E-2,-1.7205002E-2],"categories":[],"categories_nodes":[],"categories_segments":[],"categories_sizes":[],"default_left":[0,0,0,0,0,0,0,0,0,0,0,0,0,0,0,0,0],"id":25,"left_children":[1,-1,3,5,7,9,11,13,15,-1,-1,-1,-1,-1,-1,-1,-1],"loss_changes":[2.4588008E3,0E0,9.8634467E2,3.9147925E2,5.3283154E2,1.5224896E2,2.3890497E2,3.653025E2,8.2077866E1,0E0,0E0,0E0,0E0,0E0,0E0,0E0,0E0],"parents":[2147483647,0,0,2,2,3,3,4,4,5,5,6,6,7,7,8,8],"right_children":[2,-1,4,6,8,10,12,14,16,-1,-1,-1,-1,-1,-1,-1,-1],"split_conditions":[1.8E1,-5.89965E-2,-6.6E-2,6.335E-1,9.13E-2,1.9E1,2.2E1,2.3E1,1.423E-1,4.7158893E-2,-4.7956325E-2,6.7947665E-3,-3.676274E-2,3.499682E-2,-1.8853117E-2,-7.1189426E-2,-1.7205002E-2],"split_indices":[0,0,40,36,42,0,0,0,50,0,0,0,0,0,0,0,0],"split_type":[0,0,0,0,0,0,0,0,0,0,0,0,0,0,0,0,0],"sum_hessian":[8.985067E3,1.4923662E3,7.4927017E3,2.9927815E3,4.49992E3,7.471347E2,2.2456467E3,4.2054546E3,2.944656E2,4.3915985E1,7.032187E2,1.8680876E3,3.7755923E2,3.8633164E3,3.4213806E2,1.1712384E2,1.7734178E2],"tree_param":{"num_deleted":"0","num_feature":"53","num_nodes":"17","size_leaf_vector":"1"}},{"base_weights":[1.3278093E-2,-5.8481704E-2,2.3950222E-1,1.8305615E-2,7.55548E-1,1.131053E-1,-1.3465974E0,-1.0951213E-1,7.8542775E-1,1.0111428E-2,-4.185492E-2,-5.7080537E-2,-9.404728E-2,2.703756E-2,5.210262E-2],"categories":[],"categories_nodes":[],"categories_segments":[],"categories_sizes":[],"default_left":[0,0,0,0,0,0,0,0,0,0,0,0,0,0,0],"id":26,"left_children":[1,-1,3,5,7,9,11,-1,13,-1,-1,-1,-1,-1,-1],"loss_changes":[2.374434E3,0E0,8.501717E2,6.748206E2,1.9827881E2,4.1314807E2,3.464972E1,0E0,1.3823596E2,0E0,0E0,0E0,0E0,0E0,0E0],"parents":[2147483647,0,0,2,2,3,3,4,4,5,5,6,6,8,8],"right_children":[2,-1,4,6,8,10,12,-1,14,-1,-1,-1,-1,-1,-1],"split_conditions":[1.8E1,-5.8481704E-2,4.892723E1,2.3E1,2.3E1,3.01E1,8.5621625E-1,-1.0951213E-1,6.31E-2,1.0111428E-2,-4.185492E-2,-5.7080537E-2,-9.404728E-2,2.703756E-2,5.210262E-2],"split_indices":[0,0,30,0,35,35,24,0,45,0,0,0,0,0,0],"split_type":[0,0,0,0,0,0,0,0,0,0,0,0,0,0,0],"sum_hessian":[8.871264E3,1.4234609E3,7.4478027E3,5.214081E3,2.2337217E3,4.8763813E3,3.376999E2,2.1669975E1,2.2120518E3,4.459043E3,4.1733838E2,2.4647191E2,9.122797E1,1.1341772E3,1.0778745E3],"tree_param":{"num_deleted":"0","num_feature":"53","num_nodes":"15","size_leaf_vector":"1"}},{"base_weights":[1.785612E-2,-5.7992566E-2,2.343213E-1,-1.5932947E-1,5.064183E-1,3.37699E-1,-4.0201822E-1,2.1548712E-1,7.96924E-1,-2.9831616E-2,2.7657503E-2,-5.2909937E-2,-9.719735E-3,1.6491493E-2,-4.2580537E-2,-9.750818E-2,4.136033E-2],"categories":[],"categories_nodes":[],"categories_segments":[],"categories_sizes":[],"default_left":[0,0,0,0,0,0,0,0,0,0,0,0,0,0,0,0,0],"id":27,"left_children":[1,-1,3,5,7,9,11,13,15,-1,-1,-1,-1,-1,-1,-1,-1],"loss_changes":[2.2696443E3,0E0,8.056905E2,3.709956E2,3.7561218E2,2.0345871E2,2.8119028E2,2.7154562E2,1.8658008E2,0E0,0E0,0E0,0E0,0E0,0E0,0E0,0E0],"parents":[2147483647,0,0,2,2,3,3,4,4,5,5,6,6,7,7,8,8],"right_children":[2,-1,4,6,8,10,12,14,16,-1,-1,-1,-1,-1,-1,-1,-1],"split_conditions":[1.7E1,-5.7992566E-2,-6.6E-2,2E1,1.557E0,-1.797E-1,6.266E-1,2.3E1,1E1,-2.9831616E-2,2.7657503E-2,-5.2909937E-2,-9.719735E-3,1.6491493E-2,-4.2580537E-2,-9.750818E-2,4.136033E-2],"split_indices":[0,0,40,0,36,43,36,0,2,0,0,0,0,0,0,0,0],"split_type":[0,0,0,0,0,0,0,0,0,0,0,0,0,0,0,0,0],"sum_hessian":[8.901215E3,1.3812922E3,7.5199224E3,3.073478E3,4.4464443E3,1.00809265E3,2.0653853E3,2.2226375E3,2.2238071E3,1.8848215E2,8.1961053E2,4.9533463E2,1.5700507E3,2.0082339E3,2.1440369E2,2.351962E1,2.2002874E3],"tree_param":{"num_deleted":"0","num_feature":"53","num_nodes":"17","size_leaf_vector":"1"}},{"base_weights":[-1.1943308E-2,-5.7546407E-2,1.9310944E-1,-3.18639E-2,7.114731E-1,1.3263738E-1,-7.288497E-1,-9.974095E-2,7.396741E-1,-5.8752168E-2,1.0399459E-2,-2.302738E-2,-6.1926544E-2,2.2566909E-2,4.8289537E-2],"categories":[],"categories_nodes":[],"categories_segments":[],"categories_sizes":[],"default_left":[0,0,0,0,0,0,0,0,0,0,0,0,0,0,0],"id":28,"left_children":[1,-1,3,5,7,9,11,-1,13,-1,-1,-1,-1,-1,-1],"loss_changes":[2.002888E3,0E0,8.47558E2,5.8128174E2,1.6922156E2,4.042808E2,1.3164539E2,0E0,1.413999E2,0E0,0E0,0E0,0E0,0E0,0E0],"parents":[2147483647,0,0,2,2,3,3,4,4,5,5,6,6,8,8],"right_children":[2,-1,4,6,8,10,12,-1,14,-1,-1,-1,-1,-1,-1],"split_conditions":[1.8E1,-5.7546407E-2,4.8415695E1,2.2E1,2.3E1,2.37E1,2.3E1,-9.974095E-2,4.38E-2,-5.8752168E-2,1.0399459E-2,-2.302738E-2,-6.1926544E-2,2.2566909E-2,4.8289537E-2],"split_indices":[0,0,30,0,35,35,0,0,45,0,0,0,0,0,0],"split_type":[0,0,0,0,0,0,0,0,0,0,0,0,0,0,0],"sum_hessian":[8.573407E3,1.3073702E3,7.266037E3,5.0674673E3,2.1985696E3,4.1003716E3,9.6709576E2,2.1918236E1,2.1766514E3,2.2253322E2,3.8778384E3,6.349504E2,3.3214542E2,9.58212E2,1.2184393E3],"tree_param":{"num_deleted":"0","num_feature":"53","num_nodes":"15","size_leaf_vector":"1"}},{"base_weights":[-8.090777E-3,-5.7114817E-2,1.8682818E-1,-4.5413962E-1,3.6983457E-1,5.24396E-2,-7.28609E-1,1.2198026E-1,7.468752E-1,-2.4016907E-2,4.162517E-2,-9.111533E-3,-4.9640816E-2,-4.9789783E-2,1.1008131E-2,-6.776743E-2,3.9797317E-2],"categories":[],"categories_nodes":[],"categories_segments":[],"categories_sizes":[],"default_left":[0,0,0,0,0,0,0,0,0,0,0,0,0,0,0,0,0],"id":29,"left_children":[1,-1,3,5,7,9,11,13,15,-1,-1,-1,-1,-1,-1,-1,-1],"loss_changes":[1.878747E3,0E0,8.5076196E2,2.2408435E2,5.270313E2,2.360345E2,1.5055457E2,3.7385678E2,2.318164E2,0E0,0E0,0E0,0E0,0E0,0E0,0E0,0E0],"parents":[2147483647,0,0,2,2,3,3,4,4,5,5,6,6,7,7,8,8],"right_children":[2,-1,4,6,8,10,12,14,16,-1,-1,-1,-1,-1,-1,-1,-1],"split_conditions":[1.8E1,-5.7114817E-2,-2.029E-1,2.631579E-1,2.2946E0,7.4E1,2E1,2.44E1,6E0,-2.4016907E-2,4.162517E-2,-9.111533E-3,-4.9640816E-2,-4.9789783E-2,1.1008131E-2,-6.776743E-2,3.9797317E-2],"split_indices":[0,0,38,22,36,34,0,35,12,0,0,0,0,0,0,0,0],"split_type":[0,0,0,0,0,0,0,0,0,0,0,0,0,0,0,0,0],"sum_hessian":[8.495715E3,1.2452773E3,7.2504375E3,1.609887E3,5.6405503E3,5.65889E2,1.043998E3,3.4042773E3,2.2362732E3,3.3639188E2,2.294971E2,3.4096127E2,7.0303674E2,2.740574E2,3.13022E3,5.0355755E1,2.1859175E3],"tree_param":{"num_deleted":"0","num_feature":"53","num_nodes":"17","size_leaf_vector":"1"}},{"base_weights":[4.8906826E-3,-5.671487E-2,1.9517608E-1,-1.17428735E-1,5.393794E-1,1.9039618E-2,-7.315391E-1,3.0432746E-1,9.204024E-1,-1.630923E-2,1.1589854E-2,1.7968586E-2,-4.177771E-2,2.5102854E-2,-1.1035561E-2,4.8611116E-2,1.7683366E-2],"categories":[],"categories_nodes":[],"categories_segments":[],"categories_sizes":[],"default_left":[0,0,0,0,0,0,0,0,0,0,0,0,0,0,0,0,0],"id":30,"left_children":[1,-1,3,5,7,9,11,13,15,-1,-1,-1,-1,-1,-1,-1,-1],"loss_changes":[1.8321589E3,0E0,7.794227E2,3.1823737E2,3.0835486E2,2.2826343E2,7.868692E1,2.2166257E2,3.813269E1,0E0,0E0,0E0,0E0,0E0,0E0,0E0,0E0],"parents":[2147483647,0,0,2,2,3,3,4,4,5,5,6,6,7,7,8,8],"right_children":[2,-1,4,6,8,10,12,14,16,-1,-1,-1,-1,-1,-1,-1,-1],"split_conditions":[1.6E1,-5.671487E-2,3.5E1,2.2E1,1.186E-1,-1.077E-1,7E0,2.2E1,2.3E1,-1.630923E-2,1.1589854E-2,1.7968586E-2,-4.177771E-2,2.5102854E-2,-1.1035561E-2,4.8611116E-2,1.7683366E-2],"split_indices":[0,0,9,0,46,43,3,0,0,0,0,0,0,0,0,0,0],"split_type":[0,0,0,0,0,0,0,0,0,0,0,0,0,0,0,0,0],"sum_hessian":[8.450466E3,1.2087164E3,7.24175E3,3.7952654E3,3.4464844E3,3.1058794E3,6.8938617E2,2.132817E3,1.3136675E3,1.183884E3,1.9219952E3,5.9711895E1,6.2967426E2,1.5495068E3,5.833101E2,1.202797E3,1.1087053E2],"tree_param":{"num_deleted":"0","num_feature":"53","num_nodes":"17","size_leaf_vector":"1"}},{"base_weights":[1.0375732E-2,-5.6343E-2,1.9396828E-1,-2.484801E-3,6.698594E-1,7.402642E-2,-1.1216676E0,3.7572163E-1,9.1825825E-1,3.032807E-2,-3.908098E-3,5.319349E-2,-6.11093E-2,2.088704E-2,-1.2739234E-1,4.6428468E-2,-4.721337E-2],"categories":[],"categories_nodes":[],"categories_segments":[],"categories_sizes":[],"default_left":[0,0,0,0,0,0,0,0,0,0,0,0,0,0,0,0,0],"id":31,"left_children":[1,-1,3,5,7,9,11,13,15,-1,-1,-1,-1,-1,-1,-1,-1],"loss_changes":[1.7355295E3,0E0,6.6921625E2,4.3406854E2,1.5233661E2,3.8454422E2,7.2576416E1,1.1871669E2,2.2634766E1,0E0,0E0,0E0,0E0,0E0,0E0,0E0,0E0],"parents":[2147483647,0,0,2,2,3,3,4,4,5,5,6,6,7,7,8,8],"right_children":[2,-1,4,6,8,10,12,14,16,-1,-1,-1,-1,-1,-1,-1,-1],"split_conditions":[1.8E1,-5.6343E-2,4.8415695E1,2.3E1,4.38E-2,-6.07E-2,2E0,1.016E-1,2.4E1,3.032807E-2,-3.908098E-3,5.319349E-2,-6.11093E-2,2.088704E-2,-1.2739234E-1,4.6428468E-2,-4.721337E-2],"split_indices":[0,0,30,0,45,50,3,42,0,0,0,0,0,0,0,0,0],"split_type":[0,0,0,0,0,0,0,0,0,0,0,0,0,0,0,0,0],"sum_hessian":[8.3108E3,1.1543951E3,7.156405E3,5.0659214E3,2.0904834E3,4.742549E3,3.233726E2,9.5845654E2,1.1320269E3,1.0535736E3,3.6889753E3,1.3753615E1,3.0961896E2,9.4575494E2,1.2701608E1,1.1263464E3,5.680441E0],"tree_param":{"num_deleted":"0","num_feature":"53","num_nodes":"17","size_leaf_vector":"1"}},{"base_weights":[-3.1327307E-3,-5.5992085E-2,1.7150822E-1,2.9693624E-2,7.9547834E-1,1.0988092E-1,-1.1342276E0,-9.870159E-2,8.194191E-1,-5.299427E-2,8.772286E-3,-6.4361274E-2,6.163468E-4,4.3923583E-2,-2.8676267E-3],"categories":[],"categories_nodes":[],"categories_segments":[],"categories_sizes":[],"default_left":[0,0,0,0,0,0,0,0,0,0,0,0,0,0,0],"id":32,"left_children":[1,-1,3,5,7,9,11,-1,13,-1,-1,-1,-1,-1,-1],"loss_changes":[1.5949451E3,0E0,6.2565814E2,5.379209E2,8.8323E1,4.1370306E2,6.530734E1,0E0,6.738666E1,0E0,0E0,0E0,0E0,0E0,0E0],"parents":[2147483647,0,0,2,2,3,3,4,4,5,5,6,6,8,8],"right_children":[2,-1,4,6,8,10,12,-1,14,-1,-1,-1,-1,-1,-1],"split_conditions":[1.8E1,-5.5992085E-2,5.685772E1,2.3E1,2.29E1,2.37E1,6.34E-2,-9.870159E-2,4.51E-2,-5.299427E-2,8.772286E-3,-6.4361274E-2,6.163468E-4,4.3923583E-2,-2.8676267E-3],"split_indices":[0,0,30,0,35,35,47,0,42,0,0,0,0,0,0],"split_type":[0,0,0,0,0,0,0,0,0,0,0,0,0,0,0],"sum_hessian":[8.175764E3,1.1050281E3,7.0707363E3,5.762301E3,1.3084354E3,5.391827E3,3.7047348E2,1.0479804E1,1.2979557E3,2.852836E2,5.1065435E3,3.268259E2,4.364758E1,1.216157E3,8.179872E1],"tree_param":{"num_deleted":"0","num_feature":"53","num_nodes":"15","size_leaf_vector":"1"}},{"base_weights":[-1.893662E-3,-5.5656165E-2,1.6552784E-1,2.0377045E-2,7.9843044E-1,1.67734E-1,-5.753113E-1,-9.611853E-2,8.209282E-1,-2.3518069E-2,1.5027255E-2,-1.6795238E-2,-5.3991567E-2,4.205567E-2,-8.475893E-2],"categories":[],"categories_nodes":[],"categories_segments":[],"categories_sizes":[],"default_left":[0,0,0,0,0,0,0,0,0,0,0,0,0,0,0],"id":33,"left_children":[1,-1,3,5,7,9,11,-1,13,-1,-1,-1,-1,-1,-1],"loss_changes":[1.5071534E3,0E0,6.4662573E2,5.0282355E2,8.184973E1,3.893375E2,1.3670459E2,0E0,6.7524475E1,0E0,0E0,0E0,0E0,0E0,0E0],"parents":[2147483647,0,0,2,2,3,3,4,4,5,5,6,6,8,8],"right_children":[2,-1,4,6,8,10,12,-1,14,-1,-1,-1,-1,-1,-1],"split_conditions":[1.8E1,-5.5656165E-2,5.685772E1,2.2E1,2.3E1,-1.458E-1,2.3E1,-9.611853E-2,2.4E1,-2.3518069E-2,1.5027255E-2,-1.6795238E-2,-5.3991567E-2,4.205567E-2,-8.475893E-2],"split_indices":[0,0,30,0,35,43,0,0,0,0,0,0,0,0,0],"split_type":[0,0,0,0,0,0,0,0,0,0,0,0,0,0,0],"sum_hessian":[8.0985713E3,1.0597334E3,7.038838E3,5.7266665E3,1.3121716E3,4.591694E3,1.1349727E3,1.0032098E1,1.3021395E3,7.904855E2,3.8012083E3,7.7098584E2,3.6398682E2,1.2924762E3,9.663304E0],"tree_param":{"num_deleted":"0","num_feature":"53","num_nodes":"15","size_leaf_vector":"1"}},{"base_weights":[1.6639723E-2,-5.53474E-2,1.7789766E-1,-4.6501018E-2,5.734901E-1,-2.3864318E-1,4.120507E-1,3.241099E-2,7.625475E-1,4.180606E-3,-3.1522535E-2,3.0271519E-2,-2.6540795E-2,6.357805E-3,-9.7808614E-2,-1.0909074E-1,3.936086E-2],"categories":[],"categories_nodes":[],"categories_segments":[],"categories_sizes":[],"default_left":[0,0,0,0,0,0,0,0,0,0,0,0,0,0,0,0,0],"id":34,"left_children":[1,-1,3,5,7,9,11,13,15,-1,-1,-1,-1,-1,-1,-1,-1],"loss_changes":[1.4605022E3,0E0,6.2586475E2,3.964543E2,2.6092346E2,4.0049954E2,2.4258232E2,1.2477493E2,1.3891956E2,0E0,0E0,0E0,0E0,0E0,0E0,0E0,0E0],"parents":[2147483647,0,0,2,2,3,3,4,4,5,5,6,6,7,7,8,8],"right_children":[2,-1,4,6,8,10,12,14,16,-1,-1,-1,-1,-1,-1,-1,-1],"split_conditions":[1.8E1,-5.53474E-2,2.2946E0,8.1487E0,5E0,2.1E1,2.03E-2,4.680851E-1,2.3E1,4.180606E-3,-3.1522535E-2,3.0271519E-2,-2.6540795E-2,6.357805E-3,-9.7808614E-2,-1.0909074E-1,3.936086E-2],"split_indices":[0,0,36,52,6,0,50,22,35,0,0,0,0,0,0,0,0],"split_type":[0,0,0,0,0,0,0,0,0,0,0,0,0,0,0,0,0],"sum_hessian":[8.059152E3,1.01067126E3,7.048481E3,4.4977656E3,2.550715E3,3.1701206E3,1.3276451E3,6.609079E2,1.8898071E3,1.7397422E3,1.4303784E3,1.1020759E3,2.2556914E2,6.317928E2,2.9115122E1,1.494215E1,1.874865E3],"tree_param":{"num_deleted":"0","num_feature":"53","num_nodes":"17","size_leaf_vector":"1"}},{"base_weights":[-1.2499162E-4,-3.558117E-1,3.065107E-1,-6.678015E-1,-7.8929536E-2,7.24646E-1,5.458132E-2,-7.0507586E-1,1.0682539E0,-2.8127557E-2,-9.369509E-2,-8.024319E-2,7.46933E-1,-1.052923E0,1.9505547E-1,-4.8231203E-2,-2.2037914E-2,1.0621798E-1,-6.1228227E-2,2.490765E-3,-5.7918817E-2,3.8765874E-2,-5.645145E-2,-6.044207E-2,3.1032512E-2,-6.5914616E-2,1.3743783E-2],"categories":[],"categories_nodes":[],"categories_segments":[],"categories_sizes":[],"default_left":[0,0,0,0,0,0,0,0,0,0,0,0,0,0,0,0,0,0,0,0,0,0,0,0,0,0,0],"id":35,"left_children":[1,3,5,7,9,11,13,15,17,19,-1,-1,21,23,25,-1,-1,-1,-1,-1,-1,-1,-1,-1,-1,-1,-1],"loss_changes":[8.5927356E2,3.149703E2,4.4555615E2,1.1168042E2,1.7610112E2,8.368573E1,4.1104758E2,1.1464563E2,9.079551E1,1.6593582E2,0E0,0E0,8.476459E1,7.841E1,2.835178E2,0E0,0E0,0E0,0E0,0E0,0E0,0E0,0E0,0E0,0E0,0E0,0E0],"parents":[2147483647,0,0,1,1,2,2,3,3,4,4,5,5,6,6,7,7,8,8,9,9,12,12,13,13,14,14],"right_children":[2,4,6,8,10,12,14,16,18,20,-1,-1,22,24,26,-1,-1,-1,-1,-1,-1,-1,-1,-1,-1,-1,-1],"split_conditions":[2.7410366E1,1.101E0,-4.94E-2,4.287E-1,4.5588908E-1,2.3E1,-8.57E-2,-1.066E-1,7.579E-1,3.06E1,-9.369509E-2,-8.024319E-2,3.13E1,6.1E1,7E1,-4.8231203E-2,-2.2037914E-2,1.0621798E-1,-6.1228227E-2,2.490765E-3,-5.7918817E-2,3.8765874E-2,-5.645145E-2,-6.044207E-2,3.1032512E-2,-6.5914616E-2,1.3743783E-2],"split_indices":[30,36,50,50,28,35,43,43,42,35,0,0,35,9,34,0,0,0,0,0,0,0,0,0,0,0,0],"split_type":[0,0,0,0,0,0,0,0,0,0,0,0,0,0,0,0,0,0,0,0,0,0,0,0,0,0,0],"sum_hessian":[7.876411E3,3.6466223E3,4.229789E3,1.7137743E3,1.9328481E3,1.5894515E3,2.6403374E3,1.6783895E3,3.5384724E1,1.8806914E3,5.215666E1,1.4347126E1,1.5751044E3,2.963887E2,2.3439487E3,8.453073E2,8.330822E2,2.4306076E1,1.1078649E1,1.7601758E3,1.2051567E2,1.5522578E3,2.2846575E1,2.7143762E2,2.4951052E1,1.1659537E2,2.2273533E3],"tree_param":{"num_deleted":"0","num_feature":"53","num_nodes":"27","size_leaf_vector":"1"}},{"base_weights":[7.1958597E-3,-5.4956127E-2,1.600802E-1,-5.775314E-2,5.440065E-1,-2.0480709E-1,5.451526E-1,2.1472042E-2,7.0690453E-1,3.2983862E-3,-2.5790317E-2,3.2189198E-2,-2.6429726E-2,7.749031E-3,-9.7275965E-2,3.6258288E-2,-7.4245736E-2],"categories":[],"categories_nodes":[],"categories_segments":[],"categories_sizes":[],"default_left":[0,0,0,0,0,0,0,0,0,0,0,0,0,0,0,0,0],"id":36,"left_children":[1,-1,3,5,7,9,11,13,15,-1,-1,-1,-1,-1,-1,-1,-1],"loss_changes":[1.3254375E3,0E0,5.7592566E2,3.8962262E2,2.1209546E2,2.9759918E2,9.1607056E1,1.560079E2,7.7055115E1,0E0,0E0,0E0,0E0,0E0,0E0,0E0,0E0],"parents":[2147483647,0,0,2,2,3,3,4,4,5,5,6,6,7,7,8,8],"right_children":[2,-1,4,6,8,10,12,14,16,-1,-1,-1,-1,-1,-1,-1,-1],"split_conditions":[1.8E1,-5.4956127E-2,2.2946E0,1.3812896E1,4E0,2.1E1,4.4E-2,4.1675258E-1,2.4E1,3.2983862E-3,-2.5790317E-2,3.2189198E-2,-2.6429726E-2,7.749031E-3,-9.7275965E-2,3.6258288E-2,-7.4245736E-2],"split_indices":[0,0,36,31,6,0,42,28,0,0,0,0,0,0,0,0,0],"split_type":[0,0,0,0,0,0,0,0,0,0,0,0,0,0,0,0,0],"sum_hessian":[7.834907E3,9.504335E2,6.8844736E3,4.392712E3,2.4917617E3,3.5320422E3,8.606696E2,5.926001E2,1.8991616E3,1.8883749E3,1.6436674E3,7.887141E2,7.195546E1,5.558445E2,3.675562E1,1.8841783E3,1.4983292E1],"tree_param":{"num_deleted":"0","num_feature":"53","num_nodes":"17","size_leaf_vector":"1"}},{"base_weights":[-1.136622E-2,-5.4683864E-2,1.3367712E-1,3.287588E-1,-2.954315E-1,-2.1852039E-1,4.7152174E-1,-6.168182E-1,2.496051E-1,-3.7831422E-2,1.461982E-2,3.0633895E-2,-4.9128206E-3,-2.1639666E-2,-8.839309E-2,6.521859E-2,-7.3458194E-3],"categories":[],"categories_nodes":[],"categories_segments":[],"categories_sizes":[],"default_left":[0,0,0,0,0,0,0,0,0,0,0,0,0,0,0,0,0],"id":37,"left_children":[1,-1,3,5,7,9,11,13,15,-1,-1,-1,-1,-1,-1,-1,-1],"loss_changes":[1.2033754E3,0E0,5.659248E2,3.632329E2,3.7029688E2,2.6475815E2,2.9659528E2,2.8063797E2,3.2834528E2,0E0,0E0,0E0,0E0,0E0,0E0,0E0,0E0],"parents":[2147483647,0,0,2,2,3,3,4,4,5,5,6,6,7,7,8,8],"right_children":[2,-1,4,6,8,10,12,14,16,-1,-1,-1,-1,-1,-1,-1,-1],"split_conditions":[1.8E1,-5.4683864E-2,4E-2,6.335E-1,7.4E1,-1.46E-2,2.2E1,7.31E1,7.41E1,-3.7831422E-2,1.461982E-2,3.0633895E-2,-4.9128206E-3,-2.1639666E-2,-8.839309E-2,6.521859E-2,-7.3458194E-3],"split_indices":[0,0,42,36,34,40,0,34,34,0,0,0,0,0,0,0,0],"split_type":[0,0,0,0,0,0,0,0,0,0,0,0,0,0,0,0,0],"sum_hessian":[7.6631465E3,9.049055E2,6.7582407E3,4.646371E3,2.1118696E3,9.610339E2,3.6853374E3,1.3285359E3,7.8333374E2,4.6792276E2,4.9311108E2,2.953693E3,7.3164417E2,1.1466727E3,1.8186319E2,2.1346608E2,5.698677E2],"tree_param":{"num_deleted":"0","num_feature":"53","num_nodes":"17","size_leaf_vector":"1"}},{"base_weights":[6.7798086E-3,-2.3351228E-1,4.1491547E-1,-4.700982E-1,4.3805363E-3,7.24618E-1,1.8999831E-1,-2.0192972E-1,-1.587135E0,1.2923443E0,-2.8926978E-1,7.707513E-1,-9.006387E-1,-7.590361E-1,2.720537E-1,-2.5006229E-2,5.440548E-2,-6.914755E-2,-8.9525916E-2,1.0963559E-1,5.8411103E-2,-7.925096E-2,3.6432669E-3,-8.621179E-2,3.9301835E-2,-1.2292536E-1,1.5907295E-2,-1.20414365E-2,-8.7910436E-2,1.897853E-2,-3.2965146E-2],"categories":[],"categories_nodes":[],"categories_segments":[],"categories_sizes":[],"default_left":[0,0,0,0,0,0,0,0,0,0,0,0,0,0,0,0,0,0,0,0,0,0,0,0,0,0,0,0,0,0,0],"id":38,"left_children":[1,3,5,7,9,11,13,15,17,19,21,23,25,27,29,-1,-1,-1,-1,-1,-1,-1,-1,-1,-1,-1,-1,-1,-1,-1,-1],"loss_changes":[7.482082E2,2.7030054E2,1.9671179E2,7.2073755E2,9.063033E2,8.982355E1,1.2782114E2,7.4784845E2,1.65542E1,4.6824768E1,9.158014E2,4.537384E1,6.4065994E1,6.7014084E1,1.5140256E2,0E0,0E0,0E0,0E0,0E0,0E0,0E0,0E0,0E0,0E0,0E0,0E0,0E0,0E0,0E0,0E0],"parents":[2147483647,0,0,1,1,2,2,3,3,4,4,5,5,6,6,7,7,8,8,9,9,10,10,11,11,12,12,13,13,14,14],"right_children":[2,4,6,8,10,12,14,16,18,20,22,24,26,28,30,-1,-1,-1,-1,-1,-1,-1,-1,-1,-1,-1,-1,-1,-1,-1,-1],"split_conditions":[5.5E1,7.3E1,-5.12E-2,7.21E1,7.31E1,7.51E1,2.44E1,7.2E1,-1.49E-1,2E0,7.4E1,3.0237955E1,5E1,6.7E-3,2.98E1,-2.5006229E-2,5.440548E-2,-6.914755E-2,-8.9525916E-2,1.0963559E-1,5.8411103E-2,-7.925096E-2,3.6432669E-3,-8.621179E-2,3.9301835E-2,-1.2292536E-1,1.5907295E-2,-1.20414365E-2,-8.7910436E-2,1.897853E-2,-3.2965146E-2],"split_indices":[4,34,50,34,34,34,35,34,40,9,34,30,10,50,35,0,0,0,0,0,0,0,0,0,0,0,0,0,0,0,0],"split_type":[0,0,0,0,0,0,0,0,0,0,0,0,0,0,0,0,0,0,0,0,0,0,0,0,0,0,0,0,0,0,0],"sum_hessian":[7.6270176E3,4.800739E3,2.8262783E3,2.4067024E3,2.3940366E3,1.1879075E3,1.6383708E3,1.9418018E3,4.6490057E2,4.439205E2,1.9501161E3,1.1556903E3,3.2217247E1,1.2962999E2,1.5087408E3,1.577784E3,3.6401773E2,2.3613113E2,2.2876944E2,5.1666542E1,3.9225397E2,4.2529056E2,1.5248256E3,6.316508E0,1.1493738E3,1.3730978E1,1.8486269E1,8.624255E1,4.3387432E1,1.353223E3,1.5551784E2],"tree_param":{"num_deleted":"0","num_feature":"53","num_nodes":"31","size_leaf_vector":"1"}},{"base_weights":[1.8149035E-2,-5.4326694E-2,1.5693212E-1,-7.181885E-1,2.3931128E-1,1.3086215E-1,-1.0084237E0,2.868083E-1,-1.4459614E0,-8.749256E-2,2.4097838E-2,4.2127236E-4,-5.885045E-2,5.9076254E-3,3.0650077E-2,-8.767537E-2,4.9018864E-2],"categories":[],"categories_nodes":[],"categories_segments":[],"categories_sizes":[],"default_left":[0,0,0,0,0,0,0,0,0,0,0,0,0,0,0,0,0],"id":39,"left_children":[1,-1,3,5,7,9,11,13,15,-1,-1,-1,-1,-1,-1,-1,-1],"loss_changes":[1.1656664E3,0E0,4.8711578E2,1.434739E2,4.9456662E2,9.903158E1,7.442938E1,3.302968E2,1.2817963E2,0E0,0E0,0E0,0E0,0E0,0E0,0E0,0E0],"parents":[2147483647,0,0,2,2,3,3,4,4,5,5,6,6,7,7,8,8],"right_children":[2,-1,4,6,8,10,12,14,16,-1,-1,-1,-1,-1,-1,-1,-1],"split_conditions":[1.8E1,-5.4326694E-2,2.44E1,-5.48E-2,3.17E1,2.3E1,2.5E-1,6E1,2.83E-1,-8.749256E-2,2.4097838E-2,4.2127236E-4,-5.885045E-2,5.9076254E-3,3.0650077E-2,-8.767537E-2,4.9018864E-2],"split_indices":[0,0,35,50,35,35,22,4,48,0,0,0,0,0,0,0,0],"split_type":[0,0,0,0,0,0,0,0,0,0,0,0,0,0,0,0,0],"sum_hessian":[7.601759E3,8.475887E2,6.7541704E3,5.803313E2,6.173839E3,1.478926E2,4.3243872E2,6.005472E3,1.6836662E2,2.2594028E1,1.2529857E2,6.154956E1,3.7088916E2,3.9597705E3,2.0457017E3,1.4970905E2,1.8657576E1],"tree_param":{"num_deleted":"0","num_feature":"53","num_nodes":"17","size_leaf_vector":"1"}},{"base_weights":[9.30511E-5,-5.408902E-2,1.3249189E-1,4.701828E-1,-1.1627412E-1,-6.645184E-1,5.220268E-1,-3.5216716E-1,2.9967794E-1,6.621716E-3,-6.920786E-2,2.7682548E-2,-5.7843138E-2,-8.207518E-3,-8.9862294E-2,6.188149E-2,-3.0004594E-3],"categories":[],"categories_nodes":[],"categories_segments":[],"categories_sizes":[],"default_left":[0,0,0,0,0,0,0,0,0,0,0,0,0,0,0,0,0],"id":40,"left_children":[1,-1,3,5,7,9,11,13,15,-1,-1,-1,-1,-1,-1,-1,-1],"loss_changes":[1.0644299E3,0E0,5.5634174E2,1.6558704E2,3.7428558E2,7.0906235E1,1.4324463E2,6.608303E2,4.6590036E2,0E0,0E0,0E0,0E0,0E0,0E0,0E0,0E0],"parents":[2147483647,0,0,2,2,3,3,4,4,5,5,6,6,7,7,8,8],"right_children":[2,-1,4,6,8,10,12,14,16,-1,-1,-1,-1,-1,-1,-1,-1],"split_conditions":[1.8E1,-5.408902E-2,-1.5E-2,-1.797E-1,7.4E1,2.6200104E-1,3.13E1,7.31E1,7.41E1,6.621716E-3,-6.920786E-2,2.7682548E-2,-5.7843138E-2,-8.207518E-3,-8.9862294E-2,6.188149E-2,-3.0004594E-3],"split_indices":[0,0,50,43,34,28,35,34,34,0,0,0,0,0,0,0,0],"split_type":[0,0,0,0,0,0,0,0,0,0,0,0,0,0,0,0,0],"sum_hessian":[7.4298203E3,8.092503E2,6.62057E3,2.808137E3,3.812433E3,1.2209595E2,2.686041E3,2.4330215E3,1.3794115E3,5.825707E1,6.3838875E1,2.6370974E3,4.894356E1,2.1539565E3,2.7906494E2,3.817538E2,9.976577E2],"tree_param":{"num_deleted":"0","num_feature":"53","num_nodes":"17","size_leaf_vector":"1"}},{"base_weights":[-1.4945629E-2,-5.3865213E-2,1.1015028E-1,-5.1914267E-2,5.7592493E-1,8.033816E-2,-5.6660664E-1,-5.980534E-1,6.784594E-1,-1.339037E-2,1.2232136E-2,4.8053905E-2,-3.259426E-2,-4.183032E-2,6.7789726E-2,4.077265E-2,1.6142488E-2],"categories":[],"categories_nodes":[],"categories_segments":[],"categories_sizes":[],"default_left":[0,0,0,0,0,0,0,0,0,0,0,0,0,0,0,0,0],"id":41,"left_children":[1,-1,3,5,7,9,11,13,15,-1,-1,-1,-1,-1,-1,-1,-1],"loss_changes":[9.787656E2,0E0,4.974082E2,3.3284824E2,2.0515674E2,2.2257013E2,1.3082312E2,6.497299E1,7.585516E1,0E0,0E0,0E0,0E0,0E0,0E0,0E0,0E0],"parents":[2147483647,0,0,2,2,3,3,4,4,5,5,6,6,7,7,8,8],"right_children":[2,-1,4,6,8,10,12,14,16,-1,-1,-1,-1,-1,-1,-1,-1],"split_conditions":[1.8E1,-5.3865213E-2,7.05E-2,2.2E1,9E0,-1.077E-1,7.4074075E-2,5.2E-1,2.2E1,-1.339037E-2,1.2232136E-2,4.8053905E-2,-3.259426E-2,-4.183032E-2,6.7789726E-2,4.077265E-2,1.6142488E-2],"split_indices":[0,0,46,0,11,43,21,21,0,0,0,0,0,0,0,0,0],"split_type":[0,0,0,0,0,0,0,0,0,0,0,0,0,0,0,0,0],"sum_hessian":[7.3622383E3,7.748791E2,6.587359E3,4.8874595E3,1.6998995E3,3.8888518E3,9.9860767E2,1.3607607E2,1.5638234E3,1.2464678E3,2.642384E3,5.219213E1,9.464156E2,1.2182497E2,1.4251095E1,1.1277856E3,4.3603778E2],"tree_param":{"num_deleted":"0","num_feature":"53","num_nodes":"17","size_leaf_vector":"1"}},{"base_weights":[1.7785491E-2,-5.3660717E-2,1.4020014E-1,-5.468613E-2,4.973705E-1,1.4655167E-1,-4.163187E-1,2.216576E-1,7.366973E-1,-8.456054E-3,2.18086E-2,-5.1263757E-2,-7.973183E-3,1.3692187E-2,-6.7862116E-2,-8.841325E-2,3.7860952E-2],"categories":[],"categories_nodes":[],"categories_segments":[],"categories_sizes":[],"default_left":[0,0,0,0,0,0,0,0,0,0,0,0,0,0,0,0,0],"id":42,"left_children":[1,-1,3,5,7,9,11,13,15,-1,-1,-1,-1,-1,-1,-1,-1],"loss_changes":[9.873139E2,0E0,4.6277997E2,3.131226E2,1.5460413E2,2.5281415E2,2.4032846E2,9.025597E1,6.579065E1,0E0,0E0,0E0,0E0,0E0,0E0,0E0,0E0],"parents":[2147483647,0,0,2,2,3,3,4,4,5,5,6,6,7,7,8,8],"right_children":[2,-1,4,6,8,10,12,14,16,-1,-1,-1,-1,-1,-1,-1,-1],"split_conditions":[1.8E1,-5.3660717E-2,2.2946E0,3.28E-2,2.1E1,1.7021276E-1,7.2E1,3.13E1,-2.486E-1,-8.456054E-3,2.18086E-2,-5.1263757E-2,-7.973183E-3,1.3692187E-2,-6.7862116E-2,-8.841325E-2,3.7860952E-2],"split_indices":[0,0,36,42,11,25,34,35,38,0,0,0,0,0,0,0,0],"split_type":[0,0,0,0,0,0,0,0,0,0,0,0,0,0,0,0,0],"sum_hessian":[7.3911724E3,7.447883E2,6.646384E3,4.3004536E3,2.3459302E3,2.763157E3,1.5372966E3,1.0911876E3,1.2547427E3,1.3221478E3,1.4410092E3,4.5505743E2,1.0822391E3,1.0571368E3,3.405081E1,9.464202E0,1.2452784E3],"tree_param":{"num_deleted":"0","num_feature":"53","num_nodes":"17","size_leaf_vector":"1"}},{"base_weights":[4.556663E-3,-3.1469107E-1,2.539748E-1,-1.0964607E0,-2.2347318E-1,-2.9772875E-1,4.295763E-1,9.804846E-2,-1.2137557E0,-5.481085E-1,1.346764E-1,-5.317616E-1,2.6378995E-1,3.2341695E-1,8.590967E-1,-6.387977E-2,5.4687764E-2,-2.2603624E-2,-6.8981E-2,-1.5947748E-2,-7.4136175E-2,6.969544E-2,-8.96212E-3,-3.939142E-2,-2.2787792E-3,1.8181661E-2,-1.21938325E-1,2.0402474E-2,-2.6444463E-2,-8.8727646E-2,4.4041302E-2],"categories":[],"categories_nodes":[],"categories_segments":[],"categories_sizes":[],"default_left":[0,0,0,0,0,0,0,0,0,0,0,0,0,0,0,0,0,0,0,0,0,0,0,0,0,0,0,0,0,0,0],"id":43,"left_children":[1,3,5,7,9,11,13,15,17,19,21,23,25,27,29,-1,-1,-1,-1,-1,-1,-1,-1,-1,-1,-1,-1,-1,-1,-1,-1],"loss_changes":[5.7617474E2,2.2593597E2,3.9371408E2,4.6639923E1,3.3070615E2,1.2912396E2,1.4014386E2,4.3110058E1,3.7317444E1,3.1884683E2,5.350301E2,8.616704E1,7.872001E1,1.7859903E2,3.638382E1,0E0,0E0,0E0,0E0,0E0,0E0,0E0,0E0,0E0,0E0,0E0,0E0,0E0,0E0,0E0,0E0],"parents":[2147483647,0,0,1,1,2,2,3,3,4,4,5,5,6,6,7,7,8,8,9,9,10,10,11,11,12,12,13,13,14,14],"right_children":[2,4,6,8,10,12,14,16,18,20,22,24,26,28,30,-1,-1,-1,-1,-1,-1,-1,-1,-1,-1,-1,-1,-1,-1,-1,-1],"split_conditions":[2.6E1,2.43E1,6.666E-1,9.282701E-2,7.3E1,1.6094055E1,1.863E-1,4E0,1.6216215E-1,7.21E1,7.31E1,7.4E1,3.07E1,2.96E1,2.37E1,-6.387977E-2,5.4687764E-2,-2.2603624E-2,-6.8981E-2,-1.5947748E-2,-7.4136175E-2,6.969544E-2,-8.96212E-3,-3.939142E-2,-2.2787792E-3,1.8181661E-2,-1.21938325E-1,2.0402474E-2,-2.6444463E-2,-8.8727646E-2,4.4041302E-2],"split_indices":[9,35,36,21,34,31,48,5,23,34,34,34,35,35,35,0,0,0,0,0,0,0,0,0,0,0,0,0,0,0,0],"split_type":[0,0,0,0,0,0,0,0,0,0,0,0,0,0,0,0,0,0,0,0,0,0,0,0,0,0,0,0,0,0,0],"sum_hessian":[7.234069E3,3.1725886E3,4.0614805E3,3.302356E2,2.842353E3,9.803039E2,3.0811768E3,2.946646E1,3.0076917E2,1.4908026E3,1.3515504E3,6.920843E2,2.882196E2,2.472151E3,6.0902576E2,1.2211633E1,1.7254826E1,5.4557625E1,2.4621153E2,1.198417E3,2.9238562E2,2.6907587E2,1.0824745E3,4.527838E2,2.3930046E2,2.788213E2,9.398324E0,2.2494255E3,2.2272542E2,4.2859683E0,6.047398E2],"tree_param":{"num_deleted":"0","num_feature":"53","num_nodes":"31","size_leaf_vector":"1"}},{"base_weights":[-8.10312E-3,-5.3397488E-2,1.0653734E-1,-6.997647E-1,1.7998534E-1,-9.486741E-1,5.392042E-1,2.2369848E-1,-1.237908E0,3.9564837E-2,-5.513633E-2,-1.1655288E-1,3.6796656E-2,-2.7289668E-2,1.4583941E-2,-8.081242E-2,1.7870147E-2],"categories":[],"categories_nodes":[],"categories_segments":[],"categories_sizes":[],"default_left":[0,0,0,0,0,0,0,0,0,0,0,0,0,0,0,0,0],"id":44,"left_children":[1,-1,3,5,7,9,11,13,15,-1,-1,-1,-1,-1,-1,-1,-1],"loss_changes":[8.671867E2,0E0,3.8145105E2,1.6638608E2,3.660547E2,1.2104468E2,5.267466E1,2.9974084E2,1.07314026E2,0E0,0E0,0E0,0E0,0E0,0E0,0E0,0E0],"parents":[2147483647,0,0,2,2,3,3,4,4,5,5,6,6,7,7,8,8],"right_children":[2,-1,4,6,8,10,12,14,16,-1,-1,-1,-1,-1,-1,-1,-1],"split_conditions":[1.8E1,-5.3397488E-2,2.43E1,2.23E2,3.17E1,7.01E1,3E0,-1.797E-1,9.94E-2,3.9564837E-2,-5.513633E-2,-1.1655288E-1,3.6796656E-2,-2.7289668E-2,1.4583941E-2,-8.081242E-2,1.7870147E-2],"split_indices":[0,0,35,2,35,34,16,43,48,0,0,0,0,0,0,0,0],"split_type":[0,0,0,0,0,0,0,0,0,0,0,0,0,0,0,0,0],"sum_hessian":[7.134534E3,6.9566785E2,6.438866E3,5.367383E2,5.902128E3,4.4720886E2,8.952942E1,5.726495E3,1.75633E2,3.598498E1,4.1122388E2,5.0142636E0,8.451515E1,4.6414835E2,5.2623467E3,1.4200497E2,3.362802E1],"tree_param":{"num_deleted":"0","num_feature":"53","num_nodes":"17","size_leaf_vector":"1"}},{"base_weights":[2.4280653E-3,-5.3210437E-2,1.1093415E-1,-6.85507E-2,4.50438E-1,-4.899185E-3,-1.0073764E0,1.3602099E-1,6.889011E-1,-5.3863E-2,2.9346645E-3,-5.7279635E-2,3.5081156E-2,-7.8740045E-2,1.0261465E-2,-9.019114E-2,3.5257567E-2],"categories":[],"categories_nodes":[],"categories_segments":[],"categories_sizes":[],"default_left":[0,0,0,0,0,0,0,0,0,0,0,0,0,0,0,0,0],"id":45,"left_children":[1,-1,3,5,7,9,11,13,15,-1,-1,-1,-1,-1,-1,-1,-1],"loss_changes":[8.2746906E2,0E0,3.9555756E2,2.5364673E2,1.6813821E2,2.7143082E2,6.451068E1,1.1499814E2,5.2858154E1,0E0,0E0,0E0,0E0,0E0,0E0,0E0,0E0],"parents":[2147483647,0,0,2,2,3,3,4,4,5,5,6,6,7,7,8,8],"right_children":[2,-1,4,6,8,10,12,14,16,-1,-1,-1,-1,-1,-1,-1,-1],"split_conditions":[1.8E1,-5.3210437E-2,2.2946E0,3.06E1,2E1,2.37E1,6.1E1,-2.306E-1,2.23E1,-5.3863E-2,2.9346645E-3,-5.7279635E-2,3.5081156E-2,-7.8740045E-2,1.0261465E-2,-9.019114E-2,3.5257567E-2],"split_indices":[0,0,36,35,11,35,10,43,35,0,0,0,0,0,0,0,0],"split_type":[0,0,0,0,0,0,0,0,0,0,0,0,0,0,0,0,0],"sum_hessian":[7.1483936E3,6.591441E2,6.4892495E3,4.2453643E3,2.243885E3,3.976849E3,2.6851495E2,9.6866986E2,1.2752152E3,2.2182603E2,3.7550232E3,2.487827E2,1.9732254E1,3.6760277E1,9.319096E2,7.5070405E0,1.2677081E3],"tree_param":{"num_deleted":"0","num_feature":"53","num_nodes":"17","size_leaf_vector":"1"}},{"base_weights":[2.3963805E-2,-5.3042214E-2,1.2989828E-1,-6.6362E-1,2.0027144E-1,-3.509844E-1,-1.5478904E0,2.6231596E-1,-7.1140295E-1,2.4026488E-3,-5.0446182E-2,-8.102689E-2,6.0070696E-4,-7.4498295E-3,1.910366E-2,-4.880671E-2,1.8314121E-2],"categories":[],"categories_nodes":[],"categories_segments":[],"categories_sizes":[],"default_left":[0,0,0,0,0,0,0,0,0,0,0,0,0,0,0,0,0],"id":46,"left_children":[1,-1,3,5,7,9,11,13,15,-1,-1,-1,-1,-1,-1,-1,-1],"loss_changes":[8.147815E2,0E0,3.6082437E2,1.4477754E2,3.3582767E2,1.0259899E2,1.571759E1,2.7381818E2,1.0835007E2,0E0,0E0,0E0,0E0,0E0,0E0,0E0,0E0],"parents":[2147483647,0,0,2,2,3,3,4,4,5,5,6,6,7,7,8,8],"right_children":[2,-1,4,6,8,10,12,14,16,-1,-1,-1,-1,-1,-1,-1,-1],"split_conditions":[1.8E1,-5.3042214E-2,2.43E1,7.51E1,3.06E1,1.61E-2,2.87E2,-1.077E-1,2.9758E0,2.4026488E-3,-5.0446182E-2,-8.102689E-2,6.0070696E-4,-7.4498295E-3,1.910366E-2,-4.880671E-2,1.8314121E-2],"split_indices":[0,0,35,34,35,50,3,43,36,0,0,0,0,0,0,0,0],"split_type":[0,0,0,0,0,0,0,0,0,0,0,0,0,0,0,0,0],"sum_hessian":[7.088687E3,6.297594E2,6.4589272E3,5.2534607E2,5.9335815E3,3.8923962E2,1.3610645E2,5.5562686E3,3.7731296E2,2.427735E2,1.4646613E2,1.3007393E2,6.0325255E0,1.2527054E3,4.303563E3,3.030551E2,7.425785E1],"tree_param":{"num_deleted":"0","num_feature":"53","num_nodes":"17","size_leaf_vector":"1"}},{"base_weights":[3.5240636E-3,-5.287342E-2,1.037325E-1,4.587189E-1,-4.9150877E-2,-2.9135508E-2,6.023498E-1,1.8466592E-1,-3.2928288E-1,-2.415928E-2,1.8757058E-2,3.115484E-2,-1.0408421E-1,-1.260301E-2,1.9034574E-2,-2.5379116E-2,1.6265672E-2],"categories":[],"categories_nodes":[],"categories_segments":[],"categories_sizes":[],"default_left":[0,0,0,0,0,0,0,0,0,0,0,0,0,0,0,0,0],"id":47,"left_children":[1,-1,3,5,7,9,11,13,15,-1,-1,-1,-1,-1,-1,-1,-1],"loss_changes":[7.37557E2,0E0,3.4410892E2,1.338135E2,2.9035107E2,8.002475E1,8.327106E1,2.0694064E2,2.3556415E2,0E0,0E0,0E0,0E0,0E0,0E0,0E0,0E0],"parents":[2147483647,0,0,2,2,3,3,4,4,5,5,6,6,7,7,8,8],"right_children":[2,-1,4,6,8,10,12,14,16,-1,-1,-1,-1,-1,-1,-1,-1],"split_conditions":[1.8E1,-5.287342E-2,-4.24E-2,2.5E1,2.1E1,-4.6E-3,2.4E1,-1.032E-1,1.3E1,-2.415928E-2,1.8757058E-2,3.115484E-2,-1.0408421E-1,-1.260301E-2,1.9034574E-2,-2.5379116E-2,1.6265672E-2],"split_indices":[0,0,50,9,0,49,0,43,8,0,0,0,0,0,0,0,0],"split_type":[0,0,0,0,0,0,0,0,0,0,0,0,0,0,0,0,0],"sum_hessian":[6.9359824E3,5.976456E2,6.338337E3,1.9076158E3,4.430721E3,4.339089E2,1.4737069E3,2.414992E3,2.015729E3,2.0439806E2,2.2951083E2,1.4632019E3,1.0505109E1,7.4791437E2,1.6670775E3,1.584515E3,4.3121402E2],"tree_param":{"num_deleted":"0","num_feature":"53","num_nodes":"17","size_leaf_vector":"1"}},{"base_weights":[-1.713018E-2,-5.2713793E-2,7.809555E-2,-2.9410925E-2,6.502883E-1,1.0260731E-1,-5.565527E-1,7.23255E-1,-3.0526778E-1,-2.0413904E-2,1.1581899E-2,6.459611E-2,-3.0794619E-2,-6.148106E-2,3.7383236E-2,-1.281296E-1,1.8239295E-2],"categories":[],"categories_nodes":[],"categories_segments":[],"categories_sizes":[],"default_left":[0,0,0,0,0,0,0,0,0,0,0,0,0,0,0,0,0],"id":48,"left_children":[1,-1,3,5,7,9,11,13,15,-1,-1,-1,-1,-1,-1,-1,-1],"loss_changes":[6.751807E2,0E0,3.8520163E2,3.669396E2,6.93186E1,2.780074E2,1.1656299E2,4.4753174E1,1.0834711E2,0E0,0E0,0E0,0E0,0E0,0E0,0E0,0E0],"parents":[2147483647,0,0,2,2,3,3,4,4,5,5,6,6,7,7,8,8],"right_children":[2,-1,4,6,8,10,12,14,16,-1,-1,-1,-1,-1,-1,-1,-1],"split_conditions":[1.8E1,-5.2713793E-2,5.774803E1,2.2E1,4.4E-2,6.335E-1,2E0,-9.74E-2,7.461E-1,-2.0413904E-2,1.1581899E-2,6.459611E-2,-3.0794619E-2,-6.148106E-2,3.7383236E-2,-1.281296E-1,1.8239295E-2],"split_indices":[0,0,30,0,42,36,3,40,36,0,0,0,0,0,0,0,0],"split_type":[0,0,0,0,0,0,0,0,0,0,0,0,0,0,0,0,0],"sum_hessian":[6.833555E3,5.739029E2,6.2596523E3,5.270229E3,9.8942346E2,4.2151865E3,1.0550424E3,9.195537E2,6.986977E1,8.493443E2,3.3658423E3,3.2116962E1,1.0229254E3,1.0691844E1,9.088619E2,1.5380301E1,5.4489468E1],"tree_param":{"num_deleted":"0","num_feature":"53","num_nodes":"17","size_leaf_vector":"1"}},{"base_weights":[1.8438244E-2,-2.7011505E-1,2.3064382E-1,-6.8974274E-1,-4.245666E-2,6.4796386E-3,4.9360305E-1,2.3606148E-1,-8.4594965E-1,-1.0192329E0,5.7612866E-2,-1.5861589E-1,3.3103368E-1,3.5013047E-1,8.216821E-1,-4.5829207E-2,4.96711E-2,-4.7448065E-2,-7.907913E-3,-6.9005154E-2,-1.9839419E-2,-3.001918E-3,3.6707696E-2,1.5277672E-4,-8.866763E-2,6.2174756E-2,-3.6029317E-3,2.6116198E-2,-5.185004E-3,-4.3024264E-2,4.1877832E-2],"categories":[],"categories_nodes":[],"categories_segments":[],"categories_sizes":[],"default_left":[0,0,0,0,0,0,0,0,0,0,0,0,0,0,0,0,0,0,0,0,0,0,0,0,0,0,0,0,0,0,0],"id":49,"left_children":[1,3,5,7,9,11,13,15,17,19,21,23,25,27,29,-1,-1,-1,-1,-1,-1,-1,-1,-1,-1,-1,-1,-1,-1,-1,-1],"loss_changes":[4.2510593E2,2.8093817E2,2.3577026E2,1.4986209E2,1.866914E2,1.1585388E2,8.624255E1,1.3189178E2,6.2472717E1,3.9142776E1,1.3796356E2,3.7421246E2,2.683769E2,1.0033348E2,1.5648926E1,0E0,0E0,0E0,0E0,0E0,0E0,0E0,0E0,0E0,0E0,0E0,0E0,0E0,0E0,0E0,0E0],"parents":[2147483647,0,0,1,1,2,2,3,3,4,4,5,5,6,6,7,7,8,8,9,9,10,10,11,11,12,12,13,13,14,14],"right_children":[2,4,6,8,10,12,14,16,18,20,22,24,26,28,30,-1,-1,-1,-1,-1,-1,-1,-1,-1,-1,-1,-1,-1,-1,-1,-1],"split_conditions":[1.101E0,-8.57E-2,2.1E1,1E0,-4.2E-2,7.4E1,2.118E-1,7.3E1,5.9E1,8.841E-1,1.1481482E0,7.31E1,7.41E1,7.31E1,-1.7747175E0,-4.5829207E-2,4.96711E-2,-4.7448065E-2,-7.907913E-3,-6.9005154E-2,-1.9839419E-2,-3.001918E-3,3.6707696E-2,1.5277672E-4,-8.866763E-2,6.2174756E-2,-3.6029317E-3,2.6116198E-2,-5.185004E-3,-4.3024264E-2,4.1877832E-2],"split_indices":[36,43,11,9,47,34,46,34,4,36,33,34,34,34,32,0,0,0,0,0,0,0,0,0,0,0,0,0,0,0,0],"split_type":[0,0,0,0,0,0,0,0,0,0,0,0,0,0,0,0,0,0,0,0,0,0,0,0,0,0,0,0,0,0,0],"sum_hessian":[6.9405225E3,2.940856E3,3.9996667E3,1.0334664E3,1.9073894E3,2.1598608E3,1.8398059E3,1.4903242E2,8.8443396E2,1.7648991E2,1.7308995E3,1.4317535E3,7.2810724E2,1.2816835E3,5.581224E2,5.8958996E1,9.007342E1,7.6876904E2,1.1566491E2,1.1084703E2,6.5642876E1,1.4751354E3,2.5576422E2,1.3023002E3,1.2945332E2,2.2253293E2,5.055743E2,9.291953E2,3.5248822E2,4.661428E0,5.53461E2],"tree_param":{"num_deleted":"0","num_feature":"53","num_nodes":"31","size_leaf_vector":"1"}},{"base_weights":[2.63013E-3,-1.6576111E-1,3.5997838E-1,-8.9891315E-1,-8.7268986E-2,-5.6645427E-2,5.4431283E-1,-1.0578668E0,4.2002448E-1,-1.4032098E-2,-1.0619954E0,-3.7547866E-1,4.6044126E-1,-8.6637765E-2,5.734708E-1,-3.1831197E-2,-6.798487E-2,4.4474293E-2,-9.449963E-2,-1.966678E-2,6.7388155E-3,-6.0074765E-2,3.5561845E-2,-9.579987E-3,-8.462595E-2,-1.2248407E-2,4.5122672E-2,-6.217068E-2,3.0090827E-2],"categories":[],"categories_nodes":[],"categories_segments":[],"categories_sizes":[],"default_left":[0,0,0,0,0,0,0,0,0,0,0,0,0,0,0,0,0,0,0,0,0,0,0,0,0,0,0,0,0],"id":50,"left_children":[1,3,5,7,9,11,13,15,17,19,21,23,25,-1,27,-1,-1,-1,-1,-1,-1,-1,-1,-1,-1,-1,-1,-1,-1],"loss_changes":[4.0774948E2,2.6484732E2,1.6676544E2,9.383267E1,2.969313E2,1.1004454E2,1.0079846E2,4.9489655E1,5.4205086E1,2.1860226E2,7.281262E1,9.949368E1,7.9651886E1,0E0,7.725177E1,0E0,0E0,0E0,0E0,0E0,0E0,0E0,0E0,0E0,0E0,0E0,0E0,0E0,0E0],"parents":[2147483647,0,0,1,1,2,2,3,3,4,4,5,5,6,6,7,7,8,8,9,9,10,10,11,11,12,12,14,14],"right_children":[2,4,6,8,10,12,14,16,18,20,22,24,26,-1,28,-1,-1,-1,-1,-1,-1,-1,-1,-1,-1,-1,-1,-1,-1],"split_conditions":[2.2946E0,2.44E1,1.3E1,2.26E2,3.07E1,7.4E1,-2.532E-1,3.448276E-1,4.6E1,-1.7991657E0,1.067E-1,7.31E1,-9.838643E-3,-8.6637765E-2,2.3E1,-3.1831197E-2,-6.798487E-2,4.4474293E-2,-9.449963E-2,-1.966678E-2,6.7388155E-3,-6.0074765E-2,3.5561845E-2,-9.579987E-3,-8.462595E-2,-1.2248407E-2,4.5122672E-2,-6.217068E-2,3.0090827E-2],"split_indices":[36,35,11,2,35,34,45,23,10,31,45,34,32,0,35,0,0,0,0,0,0,0,0,0,0,0,0,0,0],"split_type":[0,0,0,0,0,0,0,0,0,0,0,0,0,0,0,0,0,0,0,0,0,0,0,0,0,0,0,0,0],"sum_hessian":[6.7738237E3,4.6043823E3,2.1694414E3,4.441446E2,4.160238E3,6.65488E2,1.5039534E3,3.9661923E2,4.7525375E1,3.8705388E3,2.8969922E2,4.1194925E2,2.5353874E2,1.8232618E1,1.4857208E3,1.669959E2,2.2962334E2,4.004527E1,7.480107E0,1.090345E3,2.7801936E3,2.6892197E2,2.0777239E1,3.6255276E2,4.9396492E1,9.775331E1,1.5578543E2,2.2110428E1,1.4636104E3],"tree_param":{"num_deleted":"0","num_feature":"53","num_nodes":"29","size_leaf_vector":"1"}},{"base_weights":[-1.8410948E-3,-5.248962E-2,8.856615E-2,-8.926348E-3,5.969516E-1,5.5079132E-2,-9.6392465E-1,7.6207584E-1,2.3857139E-1,6.734814E-3,-2.266964E-2,1.0136622E-2,-5.651454E-2,1.8880295E-2,4.3608703E-2,1.904869E-2,-7.2230294E-2],"categories":[],"categories_nodes":[],"categories_segments":[],"categories_sizes":[],"default_left":[0,0,0,0,0,0,0,0,0,0,0,0,0,0,0,0,0],"id":51,"left_children":[1,-1,3,5,7,9,11,13,15,-1,-1,-1,-1,-1,-1,-1,-1],"loss_changes":[6.323402E2,0E0,3.0454636E2,3.152774E2,5.822644E1,1.956663E2,6.3204224E1,2.816858E1,7.558683E1,0E0,0E0,0E0,0E0,0E0,0E0,0E0,0E0],"parents":[2147483647,0,0,2,2,3,3,4,4,5,5,6,6,7,7,8,8],"right_children":[2,-1,4,6,8,10,12,14,16,-1,-1,-1,-1,-1,-1,-1,-1],"split_conditions":[1.8E1,-5.248962E-2,5.685772E1,2.3E1,2.2E1,2.95E1,1.7053572E0,1.24714E1,3.78E-2,6.734814E-3,-2.266964E-2,1.0136622E-2,-5.651454E-2,1.8880295E-2,4.3608703E-2,1.904869E-2,-7.2230294E-2],"split_indices":[0,0,30,0,0,35,26,52,42,0,0,0,0,0,0,0,0],"split_type":[0,0,0,0,0,0,0,0,0,0,0,0,0,0,0,0,0],"sum_hessian":[6.6713164E3,5.2907404E2,6.142242E3,5.1545464E3,9.8769574E2,4.831565E3,3.2298145E2,6.7519366E2,3.1250204E2,4.17826E3,6.533051E2,4.0206947E1,2.8277448E2,1.5149643E2,5.2369727E2,2.8889374E2,2.3608305E1],"tree_param":{"num_deleted":"0","num_feature":"53","num_nodes":"17","size_leaf_vector":"1"}},{"base_weights":[-1.1226686E-2,-5.235563E-2,7.3701315E-2,3.4027955E-1,-1.0918803E-1,2.1123794E-1,7.4640536E-1,-3.2460418E-1,2.6996526E-1,3.0949691E-2,-2.4912666E-4,3.858656E-2,-1.3610867E-1,-7.456028E-3,-8.777778E-2,5.6872994E-2,-2.5410128E-3],"categories":[],"categories_nodes":[],"categories_segments":[],"categories_sizes":[],"default_left":[0,0,0,0,0,0,0,0,0,0,0,0,0,0,0,0,0],"id":52,"left_children":[1,-1,3,5,7,9,11,13,15,-1,-1,-1,-1,-1,-1,-1,-1],"loss_changes":[5.84771E2,0E0,2.9952426E2,1.3075299E2,2.9768057E2,1.6745557E2,5.480368E1,5.8314276E2,3.6762054E2,0E0,0E0,0E0,0E0,0E0,0E0,0E0,0E0],"parents":[2147483647,0,0,2,2,3,3,4,4,5,5,6,6,7,7,8,8],"right_children":[2,-1,4,6,8,10,12,14,16,-1,-1,-1,-1,-1,-1,-1,-1],"split_conditions":[1.8E1,-5.235563E-2,-1.5E-2,5.685772E1,7.4E1,7.11E1,2.4E1,7.31E1,7.41E1,3.0949691E-2,-2.4912666E-4,3.858656E-2,-1.3610867E-1,-7.456028E-3,-8.777778E-2,5.6872994E-2,-2.5410128E-3],"split_indices":[0,0,50,30,34,34,0,34,34,0,0,0,0,0,0,0,0],"split_type":[0,0,0,0,0,0,0,0,0,0,0,0,0,0,0,0,0],"sum_hessian":[6.6439746E3,5.0266803E2,6.1413066E3,2.4987834E3,3.6425232E3,1.8976078E3,6.011757E2,2.3230747E3,1.3194486E3,6.570744E2,1.2405334E3,5.976185E2,3.557174E0,2.0703525E3,2.5272203E2,3.5559235E2,9.6385626E2],"tree_param":{"num_deleted":"0","num_feature":"53","num_nodes":"17","size_leaf_vector":"1"}},{"base_weights":[7.973064E-4,-1.0268361E-1,4.955075E-1,-6.194655E-3,-6.317321E-1,-1.0746213E0,5.9576005E-1,-1.2550404E0,3.9369036E-2,-7.5790274E-1,1.0070525E0,-8.427661E-2,1.2367349E0,6.2635833E-1,-6.450708E-1,5.720196E-2,-6.733662E-2,2.0911513E-2,-4.186645E-3,-2.657193E-2,-6.6110075E-2,6.566944E-2,-8.2399406E-2,8.067062E-2,2.0421445E-2,-2.5974302E-2,3.2684784E-2,-9.657338E-2,1.4382859E-2],"categories":[],"categories_nodes":[],"categories_segments":[],"categories_sizes":[],"default_left":[0,0,0,0,0,0,0,0,0,0,0,0,0,0,0,0,0,0,0,0,0,0,0,0,0,0,0,0,0],"id":53,"left_children":[1,3,5,7,9,11,13,15,17,19,21,-1,23,25,27,-1,-1,-1,-1,-1,-1,-1,-1,-1,-1,-1,-1,-1,-1],"loss_changes":[3.4110693E2,2.8118762E2,1.8203659E2,2.653911E2,1.7642764E2,1.0023558E2,4.1566772E1,3.7675934E1,2.0984029E2,1.00015625E2,5.1837875E1,0E0,3.8399239E0,3.3516327E1,3.2524254E1,0E0,0E0,0E0,0E0,0E0,0E0,0E0,0E0,0E0,0E0,0E0,0E0,0E0,0E0],"parents":[2147483647,0,0,1,1,2,2,3,3,4,4,5,5,6,6,7,7,8,8,9,9,10,10,12,12,13,13,14,14],"right_children":[2,4,6,8,10,12,14,16,18,20,22,-1,24,26,28,-1,-1,-1,-1,-1,-1,-1,-1,-1,-1,-1,-1,-1,-1],"split_conditions":[1.186E-1,2.93E1,2.1E1,2.29E1,7.5E1,5.714286E-1,1.016E-1,-2.0904E0,7.11E1,3.4615386E-1,3.4615386E-1,-8.427661E-2,1.536E-1,2.37E1,4.3E1,5.720196E-2,-6.733662E-2,2.0911513E-2,-4.186645E-3,-2.657193E-2,-6.6110075E-2,6.566944E-2,-8.2399406E-2,8.067062E-2,2.0421445E-2,-2.5974302E-2,3.2684784E-2,-9.657338E-2,1.4382859E-2],"split_indices":[46,35,2,35,34,21,42,46,34,27,27,0,43,35,10,0,0,0,0,0,0,0,0,0,0,0,0,0,0],"split_type":[0,0,0,0,0,0,0,0,0,0,0,0,0,0,0,0,0,0,0,0,0,0,0,0,0,0,0,0,0],"sum_hessian":[6.660386E3,5.5086963E3,1.1516902E3,4.659997E3,8.4869916E2,6.847866E1,1.0832115E3,1.6317648E2,4.496821E3,7.885843E2,6.0114864E1,5.4411316E1,1.4067343E1,1.0577048E3,2.5506693E1,5.544318E0,1.5763217E2,1.102416E3,3.3944045E3,5.642562E2,2.2432808E2,5.4383167E1,5.731697E0,8.935358E0,5.131985E0,2.4141834E1,1.033563E3,1.0315807E1,1.5190885E1],"tree_param":{"num_deleted":"0","num_feature":"53","num_nodes":"29","size_leaf_vector":"1"}},{"base_weights":[1.8834987E-3,-1.5332572E-1,3.3360556E-1,2.5764185E-1,-2.5449184E-1,8.732339E-2,6.095473E-1,-8.93618E-1,3.66395E-1,-1.0951978E0,-2.0391487E-1,-5.647959E-1,2.0279926E-1,-7.1413493E-1,6.8980956E-1,1.2553318E-2,-6.5729134E-2,2.0426115E-2,-9.4682425E-2,-1.4471309E-2,-6.5760575E-2,-5.472516E-3,-3.323044E-2,1.1016967E-2,-5.280111E-2,1.688241E-2,-2.7600363E-2,6.3152933E-3,-8.300928E-2,-8.5854955E-2,3.5237577E-2],"categories":[],"categories_nodes":[],"categories_segments":[],"categories_sizes":[],"default_left":[0,0,0,0,0,0,0,0,0,0,0,0,0,0,0,0,0,0,0,0,0,0,0,0,0,0,0,0,0,0,0],"id":54,"left_children":[1,3,5,7,9,11,13,15,17,19,21,23,25,27,29,-1,-1,-1,-1,-1,-1,-1,-1,-1,-1,-1,-1,-1,-1,-1,-1],"loss_changes":[3.394463E2,1.8678331E2,1.427002E2,1.11386E2,1.5291386E2,8.3803894E1,1.0574979E2,3.744804E1,7.790097E1,3.566037E1,1.4787424E2,6.487756E1,9.6396126E1,4.5732048E1,3.4724457E1,0E0,0E0,0E0,0E0,0E0,0E0,0E0,0E0,0E0,0E0,0E0,0E0,0E0,0E0,0E0,0E0],"parents":[2147483647,0,0,1,1,2,2,3,3,4,4,5,5,6,6,7,7,8,8,9,9,10,10,11,11,12,12,13,13,14,14],"right_children":[2,4,6,8,10,12,14,16,18,20,22,24,26,28,30,-1,-1,-1,-1,-1,-1,-1,-1,-1,-1,-1,-1,-1,-1,-1,-1],"split_conditions":[2.2946E0,1.2820512E-1,-3.85E-2,-1.787E-1,2.37E1,2.5E1,3E0,-2.605E-1,1E-4,5.882353E-2,2.93E1,-2.23E-2,2.95E1,1.1926207E2,2.24E1,1.2553318E-2,-6.5729134E-2,2.0426115E-2,-9.4682425E-2,-1.4471309E-2,-6.5760575E-2,-5.472516E-3,-3.323044E-2,1.1016967E-2,-5.280111E-2,1.688241E-2,-2.7600363E-2,6.3152933E-3,-8.300928E-2,-8.5854955E-2,3.5237577E-2],"split_indices":[36,21,38,43,35,35,6,43,42,20,35,42,35,29,35,0,0,0,0,0,0,0,0,0,0,0,0,0,0,0,0],"split_type":[0,0,0,0,0,0,0,0,0,0,0,0,0,0,0,0,0,0,0,0,0,0,0,0,0,0,0,0,0,0,0],"sum_hessian":[6.590597E3,4.490007E3,2.10059E3,8.8644836E2,3.6035586E3,1.1108334E3,9.8975665E2,7.580809E1,8.1064026E2,2.0320418E2,3.4003545E3,1.6639647E2,9.4443695E2,5.6060745E1,9.336959E2,2.0427586E1,5.538051E1,7.966541E2,1.39861765E1,4.417801E1,1.5902617E2,2.8229648E3,5.773897E2,6.417399E1,1.0222249E2,8.018658E2,1.4257112E2,3.0090292E1,2.5970455E1,5.016481E0,9.2867944E2],"tree_param":{"num_deleted":"0","num_feature":"53","num_nodes":"31","size_leaf_vector":"1"}},{"base_weights":[-7.4295737E-3,-4.1088495E-1,1.2749057E-1,1.7765224E-2,-6.5325E-1,1.8709663E-1,-7.235625E-1,-6.895416E-2,1.2257775E-1,-9.8732764E-1,-4.0891498E-1,-5.337324E-1,2.4887007E-1,1.0748262E-1,-9.463564E-1,-6.2727155E-3,5.0510567E-2,-5.108105E-2,8.386093E-2,-2.2452783E-2,8.160513E-2,-1.2517403E-2,-7.262208E-2,1.4259976E-2,-5.5123664E-2,-7.3920354E-2,2.949901E-2,-5.9793063E-2,9.90235E-3],"categories":[],"categories_nodes":[],"categories_segments":[],"categories_sizes":[],"default_left":[0,0,0,0,0,0,0,0,0,0,0,0,0,0,0,0,0,0,0,0,0,0,0,0,0,0,0,0,0],"id":55,"left_children":[1,3,5,7,9,11,13,-1,15,17,19,21,23,25,27,-1,-1,-1,-1,-1,-1,-1,-1,-1,-1,-1,-1,-1,-1],"loss_changes":[3.5660706E2,1.7064236E2,2.4909802E2,8.698469E1,8.508139E1,2.044198E2,5.9693207E1,0E0,1.2204577E2,4.2057434E1,5.0405754E1,9.3809074E1,2.0775555E2,5.339055E1,7.276187E1,0E0,0E0,0E0,0E0,0E0,0E0,0E0,0E0,0E0,0E0,0E0,0E0,0E0,0E0],"parents":[2147483647,0,0,1,1,2,2,3,3,4,4,5,5,6,6,8,8,9,9,10,10,11,11,12,12,13,13,14,14],"right_children":[2,4,6,8,10,12,14,-1,16,18,20,22,24,26,28,-1,-1,-1,-1,-1,-1,-1,-1,-1,-1,-1,-1,-1,-1],"split_conditions":[-2.029E-1,-2.098E-1,1.07E-1,-3.037E-1,-8.971835E-3,2.44E1,5.577689E-2,-6.895416E-2,-8.3433264E-1,1.8E1,7E0,1.61E-2,3.17E1,2E0,1.565E-1,-6.2727155E-3,5.0510567E-2,-5.108105E-2,8.386093E-2,-2.2452783E-2,8.160513E-2,-1.2517403E-2,-7.262208E-2,1.4259976E-2,-5.5123664E-2,-7.3920354E-2,2.949901E-2,-5.9793063E-2,9.90235E-3],"split_indices":[38,45,42,39,32,35,20,0,31,6,14,50,35,5,51,0,0,0,0,0,0,0,0,0,0,0,0,0,0],"split_type":[0,0,0,0,0,0,0,0,0,0,0,0,0,0,0,0,0,0,0,0,0,0,0,0,0,0,0,0,0],"sum_hessian":[6.548669E3,1.640809E3,4.9078604E3,5.9283203E2,1.0479769E3,4.5874614E3,3.2039902E2,4.046316E1,5.523689E2,4.4123248E2,6.067444E2,3.6137292E2,4.2260884E3,6.775065E1,2.5264838E2,4.323133E2,1.20055595E2,4.362717E2,4.960809E0,5.9585474E2,1.0889685E1,2.7723773E2,8.413519E1,4.116289E3,1.09799194E2,1.5274516E1,5.2476128E1,2.0746E2,4.5188374E1],"tree_param":{"num_deleted":"0","num_feature":"53","num_nodes":"29","size_leaf_vector":"1"}},{"base_weights":[1.2219028E-2,-5.2154776E-2,9.31996E-2,1.2697648E-1,-1.234118E0,-5.624061E-1,1.9300742E-1,-1.4230064E0,8.5464334E-1,2.9661207E-2,-3.77741E-2,1.514659E-2,-1.0917853E-2,-5.8181672E-3,-8.074232E-2,-5.355948E-3,5.9127726E-2],"categories":[],"categories_nodes":[],"categories_segments":[],"categories_sizes":[],"default_left":[0,0,0,0,0,0,0,0,0,0,0,0,0,0,0,0,0],"id":56,"left_children":[1,-1,3,5,7,9,11,13,15,-1,-1,-1,-1,-1,-1,-1,-1],"loss_changes":[5.56983E2,0E0,2.7146143E2,2.688578E2,6.055507E1,1.1565376E2,2.4378046E2,3.4284393E1,4.3472137E0,0E0,0E0,0E0,0E0,0E0,0E0,0E0,0E0],"parents":[2147483647,0,0,2,2,3,3,4,4,5,5,6,6,7,7,8,8],"right_children":[2,-1,4,6,8,10,12,14,16,-1,-1,-1,-1,-1,-1,-1,-1],"split_conditions":[1.8E1,-5.2154776E-2,3.17E1,2.44E1,3.897E-1,2.4285008E-1,2.2E1,6.71E1,1E0,2.9661207E-2,-3.77741E-2,1.514659E-2,-1.0917853E-2,-5.8181672E-3,-8.074232E-2,-5.355948E-3,5.9127726E-2],"split_indices":[0,0,35,35,48,28,0,34,7,0,0,0,0,0,0,0,0],"split_type":[0,0,0,0,0,0,0,0,0,0,0,0,0,0,0,0,0],"sum_hessian":[6.5164453E3,4.6347415E2,6.052971E3,5.9037163E3,1.4925496E2,5.152564E2,5.38846E3,1.3721324E2,1.2041707E1,7.33914E1,4.41865E2,4.2525933E3,1.1358666E3,1.7838837E1,1.1937441E2,3.1553733E0,8.886333E0],"tree_param":{"num_deleted":"0","num_feature":"53","num_nodes":"17","size_leaf_vector":"1"}},{"base_weights":[-1.5550035E-3,-5.2034806E-2,7.452441E-2,4.204161E-1,-6.555109E-2,7.212278E-1,2.2330384E-1,-2.4000378E-1,2.6274082E-1,3.881426E-2,-6.1641406E-2,-1.1739426E-1,1.8392032E-2,-3.3871592E-3,-8.706746E-2,5.719707E-2,-4.4926135E-3],"categories":[],"categories_nodes":[],"categories_segments":[],"categories_sizes":[],"default_left":[0,0,0,0,0,0,0,0,0,0,0,0,0,0,0,0,0],"id":57,"left_children":[1,-1,3,5,7,9,11,13,15,-1,-1,-1,-1,-1,-1,-1,-1],"loss_changes":[5.0974615E2,0E0,2.9109512E2,1.0242493E2,2.4495392E2,7.4595E1,3.9007602E2,7.220222E2,4.6131238E2,0E0,0E0,0E0,0E0,0E0,0E0,0E0,0E0],"parents":[2147483647,0,0,2,2,3,3,4,4,5,5,6,6,7,7,8,8],"right_children":[2,-1,4,6,8,10,12,14,16,-1,-1,-1,-1,-1,-1,-1,-1],"split_conditions":[1.8E1,-5.2034806E-2,-4.57E-2,7.11E1,7.4E1,3.17E1,7.2E1,7.31E1,7.41E1,3.881426E-2,-6.1641406E-2,-1.1739426E-1,1.8392032E-2,-3.3871592E-3,-8.706746E-2,5.719707E-2,-4.4926135E-3],"split_indices":[0,0,50,34,34,35,34,34,34,0,0,0,0,0,0,0,0],"split_type":[0,0,0,0,0,0,0,0,0,0,0,0,0,0,0,0,0],"sum_hessian":[6.444607E3,4.3887042E2,6.0057363E3,1.7307264E3,4.2750103E3,6.83886E2,1.0468405E3,2.7919534E3,1.4830566E3,6.657809E2,1.8105108E1,5.486696E1,9.919735E2,2.505581E3,2.863723E2,4.2326703E2,1.0597897E3],"tree_param":{"num_deleted":"0","num_feature":"53","num_nodes":"17","size_leaf_vector":"1"}},{"base_weights":[-2.9743346E-3,-5.191806E-2,6.988927E-2,4.7139013E-1,-4.4635113E-2,1.1433987E-1,6.3450927E-1,2.9795727E-1,-1.6747306E-1,-2.4096658E-2,1.9682799E-2,3.8188152E-2,1.4936122E-2,-6.3095116E-3,2.730967E-2,-1.5237252E-2,1.3581877E-2],"categories":[],"categories_nodes":[],"categories_segments":[],"categories_sizes":[],"default_left":[0,0,0,0,0,0,0,0,0,0,0,0,0,0,0,0,0],"id":58,"left_children":[1,-1,3,5,7,9,11,13,15,-1,-1,-1,-1,-1,-1,-1,-1],"loss_changes":[4.8279654E2,0E0,2.7492215E2,7.713446E1,1.95794E2,6.971788E1,3.9178406E1,1.2938705E2,2.0652649E2,0E0,0E0,0E0,0E0,0E0,0E0,0E0,0E0],"parents":[2147483647,0,0,2,2,3,3,4,4,5,5,6,6,7,7,8,8],"right_children":[2,-1,4,6,8,10,12,14,16,-1,-1,-1,-1,-1,-1,-1,-1],"split_conditions":[1.8E1,-5.191806E-2,-7.02E-2,8E0,2E1,1.1029412E-1,2.2E1,8E0,1.1E1,-2.4096658E-2,1.9682799E-2,3.8188152E-2,1.4936122E-2,-6.3095116E-3,2.730967E-2,-1.5237252E-2,1.3581877E-2],"split_indices":[0,0,50,6,0,21,0,11,8,0,0,0,0,0,0,0,0],"split_type":[0,0,0,0,0,0,0,0,0,0,0,0,0,0,0,0,0],"sum_hessian":[6.3963247E3,4.1975507E2,5.97657E3,1.3259159E3,4.650654E3,4.165176E2,9.093983E2,1.2268252E3,3.4238286E3,1.32525E2,2.839926E2,6.555041E2,2.5389421E2,4.5296213E2,7.7386304E2,2.608812E3,8.150166E2],"tree_param":{"num_deleted":"0","num_feature":"53","num_nodes":"17","size_leaf_vector":"1"}},{"base_weights":[1.4918403E-3,-5.181278E-2,7.142701E-2,-3.157931E-1,1.8056521E-1,-7.7834976E-1,-1.0757764E-1,8.470681E-2,6.011839E-1,5.1375933E-2,-4.5401413E-2,-2.6877731E-2,6.553461E-3,2.00938E-2,-2.3057153E-3,3.8197856E-2,9.108635E-3],"categories":[],"categories_nodes":[],"categories_segments":[],"categories_sizes":[],"default_left":[0,0,0,0,0,0,0,0,0,0,0,0,0,0,0,0,0],"id":59,"left_children":[1,-1,3,5,7,9,11,13,15,-1,-1,-1,-1,-1,-1,-1,-1],"loss_changes":[4.612962E2,0E0,2.5175299E2,1.2597502E2,1.8726102E2,9.606067E1,9.2926544E1,1.571511E2,5.8571106E1,0E0,0E0,0E0,0E0,0E0,0E0,0E0,0E0],"parents":[2147483647,0,0,2,2,3,3,4,4,5,5,6,6,7,7,8,8],"right_children":[2,-1,4,6,8,10,12,14,16,-1,-1,-1,-1,-1,-1,-1,-1],"split_conditions":[1.7E1,-5.181278E-2,6.335E-1,-9.1E-2,2.61E2,1.9E1,-1.82E-2,2E1,2.2E1,5.1375933E-2,-4.5401413E-2,-2.6877731E-2,6.553461E-3,2.00938E-2,-2.3057153E-3,3.8197856E-2,9.108635E-3],"split_indices":[0,0,36,43,3,0,39,0,0,0,0,0,0,0,0,0,0],"split_type":[0,0,0,0,0,0,0,0,0,0,0,0,0,0,0,0,0],"sum_hessian":[6.355437E3,4.002972E2,5.9551396E3,1.3087855E3,4.646354E3,4.0526315E2,9.0352234E2,3.7851606E3,8.611936E2,2.663643E1,3.7862674E2,3.221899E2,5.8133246E2,1.1049523E3,2.6802085E3,6.194817E2,2.4171191E2],"tree_param":{"num_deleted":"0","num_feature":"53","num_nodes":"17","size_leaf_vector":"1"}},{"base_weights":[2.3094976E-2,-6.9486046E-1,9.1107205E-2,-3.334703E-1,-1.1153164E0,-2.7461565E-1,2.0480503E-1,-6.7244655E-1,1.2097939E0,-1.4257722E0,-2.3667705E-1,1.2165339E0,-3.5766408E-1,-4.12871E-3,3.9337477E-1,-5.5483468E-2,9.751833E-3,-7.180294E-2,7.061546E-2,-7.346835E-2,3.770673E-2,-7.8482024E-2,1.2925217E-2,-5.4825842E-2,6.8872064E-2,-1.3824019E-2,-6.300767E-2,-1.5744373E-2,1.7093305E-2,1.4474861E-2,3.889889E-2],"categories":[],"categories_nodes":[],"categories_segments":[],"categories_sizes":[],"default_left":[0,0,0,0,0,0,0,0,0,0,0,0,0,0,0,0,0,0,0,0,0,0,0,0,0,0,0,0,0,0,0],"id":60,"left_children":[1,3,5,7,9,11,13,15,17,19,21,23,25,27,29,-1,-1,-1,-1,-1,-1,-1,-1,-1,-1,-1,-1,-1,-1,-1,-1],"loss_changes":[3.1111804E2,8.3256714E1,2.4210153E2,1.5667548E2,6.885962E1,1.7133566E2,1.750241E2,9.325678E1,3.0949356E1,1.900879E1,4.520508E1,2.8710197E1,9.538484E1,2.2672206E2,9.294348E1,0E0,0E0,0E0,0E0,0E0,0E0,0E0,0E0,0E0,0E0,0E0,0E0,0E0,0E0,0E0,0E0],"parents":[2147483647,0,0,1,1,2,2,3,3,4,4,5,5,6,6,7,7,8,8,9,9,10,10,11,11,12,12,13,13,14,14],"right_children":[2,4,6,8,10,12,14,16,18,20,22,24,26,28,30,-1,-1,-1,-1,-1,-1,-1,-1,-1,-1,-1,-1,-1,-1,-1,-1],"split_conditions":[2.44E1,7.41E1,6.335E-1,7.4E1,2.2951E0,2.45E1,8E0,3E0,-6.5E-3,6.7E1,2.31E1,-1.27598E1,3.07E1,7.3E1,2.309E-1,-5.5483468E-2,9.751833E-3,-7.180294E-2,7.061546E-2,-7.346835E-2,3.770673E-2,-7.8482024E-2,1.2925217E-2,-5.4825842E-2,6.8872064E-2,-1.3824019E-2,-6.300767E-2,-1.5744373E-2,1.7093305E-2,1.4474861E-2,3.889889E-2],"split_indices":[35,34,36,34,36,35,6,15,50,5,35,52,35,34,46,0,0,0,0,0,0,0,0,0,0,0,0,0,0,0,0],"split_type":[0,0,0,0,0,0,0,0,0,0,0,0,0,0,0,0,0,0,0,0,0,0,0,0,0,0,0,0,0,0,0],"sum_hessian":[6.370426E3,5.50328E2,5.8200977E3,2.970439E2,2.5328407E2,1.379731E3,4.4403667E3,2.440645E2,5.2979424E1,1.86611E2,6.667308E1,7.2005554E1,1.3077253E3,2.1066562E3,2.3337104E3,1.6216655E2,8.189794E1,3.2985916E0,4.9680832E1,1.8331676E2,3.2942338E0,1.7526405E1,4.914667E1,4.2646723E0,6.774088E1,1.2010974E3,1.0662792E2,1.1100408E3,9.9661554E2,1.8390214E3,4.946891E2],"tree_param":{"num_deleted":"0","num_feature":"53","num_nodes":"31","size_leaf_vector":"1"}},{"base_weights":[1.2404773E-2,-5.168376E-2,7.973257E-2,4.660519E-1,-2.2169612E-2,-7.458935E-2,4.9863818E-1,-8.516448E-1,4.0194184E-2,3.7865758E-2,1.5625624E-2,-1.3998123E-2,-9.618876E-2,5.880121E-2,-1.3007515E-3],"categories":[],"categories_nodes":[],"categories_segments":[],"categories_sizes":[],"default_left":[0,0,0,0,0,0,0,0,0,0,0,0,0,0,0],"id":61,"left_children":[1,-1,3,5,7,-1,9,11,13,-1,-1,-1,-1,-1,-1],"loss_changes":[4.4105298E2,0E0,2.3171945E2,7.902304E1,2.4103127E2,0E0,5.7875732E1,1.989454E2,3.2595428E2,0E0,0E0,0E0,0E0,0E0,0E0],"parents":[2147483647,0,0,2,2,3,3,4,4,6,6,7,7,8,8],"right_children":[2,-1,4,6,8,-1,10,12,14,-1,-1,-1,-1,-1,-1],"split_conditions":[1.8E1,-5.168376E-2,-7.27E-2,-2.188E-1,7E1,-7.458935E-2,7.11E1,6.91E1,7.01E1,3.7865758E-2,1.5625624E-2,-1.3998123E-2,-9.618876E-2,5.880121E-2,-1.3007515E-3],"split_indices":[0,0,50,43,34,0,34,34,34,0,0,0,0,0,0],"split_type":[0,0,0,0,0,0,0,0,0,0,0,0,0,0,0],"sum_hessian":[6.2614497E3,3.7767227E2,5.8837773E3,1.227528E3,4.6562495E3,1.931315E1,1.2082148E3,3.2482556E2,4.331424E3,5.0406317E2,7.041517E2,2.1274165E2,1.1208391E2,2.3773796E2,4.0936858E3],"tree_param":{"num_deleted":"0","num_feature":"53","num_nodes":"15","size_leaf_vector":"1"}},{"base_weights":[8.366137E-3,-5.1585503E-2,7.1679555E-2,1.2980899E-1,-7.095297E-1,-8.41035E-3,3.9752236E-1,-9.979973E-1,3.0786216E-1,4.308447E-3,-2.6658887E-2,-5.5417217E-2,2.1449031E-2,-5.3983815E-2,6.8319894E-2,-5.1897015E-2,3.132123E-2],"categories":[],"categories_nodes":[],"categories_segments":[],"categories_sizes":[],"default_left":[0,0,0,0,0,0,0,0,0,0,0,0,0,0,0,0,0],"id":62,"left_children":[1,-1,3,5,7,9,11,13,15,-1,-1,-1,-1,-1,-1,-1,-1],"loss_changes":[4.1049472E2,0E0,2.6693225E2,2.0249683E2,1.1984769E2,1.792155E2,8.867227E1,6.2756165E1,3.9456608E1,0E0,0E0,0E0,0E0,0E0,0E0,0E0,0E0],"parents":[2147483647,0,0,2,2,3,3,4,4,5,5,6,6,7,7,8,8],"right_children":[2,-1,4,6,8,10,12,14,16,-1,-1,-1,-1,-1,-1,-1,-1],"split_conditions":[1.8E1,-5.1585503E-2,2.3E1,2.2946E0,1.7E1,2.92E1,-2.306E-1,2.1263109E2,4.8E1,4.308447E-3,-2.6658887E-2,-5.5417217E-2,2.1449031E-2,-5.3983815E-2,6.8319894E-2,-5.1897015E-2,3.132123E-2],"split_indices":[0,0,0,36,6,35,43,29,10,0,0,0,0,0,0,0,0],"split_type":[0,0,0,0,0,0,0,0,0,0,0,0,0,0,0,0,0],"sum_hessian":[6.2330464E3,3.5668915E2,5.876357E3,5.470278E3,4.0607913E2,3.6080508E3,1.8622272E3,3.1646667E2,8.9612465E1,3.0576187E3,5.504321E2,3.7341198E1,1.824886E3,3.0646536E2,1.0001308E1,1.6659681E1,7.295278E1],"tree_param":{"num_deleted":"0","num_feature":"53","num_nodes":"17","size_leaf_vector":"1"}},{"base_weights":[-2.974104E-2,-5.148561E-2,3.0446816E-2,-7.053757E-2,4.2899048E-1,2.5257105E-1,-2.007336E-1,-4.2429984E-2,5.8257E-1,-6.5442584E-2,1.559861E-2,-1.1780439E-2,6.1802465E-2,-3.53466E-2,1.802132E-2,3.5361614E-2,1.2573086E-2],"categories":[],"categories_nodes":[],"categories_segments":[],"categories_sizes":[],"default_left":[0,0,0,0,0,0,0,0,0,0,0,0,0,0,0,0,0],"id":63,"left_children":[1,-1,3,5,7,9,11,13,15,-1,-1,-1,-1,-1,-1,-1,-1],"loss_changes":[3.627223E2,0E0,2.2880202E2,1.9082411E2,8.328757E1,1.2114017E2,1.6220558E2,7.609712E1,3.5517426E1,0E0,0E0,0E0,0E0,0E0,0E0,0E0,0E0],"parents":[2147483647,0,0,2,2,3,3,4,4,5,5,6,6,7,7,8,8],"right_children":[2,-1,4,6,8,10,12,14,16,-1,-1,-1,-1,-1,-1,-1,-1],"split_conditions":[1.8E1,-5.148561E-2,2.13E2,2E1,9.095E-1,-1.1E-1,5.866E-1,3.2413793E-1,2.2E1,-6.5442584E-2,1.559861E-2,-1.1780439E-2,6.1802465E-2,-3.53466E-2,1.802132E-2,3.5361614E-2,1.2573086E-2],"split_indices":[0,0,2,0,36,41,42,19,0,0,0,0,0,0,0,0,0],"split_type":[0,0,0,0,0,0,0,0,0,0,0,0,0,0,0,0,0],"sum_hessian":[6.023496E3,3.4114865E2,5.6823477E3,4.534063E3,1.1482845E3,1.3017617E3,3.2323013E3,2.8218262E2,8.66102E2,4.687535E1,1.2548864E3,3.1565867E3,7.57145E1,1.0631386E2,1.7586876E2,6.2816125E2,2.3794067E2],"tree_param":{"num_deleted":"0","num_feature":"53","num_nodes":"17","size_leaf_vector":"1"}},{"base_weights":[9.631358E-3,-5.1397193E-2,6.791545E-2,1.2010617E-1,-5.716953E-1,-7.227478E-2,2.965842E-1,-9.162982E-1,1.19375095E-1,-1.856988E-2,9.994123E-3,2.7015403E-2,4.4873753E-3,2.0909464E-2,-5.323725E-2,-5.97282E-2,2.22426E-2],"categories":[],"categories_nodes":[],"categories_segments":[],"categories_sizes":[],"default_left":[0,0,0,0,0,0,0,0,0,0,0,0,0,0,0,0,0],"id":64,"left_children":[1,-1,3,5,7,9,11,13,15,-1,-1,-1,-1,-1,-1,-1,-1],"loss_changes":[3.7161472E2,0E0,1.9429301E2,1.8275323E2,1.0475192E2,2.0974278E2,1.4140524E2,5.8590958E1,6.3271584E1,0E0,0E0,0E0,0E0,0E0,0E0,0E0,0E0],"parents":[2147483647,0,0,2,2,3,3,4,4,5,5,6,6,7,7,8,8],"right_children":[2,-1,4,6,8,10,12,14,16,-1,-1,-1,-1,-1,-1,-1,-1],"split_conditions":[1.8E1,-5.1397193E-2,2.3E1,8E0,4.9E1,7.3E1,-2.34E-2,8.695652E-2,2.64E1,-1.856988E-2,9.994123E-3,2.7015403E-2,4.4873753E-3,2.0909464E-2,-5.323725E-2,-5.97282E-2,2.22426E-2],"split_indices":[0,0,0,6,10,34,50,21,35,0,0,0,0,0,0,0,0],"split_type":[0,0,0,0,0,0,0,0,0,0,0,0,0,0,0,0,0],"sum_hessian":[6.144453E3,3.258212E2,5.818632E3,5.3805596E3,4.3807236E2,2.574303E3,2.8062568E3,2.9219022E2,1.4588214E2,1.2263966E3,1.3479062E3,1.2872928E3,1.5189639E3,2.89999E1,2.6319034E2,2.8371187E1,1.1751095E2],"tree_param":{"num_deleted":"0","num_feature":"53","num_nodes":"17","size_leaf_vector":"1"}},{"base_weights":[1.6689269E-2,-5.1307846E-2,7.2066635E-2,1.7063272E-1,-2.864765E-1,-7.34793E-1,2.1379313E-1,-5.349708E-1,1.86401E-1,4.78196E-2,-4.5919586E-2,1.5535982E-2,-8.6649135E-3,-2.8459067E-2,1.2757437E-1,1.2998399E-2,-9.3882255E-2],"categories":[],"categories_nodes":[],"categories_segments":[],"categories_sizes":[],"default_left":[0,0,0,0,0,0,0,0,0,0,0,0,0,0,0,0,0],"id":65,"left_children":[1,-1,3,5,7,9,11,13,15,-1,-1,-1,-1,-1,-1,-1,-1],"loss_changes":[3.5383273E2,0E0,2.0569586E2,1.7851454E2,1.4760469E2,6.541023E1,1.6359837E2,8.816156E1,6.606246E1,0E0,0E0,0E0,0E0,0E0,0E0,0E0,0E0],"parents":[2147483647,0,0,2,2,3,3,4,4,5,5,6,6,7,7,8,8],"right_children":[2,-1,4,6,8,10,12,14,16,-1,-1,-1,-1,-1,-1,-1,-1],"split_conditions":[1.8E1,-5.1307846E-2,2.2E1,2.37E1,1.3120232E2,7.01E1,8.45E-2,7.9E1,2.4E1,4.78196E-2,-4.5919586E-2,1.5535982E-2,-8.6649135E-3,-2.8459067E-2,1.2757437E-1,1.2998399E-2,-9.3882255E-2],"split_indices":[0,0,0,35,29,34,42,34,0,0,0,0,0,0,0,0,0],"split_type":[0,0,0,0,0,0,0,0,0,0,0,0,0,0,0,0,0],"sum_hessian":[6.126338E3,3.079425E2,5.8183955E3,4.564409E3,1.253986E3,2.068448E2,4.3575645E3,8.220721E2,4.319139E2,1.9790894E1,1.8705391E2,3.4853093E3,8.722552E2,8.138988E2,8.173313E0,4.1794012E2,1.3973779E1],"tree_param":{"num_deleted":"0","num_feature":"53","num_nodes":"17","size_leaf_vector":"1"}},{"base_weights":[-2.7124812E-3,-5.123031E-2,5.0782125E-2,1.4963496E-1,-3.053853E-1,-8.268671E-1,1.9467857E-1,-8.790515E-1,-1.1546548E-1,6.996819E-2,-4.788227E-2,1.4110996E-2,-1.5881626E-2,5.255766E-2,-5.6075007E-2,-2.3374684E-2,6.446261E-3],"categories":[],"categories_nodes":[],"categories_segments":[],"categories_sizes":[],"default_left":[0,0,0,0,0,0,0,0,0,0,0,0,0,0,0,0,0],"id":66,"left_children":[1,-1,3,5,7,9,11,13,15,-1,-1,-1,-1,-1,-1,-1,-1],"loss_changes":[3.2847888E2,0E0,