{"learner":{"attributes":{"scikit_learn":"{\"_estimator_type\": \"classifier\"}"},"feature_names":[],"feature_types":[],"gradient_booster":{"model":{"cats":{"enc":[],"feature_segments":[],"sorted_idx":[]},"gbtree_model_param":{"num_parallel_tree":"1","num_trees":"500"},"iteration_indptr":[0,1,2,3,4,5,6,7,8,9,10,11,12,13,14,15,16,17,18,19,20,21,22,23,24,25,26,27,28,29,30,31,32,33,34,35,36,37,38,39,40,41,42,43,44,45,46,47,48,49,50,51,52,53,54,55,56,57,58,59,60,61,62,63,64,65,66,67,68,69,70,71,72,73,74,75,76,77,78,79,80,81,82,83,84,85,86,87,88,89,90,91,92,93,94,95,96,97,98,99,100,101,102,103,104,105,106,107,108,109,110,111,112,113,114,115,116,117,118,119,120,121,122,123,124,125,126,127,128,129,130,131,132,133,134,135,136,137,138,139,140,141,142,143,144,145,146,147,148,149,150,151,152,153,154,155,156,157,158,159,160,161,162,163,164,165,166,167,168,169,170,171,172,173,174,175,176,177,178,179,180,181,182,183,184,185,186,187,188,189,190,191,192,193,194,195,196,197,198,199,200,201,202,203,204,205,206,207,208,209,210,211,212,213,214,215,216,217,218,219,220,221,222,223,224,225,226,227,228,229,230,231,232,233,234,235,236,237,238,239,240,241,242,243,244,245,246,247,248,249,250,251,252,253,254,255,256,257,258,259,260,261,262,263,264,265,266,267,268,269,270,271,272,273,274,275,276,277,278,279,280,281,282,283,284,285,286,287,288,289,290,291,292,293,294,295,296,297,298,299,300,301,302,303,304,305,306,307,308,309,310,311,312,313,314,315,316,317,318,319,320,321,322,323,324,325,326,327,328,329,330,331,332,333,334,335,336,337,338,339,340,341,342,343,344,345,346,347,348,349,350,351,352,353,354,355,356,357,358,359,360,361,362,363,364,365,366,367,368,369,370,371,372,373,374,375,376,377,378,379,380,381,382,383,384,385,386,387,388,389,390,391,392,393,394,395,396,397,398,399,400,401,402,403,404,405,406,407,408,409,410,411,412,413,414,415,416,417,418,419,420,421,422,423,424,425,426,427,428,429,430,431,432,433,434,435,436,437,438,439,440,441,442,443,444,445,446,447,448,449,450,451,452,453,454,455,456,457,458,459,460,461,462,463,464,465,466,467,468,469,470,471,472,473,474,475,476,477,478,479,480,481,482,483,484,485,486,487,488,489,490,491,492,493,494,495,496,497,498,499,500],"tree_info":[0,0,0,0,0,0,0,0,0,0,0,0,0,0,0,0,0,0,0,0,0,0,0,0,0,0,0,0,0,0,0,0,0,0,0,0,0,0,0,0,0,0,0,0,0,0,0,0,0,0,0,0,0,0,0,0,0,0,0,0,0,0,0,0,0,0,0,0,0,0,0,0,0,0,0,0,0,0,0,0,0,0,0,0,0,0,0,0,0,0,0,0,0,0,0,0,0,0,0,0,0,0,0,0,0,0,0,0,0,0,0,0,0,0,0,0,0,0,0,0,0,0,0,0,0,0,0,0,0,0,0,0,0,0,0,0,0,0,0,0,0,0,0,0,0,0,0,0,0,0,0,0,0,0,0,0,0,0,0,0,0,0,0,0,0,0,0,0,0,0,0,0,0,0,0,0,0,0,0,0,0,0,0,0,0,0,0,0,0,0,0,0,0,0,0,0,0,0,0,0,0,0,0,0,0,0,0,0,0,0,0,0,0,0,0,0,0,0,0,0,0,0,0,0,0,0,0,0,0,0,0,0,0,0,0,0,0,0,0,0,0,0,0,0,0,0,0,0,0,0,0,0,0,0,0,0,0,0,0,0,0,0,0,0,0,0,0,0,0,0,0,0,0,0,0,0,0,0,0,0,0,0,0,0,0,0,0,0,0,0,0,0,0,0,0,0,0,0,0,0,0,0,0,0,0,0,0,0,0,0,0,0,0,0,0,0,0,0,0,0,0,0,0,0,0,0,0,0,0,0,0,0,0,0,0,0,0,0,0,0,0,0,0,0,0,0,0,0,0,0,0,0,0,0,0,0,0,0,0,0,0,0,0,0,0,0,0,0,0,0,0,0,0,0,0,0,0,0,0,0,0,0,0,0,0,0,0,0,0,0,0,0,0,0,0,0,0,0,0,0,0,0,0,0,0,0,0,0,0,0,0,0,0,0,0,0,0,0,0,0,0,0,0,0,0,0,0,0,0,0,0,0,0,0,0,0,0,0,0,0,0,0,0,0,0,0,0,0,0,0,0,0,0,0,0,0,0,0,0,0,0,0,0,0,0,0,0,0,0,0,0,0,0,0,0,0,0,0,0,0,0,0,0,0,0,0,0,0,0,0,0,0,0,0,0,0,0,0,0,0],"trees":[{"base_weights":[4.2018183E-3,-9.998103E-2,1.7831619E0,1.7238214E0,1.8885524E0,1.7293109E0,5.152572E-1,1.890971E0,3.7207205E-2,8.6557604E-2,2.291436E-2,7.7977315E-2,-8.444445E-2,8.8620834E-2,9.598497E-2],"categories":[],"categories_nodes":[],"categories_segments":[],"categories_sizes":[],"default_left":[0,0,0,0,0,0,0,0,0,0,0,0,0,0,0],"id":0,"left_children":[1,-1,3,5,7,9,11,13,-1,-1,-1,-1,-1,-1,-1],"loss_changes":[4.1961293E4,0E0,3.5378906E1,2.5430664E1,4.517578E0,8.308594E0,4.7734085E1,3.8208008E0,0E0,0E0,0E0,0E0,0E0,0E0,0E0],"parents":[2147483647,0,0,2,2,3,3,4,4,5,5,6,6,7,7],"right_children":[2,-1,4,6,8,10,12,14,-1,-1,-1,-1,-1,-1,-1],"split_conditions":[6.9E1,-9.998103E-2,6.9E1,3.48E2,6.7772713E0,5.9E1,4.3E1,2.4E-1,3.7207205E-2,8.6557604E-2,2.291436E-2,7.7977315E-2,-8.444445E-2,8.8620834E-2,9.598497E-2],"split_indices":[33,0,13,7,21,9,9,23,0,0,0,0,0,0,0],"split_type":[0,0,0,0,0,0,0,0,0,0,0,0,0,0,0],"sum_hessian":[1.1769278E4,5.53475E3,6.2345283E3,4.0003967E3,2.2341316E3,3.9817974E3,1.8599354E1,2.2286816E3,5.4497843E0,3.9755977E3,6.1997843E0,1.2849354E1,5.75E0,4.4762695E2,1.7810548E3],"tree_param":{"num_deleted":"0","num_feature":"50","num_nodes":"15","size_leaf_vector":"1"}},{"base_weights":[-1.45908315E-2,-9.522469E-2,1.69493E0,1.6560941E0,1.8475485E0,1.4670706E0,1.6856139E0,1.8533998E0,1.233028E0,7.442526E-2,-9.176229E-3,8.599908E-2,8.011994E-2,9.2782475E-2,5.140474E-2,8.4116675E-2,2.327617E-2],"categories":[],"categories_nodes":[],"categories_segments":[],"categories_sizes":[],"default_left":[0,0,0,0,0,0,0,0,0,0,0,0,0,0,0,0,0],"id":1,"left_children":[1,-1,3,5,7,9,11,13,15,-1,-1,-1,-1,-1,-1,-1,-1],"loss_changes":[3.7807484E4,0E0,3.3007812E1,2.4598633E1,1.8544922E0,2.4148193E1,9.032227E0,7.519531E-2,4.1117783E0,0E0,0E0,0E0,0E0,0E0,0E0,0E0,0E0],"parents":[2147483647,0,0,2,2,3,3,4,4,5,5,6,6,7,7,8,8],"right_children":[2,-1,4,6,8,10,12,14,16,-1,-1,-1,-1,-1,-1,-1,-1],"split_conditions":[2E1,-9.522469E-2,8.8E1,7.461E-1,5.5859227E0,3.0442E0,1.5755396E0,1.2828E0,2.45E1,7.442526E-2,-9.176229E-3,8.599908E-2,8.011994E-2,9.2782475E-2,5.140474E-2,8.4116675E-2,2.327617E-2],"split_indices":[34,0,13,35,21,37,20,44,34,0,0,0,0,0,0,0,0],"split_type":[0,0,0,0,0,0,0,0,0,0,0,0,0,0,0,0,0],"sum_hessian":[1.1700097E4,5.5568516E3,6.1432456E3,4.9070796E3,1.2361659E3,6.7013165E2,4.2369478E3,1.2223484E3,1.3817504E1,6.616977E2,8.433977E0,2.9837815E3,1.2531663E3,1.2176594E3,4.6889763E0,7.881402E0,5.9361014E0],"tree_param":{"num_deleted":"0","num_feature":"50","num_nodes":"17","size_leaf_vector":"1"}},{"base_weights":[1.3932743E-2,-9.1115735E-2,1.6240554E0,1.569207E0,1.7198365E0,1.5759258E0,6.1463153E-1,2.4859307E-2,1.7226326E0,6.922659E-2,8.013545E-2,6.276496E-2,-8.660199E-2,8.276913E-2,8.8331625E-2],"categories":[],"categories_nodes":[],"categories_segments":[],"categories_sizes":[],"default_left":[0,0,0,0,0,0,0,0,0,0,0,0,0,0,0],"id":2,"left_children":[1,-1,3,5,7,9,11,-1,13,-1,-1,-1,-1,-1,-1],"loss_changes":[3.469469E4,0E0,2.9820312E1,2.4388672E1,6.666504E0,1.7777344E1,4.6651627E1,0E0,3.4204102E0,0E0,0E0,0E0,0E0,0E0,0E0],"parents":[2147483647,0,0,2,2,3,3,4,4,5,5,6,6,8,8],"right_children":[2,-1,4,6,8,10,12,-1,14,-1,-1,-1,-1,-1,-1],"split_conditions":[2E1,-9.1115735E-2,6.9E1,7.7E1,7.5E0,7.461E-1,-1.1124E0,2.4859307E-2,1.1807E0,6.922659E-2,8.013545E-2,6.276496E-2,-8.660199E-2,8.276913E-2,8.8331625E-2],"split_indices":[34,0,13,6,26,35,43,0,35,0,0,0,0,0,0],"split_type":[0,0,0,0,0,0,0,0,0,0,0,0,0,0,0],"sum_hessian":[1.1732729E4,5.481367E3,6.2513613E3,3.9867815E3,2.2645796E3,3.958166E3,2.861554E1,5.6567965E0,2.2589229E3,4.9282547E2,3.4653406E3,2.287743E1,5.738109E0,9.095888E2,1.3493341E3],"tree_param":{"num_deleted":"0","num_feature":"50","num_nodes":"15","size_leaf_vector":"1"}},{"base_weights":[1.7126245E-2,-8.753769E-2,1.5593909E0,1.5120686E0,1.665743E0,1.3249592E0,1.540471E0,1.6708124E0,9.231147E-1,6.740438E-2,-7.944409E-2,7.717072E-2,2.5345907E-2,7.808495E-2,8.4505476E-2,3.48856E-3,7.728176E-2],"categories":[],"categories_nodes":[],"categories_segments":[],"categories_sizes":[],"default_left":[0,0,0,0,0,0,0,0,0,0,0,0,0,0,0,0,0],"id":3,"left_children":[1,-1,3,5,7,9,11,13,15,-1,-1,-1,-1,-1,-1,-1,-1],"loss_changes":[3.1872166E4,0E0,2.8583984E1,2.0695312E1,5.3964844E0,4.110785E1,1.043457E1,1.03125E0,7.8752737E0,0E0,0E0,0E0,0E0,0E0,0E0,0E0,0E0],"parents":[2147483647,0,0,2,2,3,3,4,4,5,5,6,6,7,7,8,8],"right_children":[2,-1,4,6,8,10,12,14,16,-1,-1,-1,-1,-1,-1,-1,-1],"split_conditions":[6.9E1,-8.753769E-2,7.5E1,7.461E-1,6.3E1,3.44E2,5.8E1,7.461E-1,1.7142858E-1,6.740438E-2,-7.944409E-2,7.717072E-2,2.5345907E-2,7.808495E-2,8.4505476E-2,3.48856E-3,7.728176E-2],"split_indices":[33,0,13,35,9,7,9,35,32,0,0,0,0,0,0,0,0],"split_type":[0,0,0,0,0,0,0,0,0,0,0,0,0,0,0,0,0],"sum_hessian":[1.1687611E4,5.4454062E3,6.2422056E3,4.3311704E3,1.911035E3,5.7754944E2,3.7536208E3,1.8967031E3,1.4331877E1,5.735684E2,3.9809887E0,3.7423733E3,1.1247712E1,2.9812183E2,1.5985813E3,6.582028E0,7.749849E0],"tree_param":{"num_deleted":"0","num_feature":"50","num_nodes":"17","size_leaf_vector":"1"}},{"base_weights":[2.2725832E-2,-8.438966E-2,1.4991173E0,1.455188E0,1.6005931E0,1.5312272E0,1.4084014E0,1.6055788E0,4.9286583E-3,2.5785211E-2,7.670875E-2,7.078024E-2,3.2617103E-2,7.466506E-2,8.16177E-2],"categories":[],"categories_nodes":[],"categories_segments":[],"categories_sizes":[],"default_left":[0,0,0,0,0,0,0,0,0,0,0,0,0,0,0],"id":4,"left_children":[1,-1,3,5,7,9,11,13,-1,-1,-1,-1,-1,-1,-1],"loss_changes":[2.9099598E4,0E0,2.493457E1,1.2946289E1,1.3583496E1,3.9020996E0,1.3533691E1,2.815918E0,0E0,0E0,0E0,0E0,0E0,0E0,0E0],"parents":[2147483647,0,0,2,2,3,3,4,4,5,5,6,6,7,7],"right_children":[2,-1,4,6,8,10,12,14,-1,-1,-1,-1,-1,-1,-1],"split_conditions":[6.9E1,-8.438966E-2,7.5E1,-1.8611E0,6.567568E0,-5.9318E0,7.82E1,8.841E-1,4.9286583E-3,2.5785211E-2,7.670875E-2,7.078024E-2,3.2617103E-2,7.466506E-2,8.16177E-2],"split_indices":[33,0,13,43,19,40,6,35,0,0,0,0,0,0,0],"split_type":[0,0,0,0,0,0,0,0,0,0,0,0,0,0,0],"sum_hessian":[1.1520794E4,5.3371094E3,6.1836846E3,4.326889E3,1.8567958E3,1.635293E3,2.691596E3,1.8505177E3,6.278087E0,5.340521E0,1.6299525E3,2.6651987E3,2.6397324E1,3.6797498E2,1.4825427E3],"tree_param":{"num_deleted":"0","num_feature":"50","num_nodes":"15","size_leaf_vector":"1"}},{"base_weights":[1.7226324E-3,-8.1605546E-2,1.4410495E0,1.3776981E0,1.507116E0,1.1798644E0,1.4093577E0,1.4255551E0,1.5715057E0,-2.0936528E-2,6.0617983E-2,6.798082E-2,7.3089205E-2,5.2155294E-2,7.184183E-2,7.949949E-2,7.193285E-2],"categories":[],"categories_nodes":[],"categories_segments":[],"categories_sizes":[],"default_left":[0,0,0,0,0,0,0,0,0,0,0,0,0,0,0,0,0],"id":5,"left_children":[1,-1,3,5,7,9,11,13,15,-1,-1,-1,-1,-1,-1,-1,-1],"loss_changes":[2.6351658E4,0E0,2.2569336E1,1.7205078E1,1.271582E1,2.2812134E1,4.57959E0,3.831787E0,1.3703613E0,0E0,0E0,0E0,0E0,0E0,0E0,0E0,0E0],"parents":[2147483647,0,0,2,2,3,3,4,4,5,5,6,6,7,7,8,8],"right_children":[2,-1,4,6,8,10,12,14,16,-1,-1,-1,-1,-1,-1,-1,-1],"split_conditions":[6.9E1,-8.1605546E-2,1.6129032E-1,7.461E-1,7E0,8.8235295E-1,4.02E1,2.0833333E-1,-9.48E-2,-2.0936528E-2,6.0617983E-2,6.798082E-2,7.3089205E-2,5.2155294E-2,7.184183E-2,7.949949E-2,7.193285E-2],"split_indices":[33,0,32,35,2,25,6,30,43,0,0,0,0,0,0,0,0],"split_type":[0,0,0,0,0,0,0,0,0,0,0,0,0,0,0,0,0],"sum_hessian":[1.1203754E4,5.247227E3,5.9565264E3,3.052675E3,2.9038516E3,4.268438E2,2.625831E3,1.2920007E3,1.6118507E3,8.205675E0,4.1863812E2,1.3622192E3,1.2636119E3,3.9950844E1,1.2520499E3,1.404686E3,2.071647E2],"tree_param":{"num_deleted":"0","num_feature":"50","num_nodes":"17","size_leaf_vector":"1"}},{"base_weights":[-1.5787423E-3,-7.9128176E-2,1.387619E0,1.228126E0,1.413028E0,1.2423192E0,-8.928921E-2,1.3485742E0,1.4632913E0,6.638452E-2,4.838486E-2,6.763815E-2,-3.8698453E-3,7.0062704E-2,7.556793E-2],"categories":[],"categories_nodes":[],"categories_segments":[],"categories_sizes":[],"default_left":[0,0,0,0,0,0,0,0,0,0,0,0,0,0,0],"id":6,"left_children":[1,-1,3,5,7,9,-1,11,13,-1,-1,-1,-1,-1,-1],"loss_changes":[2.4011668E4,0E0,2.158496E1,3.672229E1,1.3983398E1,1.7351685E1,0E0,1.3432129E1,5.951172E0,0E0,0E0,0E0,0E0,0E0,0E0],"parents":[2147483647,0,0,2,2,3,3,4,4,5,5,7,7,8,8],"right_children":[2,-1,4,6,8,10,-1,12,14,-1,-1,-1,-1,-1,-1],"split_conditions":[6.9E1,-7.9128176E-2,7.461E-1,5.398E-1,4.02E1,7.25E-2,-8.928921E-2,1.91E2,2.5128204E-1,6.638452E-2,4.838486E-2,6.763815E-2,-3.8698453E-3,7.0062704E-2,7.556793E-2],"split_indices":[33,0,35,45,6,44,0,7,23,0,0,0,0,0,0],"split_type":[0,0,0,0,0,0,0,0,0,0,0,0,0,0,0],"sum_hessian":[1.09307705E4,5.1124497E3,5.818321E3,8.06864E2,5.0114565E3,8.037002E2,3.1638222E0,2.2088354E3,2.8026213E3,6.099025E2,1.937977E2,2.2024868E3,6.34847E0,1.2375865E3,1.5650347E3],"tree_param":{"num_deleted":"0","num_feature":"50","num_nodes":"15","size_leaf_vector":"1"}},{"base_weights":[-9.424726E-3,-7.690831E-2,1.3372734E0,1.275034E0,1.428105E0,1.2797768E0,-5.20255E-1,1.4319727E0,-1.2052392E-3,5.4056562E-2,6.5429755E-2,-9.1946885E-2,6.157583E-2,4.9693014E-2,7.199827E-2],"categories":[],"categories_nodes":[],"categories_segments":[],"categories_sizes":[],"default_left":[0,0,0,0,0,0,0,0,0,0,0,0,0,0,0],"id":7,"left_children":[1,-1,3,5,7,9,11,13,-1,-1,-1,-1,-1,-1,-1],"loss_changes":[2.2096652E4,0E0,3.0168945E1,2.9658203E1,1.3155762E1,1.7737793E1,2.4509834E1,6.397461E0,0E0,0E0,0E0,0E0,0E0,0E0,0E0],"parents":[2147483647,0,0,2,2,3,3,4,4,5,5,6,6,7,7],"right_children":[2,-1,4,6,8,10,12,14,-1,-1,-1,-1,-1,-1,-1],"split_conditions":[2E1,-7.690831E-2,6.4E1,7.7E1,7.056818E0,7.461E-1,1.7E1,1.9672132E-1,-1.2052392E-3,5.4056562E-2,6.5429755E-2,-9.1946885E-2,6.157583E-2,4.9693014E-2,7.199827E-2],"split_indices":[34,0,13,6,19,35,2,23,0,0,0,0,0,0,0],"split_type":[0,0,0,0,0,0,0,0,0,0,0,0,0,0,0],"sum_hessian":[1.0731018E4,5.025788E3,5.7052295E3,3.3950327E3,2.3101965E3,3.3864292E3,8.603514E0,2.3041428E3,6.0538173E0,4.343597E2,2.9520696E3,4.9127016E0,3.6908119E0,4.3752155E1,2.2603906E3],"tree_param":{"num_deleted":"0","num_feature":"50","num_nodes":"15","size_leaf_vector":"1"}},{"base_weights":[6.608275E-3,-7.491761E-2,1.3028984E0,1.2506275E0,1.3955861E0,1.2548894E0,-0E0,1.2790512E0,1.4244133E0,5.389429E-2,6.4023584E-2,4.8918594E-2,-8.662159E-2,6.653775E-2,2.7325282E-2,6.8785556E-2,7.363968E-2],"categories":[],"categories_nodes":[],"categories_segments":[],"categories_sizes":[],"default_left":[0,0,0,0,0,0,0,0,0,0,0,0,0,0,0,0,0],"id":8,"left_children":[1,-1,3,5,7,9,11,13,15,-1,-1,-1,-1,-1,-1,-1,-1],"loss_changes":[2.067578E4,0E0,2.5576172E1,1.9336426E1,4.773926E0,1.4859863E1,2.4465355E1,1.4834045E1,1.5273438E0,0E0,0E0,0E0,0E0,0E0,0E0,0E0,0E0],"parents":[2147483647,0,0,2,2,3,3,4,4,5,5,6,6,7,7,8,8],"right_children":[2,-1,4,6,8,10,12,14,16,-1,-1,-1,-1,-1,-1,-1,-1],"split_conditions":[6.9E1,-7.491761E-2,6.9E1,3.53E2,8.841E-1,7.461E-1,-8.356E-1,5.566305E0,9E1,5.389429E-2,6.4023584E-2,4.8918594E-2,-8.662159E-2,6.653775E-2,2.7325282E-2,6.8785556E-2,7.363968E-2],"split_indices":[33,0,13,7,35,35,44,21,13,0,0,0,0,0,0,0,0],"split_type":[0,0,0,0,0,0,0,0,0,0,0,0,0,0,0,0,0],"sum_hessian":[1.05962705E4,4.90336E3,5.6929106E3,3.6500522E3,2.0428588E3,3.6375742E3,1.24779415E1,4.1481003E2,1.6280487E3,4.6528894E2,3.1722852E3,8.288929E0,4.189013E0,3.8657224E2,2.8237783E1,8.270236E2,8.010251E2],"tree_param":{"num_deleted":"0","num_feature":"50","num_nodes":"17","size_leaf_vector":"1"}},{"base_weights":[-1.1345248E-2,-7.311785E-2,1.257826E0,1.2250253E0,1.4119353E0,1.0744216E0,1.2500612E0,1.4163126E0,8.002198E-1,5.510212E-2,-1.0834525E-2,6.415464E-2,5.8676284E-2,5.973349E-2,7.153404E-2,1.6539412E-2,5.896792E-2],"categories":[],"categories_nodes":[],"categories_segments":[],"categories_sizes":[],"default_left":[0,0,0,0,0,0,0,0,0,0,0,0,0,0,0,0,0],"id":9,"left_children":[1,-1,3,5,7,9,11,13,15,-1,-1,-1,-1,-1,-1,-1,-1],"loss_changes":[1.8834695E4,0E0,2.5583984E1,1.5415039E1,1.1894531E0,2.350769E1,8E0,1.0285645E0,1.0985951E0,0E0,0E0,0E0,0E0,0E0,0E0,0E0,0E0],"parents":[2147483647,0,0,2,2,3,3,4,4,5,5,6,6,7,7,8,8],"right_children":[2,-1,4,6,8,10,12,14,16,-1,-1,-1,-1,-1,-1,-1,-1],"split_conditions":[6.9E1,-7.311785E-2,9E1,7.461E-1,5.566305E0,1.1687E0,1.5789474E0,2.4590164E-1,1.6E1,5.510212E-2,-1.0834525E-2,6.415464E-2,5.8676284E-2,5.973349E-2,7.153404E-2,1.6539412E-2,5.896792E-2],"split_indices":[33,0,13,35,21,44,20,23,2,0,0,0,0,0,0,0,0],"split_type":[0,0,0,0,0,0,0,0,0,0,0,0,0,0,0,0,0],"sum_hessian":[1.0225441E4,4.7709077E3,5.4545337E3,4.5052363E3,9.492973E2,6.4901105E2,3.8562253E3,9.410843E2,8.213002E0,6.356368E2,1.3374304E1,2.681748E3,1.1744773E3,6.2839005E1,8.7824524E2,4.624006E0,3.5889962E0],"tree_param":{"num_deleted":"0","num_feature":"50","num_nodes":"17","size_leaf_vector":"1"}},{"base_weights":[-5.0486317E-3,-7.14845E-2,1.225131E0,1.1894516E0,1.3863482E0,1.0273649E0,1.2150602E0,1.3900194E0,8.032285E-1,5.2552678E-2,-3.1527605E-2,5.7442214E-2,6.297148E-2,4.06647E-2,6.96844E-2,1.9478353E-2,5.460303E-2],"categories":[],"categories_nodes":[],"categories_segments":[],"categories_sizes":[],"default_left":[0,0,0,0,0,0,0,0,0,0,0,0,0,0,0,0,0],"id":10,"left_children":[1,-1,3,5,7,9,11,13,15,-1,-1,-1,-1,-1,-1,-1,-1],"loss_changes":[1.75891E4,0E0,2.9072754E1,1.6862305E1,7.3950195E-1,2.4649536E1,9.501953E0,6.8078613E-1,4.543996E-1,0E0,0E0,0E0,0E0,0E0,0E0,0E0,0E0],"parents":[2147483647,0,0,2,2,3,3,4,4,5,5,6,6,7,7,8,8],"right_children":[2,-1,4,6,8,10,12,14,16,-1,-1,-1,-1,-1,-1,-1,-1],"split_conditions":[2E1,-7.14845E-2,9.1E1,7.461E-1,2.9E1,4.69E-2,3.8E1,8.55E0,1.1E1,5.2552678E-2,-3.1527605E-2,5.7442214E-2,6.297148E-2,4.06647E-2,6.96844E-2,1.9478353E-2,5.460303E-2],"split_indices":[34,0,13,35,1,49,13,26,5,0,0,0,0,0,0,0,0],"split_type":[0,0,0,0,0,0,0,0,0,0,0,0,0,0,0,0,0],"sum_hessian":[1.0034194E4,4.649565E3,5.3846294E3,4.416255E3,9.683746E2,6.086848E2,3.8075703E3,9.6077057E2,7.603993E0,6.0053064E2,8.154161E0,1.5393771E3,2.268193E3,7.6527386E0,9.531178E2,4.234454E0,3.369539E0],"tree_param":{"num_deleted":"0","num_feature":"50","num_nodes":"17","size_leaf_vector":"1"}},{"base_weights":[-1.11269485E-2,-7.000287E-2,1.1875591E0,1.0253997E0,1.2147299E0,1.0454059E0,-6.673456E-1,1.1589912E0,1.286706E0,5.6747623E-2,4.0682796E-2,-1.0533824E-1,6.1049033E-2,6.042878E-2,5.4042038E-2,5.7532E-2,6.6544086E-2],"categories":[],"categories_nodes":[],"categories_segments":[],"categories_sizes":[],"default_left":[0,0,0,0,0,0,0,0,0,0,0,0,0,0,0,0,0],"id":11,"left_children":[1,-1,3,5,7,9,11,13,15,-1,-1,-1,-1,-1,-1,-1,-1],"loss_changes":[1.6234327E4,0E0,2.159082E1,2.640747E1,1.6225098E1,1.4438721E1,2.8229187E1,8.283447E0,9.905273E0,0E0,0E0,0E0,0E0,0E0,0E0,0E0,0E0],"parents":[2147483647,0,0,2,2,3,3,4,4,5,5,6,6,7,7,8,8],"right_children":[2,-1,4,6,8,10,12,14,16,-1,-1,-1,-1,-1,-1,-1,-1],"split_conditions":[6.9E1,-7.000287E-2,7.461E-1,8.722263E0,5.3E1,5.458081E0,7.9E1,2.1E1,8.865671E0,5.6747623E-2,4.0682796E-2,-1.0533824E-1,6.1049033E-2,6.042878E-2,5.4042038E-2,5.7532E-2,6.6544086E-2],"split_indices":[33,0,35,21,6,21,33,0,26,0,0,0,0,0,0,0,0],"split_type":[0,0,0,0,0,0,0,0,0,0,0,0,0,0,0,0,0],"sum_hessian":[9.748971E3,4.516069E3,5.232902E3,7.5706177E2,4.4758403E3,7.486551E2,8.406699E0,2.5328672E3,1.942973E3,5.368799E2,2.117752E2,4.7347827E0,3.6719167E0,1.540022E3,9.928452E2,4.8338995E2,1.459583E3],"tree_param":{"num_deleted":"0","num_feature":"50","num_nodes":"17","size_leaf_vector":"1"}},{"base_weights":[-7.690361E-5,-6.865191E-2,1.1572871E0,1.1151673E0,1.3078114E0,9.5737463E-1,1.1416274E0,1.3110368E0,1.5268952E-2,4.9780667E-2,-5.3430963E-2,5.964954E-2,5.3680506E-2,6.571226E-2,1.6181564E-2],"categories":[],"categories_nodes":[],"categories_segments":[],"categories_sizes":[],"default_left":[0,0,0,0,0,0,0,0,0,0,0,0,0,0,0],"id":12,"left_children":[1,-1,3,5,7,9,11,13,-1,-1,-1,-1,-1,-1,-1],"loss_changes":[1.5217211E4,0E0,3.1243652E1,1.5679199E1,3.0910645E0,4.6830383E1,1.0641602E1,2.9769287E0,0E0,0E0,0E0,0E0,0E0,0E0,0E0],"parents":[2147483647,0,0,2,2,3,3,4,4,5,5,6,6,7,7],"right_children":[2,-1,4,6,8,10,12,14,-1,-1,-1,-1,-1,-1,-1],"split_conditions":[6.9E1,-6.865191E-2,8.4E1,7.461E-1,1.840909E0,4.45E-2,2.1E1,2.7763E0,1.5268952E-2,4.9780667E-2,-5.3430963E-2,5.964954E-2,5.3680506E-2,6.571226E-2,1.6181564E-2],"split_indices":[33,0,13,35,28,49,0,43,0,0,0,0,0,0,0],"split_type":[0,0,0,0,0,0,0,0,0,0,0,0,0,0,0],"sum_hessian":[9.574487E3,4.3792993E3,5.195188E3,4.066397E3,1.1287908E3,5.898478E2,3.4765493E3,1.124764E3,4.026663E0,5.794688E2,1.03789835E1,1.9705073E3,1.506042E3,1.1206904E3,4.07371E0],"tree_param":{"num_deleted":"0","num_feature":"50","num_nodes":"15","size_leaf_vector":"1"}},{"base_weights":[1.2158504E-2,-6.740877E-2,1.1340593E0,1.0681574E0,1.2332865E0,1.0740122E0,-8.6658293E-1,1.0337791E0,1.2555383E0,4.3882046E-2,5.517247E-2,5.3177435E-2,-1.0070167E-1,6.1855208E-2,3.0609531E-2,6.28835E-2,1.600446E-2],"categories":[],"categories_nodes":[],"categories_segments":[],"categories_sizes":[],"default_left":[0,0,0,0,0,0,0,0,0,0,0,0,0,0,0,0,0],"id":13,"left_children":[1,-1,3,5,7,9,11,13,15,-1,-1,-1,-1,-1,-1,-1,-1],"loss_changes":[1.4278798E4,0E0,3.1981934E1,3.594409E1,7.526367E0,1.6639648E1,2.3990055E1,1.7121826E1,3.0876465E0,0E0,0E0,0E0,0E0,0E0,0E0,0E0,0E0],"parents":[2147483647,0,0,2,2,3,3,4,4,5,5,6,6,7,7,8,8],"right_children":[2,-1,4,6,8,10,12,14,16,-1,-1,-1,-1,-1,-1,-1,-1],"split_conditions":[2E1,-6.740877E-2,6.5E1,7.7E1,8.590909E0,7.461E-1,-3.0563E0,-2.7313E0,7.65E0,4.3882046E-2,5.517247E-2,5.3177435E-2,-1.0070167E-1,6.1855208E-2,3.0609531E-2,6.28835E-2,1.600446E-2],"split_indices":[34,0,13,6,26,35,36,46,19,0,0,0,0,0,0,0,0],"split_type":[0,0,0,0,0,0,0,0,0,0,0,0,0,0,0,0,0],"sum_hessian":[9.354044E3,4.2276353E3,5.1264087E3,3.0881687E3,2.03824E3,3.0793467E3,8.821958E0,2.0973499E2,1.828505E3,4.0589468E2,2.6734521E3,3.283961E0,5.5379963E0,1.4002951E2,6.9705475E1,1.8238975E3,4.6075006E0],"tree_param":{"num_deleted":"0","num_feature":"50","num_nodes":"17","size_leaf_vector":"1"}},{"base_weights":[1.1479613E-2,-6.627791E-2,1.1044745E0,1.144624E0,9.8054916E-1,1.0410161E0,1.1813278E0,8.03437E-1,1.0464079E0,4.3746293E-2,5.5083085E-2,5.5327993E-2,6.115474E-2,4.57357E-3,4.552403E-2,-7.0150206E-3,5.263207E-2],"categories":[],"categories_nodes":[],"categories_segments":[],"categories_sizes":[],"default_left":[0,0,0,0,0,0,0,0,0,0,0,0,0,0,0,0,0],"id":14,"left_children":[1,-1,3,5,7,9,11,13,15,-1,-1,-1,-1,-1,-1,-1,-1],"loss_changes":[1.3314977E4,0E0,2.3608887E1,1.2921875E1,1.3371948E1,8.890015E0,7.1047363E0,2.567421E1,6.8671265E0,0E0,0E0,0E0,0E0,0E0,0E0,0E0,0E0],"parents":[2147483647,0,0,2,2,3,3,4,4,5,5,6,6,7,7,8,8],"right_children":[2,-1,4,6,8,10,12,14,16,-1,-1,-1,-1,-1,-1,-1,-1],"split_conditions":[6.9E1,-6.627791E-2,7.48E-2,1E0,2.56E1,1.3636364E-1,4E0,7.8876405E0,-2.1085E0,4.3746293E-2,5.5083085E-2,5.5327993E-2,6.115474E-2,4.57357E-3,4.552403E-2,-7.0150206E-3,5.263207E-2],"split_indices":[33,0,38,35,34,32,2,26,37,0,0,0,0,0,0,0,0],"split_type":[0,0,0,0,0,0,0,0,0,0,0,0,0,0,0,0,0],"sum_hessian":[9.109277E3,4.09709E3,5.012188E3,3.7788643E3,1.2333235E3,9.968975E2,2.7819668E3,3.382894E2,8.9503406E2,2.7121008E2,7.2568744E2,1.0077905E3,1.7741763E3,4.4578537E1,2.9371088E2,4.4806023E0,8.9055347E2],"tree_param":{"num_deleted":"0","num_feature":"50","num_nodes":"17","size_leaf_vector":"1"}},{"base_weights":[-1.3580679E-2,-6.522759E-2,1.0659757E0,1.0260913E0,1.2474445E0,1.1249579E0,9.658761E-1,1.2526584E0,5.168414E-1,1.1002692E-2,5.6486662E-2,4.14015E-2,5.0080795E-2,6.407734E-2,5.794642E-2,3.7401102E-2,9.137839E-3],"categories":[],"categories_nodes":[],"categories_segments":[],"categories_sizes":[],"default_left":[0,0,0,0,0,0,0,0,0,0,0,0,0,0,0,0,0],"id":15,"left_children":[1,-1,3,5,7,9,11,13,15,-1,-1,-1,-1,-1,-1,-1,-1],"loss_changes":[1.2143584E4,0E0,3.2836914E1,2.1899902E1,2.413086E0,5.960449E0,1.0955078E1,5.5358887E-1,3.7732816E-1,0E0,0E0,0E0,0E0,0E0,0E0,0E0,0E0],"parents":[2147483647,0,0,2,2,3,3,4,4,5,5,6,6,7,7,8,8],"right_children":[2,-1,4,6,8,10,12,14,16,-1,-1,-1,-1,-1,-1,-1,-1],"split_conditions":[2E1,-6.522759E-2,9E1,-1.9224E0,5.7E1,-1.025E-1,7.461E-1,2.2E1,1.7E1,1.1002692E-2,5.6486662E-2,4.14015E-2,5.0080795E-2,6.407734E-2,5.794642E-2,3.7401102E-2,9.137839E-3],"split_indices":[34,0,13,43,10,42,35,0,1,0,0,0,0,0,0,0,0],"split_type":[0,0,0,0,0,0,0,0,0,0,0,0,0,0,0,0,0],"sum_hessian":[8.711333E3,3.9671548E3,4.7441777E3,3.895259E3,8.4891864E2,1.4671012E3,2.428158E3,8.420579E2,6.860698E0,8.058582E0,1.4590426E3,5.0548798E2,1.9226699E3,6.3316986E2,2.0888806E2,3.1456318E0,3.7150664E0],"tree_param":{"num_deleted":"0","num_feature":"50","num_nodes":"17","size_leaf_vector":"1"}},{"base_weights":[1.594534E-2,-1.2715132E0,3.8720143E-1,-6.4003654E-2,-1.0765263E0,-1.437106E-1,8.238967E-1,-6.318363E-2,-5.7100505E-1,-7.9574484E-1,1.14230976E-1,9.698877E-1,3.4899235E-1,1.8359913E-2,-5.9866786E-2,7.0872963E-3,-4.550782E-2,-1.0210419E-2,1.9698411E-2,4.2443305E-2,5.8971416E-2,-1.3315755E-2,3.0901546E-2],"categories":[],"categories_nodes":[],"categories_segments":[],"categories_sizes":[],"default_left":[0,0,0,0,0,0,0,0,0,0,0,0,0,0,0,0,0,0,0,0,0,0,0],"id":16,"left_children":[1,3,5,-1,7,9,11,-1,13,15,17,19,21,-1,-1,-1,-1,-1,-1,-1,-1,-1,-1],"loss_changes":[4.1096333E3,1.5981445E0,1.54747E3,0E0,7.3926773E0,5.0685547E2,2.5342456E2,0E0,1.5604525E1,9.18288E1,1.9246506E2,6.980737E1,1.43025E2,0E0,0E0,0E0,0E0,0E0,0E0,0E0,0E0,0E0,0E0],"parents":[2147483647,0,0,1,1,2,2,4,4,5,5,6,6,8,8,9,9,10,10,11,11,12,12],"right_children":[2,4,6,-1,8,10,12,-1,14,16,18,20,22,-1,-1,-1,-1,-1,-1,-1,-1,-1,-1],"split_conditions":[1.8E1,6.2E1,3.7E1,-6.4003654E-2,1.1E1,7.461E-1,5.3644843E0,-6.318363E-2,2.4E1,4.450381E0,2.0121951E-1,8.4E1,7.461E-1,1.8359913E-2,-5.9866786E-2,7.0872963E-3,-4.550782E-2,-1.0210419E-2,1.9698411E-2,4.2443305E-2,5.8971416E-2,-1.3315755E-2,3.0901546E-2],"split_indices":[0,13,13,0,14,35,21,0,12,21,23,13,35,0,0,0,0,0,0,0,0,0,0],"split_type":[0,0,0,0,0,0,0,0,0,0,0,0,0,0,0,0,0,0,0,0,0,0,0],"sum_hessian":[8.59613E3,1.9233962E3,6.672734E3,1.8366886E3,8.670766E1,3.0117014E3,3.6610325E3,6.2041904E1,2.4665752E1,8.532152E2,2.1584863E3,2.7992563E3,8.6177625E2,9.976166E0,1.4689588E1,9.268001E1,7.6053516E2,1.009375E3,1.1491112E3,1.7779296E3,1.02132684E3,2.6206232E2,5.9971387E2],"tree_param":{"num_deleted":"0","num_feature":"50","num_nodes":"23","size_leaf_vector":"1"}},{"base_weights":[6.9193365E-3,-6.377638E-2,1.0358301E0,1.1222954E0,9.769185E-1,-2.118437E-2,1.1265163E0,9.179238E-1,1.058714E0,4.9147908E-2,5.836981E-2,3.900216E-2,4.844599E-2,5.3580817E-2,-2.0145727E-2],"categories":[],"categories_nodes":[],"categories_segments":[],"categories_sizes":[],"default_left":[0,0,0,0,0,0,0,0,0,0,0,0,0,0,0],"id":17,"left_children":[1,-1,3,5,7,-1,9,11,13,-1,-1,-1,-1,-1,-1],"loss_changes":[1.105994E4,0E0,2.2382812E1,1.2797119E1,1.221875E1,0E0,9.625977E0,1.04609375E1,2.2286377E1,0E0,0E0,0E0,0E0,0E0,0E0],"parents":[2147483647,0,0,2,2,3,3,4,4,6,6,7,7,8,8],"right_children":[2,-1,4,6,8,-1,10,12,14,-1,-1,-1,-1,-1,-1],"split_conditions":[6.9E1,-6.377638E-2,-1.8611E0,-1.056E-1,1E1,-2.118437E-2,1.29E2,2.55E1,7.65E0,4.9147908E-2,5.836981E-2,3.900216E-2,4.844599E-2,5.3580817E-2,-2.0145727E-2],"split_indices":[33,0,43,42,2,0,7,34,19,0,0,0,0,0,0],"split_type":[0,0,0,0,0,0,0,0,0,0,0,0,0,0,0],"sum_hessian":[8.379785E3,3.7301477E3,4.6496377E3,1.8761877E3,2.7734502E3,4.7734294E0,1.8714144E3,1.6191146E3,1.1543354E3,4.208832E2,1.4505311E3,4.4208392E2,1.1770306E3,1.1445673E3,9.768218E0],"tree_param":{"num_deleted":"0","num_feature":"50","num_nodes":"15","size_leaf_vector":"1"}},{"base_weights":[1.6594902E-2,-6.292381E-2,1.0174499E0,9.844129E-1,1.1880043E0,1.052684E0,9.2799145E-1,1.1929846E0,2.9990938E-3,2.0633375E-2,5.3077955E-2,2.6513038E-2,4.705461E-2,4.7701322E-3,5.9897043E-2],"categories":[],"categories_nodes":[],"categories_segments":[],"categories_sizes":[],"default_left":[0,0,0,0,0,0,0,0,0,0,0,0,0,0,0],"id":18,"left_children":[1,-1,3,5,7,9,11,13,-1,-1,-1,-1,-1,-1,-1],"loss_changes":[1.04754795E4,0E0,2.4525879E1,1.3689453E1,3.9656982E0,9.286011E0,1.0410889E1,3.7685547E0,0E0,0E0,0E0,0E0,0E0,0E0,0E0],"parents":[2147483647,0,0,2,2,3,3,4,4,5,5,6,6,7,7],"right_children":[2,-1,4,6,8,10,12,14,-1,-1,-1,-1,-1,-1,-1],"split_conditions":[6.9E1,-6.292381E-2,9.1E1,-1.797E-1,2.9E1,-4.9487E0,7.2E1,8.55E0,2.9990938E-3,2.0633375E-2,5.3077955E-2,2.6513038E-2,4.705461E-2,4.7701322E-3,5.9897043E-2],"split_indices":[33,0,13,45,1,40,33,26,0,0,0,0,0,0,0],"split_type":[0,0,0,0,0,0,0,0,0,0,0,0,0,0,0],"sum_hessian":[8.206602E3,3.6087556E3,4.597846E3,3.857912E3,7.399341E2,1.7368535E3,2.1210586E3,7.3653595E2,3.3981283E0,2.4559336E1,1.7122942E3,6.920292E1,2.0518557E3,3.49265E0,7.330433E2],"tree_param":{"num_deleted":"0","num_feature":"50","num_nodes":"15","size_leaf_vector":"1"}},{"base_weights":[3.5457633E-4,-6.213621E-2,9.9047875E-1,9.4246906E-1,1.0938227E0,-1.6080202E-1,9.467712E-1,1.0999614E0,-2.6341539E-2,-6.0722172E-2,5.250783E-2,4.7950793E-2,2.788031E-2,4.930992E-2,5.791037E-2,-2.9296875E-2,3.540878E-2],"categories":[],"categories_nodes":[],"categories_segments":[],"categories_sizes":[],"default_left":[0,0,0,0,0,0,0,0,0,0,0,0,0,0,0,0,0],"id":19,"left_children":[1,-1,3,5,7,9,11,13,15,-1,-1,-1,-1,-1,-1,-1,-1],"loss_changes":[9.688749E3,0E0,2.050586E1,1.4469238E1,9.646606E0,1.713447E1,1.3553711E1,7.758423E0,3.8659976E0,0E0,0E0,0E0,0E0,0E0,0E0,0E0,0E0],"parents":[2147483647,0,0,2,2,3,3,4,4,5,5,6,6,7,7,8,8],"right_children":[2,-1,4,6,8,10,12,14,16,-1,-1,-1,-1,-1,-1,-1,-1],"split_conditions":[6.9E1,-6.213621E-2,1.915493E-1,-4.9487E0,1.1E-1,1E1,2.6E1,4.21E1,9.1267605E0,-6.0722172E-2,5.250783E-2,4.7950793E-2,2.788031E-2,4.930992E-2,5.791037E-2,-2.9296875E-2,3.540878E-2],"split_indices":[33,0,32,40,49,17,1,6,27,0,0,0,0,0,0,0,0],"split_type":[0,0,0,0,0,0,0,0,0,0,0,0,0,0,0,0,0],"sum_hessian":[7.869917E3,3.4890884E3,4.3808286E3,2.9987903E3,1.3820383E3,1.1416714E1,2.9873735E3,1.3746125E3,7.425786E0,6.147524E0,5.26919E0,2.8945776E3,9.279583E1,4.721273E2,9.024852E2,4.406838E0,3.018948E0],"tree_param":{"num_deleted":"0","num_feature":"50","num_nodes":"17","size_leaf_vector":"1"}},{"base_weights":[-9.878853E-3,-6.1403155E-2,9.6765554E-1,9.2809457E-1,1.1609479E0,7.588895E-1,9.5798284E-1,1.1644406E0,1.6434833E-2,3.9035033E-2,-3.9704394E-2,4.392378E-2,5.0691742E-2,5.8417E-2,9.00054E-3],"categories":[],"categories_nodes":[],"categories_segments":[],"categories_sizes":[],"default_left":[0,0,0,0,0,0,0,0,0,0,0,0,0,0,0],"id":20,"left_children":[1,-1,3,5,7,9,11,13,-1,-1,-1,-1,-1,-1,-1],"loss_changes":[8.949007E3,0E0,3.0595947E1,1.6631348E1,1.5141602E0,1.8424805E1,1.1983154E1,2.34375E0,0E0,0E0,0E0,0E0,0E0,0E0,0E0],"parents":[2147483647,0,0,2,2,3,3,4,4,5,5,6,6,7,7],"right_children":[2,-1,4,6,8,10,12,14,-1,-1,-1,-1,-1,-1,-1],"split_conditions":[6.9E1,-6.1403155E-2,9.1E1,7.461E-1,6.1578946E0,2.3823528E0,3.8E1,5.7E1,1.6434833E-2,3.9035033E-2,-3.9704394E-2,4.392378E-2,5.0691742E-2,5.8417E-2,9.00054E-3],"split_indices":[33,0,13,35,19,28,13,10,0,0,0,0,0,0,0],"split_type":[0,0,0,0,0,0,0,0,0,0,0,0,0,0,0],"sum_hessian":[7.512995E3,3.3447183E3,4.168277E3,3.4653467E3,7.029299E2,5.2468823E2,2.9406584E3,6.9947504E2,3.4548235E0,5.179751E2,6.713143E0,1.2210177E3,1.7196407E3,6.9642804E2,3.047E0],"tree_param":{"num_deleted":"0","num_feature":"50","num_nodes":"15","size_leaf_vector":"1"}},{"base_weights":[-6.9560534E-3,-6.0722042E-2,9.424025E-1,8.7355626E-1,1.0713637E0,8.824206E-1,-6.184977E-1,-1.0074124E-1,1.0773524E0,4.725883E-2,3.937393E-2,2.817597E-2,-1.2784275E-1,-2.7793283E-2,2.292255E-2,5.7117414E-2,5.023535E-2],"categories":[],"categories_nodes":[],"categories_segments":[],"categories_sizes":[],"default_left":[0,0,0,0,0,0,0,0,0,0,0,0,0,0,0,0,0],"id":21,"left_children":[1,-1,3,5,7,9,11,13,15,-1,-1,-1,-1,-1,-1,-1,-1],"loss_changes":[8.430966E3,0E0,3.542627E1,3.615381E1,1.0230957E1,1.5019531E1,3.9238136E1,2.3233483E0,5.347046E0,0E0,0E0,0E0,0E0,0E0,0E0,0E0,0E0],"parents":[2147483647,0,0,2,2,3,3,4,4,5,5,6,6,7,7,8,8],"right_children":[2,-1,4,6,8,10,12,14,16,-1,-1,-1,-1,-1,-1,-1,-1],"split_conditions":[6.9E1,-6.0722042E-2,6.9E1,7.72E1,7.7142854E0,2.1E1,-1.0811417E0,2.4E1,-1.6846E0,4.725883E-2,3.937393E-2,2.817597E-2,-1.2784275E-1,-2.7793283E-2,2.292255E-2,5.7117414E-2,5.023535E-2],"split_indices":[33,0,13,6,26,0,22,12,43,0,0,0,0,0,0,0,0],"split_type":[0,0,0,0,0,0,0,0,0,0,0,0,0,0,0,0,0],"sum_hessian":[7.3526855E3,3.2362896E3,4.116396E3,2.6892715E3,1.4271243E3,2.6738616E3,1.5409931E1,7.089405E0,1.4200348E3,1.6037715E3,1.0700902E3,9.981107E0,5.428824E0,4.0102534E0,3.0791514E0,7.4097943E2,6.790554E2],"tree_param":{"num_deleted":"0","num_feature":"50","num_nodes":"17","size_leaf_vector":"1"}},{"base_weights":[-6.6816434E-3,-6.0090065E-2,9.180479E-1,1.020109E0,8.539459E-1,1.0280079E0,3.6459047E-1,5.285786E-1,8.6648184E-1,5.157107E-2,-1.5700625E-2,-2.2014743E-2,4.6108354E-2,-4.909138E-2,3.557364E-2,4.1061647E-2,4.7335636E-2],"categories":[],"categories_nodes":[],"categories_segments":[],"categories_sizes":[],"default_left":[0,0,0,0,0,0,0,0,0,0,0,0,0,0,0,0,0],"id":22,"left_children":[1,-1,3,5,7,9,11,13,15,-1,-1,-1,-1,-1,-1,-1,-1],"loss_changes":[7.857908E3,0E0,2.516626E1,7.4630127E0,9.472412E0,7.366333E0,9.449453E0,2.6763441E1,7.6691895E0,0E0,0E0,0E0,0E0,0E0,0E0,0E0,0E0],"parents":[2147483647,0,0,2,2,3,3,4,4,5,5,6,6,7,7,8,8],"right_children":[2,-1,4,6,8,10,12,14,16,-1,-1,-1,-1,-1,-1,-1,-1],"split_conditions":[6.9E1,-6.0090065E-2,-3.387E-1,6.3529415E0,7.2E1,3.7606838E-1,1.2752E0,6.335E-1,5.4E1,5.157107E-2,-1.5700625E-2,-2.2014743E-2,4.6108354E-2,-4.909138E-2,3.557364E-2,4.1061647E-2,4.7335636E-2],"split_indices":[33,0,45,19,33,30,36,35,6,0,0,0,0,0,0,0,0],"split_type":[0,0,0,0,0,0,0,0,0,0,0,0,0,0,0,0,0],"sum_hessian":[7.1081597E3,3.100668E3,4.007492E3,1.5396448E3,2.4678472E3,1.5206013E3,1.9043531E1,9.345234E1,2.3743948E3,1.5170485E3,3.5528755E0,7.8060966E0,1.1237435E1,9.562953E0,8.388939E1,1.526152E3,8.482428E2],"tree_param":{"num_deleted":"0","num_feature":"50","num_nodes":"17","size_leaf_vector":"1"}},{"base_weights":[-7.48736E-3,-5.9502184E-2,8.98782E-1,8.3634734E-1,1.0180571E0,6.152567E-1,8.761385E-1,9.1291106E-1,1.1207703E0,-4.4274878E-2,3.2364484E-2,3.77734E-2,4.6202675E-2,3.0402819E-2,4.7498062E-2,5.697278E-2,4.1179147E-2],"categories":[],"categories_nodes":[],"categories_segments":[],"categories_sizes":[],"default_left":[0,0,0,0,0,0,0,0,0,0,0,0,0,0,0,0,0],"id":23,"left_children":[1,-1,3,5,7,9,11,13,15,-1,-1,-1,-1,-1,-1,-1,-1],"loss_changes":[7.3403193E3,0E0,2.7838623E1,2.1756958E1,1.3106323E1,1.9436829E1,1.1619629E1,6.7400513E0,2.5662231E0,0E0,0E0,0E0,0E0,0E0,0E0,0E0,0E0],"parents":[2147483647,0,0,2,2,3,3,4,4,5,5,6,6,7,7,8,8],"right_children":[2,-1,4,6,8,10,12,14,16,-1,-1,-1,-1,-1,-1,-1,-1],"split_conditions":[6.9E1,-5.9502184E-2,1.868512E-1,7.461E-1,7E0,-4.545455E-2,2.55E1,2.3E-2,-6.48E-2,-4.4274878E-2,3.2364484E-2,3.77734E-2,4.6202675E-2,3.0402819E-2,4.7498062E-2,5.697278E-2,4.1179147E-2],"split_indices":[33,0,32,35,2,32,34,41,45,0,0,0,0,0,0,0,0],"split_type":[0,0,0,0,0,0,0,0,0,0,0,0,0,0,0,0,0],"sum_hessian":[6.847111E3,2.9706372E3,3.8764739E3,2.5503435E3,1.3261302E3,3.9188672E2,2.1584568E3,6.6067175E2,6.654585E2,7.5677977E0,3.843189E2,6.188304E2,1.5396265E3,7.377237E1,5.8689935E2,6.231106E2,4.234789E1],"tree_param":{"num_deleted":"0","num_feature":"50","num_nodes":"17","size_leaf_vector":"1"}},{"base_weights":[-2.3014315E-3,-5.8946785E-2,8.795402E-1,8.068975E-1,1.0057359E0,8.1421846E-1,-1.2776395E0,8.4423506E-1,1.0613449E0,2.9854897E-2,4.1988727E-2,2.5119483E-2,-1.1916E-1,-3.36287E-2,4.3811917E-2,5.326609E-2,-0E0],"categories":[],"categories_nodes":[],"categories_segments":[],"categories_sizes":[],"default_left":[0,0,0,0,0,0,0,0,0,0,0,0,0,0,0,0,0],"id":24,"left_children":[1,-1,3,5,7,9,11,13,15,-1,-1,-1,-1,-1,-1,-1,-1],"loss_changes":[6.9092104E3,0E0,3.389868E1,3.7943115E1,1.1360474E1,1.2746094E1,1.8732525E1,1.8101562E1,4.428955E0,0E0,0E0,0E0,0E0,0E0,0E0,0E0,0E0],"parents":[2147483647,0,0,2,2,3,3,4,4,5,5,6,6,7,7,8,8],"right_children":[2,-1,4,6,8,10,12,14,16,-1,-1,-1,-1,-1,-1,-1,-1],"split_conditions":[6.9E1,-5.8946785E-2,6.6E1,7.72E1,2.4473684E-1,6.335E-1,-2.3351E0,6.1E1,7.147059E0,2.9854897E-2,4.1988727E-2,2.5119483E-2,-1.1916E-1,-3.36287E-2,4.3811917E-2,5.326609E-2,-0E0],"split_indices":[33,0,13,6,23,35,36,8,19,0,0,0,0,0,0,0,0],"split_type":[0,0,0,0,0,0,0,0,0,0,0,0,0,0,0,0,0],"sum_hessian":[6.656778E3,2.8516375E3,3.8051404E3,2.4201846E3,1.3849559E3,2.4123696E3,7.8149233E0,3.5933817E2,1.0256178E3,2.5702274E2,2.155347E3,3.1685174E0,4.6464057E0,6.9469E0,3.5239127E2,1.0218697E3,3.7480843E0],"tree_param":{"num_deleted":"0","num_feature":"50","num_nodes":"17","size_leaf_vector":"1"}},{"base_weights":[1.1712662E-2,-5.8431823E-2,8.694681E-1,8.032607E-1,1.0183549E0,6.8577045E-1,8.478251E-1,9.365023E-1,1.1068683E0,3.5104882E-2,-1.0694887E-1,-3.5223756E-2,4.2565346E-2,-4.9237702E-2,4.7488466E-2,5.5577267E-2,8.850117E-3],"categories":[],"categories_nodes":[],"categories_segments":[],"categories_sizes":[],"default_left":[0,0,0,0,0,0,0,0,0,0,0,0,0,0,0,0,0],"id":25,"left_children":[1,-1,3,5,7,9,11,13,15,-1,-1,-1,-1,-1,-1,-1,-1],"loss_changes":[6.571643E3,0E0,3.605493E1,1.2916504E1,7.1119385E0,3.4695465E1,1.0804932E1,1.6380066E1,2.0568848E0,0E0,0E0,0E0,0E0,0E0,0E0,0E0,0E0],"parents":[2147483647,0,0,2,2,3,3,4,4,5,5,6,6,7,7,8,8],"right_children":[2,-1,4,6,8,10,12,14,16,-1,-1,-1,-1,-1,-1,-1,-1],"split_conditions":[6.9E1,-5.8431823E-2,7.2E1,1E0,2.2946E0,3.53E2,2E-1,-2.1427E0,6.179298E0,3.5104882E-2,-1.0694887E-1,-3.5223756E-2,4.2565346E-2,-4.9237702E-2,4.7488466E-2,5.5577267E-2,8.850117E-3],"split_indices":[33,0,13,35,35,7,6,46,21,0,0,0,0,0,0,0,0],"split_type":[0,0,0,0,0,0,0,0,0,0,0,0,0,0,0,0,0],"sum_hessian":[6.4888525E3,2.7306929E3,3.7581594E3,2.606265E3,1.1518945E3,7.21837E2,1.884428E3,6.0506866E2,5.4682587E2,7.18471E2,3.3659482E0,3.7024539E0,1.8807255E3,3.5957048E0,6.0147296E2,5.437878E2,3.0381176E0],"tree_param":{"num_deleted":"0","num_feature":"50","num_nodes":"17","size_leaf_vector":"1"}},{"base_weights":[2.4111437E-6,-5.7955023E-2,8.4341615E-1,8.002466E-1,1.0621017E0,8.7885016E-1,7.374273E-1,1.0703816E0,3.8137504E-1,-1.3205021E-2,4.4448182E-2,3.710706E-2,-4.747873E-2,4.6293043E-2,5.5376887E-2,-1.8056838E-2,4.752296E-2],"categories":[],"categories_nodes":[],"categories_segments":[],"categories_sizes":[],"default_left":[0,0,0,0,0,0,0,0,0,0,0,0,0,0,0,0,0],"id":26,"left_children":[1,-1,3,5,7,9,11,13,15,-1,-1,-1,-1,-1,-1,-1,-1],"loss_changes":[6.047259E3,0E0,3.2766113E1,1.3977539E1,2.7543945E0,1.5605286E1,1.3975708E1,1.8809204E0,4.099927E0,0E0,0E0,0E0,0E0,0E0,0E0,0E0,0E0],"parents":[2147483647,0,0,2,2,3,3,4,4,5,5,6,6,7,7,8,8],"right_children":[2,-1,4,6,8,10,12,14,16,-1,-1,-1,-1,-1,-1,-1,-1],"split_conditions":[6.9E1,-5.7955023E-2,9E1,-1.797E-1,5.7E1,-9.32E-2,1.6E1,1.33E-2,6.3E1,-1.3205021E-2,4.4448182E-2,3.710706E-2,-4.747873E-2,4.6293043E-2,5.5376887E-2,-1.8056838E-2,4.752296E-2],"split_indices":[33,0,13,45,10,42,11,48,10,0,0,0,0,0,0,0,0],"split_type":[0,0,0,0,0,0,0,0,0,0,0,0,0,0,0,0,0],"sum_hessian":[6.183834E3,2.6042805E3,3.5795532E3,2.9937002E3,5.858533E2,1.3233093E3,1.6703909E3,5.7810223E2,7.750999E0,1.129968E1,1.3120096E3,1.6663539E3,4.0369077E0,1.24083206E2,4.5401904E2,3.4453583E0,4.305641E0],"tree_param":{"num_deleted":"0","num_feature":"50","num_nodes":"17","size_leaf_vector":"1"}},{"base_weights":[-7.341241E-3,-5.7502557E-2,8.1413895E-1,5.7007307E-1,8.5645884E-1,5.961004E-1,-1.203926E0,7.970956E-1,1.016716E0,3.1277098E-2,-3.2866348E-2,-1.39816E-1,4.92247E-2,3.2957654E-2,4.18933E-2,4.6206795E-2,5.412167E-2],"categories":[],"categories_nodes":[],"categories_segments":[],"categories_sizes":[],"default_left":[0,0,0,0,0,0,0,0,0,0,0,0,0,0,0,0,0],"id":27,"left_children":[1,-1,3,5,7,9,11,13,15,-1,-1,-1,-1,-1,-1,-1,-1],"loss_changes":[5.6692104E3,0E0,3.565918E1,2.4783386E1,2.7471436E1,1.9438797E1,3.0224148E1,1.1604858E1,3.69458E0,0E0,0E0,0E0,0E0,0E0,0E0,0E0,0E0],"parents":[2147483647,0,0,2,2,3,3,4,4,5,5,6,6,7,7,8,8],"right_children":[2,-1,4,6,8,10,12,14,16,-1,-1,-1,-1,-1,-1,-1,-1],"split_conditions":[6.9E1,-5.7502557E-2,7.461E-1,2.3823528E0,7.5E1,2.2399E0,7.9E1,2.51E1,9E1,3.1277098E-2,-3.2866348E-2,-1.39816E-1,4.92247E-2,3.2957654E-2,4.18933E-2,4.6206795E-2,5.412167E-2],"split_indices":[33,0,35,28,13,47,33,34,13,0,0,0,0,0,0,0,0],"split_type":[0,0,0,0,0,0,0,0,0,0,0,0,0,0,0,0,0],"sum_hessian":[6.037307E3,2.5248574E3,3.51245E3,5.215308E2,2.990919E3,5.1469977E2,6.8310933E0,2.1872896E3,8.0362946E2,5.034549E2,1.1244855E1,3.819654E0,3.011439E0,5.0347043E2,1.6838192E3,3.4051254E2,4.6311688E2],"tree_param":{"num_deleted":"0","num_feature":"50","num_nodes":"17","size_leaf_vector":"1"}},{"base_weights":[-1.8135312E-3,-5.7081725E-2,8.074496E-1,7.3052305E-1,9.349352E-1,7.3783785E-1,-1.2101363E0,-4.9193487E-2,9.412179E-1,4.01648E-2,3.141575E-2,2.7035093E-2,-1.2202101E-1,3.6252063E-2,4.866865E-2],"categories":[],"categories_nodes":[],"categories_segments":[],"categories_sizes":[],"default_left":[0,0,0,0,0,0,0,0,0,0,0,0,0,0,0],"id":28,"left_children":[1,-1,3,5,7,9,11,-1,13,-1,-1,-1,-1,-1,-1],"loss_changes":[5.338594E3,0E0,3.234253E1,3.0881836E1,1.622754E1,1.4469116E1,1.932927E1,0E0,7.9249268E0,0E0,0E0,0E0,0E0,0E0,0E0],"parents":[2147483647,0,0,2,2,3,3,4,4,5,5,6,6,8,8],"right_children":[2,-1,4,6,8,10,12,-1,14,-1,-1,-1,-1,-1,-1],"split_conditions":[6.9E1,-5.7081725E-2,6.4E1,7.61E1,-3.105E0,5.38E-2,7.3E1,-4.9193487E-2,6.363636E-1,4.01648E-2,3.141575E-2,2.7035093E-2,-1.2202101E-1,3.6252063E-2,4.866865E-2],"split_indices":[33,0,13,6,39,38,33,0,31,0,0,0,0,0,0],"split_type":[0,0,0,0,0,0,0,0,0,0,0,0,0,0,0],"sum_hessian":[5.7855913E3,2.4020684E3,3.383523E3,2.1148872E3,1.2686356E3,2.1076145E3,7.2727623E0,3.5805154E0,1.2650552E3,1.3146473E3,7.929672E2,3.1991792E0,4.073583E0,1.6725653E2,1.0977986E3],"tree_param":{"num_deleted":"0","num_feature":"50","num_nodes":"15","size_leaf_vector":"1"}},{"base_weights":[-1.4822215E-2,-5.668598E-2,7.742128E-1,7.1907985E-1,9.9659747E-1,5.142475E-1,7.548108E-1,1.0093194E0,1.5208894E-1,2.808078E-2,-3.904408E-2,4.165041E-2,3.2738965E-2,5.142047E-2,2.9976169E-2,5.074525E-2,-6.358862E-2],"categories":[],"categories_nodes":[],"categories_segments":[],"categories_sizes":[],"default_left":[0,0,0,0,0,0,0,0,0,0,0,0,0,0,0,0,0],"id":29,"left_children":[1,-1,3,5,7,9,11,13,15,-1,-1,-1,-1,-1,-1,-1,-1],"loss_changes":[4.90057E3,0E0,3.902295E1,1.860498E1,6.6466064E0,2.4439407E1,1.6685913E1,4.1796265E0,1.4591748E1,0E0,0E0,0E0,0E0,0E0,0E0,0E0,0E0],"parents":[2147483647,0,0,2,2,3,3,4,4,5,5,6,6,7,7,8,8],"right_children":[2,-1,4,6,8,10,12,14,16,-1,-1,-1,-1,-1,-1,-1,-1],"split_conditions":[6.9E1,-5.668598E-2,8.4E1,7.461E-1,5.566305E0,5.2E1,2.1E1,2.3E1,3E0,2.808078E-2,-3.904408E-2,4.165041E-2,3.2738965E-2,5.142047E-2,2.9976169E-2,5.074525E-2,-6.358862E-2],"split_indices":[33,0,13,35,21,9,0,0,18,0,0,0,0,0,0,0,0],"split_type":[0,0,0,0,0,0,0,0,0,0,0,0,0,0,0,0,0],"sum_hessian":[5.548822E3,2.2946147E3,3.254207E3,2.6114644E3,6.427427E2,3.9058307E2,2.2208813E3,6.3289496E2,9.847681E0,3.7742276E2,1.3160308E1,1.2418022E3,9.790791E2,6.030488E2,2.984613E1,6.354499E0,3.4931824E0],"tree_param":{"num_deleted":"0","num_feature":"50","num_nodes":"17","size_leaf_vector":"1"}},{"base_weights":[-8.424233E-3,-1.1013018E0,2.6771393E-1,-5.5796605E-2,-7.4061817E-1,-2.60733E-1,5.112667E-1,-5.430409E-2,1.1772124E-1,-7.9957765E-1,-8.250637E-3,2.3960374E-1,7.746543E-1,3.388926E-2,-4.481102E-2,-2.0007147E-2,-5.0290126E-2,8.015143E-3,-4.0852066E-2,-1.2912794E-2,1.7757367E-2,2.8331926E-2,4.4512864E-2],"categories":[],"categories_nodes":[],"categories_segments":[],"categories_sizes":[],"default_left":[0,0,0,0,0,0,0,0,0,0,0,0,0,0,0,0,0,0,0,0,0,0,0],"id":30,"left_children":[1,3,5,-1,7,9,11,-1,13,15,17,19,21,-1,-1,-1,-1,-1,-1,-1,-1,-1,-1],"loss_changes":[1.6388722E3,4.7681885E0,5.5808575E2,0E0,1.3847109E1,1.860455E2,2.1206757E2,0E0,8.537465E0,3.54032E1,1.273534E2,8.423606E1,3.5570312E1,0E0,0E0,0E0,0E0,0E0,0E0,0E0,0E0,0E0,0E0],"parents":[2147483647,0,0,1,1,2,2,4,4,5,5,6,6,8,8,9,9,10,10,11,11,12,12],"right_children":[2,4,6,-1,8,10,12,-1,14,16,18,20,22,-1,-1,-1,-1,-1,-1,-1,-1,-1,-1],"split_conditions":[1.8E1,6E0,2.006689E-1,-5.5796605E-2,1.1E1,7.461E-1,5.3E1,-5.430409E-2,3.22E2,6.1984696E0,2.2E1,7.461E-1,1.1343E0,3.388926E-2,-4.481102E-2,-2.0007147E-2,-5.0290126E-2,8.015143E-3,-4.0852066E-2,-1.2912794E-2,1.7757367E-2,2.8331926E-2,4.4512864E-2],"split_indices":[0,17,23,0,14,35,13,0,7,21,0,35,35,0,0,0,0,0,0,0,0,0,0],"split_type":[0,0,0,0,0,0,0,0,0,0,0,0,0,0,0,0,0,0,0,0,0,0,0],"sum_hessian":[5.4283384E3,1.0943966E3,4.333942E3,1.0494564E3,4.49402E1,1.3671332E3,2.9668086E3,3.193729E1,1.3002911E1,4.3538245E2,9.317507E2,1.4615883E3,1.5052203E3,8.653304E0,4.349607E0,1.494124E2,2.8597006E2,7.7162146E2,1.601292E2,2.7491617E2,1.1866721E3,5.4011145E2,9.651089E2],"tree_param":{"num_deleted":"0","num_feature":"50","num_nodes":"23","size_leaf_vector":"1"}},{"base_weights":[5.570153E-3,-5.612721E-2,7.608764E-1,8.889155E-1,6.776917E-1,7.253821E-1,9.517722E-1,5.2709794E-1,7.387517E-1,3.7985556E-2,-8.605354E-2,4.8205167E-2,1.40585005E-2,2.7732953E-2,-7.365998E-2,3.8690194E-2,2.6943726E-2],"categories":[],"categories_nodes":[],"categories_segments":[],"categories_sizes":[],"default_left":[0,0,0,0,0,0,0,0,0,0,0,0,0,0,0,0,0],"id":31,"left_children":[1,-1,3,5,7,9,11,13,15,-1,-1,-1,-1,-1,-1,-1,-1],"loss_changes":[4.5582144E3,0E0,3.336975E1,1.2075439E1,1.7387817E1,3.0941422E1,7.090271E0,3.1910904E1,9.136963E0,0E0,0E0,0E0,0E0,0E0,0E0,0E0,0E0],"parents":[2147483647,0,0,2,2,3,3,4,4,5,5,6,6,7,7,8,8],"right_children":[2,-1,4,6,8,10,12,14,16,-1,-1,-1,-1,-1,-1,-1,-1],"split_conditions":[2E1,-5.612721E-2,-1.8611E0,1E0,2.55E1,2.8630704E-1,1.6607144E0,2.54E1,1.5873016E-1,3.7985556E-2,-8.605354E-2,4.8205167E-2,1.40585005E-2,2.7732953E-2,-7.365998E-2,3.8690194E-2,2.6943726E-2],"split_indices":[34,0,43,2,34,29,20,34,24,0,0,0,0,0,0,0,0],"split_type":[0,0,0,0,0,0,0,0,0,0,0,0,0,0,0,0,0],"sum_hessian":[5.347606E3,2.144297E3,3.203309E3,1.2572478E3,1.9460613E3,3.529956E2,9.0425226E2,5.646706E2,1.3813906E3,3.488311E2,4.164505E0,8.8734875E2,1.6903448E1,5.5775824E2,6.9123683E0,1.1724143E3,2.0897633E2],"tree_param":{"num_deleted":"0","num_feature":"50","num_nodes":"17","size_leaf_vector":"1"}},{"base_weights":[-1.0719413E-2,-5.5796534E-2,7.321764E-1,6.84719E-1,9.9044085E-1,4.5674616E-1,7.259515E-1,1.0013698E0,3.9923172E-3,2.5244534E-2,-1.3962945E-1,3.0758386E-2,3.9840125E-2,5.2836057E-2,4.210137E-2],"categories":[],"categories_nodes":[],"categories_segments":[],"categories_sizes":[],"default_left":[0,0,0,0,0,0,0,0,0,0,0,0,0,0,0],"id":32,"left_children":[1,-1,3,5,7,9,11,13,-1,-1,-1,-1,-1,-1,-1],"loss_changes":[4.202839E3,0E0,3.6673096E1,2.389087E1,4.515259E0,6.3706757E1,1.6564697E1,3.0375366E0,0E0,0E0,0E0,0E0,0E0,0E0,0E0],"parents":[2147483647,0,0,2,2,3,3,4,4,5,5,6,6,7,7],"right_children":[2,-1,4,6,8,10,12,14,-1,-1,-1,-1,-1,-1,-1],"split_conditions":[6.9E1,-5.5796534E-2,9E1,7.461E-1,5.5E1,4.69E-2,3.7E1,2.2E1,3.9923172E-3,2.5244534E-2,-1.3962945E-1,3.0758386E-2,3.9840125E-2,5.2836057E-2,4.210137E-2],"split_indices":[33,0,13,35,10,49,13,0,0,0,0,0,0,0,0],"split_type":[0,0,0,0,0,0,0,0,0,0,0,0,0,0,0],"sum_hessian":[5.1167744E3,2.056676E3,3.0600986E3,2.5884893E3,4.716092E2,3.9868344E2,2.189806E3,4.6580902E2,5.800178E0,3.9372513E2,4.9583282E0,8.585138E2,1.3312921E3,3.4107086E2,1.24738144E2],"tree_param":{"num_deleted":"0","num_feature":"50","num_nodes":"15","size_leaf_vector":"1"}},{"base_weights":[5.189539E-3,-5.5478018E-2,7.252477E-1,6.7906404E-1,9.9685186E-1,7.1957546E-1,4.5056546E-1,1.0062829E0,4.251532E-3,4.138645E-2,3.2917447E-2,-8.695342E-2,2.373418E-2,5.3124066E-2,4.2677864E-2],"categories":[],"categories_nodes":[],"categories_segments":[],"categories_sizes":[],"default_left":[0,0,0,0,0,0,0,0,0,0,0,0,0,0,0],"id":33,"left_children":[1,-1,3,5,7,9,11,13,-1,-1,-1,-1,-1,-1,-1],"loss_changes":[4.0298213E3,0E0,3.7417114E1,2.3723022E1,3.5962524E0,1.3975708E1,2.16204E1,2.644806E0,0E0,0E0,0E0,0E0,0E0,0E0,0E0],"parents":[2147483647,0,0,2,2,3,3,4,4,5,5,6,6,7,7],"right_children":[2,-1,4,6,8,10,12,14,-1,-1,-1,-1,-1,-1,-1],"split_conditions":[6.9E1,-5.5478018E-2,9.1E1,2.2E1,5.7E1,-1.7426E0,-9.9609E0,2.2E1,4.251532E-3,4.138645E-2,3.2917447E-2,-8.695342E-2,2.373418E-2,5.3124066E-2,4.2677864E-2],"split_indices":[33,0,13,0,10,43,47,0,0,0,0,0,0,0,0],"split_type":[0,0,0,0,0,0,0,0,0,0,0,0,0,0,0],"sum_hessian":[5.018474E3,1.9691998E3,3.0492742E3,2.6094336E3,4.398406E2,2.21427E3,3.9516354E2,4.351268E2,4.7138047E0,7.9528546E2,1.4189846E3,3.485325E0,3.916782E2,3.1324896E2,1.2187783E2],"tree_param":{"num_deleted":"0","num_feature":"50","num_nodes":"15","size_leaf_vector":"1"}},{"base_weights":[7.695472E-5,-5.5179026E-2,7.0168775E-1,6.270574E-1,8.077045E-1,5.7889724E-1,8.237071E-1,6.1653054E-1,9.279613E-1,2.9512484E-2,-2.4769906E-2,2.1959566E-2,4.4554994E-2,-4.806178E-3,3.3064276E-2,4.6884608E-2,-2.4379904E-3],"categories":[],"categories_nodes":[],"categories_segments":[],"categories_sizes":[],"default_left":[0,0,0,0,0,0,0,0,0,0,0,0,0,0,0,0,0],"id":34,"left_children":[1,-1,3,5,7,9,11,13,15,-1,-1,-1,-1,-1,-1,-1,-1],"loss_changes":[3.745476E3,0E0,2.2747559E1,1.5866821E1,2.7267944E1,1.73992E1,8.276657E0,1.5222275E1,7.217041E0,0E0,0E0,0E0,0E0,0E0,0E0,0E0,0E0],"parents":[2147483647,0,0,2,2,3,3,4,4,5,5,6,6,7,7,8,8],"right_children":[2,-1,4,6,8,10,12,14,16,-1,-1,-1,-1,-1,-1,-1,-1],"split_conditions":[6.9E1,-5.5179026E-2,5.3E1,3.181818E-1,2.4E-1,7.44E-2,5.2E1,3.972E-1,6.567568E0,2.9512484E-2,-2.4769906E-2,2.1959566E-2,4.4554994E-2,-4.806178E-3,3.3064276E-2,4.6884608E-2,-2.4379904E-3],"split_indices":[33,0,6,23,23,41,7,35,19,0,0,0,0,0,0,0,0],"split_type":[0,0,0,0,0,0,0,0,0,0,0,0,0,0,0,0,0],"sum_hessian":[4.8350557E3,1.8788484E3,2.9562073E3,1.7395271E3,1.2166803E3,1.4008956E3,3.3863153E2,4.7249933E2,7.441809E2,1.3867847E3,1.41109295E1,5.1842144E1,2.867894E2,2.7719938E1,4.447794E2,7.369809E2,7.2000628E0],"tree_param":{"num_deleted":"0","num_feature":"50","num_nodes":"17","size_leaf_vector":"1"}},{"base_weights":[8.010779E-4,-5.489349E-2,6.8831134E-1,6.432041E-1,9.579528E-1,7.3279554E-1,5.266201E-1,6.5939575E-1,1.002691E0,3.84109E-2,2.308778E-2,-1.2681049E-3,2.9027844E-2,4.053847E-2,-4.659547E-2,3.8971048E-2,5.2131545E-2],"categories":[],"categories_nodes":[],"categories_segments":[],"categories_sizes":[],"default_left":[0,0,0,0,0,0,0,0,0,0,0,0,0,0,0,0,0],"id":35,"left_children":[1,-1,3,5,7,9,11,13,15,-1,-1,-1,-1,-1,-1,-1,-1],"loss_changes":[3.5352793E3,0E0,3.4239624E1,2.528418E1,4.6519775E0,1.2901062E1,3.2141632E1,1.4394848E1,2.1668396E0,0E0,0E0,0E0,0E0,0E0,0E0,0E0,0E0],"parents":[2147483647,0,0,2,2,3,3,4,4,5,5,6,6,7,7,8,8],"right_children":[2,-1,4,6,8,10,12,14,16,-1,-1,-1,-1,-1,-1,-1,-1],"split_conditions":[2E1,-5.489349E-2,9.1E1,2.1E1,9.771428E0,2.9751E0,7.7142854E0,5E1,7.461E-1,3.84109E-2,2.308778E-2,-1.2681049E-3,2.9027844E-2,4.053847E-2,-4.659547E-2,3.8971048E-2,5.2131545E-2],"split_indices":[34,0,13,0,26,40,26,9,35,0,0,0,0,0,0,0,0],"split_type":[0,0,0,0,0,0,0,0,0,0,0,0,0,0,0,0,0],"sum_hessian":[4.678389E3,1.8004503E3,2.877939E3,2.4687139E3,4.0922504E2,1.3924857E3,1.0762281E3,5.5672653E1,3.5355237E2,1.2295868E3,1.6289882E2,9.568418E1,9.80544E2,5.134206E1,4.3305936E0,5.7141445E1,2.9641092E2],"tree_param":{"num_deleted":"0","num_feature":"50","num_nodes":"17","size_leaf_vector":"1"}},{"base_weights":[-8.139882E-4,-5.4637145E-2,6.6852415E-1,5.9604603E-1,8.259817E-1,6.153703E-1,-1.3274267E-1,6.7573714E-1,9.8934346E-1,3.7680592E-2,2.7783757E-2,1.3193703E-2,-1.2252803E-1,3.461081E-2,-3.3618174E-2,5.192811E-2,4.120325E-2],"categories":[],"categories_nodes":[],"categories_segments":[],"categories_sizes":[],"default_left":[0,0,0,0,0,0,0,0,0,0,0,0,0,0,0,0,0],"id":36,"left_children":[1,-1,3,5,7,9,11,13,15,-1,-1,-1,-1,-1,-1,-1,-1],"loss_changes":[3.3105754E3,0E0,3.1412598E1,2.7268616E1,2.081604E1,1.4944458E1,4.7256985E1,1.0752884E1,2.3756409E0,0E0,0E0,0E0,0E0,0E0,0E0,0E0,0E0],"parents":[2147483647,0,0,2,2,3,3,4,4,5,5,6,6,7,7,8,8],"right_children":[2,-1,4,6,8,10,12,14,16,-1,-1,-1,-1,-1,-1,-1,-1],"split_conditions":[6.9E1,-5.4637145E-2,1.891892E-1,2.6E1,7E0,-1.7985E0,1.5789475E-1,5.2686E0,2.2E1,3.7680592E-2,2.7783757E-2,1.3193703E-2,-1.2252803E-1,3.461081E-2,-3.3618174E-2,5.192811E-2,4.120325E-2],"split_indices":[33,0,32,1,2,43,32,43,0,0,0,0,0,0,0,0,0],"split_type":[0,0,0,0,0,0,0,0,0,0,0,0,0,0,0,0,0],"sum_hessian":[4.527581E3,1.7204427E3,2.8071382E3,1.9260106E3,8.8112756E2,1.8765457E3,4.9464935E1,4.6198587E2,4.191417E2,5.6193085E2,1.3146149E3,4.2957253E1,6.5076823E0,4.5696072E2,5.0251575E0,3.1842755E2,1.00714165E2],"tree_param":{"num_deleted":"0","num_feature":"50","num_nodes":"17","size_leaf_vector":"1"}},{"base_weights":[-2.1074712E-2,-5.4385956E-2,6.379094E-1,5.4199976E-1,8.014111E-1,6.242882E-1,3.8805023E-1,5.76295E-1,8.7437594E-1,3.6627393E-2,2.4020476E-2,2.1262359E-2,-5.169077E-2,-1.1176205E-1,3.1143203E-2,4.1532002E-2,5.3245325E-2],"categories":[],"categories_nodes":[],"categories_segments":[],"categories_sizes":[],"default_left":[0,0,0,0,0,0,0,0,0,0,0,0,0,0,0,0,0],"id":37,"left_children":[1,-1,3,5,7,9,11,13,15,-1,-1,-1,-1,-1,-1,-1,-1],"loss_changes":[3.025015E3,0E0,4.1144897E1,2.0940002E1,1.5464661E1,1.6548218E1,3.1492302E1,3.3099724E1,5.0807495E0,0E0,0E0,0E0,0E0,0E0,0E0,0E0,0E0],"parents":[2147483647,0,0,2,2,3,3,4,4,5,5,6,6,7,7,8,8],"right_children":[2,-1,4,6,8,10,12,14,16,-1,-1,-1,-1,-1,-1,-1,-1],"split_conditions":[6.9E1,-5.4385956E-2,6.3E1,7.48E-2,2.4E-1,2.1E1,9E0,-4.4562E0,1.13E2,3.6627393E-2,2.4020476E-2,2.1262359E-2,-5.169077E-2,-1.1176205E-1,3.1143203E-2,4.1532002E-2,5.3245325E-2],"split_indices":[33,0,13,38,23,0,11,40,13,0,0,0,0,0,0,0,0],"split_type":[0,0,0,0,0,0,0,0,0,0,0,0,0,0,0,0,0],"sum_hessian":[4.3015596E3,1.6424918E3,2.6590676E3,1.679061E3,9.8000653E2,1.0917816E3,5.8727936E2,2.4240163E2,7.376049E2,6.202764E2,4.715052E2,5.73059E2,1.4220348E1,3.1488488E0,2.3925278E2,6.0468506E2,1.3291983E2],"tree_param":{"num_deleted":"0","num_feature":"50","num_nodes":"17","size_leaf_vector":"1"}},{"base_weights":[9.571562E-3,-5.4150384E-2,6.4486647E-1,5.962543E-1,9.340019E-1,3.4270194E-1,6.4263844E-1,2.6171312E-1,9.5680004E-1,-2.2495909E-2,2.0865949E-2,2.5853524E-2,3.4819663E-2,-3.4951277E-2,3.541199E-2,5.1006585E-2,3.8235635E-2],"categories":[],"categories_nodes":[],"categories_segments":[],"categories_sizes":[],"default_left":[0,0,0,0,0,0,0,0,0,0,0,0,0,0,0,0,0],"id":38,"left_children":[1,-1,3,5,7,9,11,13,15,-1,-1,-1,-1,-1,-1,-1,-1],"loss_changes":[2.9668987E3,0E0,3.7280518E1,2.6930176E1,5.558777E0,2.1522163E1,1.2729126E1,6.5931044E0,3.5882263E0,0E0,0E0,0E0,0E0,0E0,0E0,0E0,0E0],"parents":[2147483647,0,0,2,2,3,3,4,4,5,5,6,6,7,7,8,8],"right_children":[2,-1,4,6,8,10,12,14,16,-1,-1,-1,-1,-1,-1,-1,-1],"split_conditions":[6.9E1,-5.4150384E-2,9E1,7.461E-1,2.3913044E-1,7.0434785E0,2.56E1,9E0,2.2E1,-2.2495909E-2,2.0865949E-2,2.5853524E-2,3.4819663E-2,-3.4951277E-2,3.541199E-2,5.1006585E-2,3.8235635E-2],"split_indices":[33,0,13,35,23,26,34,17,0,0,0,0,0,0,0,0,0],"split_type":[0,0,0,0,0,0,0,0,0,0,0,0,0,0,0,0,0],"sum_hessian":[4.2724497E3,1.570553E3,2.7018967E3,2.3159294E3,3.8596738E2,3.597811E2,1.9561483E3,1.3212518E1,3.7275485E2,3.0407486E1,3.2937363E2,5.901266E2,1.3660217E3,3.94186E0,9.270658E0,2.7669608E2,9.605877E1],"tree_param":{"num_deleted":"0","num_feature":"50","num_nodes":"17","size_leaf_vector":"1"}},{"base_weights":[3.1218615E-3,-5.3928245E-2,6.214851E-1,5.7351273E-1,9.178103E-1,3.2466573E-1,6.209966E-1,7.4531585E-1,1.0175813E0,1.968625E-2,-3.5219934E-2,3.611112E-2,2.7357671E-2,3.894614E-2,-1.5744863E-2,5.1487155E-2,3.417261E-3],"categories":[],"categories_nodes":[],"categories_segments":[],"categories_sizes":[],"default_left":[0,0,0,0,0,0,0,0,0,0,0,0,0,0,0,0,0],"id":39,"left_children":[1,-1,3,5,7,9,11,13,15,-1,-1,-1,-1,-1,-1,-1,-1],"loss_changes":[2.7551045E3,0E0,3.6581665E1,2.639264E1,5.3163147E0,2.6140083E1,1.3645081E1,5.180443E0,2.4405823E0,0E0,0E0,0E0,0E0,0E0,0E0,0E0,0E0],"parents":[2147483647,0,0,2,2,3,3,4,4,5,5,6,6,7,7,8,8],"right_children":[2,-1,4,6,8,10,12,14,16,-1,-1,-1,-1,-1,-1,-1,-1],"split_conditions":[6.9E1,-5.3928245E-2,9.1E1,7.461E-1,3.36E-2,8.027027E0,2.2988506E-1,5.566305E0,2.8E1,1.968625E-2,-3.5219934E-2,3.611112E-2,2.7357671E-2,3.894614E-2,-1.5744863E-2,5.1487155E-2,3.417261E-3],"split_indices":[33,0,13,35,48,27,29,21,1,0,0,0,0,0,0,0,0],"split_type":[0,0,0,0,0,0,0,0,0,0,0,0,0,0,0,0,0],"sum_hessian":[4.117076E3,1.4971844E3,2.6198918E3,2.2576685E3,3.6222327E2,3.633606E2,1.894308E3,1.3620702E2,2.2601627E2,3.4117905E2,2.218155E1,7.947348E2,1.0995731E3,1.3237073E2,3.8362887E0,2.2296939E2,3.0468738E0],"tree_param":{"num_deleted":"0","num_feature":"50","num_nodes":"17","size_leaf_vector":"1"}},{"base_weights":[1.0041786E-2,-5.3716928E-2,6.1346984E-1,7.6929903E-1,5.1686585E-1,7.8204966E-1,-5.033975E-1,4.8722875E-1,8.360113E-1,3.553706E-2,4.7480796E-2,4.9058326E-2,-1.3335554E-1,2.9019779E-2,1.7766735E-2,4.4455126E-2,-3.7362784E-2],"categories":[],"categories_nodes":[],"categories_segments":[],"categories_sizes":[],"default_left":[0,0,0,0,0,0,0,0,0,0,0,0,0,0,0,0,0],"id":40,"left_children":[1,-1,3,5,7,9,11,13,15,-1,-1,-1,-1,-1,-1,-1,-1],"loss_changes":[2.6142937E3,0E0,3.8116333E1,1.6323364E1,1.4481049E1,1.0757385E1,3.5712162E1,1.7589294E1,1.1879967E1,0E0,0E0,0E0,0E0,0E0,0E0,0E0,0E0],"parents":[2147483647,0,0,2,2,3,3,4,4,5,5,6,6,7,7,8,8],"right_children":[2,-1,4,6,8,10,12,14,16,-1,-1,-1,-1,-1,-1,-1,-1],"split_conditions":[6.9E1,-5.3716928E-2,-2.921E-1,6.639344E0,9.2E1,8.4E1,2E0,2.1E1,5.5E1,3.553706E-2,4.7480796E-2,4.9058326E-2,-1.3335554E-1,2.9019779E-2,1.7766735E-2,4.4455126E-2,-3.7362784E-2],"split_indices":[33,0,45,19,13,13,8,0,10,0,0,0,0,0,0,0,0],"split_type":[0,0,0,0,0,0,0,0,0,0,0,0,0,0,0,0,0],"sum_hessian":[3.9933435E3,1.4273685E3,2.565975E3,9.789153E2,1.5870597E3,9.696647E2,9.250604E0,1.4548013E3,1.3225851E2,6.842974E2,2.8536725E2,5.7830586E0,3.4675455E0,8.501307E2,6.046706E2,1.2845274E2,3.8057697E0],"tree_param":{"num_deleted":"0","num_feature":"50","num_nodes":"17","size_leaf_vector":"1"}},{"base_weights":[-7.793274E-3,-5.3515024E-2,5.8292884E-1,5.11233E-1,8.314571E-1,6.618098E-1,4.2043135E-1,8.438568E-1,-3.3070855E-2,-2.9674247E-2,3.3758525E-2,2.2124043E-2,-3.5622157E-2,2.621219E-2,4.4489447E-2],"categories":[],"categories_nodes":[],"categories_segments":[],"categories_sizes":[],"default_left":[0,0,0,0,0,0,0,0,0,0,0,0,0,0,0],"id":41,"left_children":[1,-1,3,5,7,9,11,13,-1,-1,-1,-1,-1,-1,-1],"loss_changes":[2.4079573E3,0E0,4.3373047E1,2.5816376E1,1.0759613E1,1.2463776E1,3.0230194E1,7.4089355E0,0E0,0E0,0E0,0E0,0E0,0E0,0E0],"parents":[2147483647,0,0,2,2,3,3,4,4,5,5,6,6,7,7],"right_children":[2,-1,4,6,8,10,12,14,-1,-1,-1,-1,-1,-1,-1],"split_conditions":[2E1,-5.3515024E-2,7.8E1,-1.7426E0,5.7E1,1E0,7.61E1,9.191489E0,-3.3070855E-2,-2.9674247E-2,3.3758525E-2,2.2124043E-2,-3.5622157E-2,2.621219E-2,4.4489447E-2],"split_indices":[34,0,13,43,10,27,6,26,0,0,0,0,0,0,0],"split_type":[0,0,0,0,0,0,0,0,0,0,0,0,0,0,0],"sum_hessian":[3.8344148E3,1.3698608E3,2.464554E3,1.9154426E3,5.491112E2,7.1777026E2,1.1976724E3,5.450855E2,4.025719E0,7.0230055E0,7.1074725E2,1.1754912E3,2.2181248E1,7.032537E1,4.7476013E2],"tree_param":{"num_deleted":"0","num_feature":"50","num_nodes":"15","size_leaf_vector":"1"}},{"base_weights":[1.4288877E-2,-5.3333133E-2,5.84364E-1,4.8956317E-1,7.565796E-1,5.003492E-1,-1.706403E0,5.851763E-1,8.4868634E-1,1.671044E-2,2.8498894E-2,-1.0011165E-2,-1.3036457E-1,3.427108E-2,-1.1542345E-2,4.288946E-2,-2.7635053E-2],"categories":[],"categories_nodes":[],"categories_segments":[],"categories_sizes":[],"default_left":[0,0,0,0,0,0,0,0,0,0,0,0,0,0,0,0,0],"id":42,"left_children":[1,-1,3,5,7,9,11,13,15,-1,-1,-1,-1,-1,-1,-1,-1],"loss_changes":[2.34006E3,0E0,4.0097107E1,3.879132E1,1.3261261E1,1.8225311E1,1.0099907E1,2.5675232E1,7.777771E0,0E0,0E0,0E0,0E0,0E0,0E0,0E0,0E0],"parents":[2147483647,0,0,2,2,3,3,4,4,5,5,6,6,7,7,8,8],"right_children":[2,-1,4,6,8,10,12,14,16,-1,-1,-1,-1,-1,-1,-1,-1],"split_conditions":[6.9E1,-5.3333133E-2,6.4E1,7.61E1,1.1343E0,2.56E1,2.511628E0,5.1E1,1.9041935E0,1.671044E-2,2.8498894E-2,-1.0011165E-2,-1.3036457E-1,3.427108E-2,-1.1542345E-2,4.288946E-2,-2.7635053E-2],"split_indices":[33,0,13,6,35,34,27,9,22,0,0,0,0,0,0,0,0],"split_type":[0,0,0,0,0,0,0,0,0,0,0,0,0,0,0,0,0],"sum_hessian":[3.7954866E3,1.3101641E3,2.4853225E3,1.6057928E3,8.795297E2,1.5987578E3,7.0350075E0,3.1037872E2,5.69151E2,4.7429135E2,1.1244664E3,3.1319706E0,3.9030368E0,2.766731E2,3.3705624E1,5.659342E2,3.2168221E0],"tree_param":{"num_deleted":"0","num_feature":"50","num_nodes":"17","size_leaf_vector":"1"}},{"base_weights":[-2.0258581E-2,-1.0622202E0,5.429721E-1,-1.0645574E0,-3.7705805E-3,4.899107E-1,8.814008E-1,-5.427042E-1,-1.0670122E0,6.425216E-1,4.1601256E-1,5.243936E-1,9.335231E-1,-6.815779E-4,-4.1669484E-2,-5.315224E-2,-9.6040644E-2,3.8487483E-2,2.6471911E-2,1.2980533E-2,2.5210604E-2,-1.292025E-2,3.569362E-2,5.0424654E-2,3.599818E-2],"categories":[],"categories_nodes":[],"categories_segments":[],"categories_sizes":[],"default_left":[0,0,0,0,0,0,0,0,0,0,0,0,0,0,0,0,0,0,0,0,0,0,0,0,0],"id":43,"left_children":[1,3,5,7,-1,9,11,13,15,17,19,21,23,-1,-1,-1,-1,-1,-1,-1,-1,-1,-1,-1,-1],"loss_changes":[2.0973696E3,2.697998E0,4.1088135E1,8.623047E-1,0E0,2.2270813E1,5.187271E0,1.1469188E0,1.8729248E0,8.85434E0,1.8499191E1,6.517439E0,3.448227E0,0E0,0E0,0E0,0E0,0E0,0E0,0E0,0E0,0E0,0E0,0E0,0E0],"parents":[2147483647,0,0,1,1,2,2,3,3,5,5,6,6,7,7,8,8,9,9,10,10,11,11,12,12],"right_children":[2,4,6,8,-1,10,12,14,16,18,20,22,24,-1,-1,-1,-1,-1,-1,-1,-1,-1,-1,-1,-1],"split_conditions":[7E1,9.72E1,9E1,-7.5919E0,-3.7705805E-3,-3.387E-1,2.5E-1,2.086331E-1,6.8E1,2.1E1,2.58E1,-3.598E-1,2.2E1,-6.815779E-4,-4.1669484E-2,-5.315224E-2,-9.6040644E-2,3.8487483E-2,2.6471911E-2,1.2980533E-2,2.5210604E-2,-1.292025E-2,3.569362E-2,5.0424654E-2,3.599818E-2],"split_indices":[33,6,13,36,0,45,23,29,33,0,34,38,0,0,0,0,0,0,0,0,0,0,0,0,0],"split_type":[0,0,0,0,0,0,0,0,0,0,0,0,0,0,0,0,0,0,0,0,0,0,0,0,0],"sum_hessian":[3.5717834E3,1.2530206E3,2.318763E3,1.2498802E3,3.140418E0,2.006856E3,3.1190695E2,7.0821333E0,1.2427981E3,6.517812E2,1.3550748E3,4.138987E1,2.7051706E2,3.0045328E0,4.0776005E0,1.2394011E3,3.3969116E0,3.035601E2,3.482211E2,4.9044998E2,8.646248E2,7.892372E0,3.3497498E1,1.9712564E2,7.3391426E1],"tree_param":{"num_deleted":"0","num_feature":"50","num_nodes":"25","size_leaf_vector":"1"}},{"base_weights":[-1.1771976E-2,-5.2988525E-2,5.32502E-1,4.7728863E-1,8.815488E-1,3.0517694E-1,5.4717577E-1,8.975229E-1,-1.3233604E-2,2.192702E-2,-3.5890152E-3,3.8180646E-2,2.543798E-2,3.8012948E-2,5.0609477E-2],"categories":[],"categories_nodes":[],"categories_segments":[],"categories_sizes":[],"default_left":[0,0,0,0,0,0,0,0,0,0,0,0,0,0,0],"id":44,"left_children":[1,-1,3,5,7,9,11,13,-1,-1,-1,-1,-1,-1,-1],"loss_changes":[1.9944705E3,0E0,4.3794006E1,2.3677246E1,6.029602E0,2.908532E1,1.1234711E1,3.9150848E0,0E0,0E0,0E0,0E0,0E0,0E0,0E0],"parents":[2147483647,0,0,2,2,3,3,4,4,5,5,6,6,7,7],"right_children":[2,-1,4,6,8,10,12,14,-1,-1,-1,-1,-1,-1,-1],"split_conditions":[6.9E1,-5.2988525E-2,9E1,2.56E1,5.7E1,4.14E-1,-4.8232E0,4.02E-2,-1.3233604E-2,2.192702E-2,-3.5890152E-3,3.8180646E-2,2.543798E-2,3.8012948E-2,5.0609477E-2],"split_indices":[33,0,13,34,10,37,47,48,0,0,0,0,0,0,0],"split_type":[0,0,0,0,0,0,0,0,0,0,0,0,0,0,0],"sum_hessian":[3.494546E3,1.1942522E3,2.3002937E3,1.9884137E3,3.1187994E2,5.7619965E2,1.4122141E3,3.0789328E2,3.9866755E0,4.2569516E2,1.5050446E2,2.0963696E2,1.2025771E3,1.4400792E2,1.6388536E2],"tree_param":{"num_deleted":"0","num_feature":"50","num_nodes":"15","size_leaf_vector":"1"}},{"base_weights":[5.240764E-3,-5.2827913E-2,5.2893454E-1,4.7764295E-1,8.6992174E-1,6.477255E-1,4.138608E-1,7.3254937E-1,9.919929E-1,-3.763588E-2,3.3021923E-2,2.9318977E-2,1.715924E-2,3.7814897E-2,-4.0185084E-3,1.5640292E-2,5.016885E-2],"categories":[],"categories_nodes":[],"categories_segments":[],"categories_sizes":[],"default_left":[0,0,0,0,0,0,0,0,0,0,0,0,0,0,0,0,0],"id":45,"left_children":[1,-1,3,5,7,9,11,13,15,-1,-1,-1,-1,-1,-1,-1,-1],"loss_changes":[1.9161566E3,0E0,3.9813965E1,2.1415344E1,4.1364746E0,1.0201675E1,1.7556E1,2.937317E0,7.59079E-1,0E0,0E0,0E0,0E0,0E0,0E0,0E0,0E0],"parents":[2147483647,0,0,2,2,3,3,4,4,5,5,6,6,7,7,8,8],"right_children":[2,-1,4,6,8,10,12,14,16,-1,-1,-1,-1,-1,-1,-1,-1],"split_conditions":[6.9E1,-5.2827913E-2,9E1,-2.6486E0,4.02E-2,7.297298E-1,2E1,5.7E1,3E0,-3.763588E-2,3.3021923E-2,2.9318977E-2,1.715924E-2,3.7814897E-2,-4.0185084E-3,1.5640292E-2,5.016885E-2],"split_indices":[33,0,13,43,48,27,0,10,17,0,0,0,0,0,0,0,0],"split_type":[0,0,0,0,0,0,0,0,0,0,0,0,0,0,0,0,0],"sum_hessian":[3.4440583E3,1.1371853E3,2.306873E3,2.0075842E3,2.9928873E2,5.4460565E2,1.4629786E3,1.4449825E2,1.5479047E2,4.3048997E0,5.403007E2,4.2263165E2,1.0403469E3,1.4058391E2,3.9143364E0,3.1659899E0,1.5162448E2],"tree_param":{"num_deleted":"0","num_feature":"50","num_nodes":"17","size_leaf_vector":"1"}},{"base_weights":[-1.5284023E-2,-5.2679278E-2,4.8907632E-1,3.98407E-1,6.8182516E-1,4.1293558E-1,-1.7227676E0,5.4112285E-1,8.5237813E-1,2.5277069E-2,1.3903572E-2,1.4395683E-2,-1.4897227E-1,2.0122893E-2,3.7712086E-2,4.3481246E-2,-3.5727115E-3],"categories":[],"categories_nodes":[],"categories_segments":[],"categories_sizes":[],"default_left":[0,0,0,0,0,0,0,0,0,0,0,0,0,0,0,0,0],"id":46,"left_children":[1,-1,3,5,7,9,11,13,15,-1,-1,-1,-1,-1,-1,-1,-1],"loss_changes":[1.7278539E3,0E0,3.842871E1,4.7206528E1,1.6404907E1,1.8558899E1,2.7503532E1,1.1146393E1,5.21315E0,0E0,0E0,0E0,0E0,0E0,0E0,0E0,0E0],"parents":[2147483647,0,0,2,2,3,3,4,4,5,5,6,6,7,7,8,8],"right_children":[2,-1,4,6,8,10,12,14,16,-1,-1,-1,-1,-1,-1,-1,-1],"split_conditions":[6.9E1,-5.2679278E-2,6.7E1,7.7E1,2.2946E0,2.1E1,1.2083334E0,9.1E1,6.567568E0,2.5277069E-2,1.3903572E-2,1.4395683E-2,-1.4897227E-1,2.0122893E-2,3.7712086E-2,4.3481246E-2,-3.5727115E-3],"split_indices":[33,0,13,6,35,0,20,13,19,0,0,0,0,0,0,0,0],"split_type":[0,0,0,0,0,0,0,0,0,0,0,0,0,0,0,0,0],"sum_hessian":[3.2973665E3,1.0777551E3,2.2196113E3,1.5119662E3,7.076451E2,1.5025273E3,9.438807E0,3.903633E2,3.172818E2,8.8876105E2,6.1376636E2,3.8962054E0,5.5426006E0,2.3852531E2,1.5183798E2,3.1163098E2,5.6508293E0],"tree_param":{"num_deleted":"0","num_feature":"50","num_nodes":"17","size_leaf_vector":"1"}},{"base_weights":[-3.2638086E-3,-5.2537102E-2,4.925113E-1,4.3196994E-1,7.2238004E-1,2.9862645E-1,5.473796E-1,5.562947E-1,9.470289E-1,-9.143348E-2,1.55973425E-2,-7.559626E-2,2.7941717E-2,3.4062427E-2,5.9343604E-3,3.5522763E-2,5.1378023E-2],"categories":[],"categories_nodes":[],"categories_segments":[],"categories_sizes":[],"default_left":[0,0,0,0,0,0,0,0,0,0,0,0,0,0,0,0,0],"id":47,"left_children":[1,-1,3,5,7,9,11,13,15,-1,-1,-1,-1,-1,-1,-1,-1],"loss_changes":[1.6606261E3,0E0,2.9775818E1,2.6232147E1,1.613556E1,2.3114235E1,2.2469604E1,1.4152061E1,2.7132263E0,0E0,0E0,0E0,0E0,0E0,0E0,0E0,0E0],"parents":[2147483647,0,0,2,2,3,3,4,4,5,5,6,6,7,7,8,8],"right_children":[2,-1,4,6,8,10,12,14,16,-1,-1,-1,-1,-1,-1,-1,-1],"split_conditions":[6.9E1,-5.2537102E-2,2.1052632E-1,1.557E0,7E0,-4.4572E0,2.19E1,2.2E1,1E0,-9.143348E-2,1.55973425E-2,-7.559626E-2,2.7941717E-2,3.4062427E-2,5.9343604E-3,3.5522763E-2,5.1378023E-2],"split_indices":[33,0,32,35,2,47,34,0,35,0,0,0,0,0,0,0,0],"split_type":[0,0,0,0,0,0,0,0,0,0,0,0,0,0,0,0,0],"sum_hessian":[3.1956284E3,1.0263112E3,2.1693171E3,1.719706E3,4.4961118E2,7.999286E2,9.1977747E2,2.6075418E2,1.88857E2,4.082944E0,7.9584564E2,4.315003E0,9.1546246E2,2.0222566E2,5.85285E1,5.0771614E1,1.3808539E2],"tree_param":{"num_deleted":"0","num_feature":"50","num_nodes":"17","size_leaf_vector":"1"}},{"base_weights":[3.4124146E-3,-5.2401852E-2,4.8518872E-1,4.3658948E-1,8.203508E-1,5.850156E-1,3.5631722E-1,9.305783E-1,5.0142026E-1,-3.0615961E-2,3.0106738E-2,6.3148253E-3,2.2564152E-2,4.7781724E-2,1.5029003E-2,3.125051E-2,-5.1946264E-2],"categories":[],"categories_nodes":[],"categories_segments":[],"categories_sizes":[],"default_left":[0,0,0,0,0,0,0,0,0,0,0,0,0,0,0,0,0],"id":48,"left_children":[1,-1,3,5,7,9,11,13,15,-1,-1,-1,-1,-1,-1,-1,-1],"loss_changes":[1.5877954E3,0E0,3.453122E1,2.2094666E1,8.911316E0,1.3851242E1,2.6600845E1,2.742157E0,1.43078E1,0E0,0E0,0E0,0E0,0E0,0E0,0E0,0E0],"parents":[2147483647,0,0,2,2,3,3,4,4,5,5,6,6,7,7,8,8],"right_children":[2,-1,4,6,8,10,12,14,16,-1,-1,-1,-1,-1,-1,-1,-1],"split_conditions":[6.9E1,-5.2401852E-2,9E1,-1.7426E0,2.2E1,1E0,2.56E1,5.510204E0,3.4234235E-1,-3.0615961E-2,3.0106738E-2,6.3148253E-3,2.2564152E-2,4.7781724E-2,1.5029003E-2,3.125051E-2,-5.1946264E-2],"split_indices":[33,0,13,43,0,27,34,19,30,0,0,0,0,0,0,0,0],"split_type":[0,0,0,0,0,0,0,0,0,0,0,0,0,0,0,0,0],"sum_hessian":[3.1325527E3,9.838886E2,2.148664E3,1.8788304E3,2.6983362E2,6.5681793E2,1.2220125E3,1.9886972E2,7.096388E1,8.686191E0,6.481317E2,3.580784E2,8.639341E2,1.9061307E2,8.256654E0,6.630319E1,4.66069E0],"tree_param":{"num_deleted":"0","num_feature":"50","num_nodes":"17","size_leaf_vector":"1"}},{"base_weights":[4.104036E-3,-5.227377E-2,4.7044677E-1,4.2574653E-1,7.953972E-1,5.6314605E-1,3.46619E-1,4.2337158E-1,8.7307274E-1,1.6372003E-2,3.2651424E-2,1.7923279E-2,-5.080272E-2,-7.1515314E-2,3.6161818E-2,-0E0,4.44273E-2],"categories":[],"categories_nodes":[],"categories_segments":[],"categories_sizes":[],"default_left":[0,0,0,0,0,0,0,0,0,0,0,0,0,0,0,0,0],"id":49,"left_children":[1,-1,3,5,7,9,11,13,15,-1,-1,-1,-1,-1,-1,-1,-1],"loss_changes":[1.501362E3,0E0,3.0389526E1,2.003897E1,6.881378E0,1.4118195E1,1.949826E1,2.6688644E1,2.7665405E0,0E0,0E0,0E0,0E0,0E0,0E0,0E0,0E0],"parents":[2147483647,0,0,2,2,3,3,4,4,5,5,6,6,7,7,8,8],"right_children":[2,-1,4,6,8,10,12,14,16,-1,-1,-1,-1,-1,-1,-1,-1],"split_conditions":[6.9E1,-5.227377E-2,9E1,-1.7426E0,7.461E-1,1.27E2,6.1E1,1.891892E-1,8.64E0,1.6372003E-2,3.2651424E-2,1.7923279E-2,-5.080272E-2,-7.1515314E-2,3.6161818E-2,-0E0,4.44273E-2],"split_indices":[33,0,13,43,35,7,9,32,26,0,0,0,0,0,0,0,0],"split_type":[0,0,0,0,0,0,0,0,0,0,0,0,0,0,0,0,0],"sum_hessian":[3.0654739E3,9.4258295E2,2.1228909E3,1.8684805E3,2.5441045E2,6.8011926E2,1.1883612E3,4.5280075E1,2.0913037E2,1.8934361E2,4.9077563E2,1.1789225E3,9.438752E0,5.7335553E0,3.954652E1,3.7506998E0,2.0537967E2],"tree_param":{"num_deleted":"0","num_feature":"50","num_nodes":"17","size_leaf_vector":"1"}},{"base_weights":[2.275453E-3,-5.215205E-2,4.5823464E-1,4.089847E-1,8.296067E-1,6.019942E-1,3.3808804E-1,9.204495E-1,5.921825E-1,2.3712574E-2,3.8107526E-2,2.3027185E-2,8.576677E-3,1.8930192E-3,4.6776216E-2,3.5625946E-2,-4.6071064E-2],"categories":[],"categories_nodes":[],"categories_segments":[],"categories_sizes":[],"default_left":[0,0,0,0,0,0,0,0,0,0,0,0,0,0,0,0,0],"id":50,"left_children":[1,-1,3,5,7,9,11,13,15,-1,-1,-1,-1,-1,-1,-1,-1],"loss_changes":[1.4101271E3,0E0,3.7217407E1,2.4622711E1,4.480301E0,9.490265E0,2.7077194E1,2.148819E0,1.3299606E1,0E0,0E0,0E0,0E0,0E0,0E0,0E0,0E0],"parents":[2147483647,0,0,2,2,3,3,4,4,5,5,6,6,7,7,8,8],"right_children":[2,-1,4,6,8,10,12,14,16,-1,-1,-1,-1,-1,-1,-1,-1],"split_conditions":[6.9E1,-5.215205E-2,9.1E1,-2.6486E0,2.2E1,5.1E1,2.1E1,-1.94E-2,3.4234235E-1,2.3712574E-2,3.8107526E-2,2.3027185E-2,8.576677E-3,1.8930192E-3,4.6776216E-2,3.5625946E-2,-4.6071064E-2],"split_indices":[33,0,13,43,0,13,0,41,30,0,0,0,0,0,0,0,0],"split_type":[0,0,0,0,0,0,0,0,0,0,0,0,0,0,0,0,0],"sum_hessian":[2.9567075E3,8.975373E2,2.0591702E3,1.8201584E3,2.390118E2,4.8658228E2,1.3335762E3,1.7048366E2,6.8528145E1,2.732334E2,2.1334889E2,7.671673E2,5.6640894E2,3.0333633E0,1.6745029E2,6.403267E1,4.4954777E0],"tree_param":{"num_deleted":"0","num_feature":"50","num_nodes":"17","size_leaf_vector":"1"}},{"base_weights":[-5.278389E-3,-5.203503E-2,4.3097785E-1,3.8729495E-1,7.789315E-1,3.9236176E-1,-8.511661E-2,6.468251E-1,1.0044602E0,1.3675845E-2,2.398928E-2,3.6997233E-2,1.0178761E-2,1.9167302E-2,5.141088E-2],"categories":[],"categories_nodes":[],"categories_segments":[],"categories_sizes":[],"default_left":[0,0,0,0,0,0,0,0,0,0,0,0,0,0,0],"id":51,"left_children":[1,-1,3,5,7,9,-1,11,13,-1,-1,-1,-1,-1,-1],"loss_changes":[1.2965515E3,0E0,3.0274384E1,1.9555878E1,5.858597E0,1.8420746E1,0E0,5.712578E0,6.5476227E-1,0E0,0E0,0E0,0E0,0E0,0E0],"parents":[2147483647,0,0,2,2,3,3,4,4,5,5,7,7,8,8],"right_children":[2,-1,4,6,8,10,-1,12,14,-1,-1,-1,-1,-1,-1],"split_conditions":[6.9E1,-5.203503E-2,9.1E1,1.7E1,1.13E2,3.8E1,-8.511661E-2,-3.301E-1,7.2E1,1.3675845E-2,2.398928E-2,3.6997233E-2,1.0178761E-2,1.9167302E-2,5.141088E-2],"split_indices":[33,0,13,11,13,13,0,43,33,0,0,0,0,0,0],"split_type":[0,0,0,0,0,0,0,0,0,0,0,0,0,0,0],"sum_hessian":[2.8681946E3,8.4988904E2,2.0183054E3,1.7953175E3,2.229879E2,1.7918329E3,3.4846494E0,1.4333748E2,7.965041E1,7.616756E2,1.0301573E3,1.1771294E2,2.5624544E1,3.7207193E0,7.5929695E1],"tree_param":{"num_deleted":"0","num_feature":"50","num_nodes":"15","size_leaf_vector":"1"}},{"base_weights":[-2.0330042E-2,-5.1926114E-2,4.036942E-1,6.221451E-2,4.6930322E-1,1.2701346E-1,-2.0328303E-1,4.0469596E-1,7.8359056E-1,-1.3881452E-1,8.2932105E-3,2.6036358E-2,1.3103818E-2,4.157032E-2,-1.4039606E-2],"categories":[],"categories_nodes":[],"categories_segments":[],"categories_sizes":[],"default_left":[0,0,0,0,0,0,0,0,0,0,0,0,0,0,0],"id":52,"left_children":[1,-1,3,5,7,9,-1,11,13,-1,-1,-1,-1,-1,-1],"loss_changes":[1.19359E3,0E0,4.3642853E1,8.463071E1,3.2797974E1,3.5397316E1,0E0,2.2290344E1,1.4424561E1,0E0,0E0,0E0,0E0,0E0,0E0],"parents":[2147483647,0,0,2,2,3,3,4,4,5,5,7,7,8,8],"right_children":[2,-1,4,6,8,10,-1,12,14,-1,-1,-1,-1,-1,-1],"split_conditions":[6.9E1,-5.1926114E-2,7.461E-1,2.076923E0,8.2E1,7.659575E-1,-2.0328303E-1,2.1E1,2.3E1,-1.3881452E-1,8.2932105E-3,2.6036358E-2,1.3103818E-2,4.157032E-2,-1.4039606E-2],"split_indices":[33,0,35,28,13,25,0,0,0,0,0,0,0,0,0],"split_type":[0,0,0,0,0,0,0,0,0,0,0,0,0,0,0],"sum_hessian":[2.762497E3,8.1184155E2,1.9506555E3,3.149397E2,1.6357158E3,3.1105032E2,3.88938E0,1.3589631E3,2.7675275E2,3.1429665E0,3.0790735E2,7.474815E2,6.1148157E2,2.6515393E2,1.1598833E1],"tree_param":{"num_deleted":"0","num_feature":"50","num_nodes":"15","size_leaf_vector":"1"}},{"base_weights":[-5.947177E-3,-5.1823266E-2,4.0469104E-1,3.5689852E-1,7.745995E-1,1.0889224E-1,4.0713555E-1,5.244186E-1,9.5641494E-1,8.270065E-3,-8.187426E-2,2.636241E-2,1.334245E-2,3.0962532E-2,3.426101E-4,4.8848987E-2,1.4519817E-2],"categories":[],"categories_nodes":[],"categories_segments":[],"categories_sizes":[],"default_left":[0,0,0,0,0,0,0,0,0,0,0,0,0,0,0,0,0],"id":53,"left_children":[1,-1,3,5,7,9,11,13,15,-1,-1,-1,-1,-1,-1,-1,-1],"loss_changes":[1.1598081E3,0E0,3.425482E1,2.1552048E1,9.499619E0,2.917435E1,2.4114136E1,4.6623287E0,1.3395996E0,0E0,0E0,0E0,0E0,0E0,0E0,0E0,0E0],"parents":[2147483647,0,0,2,2,3,3,4,4,5,5,6,6,7,7,8,8],"right_children":[2,-1,4,6,8,10,12,14,16,-1,-1,-1,-1,-1,-1,-1,-1],"split_conditions":[6.9E1,-5.1823266E-2,9.1E1,7.461E-1,3.57E-2,1.1687E0,2.1E1,-9.88E-2,2.8E1,8.270065E-3,-8.187426E-2,2.636241E-2,1.334245E-2,3.0962532E-2,3.426101E-4,4.8848987E-2,1.4519817E-2],"split_indices":[33,0,13,35,48,44,0,44,1,0,0,0,0,0,0,0,0],"split_type":[0,0,0,0,0,0,0,0,0,0,0,0,0,0,0,0,0],"sum_hessian":[2.7386208E3,7.799685E2,1.9586523E3,1.7365266E3,2.2212569E2,2.9337476E2,1.4431519E3,9.535291E1,1.2677277E2,2.851117E2,8.263061E0,7.756084E2,6.6754346E2,8.025784E1,1.5095072E1,1.2237707E2,4.3957005E0],"tree_param":{"num_deleted":"0","num_feature":"50","num_nodes":"17","size_leaf_vector":"1"}},{"base_weights":[-8.8800135E-4,-5.172159E-2,3.9787874E-1,3.3663607E-1,7.236575E-1,1.8007383E-1,4.052235E-1,7.4934953E-1,-3.771898E-1,1.1293556E-2,-5.243805E-2,3.1122727E-2,1.7994024E-2,2.772191E-2,4.376411E-2,-4.8743855E-2,1.5649775E-2],"categories":[],"categories_nodes":[],"categories_segments":[],"categories_sizes":[],"default_left":[0,0,0,0,0,0,0,0,0,0,0,0,0,0,0,0,0],"id":54,"left_children":[1,-1,3,5,7,9,11,13,15,-1,-1,-1,-1,-1,-1,-1,-1],"loss_changes":[1.0942407E3,0E0,3.7870544E1,1.7206833E1,8.861511E0,2.7961946E1,1.0724747E1,6.6260223E0,3.4503384E0,0E0,0E0,0E0,0E0,0E0,0E0,0E0,0E0],"parents":[2147483647,0,0,2,2,3,3,4,4,5,5,6,6,7,7,8,8],"right_children":[2,-1,4,6,8,10,12,14,16,-1,-1,-1,-1,-1,-1,-1,-1],"split_conditions":[6.9E1,-5.172159E-2,8.4E1,2.56E1,5.5859227E0,5.7677E0,6.521739E-2,1.1691E0,1.19E-2,1.1293556E-2,-5.243805E-2,3.1122727E-2,1.7994024E-2,2.772191E-2,4.376411E-2,-4.8743855E-2,1.5649775E-2],"split_indices":[33,0,13,34,21,44,24,35,48,0,0,0,0,0,0,0,0],"split_type":[0,0,0,0,0,0,0,0,0,0,0,0,0,0,0,0,0],"sum_hessian":[2.65285E3,7.382008E2,1.9146494E3,1.6136432E3,3.0100616E2,4.931133E2,1.1205299E3,2.9454214E2,6.4640164E0,4.7626117E2,1.6852139E1,1.9092175E2,9.2960815E2,1.1804132E2,1.7650084E2,3.3207302E0,3.1432862E0],"tree_param":{"num_deleted":"0","num_feature":"50","num_nodes":"17","size_leaf_vector":"1"}},{"base_weights":[-4.23339E-4,-5.1628865E-2,3.819207E-1,5.2404493E-1,2.7562815E-1,3.43859E-1,6.140115E-1,3.6413494E-2,3.83718E-1,1.8995175E-2,-8.0429E-2,-7.0498222E-3,3.2294553E-2,1.9776067E-2,-7.456352E-3,1.9900285E-2,-4.760338E-2],"categories":[],"categories_nodes":[],"categories_segments":[],"categories_sizes":[],"default_left":[0,0,0,0,0,0,0,0,0,0,0,0,0,0,0,0,0],"id":55,"left_children":[1,-1,3,5,7,9,11,13,15,-1,-1,-1,-1,-1,-1,-1,-1],"loss_changes":[1.0309801E3,0E0,2.8570862E1,1.2889877E1,2.8206451E1,1.9753223E1,1.3170959E1,2.284243E1,1.4684547E1,0E0,0E0,0E0,0E0,0E0,0E0,0E0,0E0],"parents":[2147483647,0,0,2,2,3,3,4,4,5,5,6,6,7,7,8,8],"right_children":[2,-1,4,6,8,10,12,14,16,-1,-1,-1,-1,-1,-1,-1,-1],"split_conditions":[6.9E1,-5.1628865E-2,2.2988506E-1,1E0,2.56E1,2.2040815E0,1E0,2E1,5.4E1,1.8995175E-2,-8.0429E-2,-7.0498222E-3,3.2294553E-2,1.9776067E-2,-7.456352E-3,1.9900285E-2,-4.760338E-2],"split_indices":[33,0,29,2,34,28,15,0,10,0,0,0,0,0,0,0,0],"split_type":[0,0,0,0,0,0,0,0,0,0,0,0,0,0,0,0,0],"sum_hessian":[2.6103071E3,7.0518677E2,1.9051205E3,8.130786E2,1.0920419E3,2.7274875E2,5.403299E2,3.405748E2,7.5146704E2,2.6864584E2,4.1029058E0,2.1624834E1,5.187051E2,1.1581866E2,2.2475613E2,7.44283E2,7.183996E0],"tree_param":{"num_deleted":"0","num_feature":"50","num_nodes":"17","size_leaf_vector":"1"}},{"base_weights":[5.8404794E-3,-5.153611E-2,3.7937948E-1,3.3421606E-1,7.352755E-1,4.5997068E-1,2.533471E-1,3.9360946E-1,8.5339206E-1,-4.9061574E-2,2.3720145E-2,9.0312905E-4,1.7971886E-2,2.7080147E-2,-7.337559E-2,4.4236816E-2,6.0506267E-3],"categories":[],"categories_nodes":[],"categories_segments":[],"categories_sizes":[],"default_left":[0,0,0,0,0,0,0,0,0,0,0,0,0,0,0,0,0],"id":56,"left_children":[1,-1,3,5,7,9,11,13,15,-1,-1,-1,-1,-1,-1,-1,-1],"loss_changes":[9.817413E2,0E0,2.9608795E1,1.6655136E1,7.966881E0,1.3861877E1,2.5184456E1,1.6049484E1,3.330017E0,0E0,0E0,0E0,0E0,0E0,0E0,0E0,0E0],"parents":[2147483647,0,0,2,2,3,3,4,4,5,5,6,6,7,7,8,8],"right_children":[2,-1,4,6,8,10,12,14,16,-1,-1,-1,-1,-1,-1,-1,-1],"split_conditions":[2E1,-5.153611E-2,9E1,2.2988506E-1,1.33E-2,-1.05334E1,2.56E1,3.174E-1,5.238806E0,-4.9061574E-2,2.3720145E-2,9.0312905E-4,1.7971886E-2,2.7080147E-2,-7.337559E-2,4.4236816E-2,6.0506267E-3],"split_indices":[34,0,13,29,48,46,34,39,19,0,0,0,0,0,0,0,0],"split_type":[0,0,0,0,0,0,0,0,0,0,0,0,0,0,0,0,0],"sum_hessian":[2.5336697E3,6.7063763E2,1.8630321E3,1.6552056E3,2.0782645E2,6.4550073E2,1.0097049E3,5.472035E1,1.5310611E2,5.6670885E0,6.398336E2,3.1444696E2,6.9525793E2,5.139613E1,3.3242183E0,1.4649199E2,6.6141167E0],"tree_param":{"num_deleted":"0","num_feature":"50","num_nodes":"17","size_leaf_vector":"1"}},{"base_weights":[3.7814893E-3,-5.1451087E-2,3.6106545E-1,2.1511054E-1,4.8644003E-1,3.671858E-1,1.4712613E-2,3.5856622E-1,7.292408E-1,2.6674656E-2,9.066083E-3,-2.050132E-2,7.838861E-3,-3.8333822E-2,1.8702699E-2,3.703311E-2,-1.8927703E-2],"categories":[],"categories_nodes":[],"categories_segments":[],"categories_sizes":[],"default_left":[0,0,0,0,0,0,0,0,0,0,0,0,0,0,0,0,0],"id":57,"left_children":[1,-1,3,5,7,9,11,13,15,-1,-1,-1,-1,-1,-1,-1,-1],"loss_changes":[9.158303E2,0E0,3.357216E1,2.5992176E1,3.0394287E1,1.4835609E1,2.236019E1,1.1597763E1,4.625992E0,0E0,0E0,0E0,0E0,0E0,0E0,0E0,0E0],"parents":[2147483647,0,0,2,2,3,3,4,4,5,5,6,6,7,7,8,8],"right_children":[2,-1,4,6,8,10,12,14,16,-1,-1,-1,-1,-1,-1,-1,-1],"split_conditions":[2E1,-5.1451087E-2,1.557E0,-4.4E-3,5.9E1,2.1E1,2.51E1,2.25E1,1.9533565E0,2.6674656E-2,9.066083E-3,-2.050132E-2,7.838861E-3,-3.8333822E-2,1.8702699E-2,3.703311E-2,-1.8927703E-2],"split_indices":[34,0,35,49,13,0,34,34,22,0,0,0,0,0,0,0,0],"split_type":[0,0,0,0,0,0,0,0,0,0,0,0,0,0,0,0,0],"sum_hessian":[2.4800718E3,6.368796E2,1.8431923E3,8.5331647E2,9.8987573E2,4.843945E2,3.68922E2,6.5028455E2,3.3959122E2,2.5437592E2,2.3001857E2,9.181804E1,2.7710394E2,8.082764E0,6.422018E2,3.365431E2,3.048123E0],"tree_param":{"num_deleted":"0","num_feature":"50","num_nodes":"17","size_leaf_vector":"1"}},{"base_weights":[3.4008552E-3,-5.137322E-2,3.4997588E-1,5.641E-1,2.87202E-1,-5.1906265E-2,5.887425E-1,1.8958008E-1,3.910196E-1,3.0712603E-2,-1.1909707E-2,1.4813322E-2,-4.73473E-3,6.669571E-3,2.5415724E-2],"categories":[],"categories_nodes":[],"categories_segments":[],"categories_sizes":[],"default_left":[0,0,0,0,0,0,0,0,0,0,0,0,0,0,0],"id":58,"left_children":[1,-1,3,5,7,-1,9,11,13,-1,-1,-1,-1,-1,-1],"loss_changes":[8.6566895E2,0E0,2.4129593E1,1.6744034E1,1.4105446E1,0E0,8.711182E0,2.208013E1,2.039743E1,0E0,0E0,0E0,0E0,0E0,0E0],"parents":[2147483647,0,0,2,2,3,3,4,4,6,6,7,7,8,8],"right_children":[2,-1,4,6,8,-1,10,12,14,-1,-1,-1,-1,-1,-1],"split_conditions":[6.9E1,-5.137322E-2,-3.2781E0,1E0,1.1807E0,-5.1906265E-2,3.7606838E-1,1.7E1,1.21E2,3.0712603E-2,-1.1909707E-2,1.4813322E-2,-4.73473E-3,6.669571E-3,2.5415724E-2],"split_indices":[33,0,43,27,35,0,30,1,7,0,0,0,0,0,0],"split_type":[0,0,0,0,0,0,0,0,0,0,0,0,0,0,0],"sum_hessian":[2.4211787E3,6.086211E2,1.8125576E3,4.0874252E2,1.4038152E3,5.50687E0,4.0323566E2,7.254491E2,6.78366E2,3.9153558E2,1.1700064E1,5.27712E2,1.9773714E2,2.1316258E2,4.6520346E2],"tree_param":{"num_deleted":"0","num_feature":"50","num_nodes":"15","size_leaf_vector":"1"}},{"base_weights":[-6.6102683E-3,-5.129225E-2,3.2794026E-1,2.3804021E-1,5.4209465E-1,2.5373957E-1,-2.1994593E0,7.8686976E-1,4.396098E-1,1.8575367E-2,4.2129005E-3,-1.6128501E-1,-1.7605063E-2,3.2034577E-3,4.2718682E-2,6.634254E-3,2.7898913E-2],"categories":[],"categories_nodes":[],"categories_segments":[],"categories_sizes":[],"default_left":[0,0,0,0,0,0,0,0,0,0,0,0,0,0,0,0,0],"id":59,"left_children":[1,-1,3,5,7,9,11,13,15,-1,-1,-1,-1,-1,-1,-1,-1],"loss_changes":[8.0022455E2,0E0,3.3805176E1,4.806002E1,1.2606934E1,2.4660248E1,1.3747276E1,7.283165E0,1.3297546E1,0E0,0E0,0E0,0E0,0E0,0E0,0E0,0E0],"parents":[2147483647,0,0,2,2,3,3,4,4,5,5,6,6,7,7,8,8],"right_children":[2,-1,4,6,8,10,12,14,16,-1,-1,-1,-1,-1,-1,-1,-1],"split_conditions":[2E1,-5.129225E-2,6.7E1,7.72E1,-6.252E-1,2.1E1,1E1,1E0,9.391305E0,1.8575367E-2,4.2129005E-3,-1.6128501E-1,-1.7605063E-2,3.2034577E-3,4.2718682E-2,6.634254E-3,2.7898913E-2],"split_indices":[34,0,13,6,45,0,11,2,26,0,0,0,0,0,0,0,0],"split_type":[0,0,0,0,0,0,0,0,0,0,0,0,0,0,0,0,0],"sum_hessian":[2.344608E3,5.789681E2,1.7656398E3,1.2454075E3,5.2023224E2,1.2383684E3,7.0391116E0,1.5127437E2,3.689579E2,7.296052E2,5.0876315E2,4.0107956E0,3.0283163E0,1.3214114E1,1.3806026E2,1.03514565E2,2.6544333E2],"tree_param":{"num_deleted":"0","num_feature":"50","num_nodes":"17","size_leaf_vector":"1"}},{"base_weights":[1.682187E-2,-5.121695E-2,3.3566552E-1,2.4935128E-1,5.5895704E-1,2.659684E-1,-1.5132998E0,3.629968E-1,7.467459E-1,1.0747307E-2,2.8012041E-2,4.2712018E-2,-1.2593812E-1,-6.3479915E-2,1.9656288E-2,3.8437136E-2,-1.8022675E-2],"categories":[],"categories_nodes":[],"categories_segments":[],"categories_sizes":[],"default_left":[0,0,0,0,0,0,0,0,0,0,0,0,0,0,0,0,0],"id":60,"left_children":[1,-1,3,5,7,9,11,13,15,-1,-1,-1,-1,-1,-1,-1,-1],"loss_changes":[7.8022076E2,0E0,3.4461502E1,3.835302E1,1.8037521E1,1.9151154E1,3.144017E1,1.2568321E1,6.5136414E0,0E0,0E0,0E0,0E0,0E0,0E0,0E0,0E0],"parents":[2147483647,0,0,2,2,3,3,4,4,5,5,6,6,7,7,8,8],"right_children":[2,-1,4,6,8,10,12,14,16,-1,-1,-1,-1,-1,-1,-1,-1],"split_conditions":[2E1,-5.121695E-2,6.8E1,7.7E1,1.557E0,3.181818E-1,-4.3417E0,5.8064514E-1,5.9340224E0,1.0747307E-2,2.8012041E-2,4.2712018E-2,-1.2593812E-1,-6.3479915E-2,1.9656288E-2,3.8437136E-2,-1.8022675E-2],"split_indices":[34,0,13,6,35,23,40,31,21,0,0,0,0,0,0,0,0],"split_type":[0,0,0,0,0,0,0,0,0,0,0,0,0,0,0,0,0],"sum_hessian":[2.348464E3,5.499889E2,1.7984752E3,1.2989321E3,4.9954303E2,1.2876985E3,1.123374E1,2.4614885E2,2.533942E2,1.0991868E3,1.8851169E2,3.3638651E0,7.8698745E0,3.6546893E0,2.4249416E2,2.4884634E2,4.5478477E0],"tree_param":{"num_deleted":"0","num_feature":"50","num_nodes":"17","size_leaf_vector":"1"}},{"base_weights":[5.3636422E-3,-1.01478E0,3.1966987E-1,-2.3385331E-1,-1.0283976E0,2.7462235E-1,7.258885E-1,-4.3429207E-2,4.108622E-2,-1.0315027E0,-1.8082056E-2,7.7210285E-2,3.281127E-1,7.7494985E-1,-1.7329264E-1,-5.1147975E-2,-9.2794575E-2,7.1732574E-3,-7.244306E-2,7.233541E-3,2.0235684E-2,2.1135073E-2,4.432233E-2,2.0778706E-2,-5.3227574E-2],"categories":[],"categories_nodes":[],"categories_segments":[],"categories_sizes":[],"default_left":[0,0,0,0,0,0,0,0,0,0,0,0,0,0,0,0,0,0,0,0,0,0,0,0,0],"id":61,"left_children":[1,3,5,7,9,11,13,-1,-1,15,-1,17,19,21,23,-1,-1,-1,-1,-1,-1,-1,-1,-1,-1],"loss_changes":[7.279046E2,5.319214E0,3.1462524E1,7.8097324E0,5.7476807E-1,1.645227E1,7.801491E0,0E0,0E0,1.4898071E0,0E0,3.3968857E1,1.717128E1,5.927658E0,5.5632772E0,0E0,0E0,0E0,0E0,0E0,0E0,0E0,0E0,0E0,0E0],"parents":[2147483647,0,0,1,1,2,2,3,3,4,4,5,5,6,6,9,9,11,11,12,12,13,13,14,14],"right_children":[2,4,6,8,10,12,14,-1,-1,16,-1,18,20,22,24,-1,-1,-1,-1,-1,-1,-1,-1,-1,-1],"split_conditions":[7E1,-1.2704E0,9.1E1,6.8E1,9.3E1,7.568E-1,5.238806E0,-4.3429207E-2,4.108622E-2,6.9E1,-1.8082056E-2,3.48E2,1E0,1.33E-2,6.1904764E-1,-5.1147975E-2,-9.2794575E-2,7.1732574E-3,-7.244306E-2,7.233541E-3,2.0235684E-2,2.1135073E-2,4.432233E-2,2.0778706E-2,-5.3227574E-2],"split_indices":[33,45,13,33,13,35,19,0,0,33,0,7,2,48,31,0,0,0,0,0,0,0,0,0,0],"split_type":[0,0,0,0,0,0,0,0,0,0,0,0,0,0,0,0,0,0,0,0,0,0,0,0,0],"sum_hessian":[2.2683843E3,5.336782E2,1.7347062E3,9.583923E0,5.240943E2,1.56327E3,1.7143614E2,6.154834E0,3.429089E0,5.2097107E2,3.1232448E0,3.341958E2,1.2290742E3,1.6280264E2,8.633507E0,5.179655E2,3.005554E0,3.212214E2,1.2974409E1,3.632845E2,8.6578973E2,4.050966E1,1.22292984E2,5.4524927E0,3.181014E0],"tree_param":{"num_deleted":"0","num_feature":"50","num_nodes":"25","size_leaf_vector":"1"}},{"base_weights":[3.8916583E-3,-5.1081747E-2,3.0175757E-1,2.4755017E-1,6.4470494E-1,1.985671E-1,5.0271976E-1,7.165532E-1,-1.1263534E-1,1.9506646E-2,6.0593877E-3,7.443911E-3,3.3594415E-2,4.1222733E-2,2.165457E-2,-1.0397291E-1,2.0975083E-2],"categories":[],"categories_nodes":[],"categories_segments":[],"categories_sizes":[],"default_left":[0,0,0,0,0,0,0,0,0,0,0,0,0,0,0,0,0],"id":62,"left_children":[1,-1,3,5,7,9,11,13,15,-1,-1,-1,-1,-1,-1,-1,-1],"loss_changes":[6.78387E2,0E0,3.1748718E1,1.8430382E1,1.2876595E1,1.843755E1,1.4105061E1,6.0633774E0,2.3042181E1,0E0,0E0,0E0,0E0,0E0,0E0,0E0,0E0],"parents":[2147483647,0,0,2,2,3,3,4,4,5,5,6,6,7,7,8,8],"right_children":[2,-1,4,6,8,10,12,14,16,-1,-1,-1,-1,-1,-1,-1,-1],"split_conditions":[6.9E1,-5.1081747E-2,8.4E1,8.93E-2,4.8E1,2E1,3.7E1,2.2E1,1.1343E0,1.9506646E-2,6.0593877E-3,7.443911E-3,3.3594415E-2,4.1222733E-2,2.165457E-2,-1.0397291E-1,2.0975083E-2],"split_indices":[33,0,13,48,10,0,13,0,35,0,0,0,0,0,0,0,0],"split_type":[0,0,0,0,0,0,0,0,0,0,0,0,0,0,0,0,0],"sum_hessian":[2.2190283E3,4.98831E2,1.7201974E3,1.4871475E3,2.3305003E2,1.2494664E3,2.3768098E2,2.130263E2,2.0023735E1,3.5795462E2,8.915118E2,7.767764E1,1.6000334E2,1.5265572E2,6.0370586E1,3.6847527E0,1.6338984E1],"tree_param":{"num_deleted":"0","num_feature":"50","num_nodes":"17","size_leaf_vector":"1"}},{"base_weights":[8.430512E-3,-5.1016647E-2,3.0041036E-1,7.92715E-2,3.7663764E-1,1.1091419E-1,-1.5123053E0,2.5319293E-1,5.5061126E-1,1.6899966E-2,-1.978714E-3,2.914149E-2,-1.5117155E-1,1.3579242E-2,-4.0595733E-2,1.07958345E-2,3.1234467E-2],"categories":[],"categories_nodes":[],"categories_segments":[],"categories_sizes":[],"default_left":[0,0,0,0,0,0,0,0,0,0,0,0,0,0,0,0,0],"id":63,"left_children":[1,-1,3,5,7,9,11,13,15,-1,-1,-1,-1,-1,-1,-1,-1],"loss_changes":[6.4877466E2,0E0,2.828807E1,2.183055E1,2.6640121E1,1.4583458E1,2.8746675E1,1.4540596E1,1.2622025E1,0E0,0E0,0E0,0E0,0E0,0E0,0E0,0E0],"parents":[2147483647,0,0,2,2,3,3,4,4,5,5,6,6,7,7,8,8],"right_children":[2,-1,4,6,8,10,12,14,16,-1,-1,-1,-1,-1,-1,-1,-1],"split_conditions":[6.9E1,-5.1016647E-2,1E0,7.9E1,2.5531915E-1,2.0731707E-1,-2.9339E0,2.6E1,7.461E-1,1.6899966E-2,-1.978714E-3,2.914149E-2,-1.5117155E-1,1.3579242E-2,-4.0595733E-2,1.07958345E-2,3.1234467E-2],"split_indices":[33,0,2,33,23,29,47,1,35,0,0,0,0,0,0,0,0],"split_type":[0,0,0,0,0,0,0,0,0,0,0,0,0,0,0,0,0],"sum_hessian":[2.1580786E3,4.764644E2,1.6816141E3,4.319266E2,1.2496875E3,4.244805E2,7.4461026E0,7.3277216E2,5.169154E2,1.6895227E2,2.5552824E2,3.3498116E0,4.096291E0,7.211583E2,1.1613802E1,9.462983E1,4.2228558E2],"tree_param":{"num_deleted":"0","num_feature":"50","num_nodes":"17","size_leaf_vector":"1"}},{"base_weights":[-5.267338E-3,-5.0953556E-2,2.6987204E-1,2.1948385E-1,5.8277655E-1,2.5873765E-1,-2.603589E-1,6.9950825E-1,2.0202246E-1,4.100363E-3,1.8691406E-2,-7.2488263E-3,-1.4597926E-1,-2.5556833E-2,3.6551483E-2,-7.8560755E-2,1.968227E-2],"categories":[],"categories_nodes":[],"categories_segments":[],"categories_sizes":[],"default_left":[0,0,0,0,0,0,0,0,0,0,0,0,0,0,0,0,0],"id":64,"left_children":[1,-1,3,5,7,9,11,13,15,-1,-1,-1,-1,-1,-1,-1,-1],"loss_changes":[5.948737E2,0E0,2.6234695E1,2.731102E1,1.0068306E1,2.7132835E1,3.292361E1,7.1408005E0,1.9523207E1,0E0,0E0,0E0,0E0,0E0,0E0,0E0,0E0],"parents":[2147483647,0,0,2,2,3,3,4,4,5,5,6,6,7,7,8,8],"right_children":[2,-1,4,6,8,10,12,14,16,-1,-1,-1,-1,-1,-1,-1,-1],"split_conditions":[6.9E1,-5.0953556E-2,3.2270917E-1,2.4E1,2.2E1,1.56E2,9E0,7.2E1,6.3492066E-1,4.100363E-3,1.8691406E-2,-7.2488263E-3,-1.4597926E-1,-2.5556833E-2,3.6551483E-2,-7.8560755E-2,1.968227E-2],"split_indices":[33,0,23,1,0,7,15,33,31,0,0,0,0,0,0,0,0],"split_type":[0,0,0,0,0,0,0,0,0,0,0,0,0,0,0,0,0],"sum_hessian":[2.1303882E3,4.542557E2,1.6761326E3,1.4453961E3,2.3073651E2,1.3367146E3,1.0868152E2,1.75754E2,5.4982517E1,5.2820135E2,8.0851324E2,1.05208694E2,3.4728243E0,3.993341E0,1.7176065E2,4.6091404E0,5.037338E1],"tree_param":{"num_deleted":"0","num_feature":"50","num_nodes":"17","size_leaf_vector":"1"}},{"base_weights":[3.8352339E-3,-5.0895955E-2,2.6992655E-1,2.0148261E-1,4.7187424E-1,2.1572012E-1,-9.943807E-1,2.2309266E-1,7.551491E-1,4.4941674E-3,1.6545638E-2,-1.7021134E-1,-0E0,-1.1450408E-1,1.3642058E-2,2.8232718E-2,4.3052267E-2],"categories":[],"categories_nodes":[],"categories_segments":[],"categories_sizes":[],"default_left":[0,0,0,0,0,0,0,0,0,0,0,0,0,0,0,0,0],"id":65,"left_children":[1,-1,3,5,7,9,11,13,15,-1,-1,-1,-1,-1,-1,-1,-1],"loss_changes":[5.69108E2,0E0,2.2796364E1,2.12947E1,2.9285873E1,1.774261E1,3.5170708E1,2.8537668E1,3.3143616E0,0E0,0E0,0E0,0E0,0E0,0E0,0E0,0E0],"parents":[2147483647,0,0,2,2,3,3,4,4,5,5,6,6,7,7,8,8],"right_children":[2,-1,4,6,8,10,12,14,16,-1,-1,-1,-1,-1,-1,-1,-1],"split_conditions":[6.9E1,-5.0895955E-2,1.915493E-1,6.1E1,5E0,1.557E0,7E0,-7.219E-1,1.1343E0,4.4941674E-3,1.6545638E-2,-1.7021134E-1,-0E0,-1.1450408E-1,1.3642058E-2,2.8232718E-2,4.3052267E-2],"split_indices":[33,0,32,9,2,35,15,39,35,0,0,0,0,0,0,0,0],"split_type":[0,0,0,0,0,0,0,0,0,0,0,0,0,0,0,0,0],"sum_hessian":[2.091497E3,4.3147824E2,1.6600188E3,1.2416819E3,4.183369E2,1.2279655E3,1.3716483E1,2.2386855E2,1.9446837E2,5.881343E2,6.398312E2,3.2905595E0,1.0425923E1,3.432329E0,2.2043622E2,7.208047E1,1.223879E2],"tree_param":{"num_deleted":"0","num_feature":"50","num_nodes":"17","size_leaf_vector":"1"}},{"base_weights":[-0E0,-9.4851184E-1,1.0502362E-1,-9.8932683E-1,-1.9426546E-1,-1.4342833E-1,2.9220474E-1,-7.08631E-1,-5.0838828E-2,-4.24625E-2,2.6134089E-2,-5.040674E-1,-6.8026274E-2,1.8509883E-1,6.3870925E-1,-4.7725514E-2,2.2876304E-2,-1.366962E-2,-8.378671E-2,3.5787479E-3,-1.47848725E-2,-2.1400023E-3,1.7143143E-2,3.808829E-2,1.5985837E-2],"categories":[],"categories_nodes":[],"categories_segments":[],"categories_sizes":[],"default_left":[0,0,0,0,0,0,0,0,0,0,0,0,0,0,0,0,0,0,0,0,0,0,0,0,0],"id":66,"left_children":[1,3,5,7,9,11,13,15,-1,-1,-1,17,19,21,23,-1,-1,-1,-1,-1,-1,-1,-1,-1,-1],"loss_changes":[2.0261015E2,5.9314117E0,8.51822E1,5.8618164E-1,6.0078716E0,2.13076E1,3.856363E1,6.4293003E0,0E0,0E0,0E0,3.602181E1,2.0773878E1,2.8790213E1,9.30471E0,0E0,0E0,0E0,0E0,0E0,0E0,0E0,0E0,0E0,0E0],"parents":[2147483647,0,0,1,1,2,2,3,3,4,4,5,5,6,6,7,7,11,11,12,12,13,13,14,14],"right_children":[2,4,6,8,10,12,14,16,-1,-1,-1,18,20,22,24,-1,-1,-1,-1,-1,-1,-1,-1,-1,-1],"split_conditions":[1.8E1,6E0,3.7E1,3.857143E0,1.1E1,6.335E-1,2.1052632E-1,1.5E1,-5.0838828E-2,-4.24625E-2,2.6134089E-2,5.507E-1,2.1E1,1.1343E0,2.3E1,-4.7725514E-2,2.2876304E-2,-1.366962E-2,-8.378671E-2,3.5787479E-3,-1.47848725E-2,-2.1400023E-3,1.7143143E-2,3.808829E-2,1.5985837E-2],"split_indices":[0,17,13,26,14,35,32,1,0,0,0,35,0,35,1,0,0,0,0,0,0,0,0,0,0],"split_type":[0,0,0,0,0,0,0,0,0,0,0,0,0,0,0,0,0,0,0,0,0,0,0,0,0],"sum_hessian":[2.0311998E3,2.0176273E2,1.8294371E3,1.9098366E2,1.0779073E1,7.859363E2,1.0435009E3,1.972615E1,1.712575E2,5.6094065E0,5.1696663E0,1.3469495E2,6.5124133E2,7.9850323E2,2.4499765E2,1.6511925E1,3.2142267E0,1.1364037E2,2.105457E1,4.038555E2,2.4738583E2,3.2668436E2,4.7181885E2,1.7556798E2,6.942967E1],"tree_param":{"num_deleted":"0","num_feature":"50","num_nodes":"25","size_leaf_vector":"1"}},{"base_weights":[9.0960525E-3,-5.0811738E-2,2.6544026E-1,2.4000171E-1,8.4179157E-1,3.476349E-1,1.2147761E-1,-5.5592726E-3,8.934313E-1,2.0751765E-2,3.1234578E-3,-1.14664994E-1,6.783391E-3,3.1630244E-2,4.9222853E-2],"categories":[],"categories_nodes":[],"categories_segments":[],"categories_sizes":[],"default_left":[0,0,0,0,0,0,0,0,0,0,0,0,0,0,0],"id":67,"left_children":[1,-1,3,5,7,9,11,-1,13,-1,-1,-1,-1,-1,-1],"loss_changes":[5.311753E2,0E0,2.339756E1,1.9687164E1,3.5135078E0,1.5522736E1,2.5444164E1,0E0,7.4720764E-1,0E0,0E0,0E0,0E0,0E0,0E0],"parents":[2147483647,0,0,2,2,3,3,4,4,5,5,6,6,8,8],"right_children":[2,-1,4,6,8,10,12,-1,14,-1,-1,-1,-1,-1,-1],"split_conditions":[6.9E1,-5.0811738E-2,1.06E2,2.1E1,7.6E-3,1.547619E-1,-1.296E-1,-5.5592726E-3,1E0,2.0751765E-2,3.1234578E-3,-1.14664994E-1,6.783391E-3,3.1630244E-2,4.9222853E-2],"split_indices":[33,0,13,0,41,24,41,0,35,0,0,0,0,0,0],"split_type":[0,0,0,0,0,0,0,0,0,0,0,0,0,0,0],"sum_hessian":[2.0191853E3,4.0318063E2,1.6160046E3,1.5492166E3,6.678816E1,8.104553E2,7.387612E2,3.2742586E0,6.3513905E1,6.548678E2,1.555875E2,3.3364232E0,7.354248E2,1.8772188E1,4.474172E1],"tree_param":{"num_deleted":"0","num_feature":"50","num_nodes":"15","size_leaf_vector":"1"}},{"base_weights":[1.3764434E-2,-5.0757658E-2,2.5654557E-1,2.1693482E-1,6.410456E-1,3.904117E-1,1.5608111E-1,7.043631E-1,-6.370438E-1,2.128391E-2,-5.638016E-2,6.2174853E-3,3.021287E-2,4.2955454E-2,1.861894E-2,-8.487399E-2,2.787872E-2],"categories":[],"categories_nodes":[],"categories_segments":[],"categories_sizes":[],"default_left":[0,0,0,0,0,0,0,0,0,0,0,0,0,0,0,0,0],"id":68,"left_children":[1,-1,3,5,7,9,11,13,15,-1,-1,-1,-1,-1,-1,-1,-1],"loss_changes":[5.0145117E2,0E0,2.4515915E1,1.5449982E1,1.2672836E1,2.0850292E1,1.5405165E1,6.97493E0,1.0658777E1,0E0,0E0,0E0,0E0,0E0,0E0,0E0,0E0],"parents":[2147483647,0,0,2,2,3,3,4,4,5,5,6,6,7,7,8,8],"right_children":[2,-1,4,6,8,10,12,14,16,-1,-1,-1,-1,-1,-1,-1,-1],"split_conditions":[6.9E1,-5.0757658E-2,9.1E1,2E1,5.238806E0,8.8235295E-1,1E1,2.2E1,6.96E-2,2.128391E-2,-5.638016E-2,6.2174853E-3,3.021287E-2,4.2955454E-2,1.861894E-2,-8.487399E-2,2.787872E-2],"split_indices":[33,0,13,0,19,31,15,0,45,0,0,0,0,0,0,0,0],"split_type":[0,0,0,0,0,0,0,0,0,0,0,0,0,0,0,0,0],"sum_hessian":[2.0056575E3,3.8221585E2,1.6234415E3,1.4734706E3,1.49971E2,3.8081494E2,1.0926556E3,1.4339427E2,6.5767245E0,3.7293634E2,7.878594E0,1.02181085E3,7.08448E1,9.651654E1,4.687773E1,3.3053808E0,3.2713435E0],"tree_param":{"num_deleted":"0","num_feature":"50","num_nodes":"17","size_leaf_vector":"1"}},{"base_weights":[9.730379E-3,-5.0703403E-2,2.4206768E-1,4.0146622E-1,1.5347186E-1,2.139202E-1,5.5147576E-1,-8.900767E-2,1.6151373E-1,1.2134305E-2,-8.017371E-2,4.2197447E-2,2.3044957E-2,6.3587897E-3,2.90202E-2],"categories":[],"categories_nodes":[],"categories_segments":[],"categories_sizes":[],"default_left":[0,0,0,0,0,0,0,0,0,0,0,0,0,0,0],"id":69,"left_children":[1,-1,3,5,7,9,11,-1,13,-1,-1,-1,-1,-1,-1],"loss_changes":[4.6928503E2,0E0,2.2595268E1,1.5941261E1,1.6231594E1,1.3678859E1,7.8975754E0,0E0,1.4705746E1,0E0,0E0,0E0,0E0,0E0,0E0],"parents":[2147483647,0,0,2,2,3,3,4,4,5,5,6,6,8,8],"right_children":[2,-1,4,6,8,10,12,-1,14,-1,-1,-1,-1,-1,-1],"split_conditions":[2E1,-5.0703403E-2,2.247191E-1,4.5E1,1E0,3.3E1,-3.9809E0,-8.900767E-2,2.4545455E0,1.2134305E-2,-8.017371E-2,4.2197447E-2,2.3044957E-2,6.3587897E-3,2.90202E-2],"split_indices":[34,0,29,13,6,8,47,0,20,0,0,0,0,0,0],"split_type":[0,0,0,0,0,0,0,0,0,0,0,0,0,0,0],"sum_hessian":[1.9711847E3,3.6389218E2,1.6072925E3,5.725393E2,1.0347532E3,2.558106E2,3.1672873E2,3.3215E0,1.0314316E3,2.5273181E2,3.0787752E0,7.266642E1,2.440623E2,9.5471277E2,7.671892E1],"tree_param":{"num_deleted":"0","num_feature":"50","num_nodes":"15","size_leaf_vector":"1"}},{"base_weights":[-6.3757395E-4,-5.0653633E-2,2.2014602E-1,-4.7145676E-2,2.7924123E-1,4.2924237E-2,-1.2331294E0,2.3175704E-1,6.7498744E-1,9.372757E-3,-2.1136707E-2,-3.4085398E-3,-1.8620925E-1,1.7082756E-2,5.2809548E-3,4.0689953E-2,1.2183038E-2],"categories":[],"categories_nodes":[],"categories_segments":[],"categories_sizes":[],"default_left":[0,0,0,0,0,0,0,0,0,0,0,0,0,0,0,0,0],"id":70,"left_children":[1,-1,3,5,7,9,11,13,15,-1,-1,-1,-1,-1,-1,-1,-1],"loss_changes":[4.3112372E2,0E0,2.5041626E1,3.0848238E1,2.4123306E1,1.807862E1,5.8515175E1,1.599511E1,7.969719E0,0E0,0E0,0E0,0E0,0E0,0E0,0E0,0E0],"parents":[2147483647,0,0,2,2,3,3,4,4,5,5,6,6,7,7,8,8],"right_children":[2,-1,4,6,8,10,12,14,16,-1,-1,-1,-1,-1,-1,-1,-1],"split_conditions":[6.9E1,-5.0653633E-2,7.461E-1,1.6950672E0,8.8E1,1.7E1,6.1904764E-1,2.1E1,2.2E1,9.372757E-3,-2.1136707E-2,-3.4085398E-3,-1.8620925E-1,1.7082756E-2,5.2809548E-3,4.0689953E-2,1.2183038E-2],"split_indices":[33,0,35,28,13,1,31,0,0,0,0,0,0,0,0,0,0],"split_type":[0,0,0,0,0,0,0,0,0,0,0,0,0,0,0,0,0],"sum_hessian":[1.926362E3,3.4431598E2,1.5820461E3,2.861735E2,1.2958727E3,2.6679144E2,1.9382072E1,1.1586846E3,1.3718811E2,2.0421838E2,6.2573048E1,1.3933493E1,5.44858E0,6.178657E2,5.408188E2,1.0294068E2,3.424742E1],"tree_param":{"num_deleted":"0","num_feature":"50","num_nodes":"17","size_leaf_vector":"1"}},{"base_weights":[3.1074735E-3,-5.0605595E-2,2.1788743E-1,3.575357E-1,1.1441018E-1,-7.481022E-2,3.7090808E-1,-1.2255885E-1,1.9460869E-1,8.6353645E-3,2.2136906E-2,-2.5256784E-3,-1.543021E-1,8.039374E-3,3.8777154E-2],"categories":[],"categories_nodes":[],"categories_segments":[],"categories_sizes":[],"default_left":[0,0,0,0,0,0,0,0,0,0,0,0,0,0,0],"id":71,"left_children":[1,-1,3,5,7,-1,9,11,13,-1,-1,-1,-1,-1,-1],"loss_changes":[4.134335E2,0E0,2.2531776E1,1.6935677E1,1.7154087E1,0E0,9.278717E0,4.8235806E1,1.302186E1,0E0,0E0,0E0,0E0,0E0,0E0],"parents":[2147483647,0,0,2,2,3,3,4,4,6,6,7,7,8,8],"right_children":[2,-1,4,6,8,-1,10,12,14,-1,-1,-1,-1,-1,-1],"split_conditions":[2E1,-5.0605595E-2,-1.797E-1,-1.056E-1,7.461E-1,-7.481022E-2,1E0,4.69E-2,2.99E1,8.6353645E-3,2.2136906E-2,-2.5256784E-3,-1.543021E-1,8.039374E-3,3.8777154E-2],"split_indices":[34,0,45,42,35,0,2,49,34,0,0,0,0,0,0],"split_type":[0,0,0,0,0,0,0,0,0,0,0,0,0,0,0],"sum_hessian":[1.8944125E3,3.3006885E2,1.5643436E3,6.643479E2,8.999957E2,3.910358E0,6.604375E2,2.2712271E2,6.72873E2,1.769568E2,4.834807E2,2.2275803E2,4.364684E0,6.3722363E2,3.564938E1],"tree_param":{"num_deleted":"0","num_feature":"50","num_nodes":"15","size_leaf_vector":"1"}},{"base_weights":[2.775281E-2,-5.056094E-2,2.362949E-1,1.9170283E-1,5.7844967E-1,2.2841126E-1,-4.5806938E-1,-3.9671462E-2,6.129585E-1,1.1909526E-2,-7.5063385E-2,-9.542273E-2,-1.0038706E-2,4.644298E-3,3.4245666E-2],"categories":[],"categories_nodes":[],"categories_segments":[],"categories_sizes":[],"default_left":[0,0,0,0,0,0,0,0,0,0,0,0,0,0,0],"id":72,"left_children":[1,-1,3,5,7,9,11,-1,13,-1,-1,-1,-1,-1,-1],"loss_changes":[4.0806796E2,0E0,2.3747917E1,3.3228313E1,8.995968E0,2.2494347E1,2.7206703E1,0E0,6.4577255E0,0E0,0E0,0E0,0E0,0E0,0E0],"parents":[2147483647,0,0,2,2,3,3,4,4,5,5,6,6,8,8],"right_children":[2,-1,4,6,8,10,12,-1,14,-1,-1,-1,-1,-1,-1],"split_conditions":[6.9E1,-5.056094E-2,2.3397437E-1,2.5E1,5.253623E-1,6.363636E-1,2.6530612E-1,-3.9671462E-2,2.488263E-1,1.1909526E-2,-7.5063385E-2,-9.542273E-2,-1.0038706E-2,4.644298E-3,3.4245666E-2],"split_indices":[33,0,32,1,31,30,30,0,30,0,0,0,0,0,0],"split_type":[0,0,0,0,0,0,0,0,0,0,0,0,0,0,0],"sum_hessian":[1.8816226E3,3.1382004E2,1.5678025E3,1.3886732E3,1.7912932E2,1.3151757E3,7.349756E1,3.784609E0,1.7534471E2,1.3086967E3,6.4789987E0,1.0048376E1,6.3449184E1,2.1758677E1,1.5358603E2],"tree_param":{"num_deleted":"0","num_feature":"50","num_nodes":"15","size_leaf_vector":"1"}},{"base_weights":[9.456438E-3,-5.051608E-2,2.0809872E-1,1.2844259E-1,3.8236696E-1,7.9428576E-2,4.3987325E-1,-1.2072933E0,4.2913756E-1,5.062941E-3,-1.9531947E-1,-2.0557335E-2,2.8109768E-2,4.4091595E-3,-1.4599153E-1,1.3724958E-2,3.2130953E-2],"categories":[],"categories_nodes":[],"categories_segments":[],"categories_sizes":[],"default_left":[0,0,0,0,0,0,0,0,0,0,0,0,0,0,0,0,0],"id":73,"left_children":[1,-1,3,5,7,9,11,13,15,-1,-1,-1,-1,-1,-1,-1,-1],"loss_changes":[3.7292026E2,0E0,2.1293709E1,1.60875E1,3.631891E1,7.980613E1,1.5193764E1,3.15856E1,